{
  "layers": [
    {
      "activation": 2,
      "biases": [
        0.0,
        0.09249857569056244,
        -1.0389371529231844e-07,
        0.0,
        -0.1548516570802359,
        -0.06262944472988627,
        0.33213700722450407,
        0.163467704366377,
        0.0,
        -1.8397545328946346e-07,
        -0.0007520548938398256,
        0.0002698702697897707,
        0.10289874388052159,
        0.07073140864657411,
        -1.5034196109715974e-07,
        0.0,
        -2.2609112707551332e-07,
        0.0,
        -0.006268822108897548,
        0.0,
        -4.023546715460865e-08,
        3.816081996435313e-05,
        0.0,
        0.4005992274083256,
        0.0,
        0.0,
        0.002999575138897912,
        0.0011672853109611974,
        9.412412458396479e-05,
        0.0,
        0.0,
        0.2886486581056919,
        0.16995409844331721,
        0.0002907571676605626,
        0.0,
        0.0,
        -4.896254900503591e-07,
        0.01749322045448117,
        0.11212719223043775,
        0.0,
        -0.006346156033880808,
        0.21967950228374059,
        0.29577694458126513,
        -3.7809234164716344e-07,
        -0.02025826441077708,
        0.0,
        0.06016289986159528,
        0.22828726213920347,
        0.0,
        0.5912170421570861,
        0.6890797614197695,
        0.00014692402580806894,
        0.4788840514441961,
        -0.003347469851128075,
        -0.00040545376258126,
        0.16905611591019756,
        0.0,
        0.030517948054998547,
        0.4476247926954559,
        -4.536216612835938e-06,
        0.08796479461687218,
        0.0,
        -0.003812301822111516,
        -3.8218788250093645e-07,
        0.07965723026632866,
        0.19709163134936886,
        0.0,
        6.250212969792083e-06,
        0.08612990090894093,
        0.09150539919445803
      ],
      "cols": 70,
      "rows": 2,
      "weights": [
        [
          -0.2509224461343516,
          -0.42201338610683825,
          0.3985791774953694,
          -0.27826247423918454,
          0.15492411125105146,
          0.09972425775556809,
          -0.5308076268695738,
          0.5088231314742726,
          -0.0022449381612459195,
          0.3555578983880053,
          -0.10020324255292126,
          0.05176918934832551,
          0.4154466882637009,
          0.3472122864861054,
          0.6182118909076741,
          -0.1191074490186716,
          -0.4892409327598786,
          -0.056649697417279134,
          0.00625890249628525,
          -0.03579755733837155,
          0.013537366368041613,
          -0.4330375237217686,
          -0.2558284353396761,
          0.05449631847909075,
          -0.1306873145694746,
          -0.2049465842941578,
          0.3663117284464139,
          0.441119558168725,
          0.11465736589356862,
          -0.04143016789025199,
          -0.22463722497443078,
          0.28372389645542473,
          -0.6271355860010039,
          0.6649864909921306,
          -0.22601481175739022,
          -0.008076050640555905,
          0.42481069575565444,
          -0.26801205578718323,
          0.41320649265725634,
          -0.08750350386669353,
          -0.047645156832748795,
          -0.29213498147503536,
          0.11746007524025288,
          0.45608985625352644,
          -0.07421627233075953,
          -0.1282108367547128,
          -0.08709174046371634,
          0.148666533909228,
          -0.2040546784722628,
          0.021870214813292314,
          -0.10971455856177352,
          -0.09330759789249568,
          -0.15908807382983692,
          0.003337526719488712,
          0.494367293055765,
          0.3170214378999691,
          -0.08830072513651367,
          0.20584989522416597,
          0.2845464267379845,
          0.5794308675153733,
          0.38663094428488887,
          -0.2844810923833727,
          -0.10810459400597963,
          -0.22609163422783196,
          -0.6543409364432252,
          0.343241152010498,
          -0.146582996983061,
          0.692680024519158,
          -0.09384894404581841,
          -0.6702552517984159
        ],
        [
          -0.28718601902142266,
          0.32616114807586816,
          -0.39857906516344604,
          -0.22022410200644327,
          0.15485180356807185,
          -0.08858202978406561,
          0.20424660193801378,
          -0.2608173553555658,
          -0.20290817873440034,
          -0.35554212581809413,
          0.0006802625923462459,
          0.41128963849466205,
          0.30030003687378715,
          0.11198548513606027,
          -0.6182114303385713,
          -0.165512376381085,
          0.48924137780439403,
          -0.06087059851727169,
          -0.17938709485723592,
          -0.05056569042076385,
          0.4341876233667189,
          0.4330226332229299,
          -0.18105809879271637,
          -0.12305459631719648,
          -0.22127197182332797,
          -0.06553624660301832,
          -0.17882157904418136,
          -0.44110759527590626,
          0.5526665673898322,
          -0.03240708877674729,
          -0.18442991429540695,
          -0.5701547250352318,
          0.4571813610453466,
          -0.016315695035376887,
          -0.2435202079095554,
          -0.056869856261001946,
          -0.37160905336771954,
          0.12486751140279446,
          0.16873100587194223,
          -0.16025386154140756,
          0.006326321967963126,
          0.46630524024636505,
          -0.2771797465726487,
          0.2064422084892747,
          0.10913602842881366,
          -0.1683287207746522,
          0.6048324383413185,
          -0.1866360769035706,
          -0.08638209694390314,
          -0.031207328942349826,
          -0.23692629835420784,
          0.43757258461868986,
          0.3028281426902631,
          -0.22856848303356564,
          0.11764236753736443,
          -0.4761397617848851,
          -0.2800955520472484,
          -0.2363678327918167,
          -0.20555485200246526,
          0.39104321996250807,
          0.3581202710005553,
          -0.23614052805399496,
          0.0037366741716948803,
          0.4534956613636988,
          0.5746831524174445,
          -0.3794836337033489,
          -0.06683166217292955,
          -0.38483952910430136,
          0.4514912064137338,
          0.5787489382214959
        ]
      ]
    },
    {
      "activation": 2,
      "biases": [
        -0.03731772952830646,
        0.08395995383576153,
        0.09404168168083744,
        -0.017148275298748444,
        0.19153065051372464,
        0.2953811574785156,
        0.0,
        0.17626096704206476,
        -0.04601357605750794,
        -0.00271230225716633,
        0.21383009727549623,
        -0.019836141856361646,
        0.06467874309463352,
        -0.04964222906915148,
        -0.027121654173641443,
        0.034511539251613696,
        0.2840038512558858,
        -0.028709798462922747,
        -0.11427739164202748,
        -0.0004765642533836058,
        0.03706326617161896,
        0.15343958010637748,
        -0.06028321453214524,
        0.3142520378082708,
        0.04757463332042374,
        0.005663621081843968,
        0.033590620272920944,
        0.19946078598719502,
        0.0991662936194973,
        -0.05201263783744016,
        -0.04174034206069187,
        -0.062046457755883515,
        0.09561029132464986,
        -0.01609311761648476,
        0.033419882708670606,
        0.03463457266007281,
        -0.05552281696262313,
        0.08262184185313355,
        -0.04918576833431769,
        -0.06281876018165562,
        -0.04390643881398951,
        0.013989912967642399,
        -0.006539420021971334,
        0.00634782316779978,
        0.1356910378980507,
        0.3183339448211648,
        0.36850440318179734,
        0.2081137733950493,
        0.13094262423487638,
        0.40783690507078646,
        0.19167044607405054,
        0.06688914751345405,
        -0.04856446987113018,
        0.0,
        0.037308407624165346,
        0.26194395306266455,
        0.3173056664036065,
        -0.01431521746803543,
        0.025983463682506442,
        0.05910790007746578,
        0.1191689748171494,
        -0.07129874155737673,
        0.0,
        0.01662583622120823,
        0.10816425648032238,
        0.013972475413566577,
        0.29088782821313686,
        0.31887128870970394,
        -0.0008567719307008314,
        0.3771066477302517
      ],
      "cols": 70,
      "rows": 70,
      "weights": [
        [
          -0.06497140529636555,
          -0.17332061161755816,
          0.10726264478893761,
          -0.11967219534158023,
          -0.11345025846201565,
          0.009656213409023187,
          -0.1629337691932269,
          0.0363971588075883,
          -0.058248510167677875,
          0.13335914380287212,
          -0.15943348098775748,
          -0.14810169122676398,
          -0.007807346056462327,
          -0.00866936034527479,
          0.1402634323435859,
          0.19742157159531243,
          0.1693977976316262,
          0.03652455683746828,
          0.04533467996430596,
          0.08122315793145309,
          -0.15328384219275257,
          0.028532781025263843,
          -0.19457392617692815,
          -0.17567630534365652,
          -0.16424937700569706,
          -0.177703691236278,
          -0.17843578487266354,
          0.046298191250213845,
          -0.15076048564827693,
          -0.11107782045279803,
          -0.18009850913370856,
          0.18877477690306443,
          0.15590250447360626,
          0.06749050978354604,
          -0.157619527008881,
          0.1864434601092284,
          0.07663908174819586,
          0.15789390443451612,
          0.0636077571799063,
          -0.033874724049905436,
          0.08660182956145737,
          0.0064758336139753335,
          -0.08482697411123513,
          0.059477281653984075,
          0.11397499267928614,
          0.00352209749589675,
          -0.05572626589846003,
          -0.19605325843948104,
          -0.19711851061712837,
          -0.003223704449116184,
          -0.0012088638028935842,
          0.1351912238774476,
          -0.054449533349823775,
          -0.08433700828047723,
          -0.0591046430287317,
          0.16451403971241813,
          0.01592955421784085,
          -0.20143192042938082,
          -0.07224528811732896,
          -0.188476167917943,
          0.03515712093114687,
          -0.10982900429719418,
          0.20080656241568096,
          0.14607672191553983,
          0.1471917349630284,
          0.003010132368251708,
          0.06669423387378164,
          -0.13044260055758916,
          -0.16481599497061544,
          -0.2024137909087147
        ],
        [
          -0.05817024250328417,
          0.13217297437675524,
          0.04780164208818148,
          0.07307348663980413,
          -0.13844325393580312,
          0.023367393630229206,
          0.028306863633767932,
          0.22491190268890274,
          -0.19372101696682084,
          0.17220385701446228,
          -0.008147179821063694,
          0.018913391984325054,
          0.07561912741001481,
          0.030191642783952557,
          -0.16621336734466702,
          -0.0675234747288254,
          0.2018388669446251,
          -0.1521079354971361,
          0.05596499004184506,
          0.02992586288720461,
          -0.06711737124091773,
          0.12004213535802012,
          -0.1435134824747279,
          -0.121390167888193,
          -0.10622678204971256,
          -0.19268105564040655,
          -0.11076582518209682,
          0.20744196554248973,
          0.10355457322489538,
          0.0201631317771078,
          0.06896741443226083,
          0.008169752415800455,
          -0.269088226429914,
          -0.1589927906870819,
          -0.14356444920902528,
          0.16381801637209797,
          -0.01719658712426116,
          0.2643890729471197,
          -0.006068106725925267,
          0.01751624217703431,
          0.2841024233175618,
          -0.0037786153679052943,
          -0.14946027215957006,
          0.14372775358927728,
          -0.14795136884136567,
          0.034813338057658454,
          -0.03235012653118817,
          -0.1274332289407119,
          0.18919470562680074,
          0.0576062898037766,
          -0.055150460341037336,
          -0.08711989049260925,
          -0.13561407191250416,
          -0.19545239265369332,
          -0.02216401944493728,
          0.05589158318084522,
          -0.14854602523634924,
          0.12915973955999174,
          0.12744930290677658,
          0.14729869478154886,
          0.0666719255431346,
          -0.1109664750319152,
          0.12127000063246014,
          -0.15201748202936594,
          -0.01618249051644148,
          0.06805089745108209,
          0.15153989629128373,
          0.0987134903287454,
          -0.13921066558316825,
          0.2473932515507501
        ],
        [
          0.1088627052034711,
          0.12822949399859396,
          0.2918846983159172,
          0.07656721877564698,
          0.08606382127322144,
          -0.16186759293415703,
          0.02226048211894112,
          0.07754106362449598,
          0.12827517060981242,
          0.1357025485165493,
          -0.2419057804717479,
          -0.1970666456897798,
          0.3140277769298126,
          -0.18391969861822063,
          -0.147773432507243,
          -0.07026210528649911,
          0.08868047546531248,
          -0.20300192844537995,
          0.22356377180986303,
          -0.0938152153281922,
          -0.08898681184900971,
          0.0232745979845581,
          -0.03746458560000992,
          -0.15034315929706607,
          0.21839451585054298,
          -0.046685517050247594,
          0.180002424159067,
          -0.15863398683075558,
          0.0053083051446138445,
          0.14145693257903863,
          0.06638305432766767,
          -0.10536065250424768,
          0.08141383733194854,
          -0.0056555505663574744,
          0.133186033489565,
          0.14512154239421612,
          -0.00868489909792482,
          -0.0236864770805786,
          -0.008981395682346915,
          0.054540662635793456,
          0.15337113206821615,
          0.0783340281707294,
          -0.20219439889437424,
          -0.06046932147956047,
          -0.03891277705283567,
          -0.14488219644331976,
          -0.12402232874515444,
          -0.23164446949818693,
          0.0738520253021548,
          -0.1870240220306784,
          -0.06420259239725991,
          0.1525815855184251,
          0.023258081759031584,
          0.019725362718948255,
          0.032159408198321054,
          -0.10679827886859135,
          -0.2298036171222771,
          0.19649320646102772,
          -0.027393537525573858,
          -0.004125587390883916,
          -0.18302644438061136,
          -0.05734606698775624,
          -0.13074855568794777,
          0.03187110734334997,
          0.18790293972119326,
          0.11055476238125773,
          -0.10101445600570323,
          -0.14605832326427143,
          -0.18479247906830656,
          -0.08686979878719087
        ],
        [
          0.0329993441418007,
          -0.14764533851239478,
          0.11633196159840845,
          0.18244807348856046,
          -0.14782059117785107,
          0.02808389052299005,
          -0.15963641424929004,
          0.1136259939039056,
          -0.05899990078685562,
          -0.1899669325732307,
          0.0032961149372943677,
          -0.05409501387939517,
          -0.13318346292397365,
          0.16350571832873875,
          0.08589319242015599,
          -0.022911214815719578,
          -0.041616123983067604,
          0.1485510955466079,
          0.19698329851133858,
          -0.09053403551560459,
          -0.0857319622507129,
          0.2062888817500958,
          0.08653927646573993,
          -0.11668433248234493,
          -0.19169375273231823,
          -0.035394314160080376,
          0.02296874695940655,
          -0.07264077166943565,
          0.173068049170012,
          -0.15583691513057382,
          -0.19257323971054632,
          -0.0975972055106998,
          -0.04165819571275334,
          0.17620882047487735,
          -0.115948848614007,
          -0.08364835989586732,
          -0.0029593276678947233,
          0.09791206983283998,
          0.17404026277105886,
          -0.08215238110085485,
          -0.1905432916709495,
          -0.062104127419552214,
          0.08831813834339454,
          0.1586828043147194,
          -0.13679097203498952,
          -0.17449570179632304,
          0.16373573469267025,
          0.07521584081931058,
          -0.03032155755759996,
          0.13763584004832483,
          0.16933525745364877,
          -0.1109860744214096,
          -0.20496808351255794,
          -0.12133660257206981,
          0.13018544074420446,
          -0.11011293410238353,
          -0.006984238843828656,
          0.08424662304624074,
          -0.11436186588285087,
          0.17582407291435598,
          0.09799205416552378,
          0.15389725496015796,
          -0.18422138941409325,
          0.03481835242746929,
          -0.08967569217858772,
          0.10385709991614941,
          -0.16576943832418023,
          0.07219872834058978,
          -0.08651759722032236,
          -0.062485348822647654
        ],
        [
          -0.19152488896284922,
          -0.14532903021422366,
          0.049584266480417416,
          0.026136498408423442,
          -0.182216433076355,
          -0.024449797953754713,
          -0.03431956474427662,
          0.1414084228799696,
          0.011385558480817314,
          -0.11691890495246768,
          -0.036576609357985845,
          0.10148403382423515,
          -0.16461702757736363,
          0.053799964568946895,
          -0.11980192742491269,
          0.0222414346351911,
          -0.16386228443914547,
          0.040370206481872756,
          0.019712130286436657,
          -0.010976560875274408,
          -0.04102267551107701,
          -0.06767473023886521,
          -0.05861304700548541,
          0.22492066001186406,
          -0.16811717291590064,
          0.10057608230830832,
          0.1626164133951773,
          0.16046141933244182,
          0.1016760214286508,
          0.060295050048719045,
          -0.005917549075570089,
          0.10181426666591276,
          -0.02758673665409103,
          -0.0832792457150114,
          0.11970005446881433,
          0.18663229825048167,
          -0.05755147200813617,
          -0.20121705879263632,
          -0.09862415863945652,
          0.07966333196401085,
          0.12921767993680697,
          0.0068129591512271345,
          0.03158319327924706,
          0.15453148302681516,
          0.09767607718418479,
          -0.11682371224268327,
          0.20064566489709768,
          0.0882657783397663,
          0.06351273409500856,
          0.019203504551510757,
          -0.11750035702621767,
          -0.09771582827124413,
          -0.1065871177320976,
          -0.16055157212061452,
          -0.16957104654363853,
          0.08899521698014341,
          0.19453206961836997,
          -0.08211819893047106,
          -0.12162661171019816,
          0.07041113980104455,
          -0.09934997787935788,
          0.0421120270965613,
          -0.02274022539007962,
          0.18863649581553343,
          -0.07616860915360825,
          -0.03170745049299674,
          -0.024645962995952717,
          -0.12679444736259918,
          0.004889838279288275,
          -0.20989418369916
        ],
        [
          0.18335618071834706,
          -0.03434896977703753,
          0.14424988453869472,
          -0.19921030968279768,
          0.0318598870384609,
          -0.04186918443197228,
          -0.05213015871744874,
          -0.015939257711024495,
          -0.13758244221649044,
          -0.025362071989558085,
          -0.06460002857005687,
          0.06926956922274842,
          -0.07306553449346125,
          -0.010151947944352058,
          -0.011653425183462083,
          -0.19172863314301336,
          -0.08520391598974601,
          0.04122031245251924,
          0.18838069331886692,
          0.17848421200343206,
          0.04321716352900902,
          0.06995772813933254,
          -0.0007282615984436795,
          0.14755357223292057,
          -0.07525937206148631,
          0.04915612997697611,
          0.1378549920384123,
          0.0865382221893149,
          -0.041115181860582356,
          -0.08842068901496485,
          0.13346723238352504,
          0.15036465955800993,
          -0.09327636283881888,
          -0.13089628296301042,
          -0.06412149895734572,
          0.12345831229088361,
          -0.09854348119606315,
          0.20689028161463946,
          0.1501062244804475,
          -0.1519439969030913,
          0.09360290559696771,
          0.08790352524204544,
          0.10154743148987902,
          -0.058082868187877904,
          0.21632641174804673,
          -0.11615033017031216,
          0.003964405476009586,
          0.18887486422934532,
          0.2139147812596575,
          0.18289999509082122,
          -0.1293769250673862,
          0.1931960964554775,
          -0.15972657616432595,
          -0.09592249069486909,
          0.035368829247421,
          -0.032763208429824775,
          0.03986744695203628,
          0.12435786665819681,
          -0.056429430346625786,
          -0.2039284757162249,
          0.07266670396032818,
          -0.21638800856734966,
          -0.036661367272585066,
          0.1075404866883697,
          -0.099919011355257,
          -0.05338440839496481,
          0.0005493164030996572,
          0.00843656013797576,
          -0.20508298817486126,
          -0.0620332282229119
        ],
        [
          0.11892522739990088,
          0.019848400369316527,
          0.1032385295068316,
          -0.01849582427698504,
          0.10242729365646105,
          0.1553669495978373,
          -0.04434342310801746,
          0.172654478341369,
          -0.1123788248565575,
          0.009987418865112284,
          -0.22975305380268501,
          -0.10685488648260594,
          -0.18659675801815837,
          0.1538624297156018,
          0.09682363435500448,
          -0.17205655670944783,
          0.14813468734848317,
          0.054739931857938184,
          -0.05109527658118655,
          0.0832367393872252,
          0.1504471499670682,
          0.10048898203861198,
          0.16238212548479644,
          -0.06357448003886201,
          0.048295556886300585,
          0.16000468127732165,
          -0.05109469496335008,
          0.08820245986312214,
          -0.01179839772345261,
          0.20199661902574712,
          -0.05653011359091922,
          -0.09645231387684161,
          -0.09017198329514202,
          -0.18493247791605072,
          0.05941274322489373,
          0.24731192019445697,
          0.005778501420663896,
          0.23912435011000235,
          0.09077051785302358,
          0.2313877869392403,
          0.13284690129416055,
          0.15507351154976257,
          -0.1367754422808565,
          -0.05398043448927783,
          -0.11124517738969342,
          0.2411789405444282,
          0.09023840093038869,
          0.031796542607080994,
          0.034735513075435744,
          0.11212798478513444,
          0.1663656186059932,
          -0.029524564368228163,
          -0.2163220187644872,
          0.09987173881136474,
          0.028999417804762926,
          0.017394300469964107,
          0.2095127413024791,
          0.0077906251418515034,
          0.12783513962832802,
          0.08451121715680215,
          -0.057582490286707075,
          0.06812092576592547,
          -0.07706836948356253,
          -0.04384199860303707,
          -0.06777624711416354,
          -0.09541679646931285,
          0.20467902138813607,
          0.18630682415490846,
          0.03790985615506695,
          0.09847284605260835
        ],
        [
          0.015282998829558971,
          -0.10548838780480663,
          0.050089582065998596,
          0.13814030595143442,
          0.1285376442864459,
          -0.012301194405979118,
          -0.00910808670696251,
          0.15938330856928062,
          0.07507693807025681,
          0.17260195112237725,
          -0.01438788375151874,
          -0.09401274585447461,
          0.24052727226598397,
          -0.08624573126001894,
          0.14559102041211533,
          -0.013876459824365356,
          0.1260091376248567,
          0.005283550217038529,
          0.3034835105278884,
          -0.07903686106483813,
          -0.20124846768694088,
          0.07489069005018203,
          -0.024546651300970078,
          0.19131321710843788,
          0.21127973176753728,
          -0.1779925027111391,
          0.15715075661399336,
          -0.11650399221479978,
          0.15418520801076985,
          0.05760408008755952,
          -0.06557050137909735,
          0.08692275256039653,
          0.2976596298537042,
          0.04642115794856893,
          0.1501158578082847,
          0.024274106487057263,
          -0.14073515493725525,
          0.10974452174256957,
          0.09016771171234275,
          -0.21935155551753846,
          -0.13676909789814112,
          0.11004142420942678,
          0.040856737584593496,
          -0.08893052889190171,
          0.19900224763678892,
          -0.06924387997959813,
          -0.06183439584486782,
          -0.013746891249639674,
          0.1806463204000781,
          0.21977520082267268,
          0.14706831695062664,
          -0.13444627850148777,
          0.24011422224759096,
          0.028847658265144106,
          -0.14412032789364904,
          0.2217923863489667,
          -0.15118601459623301,
          0.04830425138584734,
          -0.1367260908130117,
          -0.1872068102855844,
          0.12149967271741757,
          0.06492248271806116,
          -0.17304413650518272,
          0.1268876567567268,
          -0.1416713719991088,
          -0.018659677385816646,
          0.0647692296717647,
          -0.0854196512984389,
          0.01660289393028271,
          0.0862902037591271
        ],
        [
          -0.1388308241251529,
          0.03170892399438171,
          -0.12194050634039127,
          -0.002136070262432862,
          -0.03667431007689376,
          -0.20337306980314063,
          0.11494089008386119,
          0.0690484177667124,
          -0.07796069476736649,
          0.016189629584432055,
          0.17018155393766968,
          0.05232536177198065,
          -0.20601829365673957,
          -0.02873655259028413,
          0.18263029556396984,
          -0.10860687657811086,
          -0.09813565586146238,
          0.11783458820948771,
          -0.059742162419869065,
          -0.12204147428855147,
          -0.18098067413296823,
          -0.028549897609219086,
          0.07226703503628014,
          -0.03792488516596563,
          -0.09273609200417235,
          0.08032070571786643,
          0.0024653222477449698,
          -0.05825591743117757,
          -0.01806356429353988,
          0.18369708707350454,
          0.033953511274411735,
          -0.06865652823836735,
          -0.18276951274757738,
          0.019180241801472278,
          -0.04808485621405916,
          -0.030442511563222432,
          -0.0009995790621067737,
          0.08701870238463807,
          -0.08649970306553775,
          -0.17617246089271513,
          0.10325810006898972,
          0.03634022647120362,
          -0.17859748702162317,
          0.05431595408493505,
          -0.18293717537315257,
          0.04679854757121163,
          -0.06846652871944524,
          -0.1584839893058315,
          0.17306953258929328,
          0.02028907689158761,
          0.16313785541125825,
          0.12397574236291342,
          -0.08000528535449836,
          0.0025304683387722487,
          0.0033417880172211707,
          0.14968526830180048,
          -0.024065024656591313,
          0.0067531782637771385,
          0.16450692782172047,
          -0.14229034432866985,
          -0.09765322820682336,
          -0.1834805558661612,
          -0.14050895018836382,
          0.02052546459338865,
          0.1988078471578684,
          0.07236365510450643,
          0.0931416020361728,
          0.07440376612787684,
          -0.09442793709290667,
          0.19782240521261743
        ],
        [
          0.19561665031263523,
          0.0842445164038515,
          0.1352068434362818,
          0.11869367595796403,
          0.11718605450528573,
          -0.18059954437530154,
          -0.09600029539992425,
          -0.0444132440750392,
          0.14100308052220734,
          0.0752609327937378,
          -0.005979386173647899,
          -0.03522538556973333,
          0.22862288518746005,
          -0.20545620817117566,
          0.17051745954088113,
          0.09750401518009656,
          0.20218079173554815,
          0.09156015412012326,
          0.04779106686711611,
          -0.00018977847132578473,
          0.20476450608345945,
          0.03012765035781537,
          -0.1993528115200472,
          -0.2564525030117549,
          -0.12881628820149765,
          0.1818186180556585,
          0.02007194957856821,
          0.05702251243301758,
          -0.08265972174572565,
          -0.10491496462102547,
          0.07949166574233081,
          0.016855531742263494,
          0.028044385516705225,
          -0.17431847927191213,
          0.1172577433110719,
          0.14898380091297045,
          0.17393873660142004,
          0.19657585404492478,
          -0.10840211188952445,
          -0.1383239811344959,
          -0.1986271116679244,
          0.0617113102340942,
          0.0963233073626902,
          -0.06849470443128884,
          0.0870346769685678,
          -0.1719282236728357,
          -0.07878682576824297,
          -0.15146115434151464,
          0.16821114202924348,
          -0.21801725738339128,
          0.1622456550720001,
          -0.16662632365176808,
          0.2022461407102804,
          -0.11647019761217944,
          -0.1386787956876586,
          0.07031021238529478,
          0.004711495157907814,
          0.053889061398798344,
          -0.09375725542425407,
          0.010055729524896086,
          -0.009850762138304386,
          0.0013408239363463044,
          0.14644447744225617,
          0.0423450317561976,
          0.05118801506620068,
          0.14224945539885914,
          -0.01623480687666981,
          0.15048127895027405,
          -0.03772289280458799,
          0.12772997395364438
        ],
        [
          -0.1749606680845749,
          -0.03118845932028258,
          -0.030412913545837483,
          -0.0032343055218997984,
          0.18683221482347898,
          -0.08564707010810865,
          0.03432606776597372,
          0.036766813519529644,
          0.16160740263852474,
          0.020315308132637242,
          0.01550311957920696,
          -0.0620587525369917,
          -0.18814064878415665,
          0.123762903082053,
          0.07216836753896523,
          0.1636303718208661,
          -0.1482340589247617,
          0.020383703579004275,
          0.09059417785987423,
          0.12270714796115777,
          -0.10591328852664389,
          0.11150819316427597,
          -0.11659994613067869,
          -0.03210185762654853,
          -0.07676493251095746,
          0.1988424146750581,
          -0.11662022067415218,
          -0.09082933533770116,
          -0.012061967459914131,
          -0.11316230699802884,
          -0.05996793737798658,
          -0.15819044726741036,
          -0.02482001712393496,
          -0.028588786792085923,
          0.1833663732322931,
          -0.20126109127536848,
          -0.14973905958264322,
          -0.10009356173519579,
          -0.1419646262490741,
          0.15314184095403163,
          -0.11557287526759065,
          -0.2068287596175202,
          0.15659226905853213,
          -0.16111348525426766,
          0.15154554360764247,
          0.03248601961192874,
          0.15583103205793267,
          0.08187329981086935,
          -0.02639090942941724,
          0.16742605707737435,
          0.1021869715117527,
          -0.1354017822091773,
          -0.12012372800369682,
          0.06336747449028095,
          -0.01893194777084956,
          0.007003388868251525,
          0.16329807908733304,
          -0.2035689947086979,
          -0.12961194719850652,
          -0.11679666545641022,
          0.12805988611230212,
          0.030900369031854124,
          -0.17151780217789594,
          0.061804770169519054,
          0.043654603055329845,
          0.01623036652182835,
          0.15905117898403884,
          -0.17620293567569473,
          0.049233506911085044,
          -0.12808097207800734
        ],
        [
          0.02795356397723039,
          0.099582097866917,
          -0.15922617624957688,
          0.12122753591508842,
          -0.06592654979813392,
          -0.23387424644863966,
          0.161426444380816,
          0.13548331309184952,
          0.036224017125553065,
          0.05662736232774909,
          0.23293638698859592,
          -0.10964990538205649,
          0.06137163606658556,
          -0.007528189017125681,
          0.2103883758623088,
          0.12761001988869672,
          -0.1132491434072725,
          0.1777908091041354,
          -0.14033619186444696,
          0.022034920447301466,
          0.0787212100469891,
          0.15762026490808453,
          -0.0070656587989495305,
          -0.09872668658087665,
          -0.11043659558353534,
          0.1480926795328625,
          0.023554818293959518,
          0.1694673517729215,
          0.10058906026216356,
          0.1766246132699603,
          0.04243630127315307,
          0.03204966776352098,
          0.10673964634388501,
          -0.20844342165046723,
          -0.00023198379265556207,
          -0.17299562936984908,
          0.16776362022538455,
          0.17647269773528135,
          -0.18335971685853472,
          0.1358092866825404,
          0.12584942091564613,
          0.16740086431762813,
          -0.1449899598227853,
          -0.12252945695701059,
          0.1724419127548315,
          0.12661892304146746,
          -0.07024800288814244,
          -0.23000196974864323,
          -0.20686998941763649,
          0.12651901434929336,
          -0.0500828534234296,
          0.12453927486878485,
          -0.08844101404555084,
          0.10797258103072216,
          -0.08359237742893692,
          0.046845456184033483,
          -0.2521418613788883,
          -0.17955428743622925,
          -0.14869261461821232,
          0.12381067391992269,
          -0.15635193282607127,
          0.0011635617623739437,
          -0.15784671901499456,
          -0.021574818860268716,
          0.017717423813741612,
          0.06535054655883667,
          0.15487865331410622,
          -0.1808143293508083,
          -0.18114945422323794,
          -0.07986917806404528
        ],
        [
          -0.0545429178889646,
          0.010195278068000305,
          -0.20870593753957672,
          -0.06697565186837498,
          0.08497795069201747,
          -0.2363093010363307,
          -0.10551551389366809,
          0.16299366483585576,
          0.08847420658540286,
          -0.14035396032041017,
          0.14230711794895182,
          0.07039250434561814,
          0.2166598885609048,
          0.0279723513523395,
          0.09886811713646387,
          0.03021821938670552,
          -0.20183201251364213,
          -0.11205618698934382,
          0.05418340337768776,
          0.18974192647211993,
          -0.18400152161319416,
          0.044116349308793476,
          0.08288493470563837,
          0.04463611889592201,
          -0.04713370544625469,
          0.020699150845325347,
          0.10996543678843124,
          0.11157247995839438,
          -0.1601561506439616,
          -0.03844976233242668,
          0.059400108169929945,
          -0.09774019608220591,
          0.08229152425610654,
          0.08133337955967064,
          0.08717526493600954,
          0.06387168444417585,
          -0.049702659410795186,
          0.2515031814373804,
          -0.08356572641566251,
          0.1540287509178564,
          0.06352304099961939,
          0.034218045406363744,
          -0.08801344784722187,
          0.07907328262161611,
          0.14290746451110037,
          0.09119612109434759,
          0.023019679225975073,
          0.06999916937690621,
          0.10564433724918705,
          0.03249645913320418,
          -0.14043038319059867,
          0.05896545643236053,
          0.17702077662738122,
          -0.03923857517604554,
          -0.06436495984148956,
          -0.04899403903177393,
          -0.03134310094301025,
          0.197062911197145,
          -0.03759491550559127,
          -0.2291289687776611,
          -0.03211309253464904,
          -0.22159944672630244,
          -0.17978326113540904,
          -0.10987806567487027,
          0.11189079043543604,
          0.2015189305230494,
          -0.09323734277098884,
          -0.07285810221616039,
          -0.05056754786477142,
          -0.004831114910170404
        ],
        [
          -0.14241796469905205,
          0.12940380338891685,
          0.17263913105636206,
          0.12836325850377933,
          -0.011010856802141096,
          0.05478425764534253,
          -0.06876761289779947,
          0.13438961096388913,
          -0.004832065051204968,
          -0.14614562856976837,
          0.18537546705563335,
          -0.06850038730973905,
          0.16314411063898882,
          -0.09729935721446388,
          -0.1079672314975975,
          0.21397829674109867,
          -0.14435978961413773,
          0.061191471640915096,
          0.008036039286289596,
          0.06159681422073721,
          -0.20514802399661736,
          -0.06998729056052556,
          0.024594312515914093,
          -0.030407779724410573,
          -0.0920823095345789,
          0.09531920045689238,
          0.007137467386240793,
          0.14736535434112905,
          -0.2068956803301815,
          0.07852743444304804,
          0.022280265000366336,
          0.11192859568656997,
          -0.13638851364664203,
          0.11885665569496594,
          0.14411388476254874,
          -0.01666399483334322,
          0.02409709330444908,
          -0.006905476284046419,
          0.16989067775031372,
          -0.07680665034632192,
          -0.2298597894540901,
          -0.14197688503272515,
          0.04154344555207029,
          -0.0993743996411538,
          -0.06299403834920594,
          -0.18149043780084098,
          0.1447751655541657,
          -0.21597492438609728,
          0.03986817809218528,
          0.13617431777967204,
          -0.11509748397607604,
          0.013111611472047069,
          0.147468284644602,
          0.08192863562490398,
          0.06746489366066495,
          -0.17761848666124724,
          -0.1947961394209318,
          -0.1321296261116455,
          -0.14322108358866273,
          0.12350788797087968,
          0.05055021878483933,
          0.11443488513168289,
          0.04180134548059273,
          0.0662792072722135,
          -0.0752026224553983,
          0.0033962520714774964,
          0.14160661535259703,
          0.12300885621264769,
          -0.17189765736402557,
          0.14547889422915689
        ],
        [
          0.009450697575765428,
          0.24559800297591985,
          0.3632365959597276,
          -0.1629515876805898,
          -0.03195725021540431,
          -0.14469506481928654,
          -0.19348429860943522,
          0.024069993798510457,
          0.06151971022975144,
          -0.157165586248659,
          -0.006881577659032455,
          0.12602976189187282,
          0.35817749481800715,
          -0.012764521322632541,
          0.009101722071907221,
          -0.21350657712718993,
          0.11168635701713876,
          0.08390520234259416,
          0.3577808829574341,
          0.15931759439946921,
          0.1531143986518125,
          0.02527293149811272,
          -0.0038497958819667896,
          -0.2156138155440962,
          -0.07927394625018547,
          -0.001568039451281342,
          0.15359561084400197,
          -0.2847427947619224,
          0.23908491010585078,
          0.054153822266544104,
          -0.18153954208222076,
          0.16743941551697653,
          0.3412093744821068,
          -0.18174046629602436,
          0.3495984790924925,
          -0.05134259315376528,
          0.1749072090667281,
          0.16405780336413367,
          -0.11166087363908525,
          -0.08801368043572103,
          0.11576058892655641,
          -0.002188361167243067,
          -0.00797462617211253,
          -0.1176162070618649,
          0.20976981559218696,
          -0.12896009515689716,
          -0.014991922985597164,
          -0.01591828293041816,
          0.20394603675430467,
          0.024808038170214215,
          0.299593125721368,
          0.14516777780432363,
          0.034209882067480164,
          -0.12025127584080084,
          -0.1889927443493003,
          0.05028224554761243,
          0.06757901656082649,
          -0.11129968598802878,
          0.09108189763549612,
          0.10421618405988944,
          -0.05967761212438816,
          0.14465935888214046,
          -0.0695390300628784,
          0.029419353463344598,
          -0.17764073530692315,
          0.06517712935746782,
          0.1281215965148269,
          0.19749651768641976,
          0.05482239387019789,
          -0.053794329859841686
        ],
        [
          -0.0555349503124709,
          -0.0015199771603708247,
          -0.08486025368000795,
          0.1307448737464331,
          0.19074613874994775,
          -0.1854785745300222,
          -0.025664883868137107,
          -0.0066710528638827754,
          -0.19148976869939463,
          0.08895308132020183,
          -0.17950234906853405,
          -0.11689805147840204,
          0.20634995277614665,
          -0.16672075834832673,
          0.014985762729708753,
          0.05349477065155642,
          0.08364579755608983,
          -0.04888236065874169,
          0.02608680058679705,
          0.05842571167666098,
          0.14354688085836778,
          0.12009079798511339,
          -0.11338303377165496,
          0.10801227512503273,
          0.06741146806028078,
          0.09406616575746302,
          -0.11749486880590172,
          -0.07202002875936661,
          -0.03806435954756138,
          0.07401734947966145,
          -0.06504263101570007,
          -0.040149523599336795,
          0.1311022854410153,
          -0.14383827615328798,
          -0.1779750553580469,
          -0.17000369632317397,
          -0.20266530701931787,
          -0.04284106391343719,
          0.1560050472292384,
          -0.009356395554796774,
          0.10834451168669963,
          -0.17835979482088044,
          0.08428995994324173,
          -0.1662692355191167,
          -0.06296055102615794,
          0.031031987951141416,
          -0.13302964599489508,
          0.07695378720141384,
          -0.02821880860559245,
          -0.15466364288271656,
          0.0076455637018332,
          0.14933899632638026,
          -0.07285303635932712,
          -0.13719596632139894,
          0.20024347176500104,
          -0.19358026064412798,
          0.1535137378625757,
          -0.10832202691414965,
          0.05038037910706539,
          -0.13439603093702335,
          -0.07563913395209175,
          0.18780252936884975,
          0.09056614728211766,
          0.1394427392059224,
          -0.1388788503545894,
          0.1974740818229585,
          0.0790880853234355,
          0.06450615322312135,
          0.0037141316552756886,
          0.08200219174310158
        ],
        [
          -0.03448344917644772,
          0.10300851804160736,
          0.18097857340687593,
          0.12253968221786604,
          -0.07102089580152669,
          -0.024220435545939487,
          0.07928452905941723,
          0.09457320931082264,
          -0.04078686985419723,
          -0.061603122512323354,
          -0.30700591612550165,
          -0.14401265123570184,
          0.27868276059529684,
          0.14070186759446213,
          0.09712874821607534,
          -0.2490959047945892,
          0.22717733927870903,
          -0.11179375033315765,
          -0.029011030227190315,
          -0.14036790639775462,
          0.004487222043348813,
          -0.06823352574512273,
          0.18143621285714226,
          -0.29248152139125166,
          0.22722582776728847,
          0.1753921838497149,
          -0.20606111653287168,
          -0.19418535364325415,
          -0.04043505477271186,
          -0.1786106803986834,
          -0.1594205785918694,
          0.15384591238297404,
          -0.0971994466842436,
          0.08361913111494584,
          -0.2162294707221454,
          0.1066769530618667,
          0.09787328786532348,
          0.11808295457701706,
          -0.13759961728600856,
          0.12961552151719735,
          0.11354763103247559,
          0.0016767583665941149,
          -0.18124876139977827,
          -0.13556536886542997,
          0.16213714269498714,
          -0.1642557841557651,
          -0.017494704843452745,
          -0.129403332877574,
          -0.18133336777699924,
          -0.14993949896867992,
          0.14425713276217356,
          0.05263500506237121,
          -0.1280279072452781,
          -0.06754597720965008,
          0.24561296414864056,
          0.026734483510439982,
          -0.24960152692193147,
          -0.039047342055126506,
          0.006535005408323709,
          0.23696242385511318,
          -0.16858230607872451,
          0.17444354113512203,
          0.1366396850549373,
          0.12478590297523193,
          -0.19638496514404707,
          -0.022202850738575947,
          0.18915121531091908,
          0.28538873335301407,
          -0.09652507368826937,
          -0.06685416592612071
        ],
        [
          0.1257367183762733,
          -0.03410260050343888,
          -0.09277076051920227,
          0.03220509419639913,
          -0.13898328565553805,
          -0.10697706382664864,
          0.15649792340754642,
          -0.02762059249892904,
          0.14421812307028306,
          0.14869828451823494,
          -0.0021701810010161205,
          0.06263896485194835,
          0.17288599811005656,
          -0.02304638720427882,
          -0.05575016892318483,
          0.13969222935216272,
          -0.16959870627841056,
          -0.00705687201842092,
          0.06494811885272489,
          0.03273145257847666,
          -0.01723989062836547,
          0.14196042910416776,
          -0.09592690856196175,
          0.08185531549646465,
          0.14909556922746742,
          0.035361818524605945,
          -0.00811823190747326,
          0.19521766092904416,
          -0.17996901708032795,
          -0.12635757773880474,
          0.019814841976163337,
          -0.0243398958483792,
          -0.1900449699904086,
          -0.09325310469053626,
          -0.10811499834342121,
          -0.0026273498466327094,
          -0.13595926160749122,
          -0.15145542805711829,
          0.023831047366520707,
          -0.037894281304599264,
          0.04729474997117812,
          0.04536668781049245,
          -0.17590673372565457,
          0.011309315303355367,
          -0.16829944866158744,
          0.14790871175873724,
          0.039124621235908444,
          0.17881028673731467,
          0.11255949661036034,
          0.022471747901203744,
          -0.0751714278938447,
          -0.1898560517056078,
          0.10293584082268355,
          0.050619267451975106,
          0.11885391088042843,
          -0.07909710209878337,
          -0.07402924768224593,
          -0.018978167473251168,
          -0.028207061174242425,
          0.06525446460011804,
          -0.02343589871164455,
          0.04809791335000728,
          -0.17300788489219093,
          -0.03196380045261329,
          0.01689098112035263,
          -0.144106456534143,
          0.1693395272487362,
          -0.00871022108503259,
          -0.15588186211782928,
          -0.09037131074435903
        ],
        [
          0.0002568199997008878,
          -0.1319735590842706,
          0.07399129857164088,
          0.12159933303768311,
          0.11785529784538752,
          -0.20471653578241203,
          -0.13130039055260745,
          -0.08120291583281519,
          0.08767006567934452,
          0.030638183705239547,
          -0.03877055080154772,
          -0.12894817786824594,
          -0.033053065717299594,
          0.20018838435181657,
          -0.022097163199464566,
          0.2042376924927936,
          -0.19865706663325713,
          -0.18961235009690483,
          0.17532375730664465,
          -0.14075353313580682,
          0.07669313285014599,
          -0.17976295294147884,
          0.025620646585375304,
          -0.1104029936515725,
          0.08317292208820294,
          0.1796373492848268,
          0.18981560747244852,
          0.17552306840943993,
          -0.18192585933366345,
          -0.08408886934794739,
          0.1404232666258966,
          -0.009765945561793265,
          -0.18633658792872312,
          -0.16604526735675176,
          0.12990433044145944,
          0.14434095526254093,
          0.01573871300120197,
          0.0024559460893011295,
          0.15237555867995073,
          -0.09672071921968461,
          -0.07267714505350527,
          -0.18253415422333327,
          0.19040148422454,
          0.03160726060908249,
          0.10793385491095099,
          0.009547554199884591,
          0.07309284412543378,
          0.16699136996353792,
          0.041748824323069915,
          0.07879290339546559,
          -0.1721258936058184,
          0.09051189461932332,
          0.18631268556886416,
          -0.0928066037773672,
          -0.16211412875497538,
          0.09533845597563675,
          -0.021362301242858636,
          -0.15577230676457585,
          -0.0010460062418139369,
          -0.058413484553710746,
          -0.13574148586265622,
          0.1768066037464994,
          0.05473257375897144,
          -0.20660096254510338,
          -0.1442645355462254,
          0.13289832232165846,
          -0.016923011735648193,
          0.17723902817341905,
          0.1344590966934984,
          -0.17426324912416818
        ],
        [
          0.17598037891841783,
          0.0530763293833727,
          0.19785043400926838,
          0.14266489381543726,
          -0.0680869891289818,
          -0.003938014020710537,
          0.0639947591752672,
          -0.1037562466852328,
          -0.020030297733448124,
          -0.12897995917197658,
          0.08126692130667743,
          -0.1501428728801407,
          -0.03910506724793014,
          0.08253467139873781,
          0.00477214218641874,
          -0.11821291565321065,
          0.1786426119652078,
          -0.12737099565293397,
          -0.1102249451758586,
          0.17613223582144838,
          0.07703207275488168,
          0.0331618263680169,
          0.005298130774087436,
          -0.1830879207721337,
          0.09050453255417273,
          -0.009905804583558778,
          -0.07320110756385219,
          0.1343293219922537,
          0.09270738203773707,
          -0.03934770559349238,
          0.06962923059271256,
          -0.1766701573160778,
          0.20406957390891184,
          -0.09768648444654329,
          -0.14382979382533387,
          0.06654165820455918,
          -0.12812853839400484,
          -0.12684763765698265,
          0.1427240144555446,
          0.0737935488623128,
          0.1925825915759268,
          0.17994680454432915,
          -0.10434768444881443,
          0.010761475105200542,
          0.10403520412451835,
          -0.1815187774399686,
          0.026743835212692624,
          -0.14870109190946898,
          0.06001803136247323,
          0.17453210148132,
          -0.03573275200817341,
          -0.17231751709854148,
          -0.10240987575686984,
          -0.11441246062173176,
          0.14070563434855188,
          -0.015208453963830942,
          -0.06409301883246774,
          -0.09444075920310695,
          -0.05411967153150066,
          -0.06817017378355918,
          -0.050413707840371184,
          -0.1280579521992032,
          -0.10503654819335899,
          -0.20177354105437728,
          -0.03969962011488158,
          -0.12011233108654663,
          -0.16214569277075047,
          -0.15667317028894004,
          0.02734439328634449,
          0.07980086211841352
        ],
        [
          -0.12623582844974818,
          -0.2212422784286627,
          0.06746529739448417,
          0.0667288967861794,
          0.045921313583748874,
          0.000725968444025634,
          -0.11427644414562202,
          0.07127597448930777,
          -0.03525002185558095,
          0.14378742653004398,
          -0.032471286280190824,
          0.1772884059183222,
          -0.1572077706396428,
          0.11583798007375173,
          -0.07890263373633562,
          0.21394732317285248,
          -0.2105158164904455,
          -0.1409600226116169,
          -0.18375510148060273,
          -0.1267621276163965,
          -0.010551690946769665,
          0.05075620308347829,
          0.013379498393933925,
          -0.012582252564138858,
          -0.061924129645899446,
          -0.03878240615026579,
          -0.16664008245679368,
          -0.026368459574435243,
          0.06022352642792717,
          -0.0961342904190812,
          0.21991130010385737,
          0.2346984514591612,
          -0.1552035185994804,
          -0.15315157639907073,
          -0.22059839349768057,
          0.06095053823953786,
          -0.04712448337688224,
          0.026453173739273767,
          -0.1856227414928287,
          0.2241918373310003,
          0.2511641277178397,
          -0.15798914859275834,
          0.09909255427305476,
          -0.06707756645976372,
          0.019951683769711893,
          -0.19558508313116862,
          -0.17702451031104569,
          -0.11348219209979618,
          0.11918306609173371,
          -0.13278157948935468,
          -0.2707172281820333,
          0.06613742425503215,
          -0.07050797839774363,
          -0.13155111790986,
          -0.11527560363294888,
          -0.15408023367867965,
          0.051149409928255646,
          0.15909641441496014,
          0.02264763128939487,
          -0.08122827374350038,
          -0.1889639691120136,
          -0.09893016263626773,
          0.11446153569453842,
          0.2378923059446817,
          0.19969561283274845,
          0.1716704747260012,
          0.0018683368343558693,
          0.06995953907641236,
          -0.006444558430572277,
          0.10906446281368228
        ],
        [
          0.1570273158067996,
          -0.06500569031506723,
          0.11394776240296245,
          -0.05181532016461074,
          0.14730583599938493,
          0.1591920366076739,
          0.08428111803938956,
          0.21692273294988765,
          -0.10425808276227212,
          -0.11232423834320311,
          -0.1046428146970348,
          -0.1924348288443626,
          0.3560390740279522,
          0.021398437199901678,
          0.13109408868129832,
          -0.09946955971319875,
          -0.011091759202814726,
          0.03753716363320442,
          0.05663994129231924,
          0.1553421766768775,
          0.08817579962481259,
          -0.09093108801695143,
          0.07013308983348757,
          0.09091656285798702,
          0.2208699802609133,
          -0.11888299217911551,
          0.08100638589219014,
          0.09543945665975305,
          0.0352793462272519,
          0.12260018275660348,
          0.06969138150546997,
          -0.06009143027151456,
          -0.051139062000069964,
          0.19889341097739116,
          -0.11352105284542476,
          0.11555497321392022,
          0.07481628092209697,
          0.22426202642129084,
          0.19603453391479056,
          0.21766003066609496,
          0.0865541385265955,
          0.23089219316248405,
          0.19144748818998603,
          0.05645136428941243,
          0.13167334399648378,
          -0.0994466225379031,
          0.06907377307734136,
          -0.026579068060444452,
          0.15046414226063298,
          -0.18140180096948993,
          0.17120050895143113,
          0.026814540466530618,
          -0.007721376848803843,
          -0.009586578114129954,
          -0.03790140532526209,
          -0.10151129866375255,
          -0.10072553037468647,
          0.13405324742261243,
          -0.15371196394866132,
          0.17727583023952762,
          -0.08756446019141895,
          0.04511489418953474,
          0.12827719536074594,
          0.11462398174004981,
          0.10285446650242196,
          -0.08711797011604454,
          0.1668923270526949,
          0.10348355417684278,
          0.16464884946631564,
          0.10456612595482315
        ],
        [
          -0.16876150349777147,
          -0.029600020606855987,
          -0.11064214325616534,
          0.09740984873002677,
          -0.03290249444628512,
          -0.20358248314292154,
          0.08418378190420063,
          0.10152717515340387,
          -0.051128703401802124,
          0.18589652646650123,
          -0.16105993840444566,
          0.19975652039492192,
          -0.047344257113468693,
          -0.07281162227757072,
          0.018112133839266322,
          -0.007923702503444164,
          0.10958489737811164,
          -0.1088382793818723,
          0.19011372745738558,
          -0.09608691945098699,
          0.059601736367156564,
          -0.13577561318221923,
          0.13438430355709072,
          0.13308755988672044,
          -0.1816178383826556,
          0.03508762638177939,
          0.10322945488405673,
          -0.013904081114755284,
          -0.05954193860610876,
          -0.13358753041073593,
          -0.07792656513417838,
          0.011032779458321493,
          0.1526522227383745,
          0.014259532397685359,
          0.18843449760220882,
          -0.19564938992447575,
          -0.0008354028767269292,
          -0.19089758806935983,
          0.12241474530465941,
          0.002770530462806525,
          -0.16391908485310883,
          0.09017250865321116,
          -0.03523509433803084,
          -0.20007759545079065,
          0.04788545412280691,
          0.17388434025035424,
          -0.16686798453075716,
          0.11743144694396628,
          -0.18087228600356828,
          -0.13667238641024188,
          -0.00838459474302485,
          -0.18926902159060804,
          0.0814150584789836,
          -0.06031681367667372,
          -0.0759375154307469,
          0.006642067190458683,
          0.04151712088100764,
          -0.08856725696000725,
          -0.08056872092811751,
          0.10295773600644202,
          0.11944434125308927,
          0.16382508342287036,
          0.05200193067457082,
          0.12008240743095416,
          0.09943145885043497,
          -0.14336102947641427,
          0.0237058569205724,
          0.03528055070840833,
          0.03372305011605835,
          -0.11557888608176527
        ],
        [
          -0.23077685949750054,
          0.20326134720383235,
          -0.10590020460576056,
          0.05638404718686685,
          0.19704792471045443,
          0.031190717230564186,
          0.10441270020562879,
          0.14927678319901241,
          -0.2015771414956218,
          0.022093844043672737,
          0.12404924575366856,
          -0.1339285924849966,
          0.050508800705754704,
          0.14420622593817947,
          0.10242985622220498,
          0.1737825714568861,
          0.15126924668009614,
          -0.02710955226716389,
          0.10749482843750069,
          -0.17944635162948427,
          0.1729166588278157,
          0.21574149386198335,
          0.001033996027660508,
          0.24985662181064475,
          -0.15704098636033137,
          0.12869678858992545,
          0.17027731722179287,
          -0.15627606743919153,
          0.010377016751187558,
          0.11639832100105593,
          -0.09593289482478526,
          -0.08741302589226764,
          -0.1411715312540077,
          -0.0695556374347067,
          0.0729282621423416,
          -0.001270577905917606,
          0.029315503724345472,
          -0.05285555314605198,
          0.060984372832723344,
          0.15560306243476157,
          -0.022607129768558616,
          0.14242915168360315,
          -0.12130843428116213,
          0.1233370457222139,
          -0.08251263373796319,
          0.24485646847667356,
          0.20215068247053564,
          -0.007382831870963425,
          -0.028988937347006305,
          0.0981230974798601,
          -0.09194372686356243,
          0.03355967689402157,
          -0.049056956383289656,
          -0.17639390180528297,
          0.17017697584907443,
          -0.12646214612142428,
          0.19492906709249683,
          -0.0821611420051401,
          0.22640283144643844,
          0.13287412712010363,
          -0.14324765696929406,
          0.029422099510577712,
          -0.04058861551378734,
          0.21044960506811214,
          0.09641431426463841,
          -0.17226919118641074,
          0.14667476655438508,
          0.06153887840808915,
          -0.036824899981314906,
          0.16671862292376502
        ],
        [
          -0.08898662734146319,
          -0.13065218028557385,
          -0.04877624682279661,
          -0.05888724806802468,
          -0.1921803855933445,
          0.0418926507664032,
          0.16554806026509375,
          0.04346484538444628,
          0.16507920086474367,
          -0.062047196047178003,
          0.05599202468506336,
          0.14337541521156527,
          -0.1423289969060897,
          -0.1254354462158812,
          0.0992842932078608,
          0.02417561998431877,
          0.0008123188752808797,
          -0.18299074061383566,
          -0.09265854777474093,
          -0.09231128691740058,
          0.06371571343262439,
          0.1900919481476833,
          -0.031096880314618144,
          0.0937002096526536,
          0.07724105807402257,
          0.17862978638456992,
          -0.10086472703042237,
          0.14481547735160374,
          0.17499054667677308,
          -0.16054979834138555,
          0.03231091535877143,
          -0.2037092260312994,
          -0.18528113304322422,
          -0.15020409236380095,
          -0.11160617742134162,
          -0.08774781607191899,
          -0.15840845503818943,
          0.06912290241977592,
          0.029267038672308697,
          -0.10479526601769855,
          -0.08577025370981799,
          -0.1808720795125298,
          -0.14277551150820716,
          -0.1692259230515906,
          -0.013507056688344506,
          0.1596491831461134,
          -0.008562201329199258,
          -0.03011172506607517,
          -0.10881072950561317,
          -0.16063752194276817,
          -0.09727433546737219,
          -0.20620441978167148,
          0.203235570678958,
          -0.1306647066373679,
          0.16759385779330965,
          -0.07983572170031475,
          0.04359366764336588,
          0.179403208884188,
          -0.003470529299262919,
          -0.17452107705780787,
          0.0241896023774973,
          0.17902832739222146,
          0.16396413749590968,
          -0.020757941690396145,
          0.1184876031046067,
          -0.09896322297204434,
          0.03998640165578565,
          -0.1595985953481078,
          0.18653799502285018,
          -0.03916473158993159
        ],
        [
          -0.08816552122172269,
          0.19344199146839747,
          0.015504147974152116,
          -0.1639661823548773,
          -0.054883609517900285,
          -0.19112843386788295,
          0.02191360705858305,
          0.14826836844085664,
          0.00854104187821665,
          0.13786242511345878,
          -0.05345094924290298,
          0.001670237276491176,
          0.19583012742379136,
          0.09475235244498646,
          0.09259345470428845,
          0.14705684753595827,
          -0.010654738132900236,
          -0.041192619731997754,
          -0.11027123811450508,
          -0.07040870727076202,
          0.16427378652151256,
          0.14785898675008483,
          -0.12762591375641702,
          -0.18620901083964123,
          0.17714592712894137,
          0.03159729062020113,
          -0.1564272317500015,
          0.19051315978909972,
          0.14471719128051685,
          -0.06611058319381723,
          -0.1700538794295925,
          -0.049695786892827075,
          -0.03015996916187348,
          -0.08235117220228359,
          -0.166833627969509,
          0.03056870573685181,
          -0.09797588404702885,
          -0.04575473961323399,
          0.01238826626230668,
          0.029297705965562717,
          0.14431247713554435,
          -0.0402383521494978,
          0.14396725053305667,
          -0.1438924545046176,
          -0.11954584923990384,
          -0.16511292195030286,
          0.1807710508317112,
          -0.131695075711259,
          0.02981456826629637,
          0.11567619079021352,
          0.1515801056495069,
          -0.1684442532497662,
          -0.04428234340587257,
          -0.01708840313413954,
          0.040367808534491734,
          0.10251207995203182,
          -0.1708519395298987,
          0.19528983793389124,
          0.05036038765114459,
          -0.12108868183484288,
          -0.03198040591822765,
          0.10524663653325735,
          -0.1005588958718077,
          0.15643392487455945,
          -0.10805888290949234,
          -0.0788773642070774,
          0.06561094120456326,
          0.1872633718200207,
          0.03823314485970726,
          0.08089978062582641
        ],
        [
          0.014834515684895277,
          0.18218889258610116,
          0.21375187388001887,
          0.06511555104766689,
          0.07057018999044033,
          -0.17537172256949482,
          -0.19301485521155426,
          -0.1422658515866117,
          -0.13338491154108822,
          0.08965329588566194,
          0.11868118116496323,
          -0.09423697445092488,
          0.23500085187857608,
          0.10262382950923499,
          -0.153058953214108,
          0.1683370951258143,
          0.21086019404728418,
          -0.05699558677834584,
          -0.008788254873044167,
          -0.034721970615682565,
          0.1326671343135608,
          -0.005197073224240541,
          0.12906526754157643,
          0.10635442077921313,
          -0.04500782660361545,
          -0.15794475382394407,
          0.08918037191601207,
          0.15180198137355852,
          0.20351078485477014,
          0.14639064532513957,
          0.023925454741380133,
          -0.1434445383602059,
          -0.020228770383231273,
          0.057347725113764327,
          -0.015363339002077649,
          -0.04494188647110774,
          -0.04790539187552205,
          -0.12040971392599654,
          -0.05219473893434155,
          0.09137420278766664,
          -0.04027564670425831,
          -0.17331697421964265,
          0.010739528264126967,
          0.0032882429876776517,
          0.1560767577002338,
          -0.1933277972161004,
          0.02955205448501829,
          0.040813775873219806,
          0.11663370216864392,
          -0.1770522079079654,
          0.10339092592021747,
          0.18824120300577288,
          0.23880631041566663,
          0.1385074346729946,
          -0.17348382381380634,
          0.11477295230558172,
          -0.17268587268755767,
          0.1460591893439946,
          0.1173364539047668,
          -0.15304160659167598,
          -0.07110310609895454,
          0.0933058735861067,
          0.015205023821845893,
          0.027032572143651463,
          -0.18078490675784703,
          0.044193702067684,
          0.1626560619552997,
          -0.1919352260111411,
          -0.004787796468167206,
          0.013618088066602424
        ],
        [
          -0.16148389123914073,
          0.06977987806565919,
          0.26982743219004696,
          -0.05391350110230427,
          -0.11314176850431192,
          0.17509797916787076,
          -0.00247707218552219,
          -0.12040003409574936,
          0.03985922530380406,
          0.17324444869628158,
          0.14177773869325414,
          -0.09577939403693128,
          0.22274200183801213,
          -0.0688993970319343,
          -0.048636467608962036,
          -0.2443110060880947,
          0.20370108428292025,
          0.15137386784825926,
          0.17282818485005394,
          -0.19021334194309414,
          -0.09306835237356688,
          0.0179443054086268,
          0.04787233451898161,
          -0.04712240694259313,
          -0.06727474353315609,
          -0.04666149282951056,
          -0.1300696604038027,
          -0.26480595156282516,
          -0.16514540432524497,
          -0.16796855589048826,
          -0.06196535653248588,
          -0.013269633443261337,
          0.10723566595124005,
          -0.04035730236299782,
          0.3105916321754114,
          -0.1534367014344323,
          -0.09834221810855173,
          0.1074641304547345,
          0.11237487839057515,
          0.15676313209458148,
          0.10031036375814853,
          0.13085716325405716,
          0.01265361696951568,
          -0.0005112356939487386,
          0.021801936166948675,
          0.10114797594000517,
          0.17468130504109713,
          -0.138543702718465,
          -0.03438341770525043,
          -0.24666101584621394,
          -0.01950639493397223,
          0.21429474682309257,
          0.2526581149638469,
          0.16530977539072605,
          0.12917876339979434,
          0.04757705190222679,
          0.11825131010992429,
          -0.18753128701695798,
          -0.036110999954527476,
          -0.07599354058801276,
          -0.18264708735438823,
          -0.0564269671008103,
          0.08856530522444915,
          -0.1961545552610744,
          -0.02017100414931464,
          -0.25894557880644764,
          0.1960668822215652,
          0.014717691218435133,
          -0.018868275810930892,
          0.09750657419723797
        ],
        [
          0.021861389948301117,
          -0.06328663748133409,
          0.0152623709395122,
          -0.07210492022116309,
          -0.158243335674282,
          -0.26148716708752145,
          0.1858206740754105,
          0.03749026529770569,
          0.10289915985917607,
          0.1597256118689546,
          -0.03295562084047995,
          -0.09196682366152968,
          0.14328882674915788,
          -0.16796884101307943,
          0.22808286286104268,
          0.15189773008156449,
          0.11302575286201287,
          -0.06072861973794195,
          -0.004747317068775537,
          -0.09722137628097313,
          0.06497921681061049,
          -0.09797449851495692,
          0.08845253463011298,
          -0.041525237042402095,
          0.12372364984000982,
          0.01662792730593969,
          0.02689503969705596,
          0.041480014396581,
          0.06687788151581942,
          -0.18047713934569687,
          0.10822765290286095,
          0.1846463003176259,
          -0.1878885971016466,
          -0.09318253627400237,
          0.10102783753835994,
          -0.15991129911332566,
          0.022511410829357294,
          0.2699369436102463,
          -0.1749032089499764,
          -0.134203429116666,
          0.19523384746560368,
          0.23236604707437786,
          0.12960553664175173,
          -0.11369165817972174,
          -0.023560516171633267,
          -0.2724433940413165,
          0.00043099057430167253,
          -0.2307970563475914,
          0.135500055041071,
          -0.023968245965987962,
          -0.2227272548349387,
          0.19905519319906725,
          -0.21813283878800654,
          0.1574530796148797,
          0.24018843686509025,
          0.18751861836505768,
          -0.11869821052676433,
          -0.12977706614282508,
          -0.029085195967553403,
          -0.18608068264583852,
          0.16806337660566142,
          0.09144523733838536,
          0.045673405858721594,
          0.012686737947182388,
          -0.005620313997460503,
          0.19766256741368401,
          0.14219719142000656,
          0.012514768605041962,
          0.1130387604638629,
          -0.11634265741814433
        ],
        [
          0.1720534470654454,
          0.14190047729424998,
          0.20427757188854928,
          0.18482263174236288,
          0.08415691859618439,
          -0.11890671243203262,
          -0.010639286202190956,
          0.18482475545738541,
          -0.18659853005909055,
          -0.11232804348525338,
          0.20621055262335555,
          0.16291325562924613,
          0.09594828992815008,
          0.17689562952754764,
          0.11981603553370429,
          -0.06404373206296612,
          -0.1892173249877822,
          -0.10043767290726954,
          -0.16867130605277073,
          -0.20044831550244438,
          0.13252856049639256,
          -0.1257115737060882,
          0.08922861555837758,
          -0.1387681902453597,
          0.11382227125168354,
          0.10756526810637711,
          -0.12342014862870507,
          0.1467935527600665,
          -0.1595390214302866,
          0.07340169654477112,
          0.13598125878355533,
          -0.18826834615941587,
          0.14929517703854983,
          0.17771612793510014,
          -0.15938032680113048,
          -0.10512750026574037,
          0.11238189079539432,
          -0.11027021876985468,
          -0.10710888570048606,
          -0.018519783203258533,
          0.13485422664657185,
          0.18628488116132633,
          -0.05559096221167742,
          -0.08953866599793209,
          0.15830125572647702,
          -0.0699764943420843,
          -0.0233427789653641,
          -0.19945820948183174,
          -0.1822891804660536,
          -0.07716448421751064,
          -0.011375043463892651,
          -0.1617854036977755,
          0.1841227455023271,
          0.18851523309183563,
          -0.08065118932293014,
          0.047296336925181766,
          0.05722397663464793,
          -0.2035425975961355,
          -0.04315964063982235,
          0.0077059770799546975,
          0.07904478660124832,
          -0.04824292693565171,
          0.004004055099040074,
          0.13970420081954144,
          -0.07537242580799676,
          0.19327499786607497,
          0.005565354278169264,
          -0.12326117867816429,
          0.09813996768740545,
          0.016445841775543896
        ],
        [
          0.051564960739923976,
          0.05474879728364535,
          0.07897989076733403,
          0.19087598208873652,
          0.06696041798179574,
          0.10275712215405346,
          0.05050978131467203,
          -0.1874700751336231,
          0.18647250786492553,
          0.12194350402728822,
          -0.14252041217075942,
          0.040961002146707934,
          -0.08030336066343442,
          -0.131623512973871,
          -0.13921916975827978,
          0.11926779180077489,
          0.060555715517729744,
          -0.017597289212405585,
          0.06869006134188867,
          0.10323517165883041,
          -0.12410929424990536,
          0.008310316195395625,
          0.014868126848056964,
          0.006604011528309786,
          0.14918243003949683,
          0.1537218106494241,
          0.014633380470448947,
          -0.10115963421541385,
          -0.05359579817556247,
          -0.17490627616082427,
          -0.06011616666232563,
          -0.1374912047403812,
          0.12566671810702348,
          -0.0048048522178173805,
          0.1293488204186796,
          -0.17205193800348614,
          -0.04501043369965919,
          -0.071500695121442,
          0.06398924426428187,
          0.09558407810384985,
          0.04366414490498662,
          -0.07545816971751822,
          0.16947856975365014,
          0.15662549842974519,
          -0.047565605481033314,
          0.19081204756604345,
          0.18720408305649078,
          0.18237363587920688,
          0.15682738708955352,
          -0.13228712754949762,
          0.10581755205676416,
          -0.13096302776896884,
          0.020989342758938764,
          0.14652652186527268,
          0.06024582163347242,
          -0.04598966086233774,
          -0.05000131284573311,
          -0.14744702633135787,
          0.012835747188499738,
          -0.0799552616954084,
          -0.14649955058808597,
          -0.12985389210039505,
          -0.19225765411578705,
          -0.00856904426098121,
          0.1760063975604773,
          -0.17973802494501845,
          -0.03598049363225862,
          0.20220532557681084,
          -0.09427612974001325,
          -0.17301346284945973
        ],
        [
          0.012218848323873818,
          0.20838809816313592,
          0.13129587799373219,
          0.0760499336950111,
          0.08180341075484049,
          0.17112837356631758,
          0.13725656459672483,
          0.10288800129106133,
          0.16738898597732127,
          0.00974515827569435,
          -0.16313722414261073,
          -0.20845940476644043,
          0.22804382150533375,
          0.0157857417914201,
          -0.17461907118863804,
          0.10682483853659047,
          0.14266515858150972,
          -0.14018974511796423,
          0.22281431519128084,
          -0.16532610875127945,
          0.02526098239935794,
          0.15667527764089378,
          -0.19115077037562567,
          0.031315590589272406,
          -0.08558541698742225,
          -0.002982698608382257,
          -0.00924653954225326,
          -0.19638497695366222,
          0.2234503530357007,
          0.01796992039629818,
          -0.1743083452130368,
          -0.09885743019943478,
          0.16693845266311633,
          -0.0174807818013872,
          -0.06974510870068178,
          -0.007438854258795013,
          -0.041700114239785965,
          -0.1776786092687419,
          -0.20696555307606637,
          -0.02822770414253081,
          0.11578904721826959,
          -0.043267818209819994,
          -0.16514072594714216,
          -0.0572955578780265,
          0.13451690282235826,
          -0.10627339487488449,
          0.12645746450113923,
          0.06386863829209116,
          0.051931757201394625,
          0.08062595135598763,
          0.3078990688384355,
          -0.03525724561548632,
          0.0655283036048821,
          -0.03471519135553416,
          -0.22281346604122698,
          0.10829514320869338,
          0.19945397070709006,
          -0.11819898642203948,
          0.04840644228552925,
          0.1589612816919337,
          0.10538954120597584,
          -0.06180280965545035,
          -0.11141765939367987,
          0.002481552719285864,
          -0.16620628054133002,
          -0.09602452316168353,
          0.25830157732628944,
          0.10797226218818826,
          0.029424457905301186,
          0.07122600523566248
        ],
        [
          0.07392226169166055,
          -0.17946801523492736,
          0.2579524097426545,
          0.13585577125630738,
          -0.10535951087678365,
          0.18215082568421168,
          -0.15609681620407562,
          0.1886098126068589,
          -0.0563880972475553,
          0.09252339601930216,
          -0.24879503840944397,
          0.015812919444945776,
          0.10494368790802391,
          -0.058732364170900324,
          -0.20377925272672137,
          -0.2529305932612942,
          0.24269734363355427,
          -0.13770756724589572,
          -0.024309548862022398,
          -0.0068966497867030616,
          -0.15869392483558423,
          0.1346875653740635,
          -0.16072866128388905,
          -0.2171463145763162,
          0.19612346244849535,
          -0.017605590577220075,
          -0.16461336467590665,
          0.018383110667041545,
          0.20360675857399765,
          0.19386014275079982,
          -0.23954463406295368,
          0.034532203818757094,
          0.04795722723309356,
          0.16555687326014493,
          -0.014809628575155567,
          0.22911363593630274,
          0.1016794187323962,
          0.1116515148688695,
          -0.12985354984153355,
          0.24322966256895368,
          0.22518896280502154,
          0.2449087052974028,
          0.13272307367949726,
          0.10854852143597474,
          0.21202235479205297,
          0.2599331274544231,
          -0.14672038199110563,
          0.03107155321502293,
          0.14984765844202858,
          -0.08299690148092662,
          -0.10800285486018846,
          -0.012703954489267786,
          -0.2098735904210993,
          -0.07679724443638536,
          -0.12340748585636968,
          -0.03129315445700024,
          0.11280013222856307,
          -0.0546282274149305,
          -0.0910879264901031,
          0.0526528318330498,
          0.0834355437656435,
          -0.20499184111403046,
          0.10331351370331063,
          0.14394804659623922,
          0.09083165525066647,
          -0.08936538505852495,
          -0.14714561925562764,
          0.3123875593528992,
          -0.18489055821827158,
          0.18848123835432498
        ],
        [
          -0.058180984100719715,
          0.25896480726308446,
          -0.09600540500046052,
          -0.12229980996366367,
          0.1810204907167552,
          -0.2440852865960024,
          -0.16595954600507487,
          -0.11863434139549471,
          0.00461259642253184,
          0.17139017805721973,
          -0.01937996860287286,
          0.09096024704069651,
          0.18990808869995332,
          0.021866519817829548,
          0.18317614183262726,
          -0.03146748958541702,
          -0.2124505366373636,
          0.019460143719560095,
          -0.02982899630235743,
          0.03130137943428656,
          0.07909745288305241,
          -0.16776730414476432,
          0.17662126260431998,
          0.18880034198764073,
          -0.14255472745569375,
          0.09308593934336133,
          0.21083433961175177,
          0.030926326773134834,
          0.11502723330970357,
          -0.13624893963269347,
          0.10999847251458424,
          -0.014670784653825054,
          0.2993107550687808,
          -0.008399731827921,
          0.2941155038550033,
          0.07634621258082568,
          0.024127763382605645,
          0.18894781541388492,
          -0.05437039852873671,
          -0.21140092982237807,
          -0.16521789002814594,
          -0.2032503290764596,
          -0.13313313901755647,
          0.18801270145043136,
          0.10677857544329944,
          -0.21222686535982394,
          0.07515302668964201,
          -0.21764063162317251,
          -0.1208423180967059,
          -0.1834220153860109,
          0.2653727784958257,
          0.1771016642493196,
          0.014557658044480398,
          -0.17067816025801494,
          -0.008461582272933985,
          0.031029772205194525,
          -0.044899172623604204,
          -0.042690153370960285,
          -0.13158682528528265,
          0.030243907689695676,
          -0.09571909909058245,
          0.04602782368078525,
          -0.09074871755810178,
          0.1921403325500027,
          -0.21857319927960983,
          0.06822337459678705,
          -0.12876559146932384,
          0.13073043756682048,
          -0.18772611129027947,
          -0.055089861074043824
        ],
        [
          -0.17361494386671694,
          -0.12437848240728536,
          0.15422948535215805,
          -0.16499522475758646,
          0.0008535120058420016,
          0.17253014059312263,
          0.10091426637066199,
          0.013505452960559012,
          0.07022230235400782,
          -0.19776826522890373,
          0.07610196867273025,
          0.12013241701549153,
          0.2055811320768151,
          -0.1635335522024766,
          0.0030246374478964926,
          -0.1965621385408823,
          -0.050289367844442295,
          0.0856257732219527,
          -0.02283116049587711,
          -0.1566096219488335,
          0.0232811385947412,
          0.12934561411992118,
          0.05686180600607565,
          -0.013219203746225748,
          -0.19309374616358504,
          -0.0405042397278973,
          0.08718044598604711,
          -0.15411794355897024,
          0.1867250976903685,
          -0.04794234674196101,
          0.19942971352571645,
          0.16590675467198146,
          -0.02091858053582887,
          0.013120609577398865,
          0.013675290008106425,
          -0.06418906762810103,
          -0.01082377081012772,
          -0.03880109277344316,
          0.009857072120066207,
          0.179815569560054,
          -0.07558146279809781,
          0.14520889849975258,
          -0.14260651970502278,
          -0.02041191804406799,
          0.17190918135910851,
          0.0029818837772180615,
          -0.10699684898433298,
          0.13316712930930635,
          -0.0808654414167664,
          0.06600011704349014,
          -0.0810162693350421,
          -0.12406224205662804,
          0.01630588558152497,
          -0.12332238215925104,
          0.07580934638530856,
          -0.07815864544448445,
          -0.17862286305431635,
          0.2066690849653534,
          0.17662631662721537,
          -0.030572734143722448,
          0.13392381928673266,
          -0.1438044087309424,
          0.10721637132330224,
          -0.18045165932369325,
          0.14070793794792444,
          0.048533165803635495,
          -0.08977203866064813,
          -0.17214893847023618,
          0.028075361344128007,
          0.04258484979430445
        ],
        [
          0.20287577903537554,
          0.05545165248306663,
          -0.1653199117678112,
          0.16072738429773634,
          -0.146400464002721,
          0.19660570390836005,
          0.16095625194681498,
          0.0925919963492789,
          -0.19991014722113962,
          0.016552538066603187,
          0.07827979745785348,
          -0.20430696823042532,
          0.04383118786464422,
          -0.11530211829581702,
          -0.09175669266922734,
          -3.6610224879327316e-06,
          -0.15912139089489177,
          -0.08836002305505289,
          0.09114965201089988,
          -0.08985965043681848,
          0.01892421470036694,
          0.20522458509960698,
          0.07358696682122506,
          0.1639658572905534,
          -0.0862792961505791,
          -0.07408937147162808,
          -0.04345302006105184,
          -0.030193848152344452,
          -0.12944700700388798,
          -0.04647460400584633,
          0.16677350090249132,
          -0.16009953046098005,
          -0.059187136680618174,
          -0.16488071034177343,
          0.04876790524036827,
          0.16084896221092235,
          -0.15184767504053837,
          -0.018012664734554564,
          0.052076879787869464,
          0.08716701192201286,
          -0.024963610224260944,
          0.1781130270401524,
          0.08593713741494916,
          0.1755026502363188,
          0.11112724796782543,
          0.017761035449124517,
          -0.1232063453781346,
          -0.15670598134863392,
          0.18566490097632574,
          0.05258706303859772,
          0.13493609214924873,
          -0.012008136890249583,
          -0.041021202092915716,
          0.0016370901627542442,
          0.1286490400269913,
          0.13445789052362273,
          0.08476312095102408,
          0.11132461888905844,
          -0.10353273719904021,
          -0.013127267226372266,
          0.1398024010936982,
          -0.17309561215681324,
          0.08636427598541746,
          -0.012904943665835894,
          -0.1143718873498903,
          0.03942651903908294,
          -0.039314823389827266,
          -0.00033165863740185783,
          -0.14224447941066343,
          -0.15044076888313299
        ],
        [
          0.10736394989456655,
          0.009666898021933277,
          0.18208058071221622,
          0.14828366362024425,
          0.08965008127522259,
          -0.10363467818894842,
          -0.14129237564602068,
          -0.18814358545825893,
          0.02506629237061151,
          -0.03592624143772847,
          -0.19700761964840896,
          -0.18436501369598116,
          0.2911690394963376,
          -0.18446355696893244,
          0.14251805141378912,
          -0.08962911378769942,
          -0.06805316284124846,
          0.08400642970727129,
          0.11776296282245279,
          0.14435139693666107,
          0.07607699300726561,
          -0.16439349259125188,
          0.040655910962515106,
          -0.10972467938297645,
          -0.08350726082873498,
          -0.20453458359998028,
          0.05524617334723531,
          0.09829651789145206,
          0.16538264692068178,
          0.17397901278262104,
          -0.09356416747867495,
          0.03662673285445302,
          0.2953685469296987,
          0.015174492839669604,
          -0.0383557759679161,
          0.16051638222831133,
          0.03064368650069178,
          -0.019098893642973704,
          -0.023036875120361476,
          0.12527863446759863,
          -0.16996340202323731,
          0.03683448450689361,
          0.1743373537744797,
          0.05681566885151795,
          0.04319355664204356,
          -0.08320423238999361,
          -0.08501389912763518,
          -0.09184560780918827,
          -0.12730249536074595,
          -0.20240621487571886,
          0.27155864162829285,
          -0.13402387747539943,
          -0.007000556947559391,
          0.18797821545340462,
          0.08365839937888939,
          0.021935192245067764,
          -0.1690014719695017,
          -0.010887949098818968,
          0.12363214469082634,
          0.026099375797811884,
          -0.02122897700382658,
          -0.19308020019223526,
          -0.09752414566508211,
          0.04640875478882233,
          0.11499792857407523,
          0.1489894994837675,
          0.08165754481165279,
          -0.17456862238339207,
          -0.040163653878534995,
          0.14003292554470878
        ],
        [
          0.140576412919088,
          0.15144754765871762,
          0.0456516523468543,
          0.1269720177418022,
          0.08501832883402967,
          0.12458761563107075,
          -0.1853677856289963,
          0.00378850083000688,
          -0.042560209108782915,
          -0.14298853121108346,
          -0.003984528316005916,
          -0.19749796044867204,
          0.04927812181421711,
          -0.1394422594384595,
          -0.1282686312816808,
          0.11261542888800864,
          -0.10553305246907085,
          0.09088120421354587,
          0.13557469765228292,
          -0.15657833325444306,
          0.1500332185501023,
          -0.1180173483604841,
          0.1365587871696134,
          0.12691054990734077,
          -0.14189267406021927,
          -0.06496207134585698,
          0.04392991741893854,
          0.11185498593518158,
          -0.06643642821021874,
          0.0015732246255777285,
          0.10135157785711348,
          0.13445700306922345,
          0.1582154583833885,
          -0.010710087845630331,
          -0.14314920082955562,
          -0.015344877022595653,
          0.04635052469243532,
          -0.05130063059604738,
          -0.053628853123431394,
          -0.05977884475670411,
          0.060565828676140916,
          0.182000147531384,
          0.05024215105553131,
          0.12623848138132046,
          0.08878526247452508,
          -0.01335556273634191,
          -0.13343127095502247,
          -0.06165189159376946,
          0.03920164538946331,
          -0.182508742106309,
          -0.17571681191623842,
          0.06878319829585827,
          -0.08789098369535582,
          -0.1843028795311007,
          0.07493120303199093,
          0.035343357477669694,
          0.04921039177972958,
          0.011597787515791965,
          0.05657146715483194,
          -0.062367793733699384,
          -0.18079167918050212,
          0.19634377320409238,
          0.0934134687929906,
          0.1695084021493621,
          -0.08625797746659404,
          -0.17636101582597274,
          -0.02374161108682226,
          0.16776183180045537,
          -0.11732270067648021,
          0.1546427067851629
        ],
        [
          -0.004168231808542978,
          -0.0647800427232026,
          0.17715425120930375,
          -0.1847398909951929,
          0.13611422864147615,
          -0.23587883379044194,
          0.16962736418828148,
          0.0004082040272292865,
          0.139721047318135,
          -0.12396031697373416,
          0.23861336454299506,
          0.11502034894263817,
          0.17201566905392257,
          0.04447955801866863,
          0.24157818613316664,
          0.1186462887077622,
          -0.19101861355339608,
          0.043405562877036334,
          0.16999834564492922,
          0.021969044397028414,
          -0.08085153643219538,
          -0.13350704541559477,
          0.013346874494571592,
          0.13496380792090673,
          0.09054656990644612,
          -0.07646152358783868,
          -0.11510102173407033,
          0.20011775279380675,
          0.07178355160084243,
          -0.07921596515699217,
          0.21940402978612836,
          -0.013012903870818451,
          -0.07642722312990163,
          -0.17732831910660923,
          0.20482978312603017,
          0.07704484403040271,
          -0.15842961954205279,
          0.18556234923401146,
          -0.108090644863014,
          0.003412815630093317,
          -0.13715305570127226,
          -0.1345575769000442,
          -0.004899650530980777,
          0.15265825143443898,
          0.15589267199625992,
          0.06568155621181351,
          0.06267601845548583,
          0.04938756606534582,
          0.12763446848945728,
          -0.09415877521344926,
          0.036739762112880894,
          -0.03319873435223233,
          0.012273648146585768,
          -0.15022661511836272,
          -0.211593283755041,
          0.14794561183498248,
          -0.19559559286172526,
          0.11364946729247295,
          0.016322100640490785,
          0.0776282771170498,
          0.17553764333706076,
          -0.10174005049034773,
          -0.036990611931417776,
          0.17900018377971524,
          0.17507331870403087,
          -0.0013433118189935549,
          0.17500369299451812,
          -0.09048307199096245,
          0.08032112629845539,
          -0.2026008807290227
        ],
        [
          -0.07921657692677057,
          0.11976959818629235,
          0.004889560008906587,
          0.17287656044774596,
          -0.030180966851902524,
          -0.026159091730481466,
          -0.14775506642351882,
          0.024753486408778,
          -0.11171255809537936,
          -0.03122658946315222,
          -0.022372299426315665,
          0.16439235305885327,
          0.18927865089819618,
          0.05265601581409198,
          -0.17538076461099697,
          0.1747121666797474,
          -0.009314675110519212,
          -0.07284522478984445,
          -0.12993731621516835,
          -0.07160695548697557,
          0.1285523289561785,
          0.082239605152022,
          -0.12862959593620432,
          0.11157884464023594,
          0.04162525798208625,
          -0.20550709703822573,
          -0.13617454075806143,
          -0.07533418679106021,
          0.14165841176369745,
          -0.17774291971354098,
          0.08837609388047139,
          0.024953293577221577,
          0.1368609632425411,
          -0.04782989048845986,
          0.13498298450959337,
          -0.0611431025093983,
          -0.1718507937525477,
          -0.024226201805459608,
          -0.060281222603642624,
          -0.0736457523712998,
          0.1810194448980693,
          0.14252811017981099,
          0.1989027522515032,
          0.20424827811738516,
          0.09653265763908761,
          -0.010646483311412446,
          0.19342493060424631,
          0.022991440729422226,
          0.19023192285070287,
          -0.040991446560745805,
          -0.06366698251154855,
          -0.12694721935811498,
          0.06981169636996387,
          -0.04685177251620568,
          -0.0017972444965345337,
          -0.09679262908535227,
          -0.050126322443320916,
          -0.0011393709887449162,
          0.061356937379511534,
          -0.09237779881843414,
          -0.1794170437837676,
          -0.0016594247424760644,
          0.18586734799098703,
          0.20689948172780864,
          -0.03820331721955564,
          0.09483085567201402,
          -0.1512946635047228,
          0.16414173463478166,
          -0.019973782813588525,
          0.12934852273225247
        ],
        [
          0.1574915248156009,
          -0.0916367589748698,
          0.19903779933468785,
          -0.1917396870980132,
          -0.05332376329532209,
          0.05397262391980831,
          0.08853358118293925,
          -0.07772580203977049,
          0.11542306150452242,
          0.17658844046381236,
          -0.06351972837281504,
          0.05779136522952042,
          0.14209555378403393,
          0.1875695814411395,
          -0.07851011470880705,
          0.02041727292931852,
          -0.044841984454191325,
          0.00462234228888746,
          0.20102169021661045,
          0.11424773533599927,
          0.12173040725714547,
          0.13775099310304972,
          -0.17826804983765887,
          0.12149091153208232,
          -0.13074450453431577,
          -0.04166586922023292,
          0.1239223045400836,
          -0.009353128165402822,
          0.1267303333401215,
          -0.03144523243178848,
          0.1778359819620552,
          -0.0318649110877867,
          -0.1803394062835951,
          0.18740156532763594,
          0.13750087068036645,
          0.01353279492110438,
          0.042046149920206534,
          -0.16906457595828486,
          0.007688785027095773,
          -0.20060553087848743,
          0.03276490159428246,
          -0.16167591926007097,
          0.00496141291344022,
          0.0006788144176031274,
          -0.19573455755880412,
          -0.07045203337084599,
          -0.14399343028344003,
          0.11844421954949987,
          0.016194639841135505,
          0.01823634406094073,
          -0.17333186721077634,
          -0.05721531199899682,
          -0.062296215756318496,
          0.0650756416255572,
          0.018583245939237117,
          -0.03312018547299987,
          0.09694665211986517,
          -0.10359876998687989,
          -0.1459941310255751,
          0.053823522692917805,
          -0.013773659562498281,
          -0.14933907621292683,
          -0.05426945831848979,
          -0.15679035057925292,
          0.0918570149231878,
          0.1847575863503924,
          -0.1938076606611383,
          -0.013901870483977433,
          0.08653342800713873,
          -0.15988100092399493
        ],
        [
          0.17079565255538973,
          0.023595064092757082,
          -0.11746190144196027,
          0.05594585917714013,
          0.16194808673722633,
          -0.10442430369026555,
          -0.07347322419217876,
          -0.1863594583999765,
          0.14056413292458814,
          0.087941359129457,
          -0.17078009115340614,
          -0.012806068067329035,
          -0.026991909795139945,
