{
  "layers": [
    {
      "activation": 1,
      "biases": [
        -0.697249754120825,
        0.8543465203790238,
        0.8774824822843149,
        0.5209413794803107
      ],
      "cols": 4,
      "rows": 2,
      "weights": [
        [
          -4.991526244933072,
          -3.860860329027997,
          -5.17869656260096,
          -3.6968520389173847
        ],
        [
          3.0392510935393098,
          0.5627649301840928,
          1.7380745706461436,
          5.2255610016304965
        ]
      ]
    },
    {
      "activation": 1,
      "biases": [
        -3.3862646540958794,
        -5.5206179699507265,
        -5.791508006960593,
        -6.124461201017659
      ],
      "cols": 4,
      "rows": 4,
      "weights": [
        [
          2.3605394836891973,
          3.6771992363995296,
          3.8952801297075714,
          4.043485289788231
        ],
        [
          1.4219870832022425,
          3.304124510414182,
          -0.050475143687659256,
          0.925833855521841
        ],
        [
          2.4898544786573633,
          4.875767275112747,
          2.105364265785654,
          2.4730091979287776
        ],
        [
          6.948569405884696,
          2.148835495775718,
          3.218074799481929,
          2.603611788422357
        ]
      ]
    },
    {
      "activation": 1,
      "biases": [
        -5.077084615547638,
        -8.849806037961066,
        -2.769746140503727,
        4.36884331580572
      ],
      "cols": 4,
      "rows": 4,
      "weights": [
        [
          9.817396567817504,
          -4.630646659788971,
          -3.8583863682191684,
          2.9865066139370966
        ],
        [
          8.258334621193875,
          1.7919393514128303,
          10.576184377939118,
          2.35728891418881
        ],
        [
          5.2276308536000275,
          8.991111862107605,
          4.985641147719434,
          1.998327241495955
        ],
        [
          3.8105036818463516,
          9.136081942149232,
          6.011101350622124,
          0.6693422844208684
        ]
      ]
    },
    {
      "activation": 0,
      "biases": [
        0.03205268559342723,
        0.0011698273537616296,
        0.16777819760367924,
        0.16550960023936281,
        0.0821515503781918,
        -0.030822310692773,
        0.0030432595851653146,
        -0.028951142461897773,
        0.027682489761191014,
        0.09345160732452418,
        -0.0023500969466154877,
        -0.01888204340459957,
        -0.025447608871532114,
        0.02695295911030944,
        0.22483738135920553,
        0.17861810659447047,
        0.06294414965889485,
        0.005452187201553403,
        0.1273123006898381,
        -0.03638232327855412,
        0.057189318426628236,
        0.02592831707309455,
        0.06667192136533802,
        0.08059446601961183,
        -0.06013861325071709,
        0.14862251817201688,
        0.027434598141706793,
        0.029932712875818637,
        -0.07387734911415618,
        0.1376575631639237,
        -0.020707148481319354,
        -0.063603628882479,
        0.06598541709021212,
        0.13136238130286604,
        0.10201511874699522,
        0.026278929113553222,
        0.06379690679775532,
        0.17235067368120133,
        0.2314187080745963,
        -0.008195303019706222,
        0.11320748759354322,
        0.18834507662449704,
        0.0747781368529366,
        -0.019776144166706217,
        0.09109585771501098,
        0.12645972253150065,
        0.01181349911519803,
        0.09546047748825988,
        0.03318538959725136,
        0.04516614036023816,
        0.13833204616783712,
        -0.0031611129724492576,
        0.22546976281898234,
        -0.036661271791542285,
        0.17727522367231988,
        0.06318246375865458,
        -0.07005783296840494,
        0.14045184566818916,
        0.24904578165244837,
        0.0855790148397646,
        0.08323604288818315,
        0.05306515329925959,
        0.1183581632780558,
        0.0111512679015072,
        0.039011718369540246,
        0.18218065728046792,
        -0.011445689689355538,
        0.17485441273245408,
        0.213732438442447,
        0.08274797428189448,
        -0.06585815494699991,
        0.007602687481230905,
        2.3445392267447143,
        -0.2451645171646594,
        1.9840560007716577,
        2.631313422174472,
        0.8133864929894643,
        1.0076769791837945,
        0.7057160343724752,
        1.7595212605359534,
        1.6341628171334055,
        0.23567257709979286,
        2.553490213386701,
        1.276117863302994,
        0.4559656763547473,
        1.5117894237524852,
        1.1380656580765258,
        0.3182437087490796,
        0.7284486797936592,
        2.9429692257529907,
        0.7882391508831131,
        3.0563114727548233,
        2.178853484525151,
        1.928771504350969,
        1.2837312701592634,
        1.6371711635337698,
        0.36533858278756864,
        2.4094078172617315,
        0.0513199791529743,
        2.869046059097825,
        0.3059470707885214,
        1.244801979883914,
        2.1745740854745566,
        2.762073855971942,
        1.7592037846526305,
        2.290265259690956,
        3.0351406065876563,
        1.4128061916801775,
        1.5972348899975355,
        1.4152636128061484,
        1.554953705579494,
        0.5831860038210345,
        1.1600507163485587,
        0.31633755428105664,
        1.6195803455346507,
        0.44140519537139195,
        2.5281118717462947,
        0.42917934465497015,
        0.5206142462123894,
        1.240808296674981,
        1.900958048635084,
        1.5952706990359027,
        1.7922988399928255,
        -0.13399243658212198,
        1.8565694052148805,
        3.133647660688233,
        2.255502700709986,
        0.0440178390851345,
        2.9844162007427433,
        1.8909411808132228,
        1.8692914340608902,
        2.6135008851991675,
        -0.39577739392625083,
        2.6818966547550507,
        1.6192646917767464,
        2.086268663733047,
        1.1264268815508485,
        0.6028091406462297,
        1.927172478086578,
        2.500203176734483,
        2.5273500246956404,
        2.325461576632271,
        2.7729424447288733,
        2.6388771421963484,
        2.157858951534975,
        0.5229984359928478,
        2.637664494568964,
        0.10566670032524302,
        1.1823505995594585,
        1.113680520182147,
        1.015089360321578,
        0.2575917546408814,
        3.0703220673243843,
        0.31083580722959836,
        1.7806970201012025,
        0.08247871339557879,
        2.3664445547747714,
        0.603554208068549,
        1.2043707386617541,
        2.6484842655684666,
        1.131850656681297,
        1.464289998161027,
        0.024065329865717796,
        0.3745889906920405,
        2.431111603495765,
        0.15820441377910685,
        1.3877268909433857,
        -0.3844736041911068,
        2.44188631911255,
        0.017901286484186252,
        0.3512740465365871,
        -0.05909790256868935,
        -0.37967108866411337,
        2.9583072771611185,
        2.4949777150337282,
        1.7356293818082311,
        1.0662882889626204,
        0.5582419128363063,
        1.6170452328676261,
        0.9753201828622073,
        1.4721572751497523,
        2.6097470133013174,
        0.435943616645391,
        1.3105450171387298,
        -0.05860493335640751,
        1.7377012666078795,
        2.211966819597913,
        2.8972344254752933,
        0.09568595312440986,
        1.4444046324349413,
        2.153611522102237,
        1.421515196505882,
        1.394383403617101,
        1.7239411175420607,
        2.448037144101371,
        2.3108768589012936,
        2.0511631215864496,
        2.8260066908016133,
        1.0252779087333665,
        2.867270340254162,
        2.236537294446311,
        2.9209310964489776,
        2.369779779214834,
        -0.08477554476931203,
        1.0758288317109177,
        2.083959405086901,
        2.032683273426895,
        1.992611403783261,
        3.302602733438383,
        0.730046670191127,
        -0.2553819179592703,
        0.47826761397762907,
        1.6680976912060463,
        2.5299770726390243,
        2.596788495356008,
        1.3207250550767435,
        1.1001381664346968,
        0.4948464238617958
      ],
      "cols": 218,
      "rows": 4,
      "weights": [
        [
          0.1273943772996634,
          -0.0314020071609428,
          -0.16768944085303147,
          -0.1580320029359637,
          0.13919728641482176,
          0.23204539551537817,
          0.18960911252997514,
          0.14909677675736727,
          0.12490954857393231,
          -0.21443871145086638,
          0.32247053161906636,
          0.08460631253511486,
          -0.000264664281589314,
          -0.013389666065983541,
          0.030268798168193268,
          -0.2524424186529329,
          -0.009648241696012406,
          0.27538424196988903,
          -0.11455232612622768,
          0.11897440187133501,
          -0.1768883795010779,
          -0.09667306147164259,
          -0.20757322899731115,
          -0.2863238881002571,
          0.3294987303475362,
          0.00194612281146391,
          -0.03868042897543903,
          -0.006759683611343355,
          0.32677208829723114,
          0.1430040328071303,
          -0.05584960645732533,
          0.2197360828337898,
          0.1421203215109284,
          -0.10896805259117526,
          -0.10323249540761226,
          0.20509573506035902,
          -0.08198463023294536,
          -0.2423387887133253,
          -0.10801209166937331,
          0.08315926813315622,
          -0.15261301674752697,
          -0.16256413329105196,
          0.2650806756936818,
          0.005891079113359314,
          -0.04101533113160779,
          0.007037105248064256,
          -0.08269663107804393,
          -0.06012284018578297,
          -0.14326231904661074,
          0.0070312917043010665,
          0.1390309048441056,
          -4.4594633441399276e-06,
          0.0012745066651915545,
          0.2935741302244699,
          -0.1189209345482199,
          -0.15641119936084502,
          0.13431101547778462,
          -0.10885374696771137,
          -0.21781627265340953,
          0.01994957084787676,
          0.14049706488413113,
          -0.037319779535377254,
          0.04693380946233754,
          0.01468149182853229,
          0.019904029347396556,
          -0.19142346315807013,
          0.16911520075662448,
          -0.15024714262024566,
          -0.31531074877415477,
          0.08035648726094083,
          0.11096902965435648,
          0.13398525367792627,
          -3.7183967991913547,
          1.4816332293501013,
          2.7313018467404153,
          1.2076624782770724,
          -0.37173512038264317,
          2.918200459607615,
          4.42276663396183,
          1.3352802608606038,
          0.8152648455466845,
          5.327655872897256,
          -2.8684173111299716,
          -0.7722883272560375,
          0.8327341141320883,
          0.11962407576128256,
          2.010371347984394,
          -0.3027889503646876,
          3.171386962844362,
          -4.140591476872464,
          1.8043888647103643,
          -5.524472302539365,
          -1.0356884656557477,
          -0.6250103072828295,
          1.5419071011154724,
          -3.2694934686115613,
          -0.15718043579613655,
          1.5264681699901395,
          1.5534120404084422,
          0.9930684827582268,
          0.04450611342515233,
          1.3846565904326718,
          -0.8623769263355074,
          -1.4251589596263963,
          -2.5424119954348092,
          -0.7035896464808704,
          -3.4606613523705483,
          1.8456603727544805,
          0.1170801773318989,
          3.0839635021547664,
          0.5078107859764072,
          3.4568905927212716,
          3.749289656302629,
          2.90286756486186,
          -1.1167061111957577,
          4.004930890840028,
          -0.25958702375460546,
          5.242276420712253,
          2.7689196945237557,
          -0.36385656168257574,
          2.3939719035807867,
          -1.154957006076135,
          -1.3110764289371994,
          2.062891492277556,
          -0.961246889818403,
          -4.981995628927367,
          -1.5485080502390174,
          5.737370766264067,
          -3.3071861255320267,
          -1.5065038624664484,
          0.42229583339591553,
          0.06038701991216487,
          2.4954839342311743,
          -1.7282995313656175,
          0.1842798640229738,
          -1.8784303825437527,
          4.4023743934546715,
          2.086572362749363,
          0.6256127913279709,
          1.8932380556473447,
          -2.6348168355138384,
          0.25611342641002494,
          -3.3955801541973796,
          -3.0717687775846185,
          -3.8978235140934565,
          0.7697422060988731,
          1.93084123465674,
          1.0465970120389978,
          1.8879358246867857,
          3.8152616823360375,
          3.2567358609803305,
          1.0713590738810705,
          -1.529133307476405,
          5.133848271099169,
          -1.3050051801226854,
          5.2522317179575015,
          -1.2078602174436783,
          4.384714853869708,
          -2.437476754661006,
          -2.746159611306406,
          -0.22333253091131366,
          2.0821115563421166,
          3.992175738141126,
          5.355941039587561,
          -2.993163686495793,
          1.4497445455317046,
          -2.758494590125843,
          2.3304909943851517,
          -1.4809995802763676,
          4.091911449222684,
          3.978674963054268,
          6.12457572690554,
          3.8874438696861287,
          -3.222995611193143,
          1.0916600995333057,
          -0.5934986841205504,
          3.7431389310804724,
          5.098523865317975,
          1.8261969706776553,
          3.9109266996573546,
          -2.8146050809407255,
          -2.4355127841190507,
          -0.47536139479815354,
          1.910840618689638,
          2.2499785051645116,
          -1.7359012826237772,
          -2.3509873196574076,
          -1.2334150538465012,
          5.750586594381967,
          2.4957088003245564,
          1.2208015166235775,
          -3.144362148162986,
          1.3831782187951058,
          3.026204717346796,
          2.0112274046303344,
          -3.7776195822677807,
          2.0797256919984606,
          -3.2501990237358216,
          0.4375898101523834,
          -3.4959645787647227,
          -1.0859694462193754,
          -3.9777188352214683,
          -0.4392542353728647,
          2.835133809462325,
          -0.14020695454781812,
          -1.6275865951102995,
          -0.8836935987358999,
          1.0328450380804584,
          0.23176872357854994,
          4.402245334187461,
          2.9923267178360793,
          1.340295214183886,
          -1.2618493175756331,
          -2.919355544716976,
          0.012339247039644074,
          -1.045887312812742,
          -1.9384881387410668,
          0.04540797513615369
        ],
        [
          0.32847168284964456,
          0.2512884802805869,
          0.21296484243170194,
          0.20445651257069636,
          0.07767407556000479,
          0.27894622759906323,
          0.05041185772216781,
          -0.1507958533947078,
          0.16915318962939332,
          0.08040671401926781,
          -0.019796400071069878,
          -0.03298376686884053,
          0.2513090955373222,
          0.24642025706433485,
          -0.013694527252807374,
          -0.060384108487372495,
          -0.031253733705317185,
          -0.060026891749121514,
          0.18301781161017208,
          0.13071330532628275,
          0.23628202267322504,
          -0.006094909195048663,
          0.19421425150464627,
          0.16087207172868534,
          0.10369496933856209,
          -0.07015696780597512,
          0.07035384180465817,
          -0.06341083588161904,
          0.13391318724492843,
          0.028420123848746058,
          0.03597589206501284,
          -0.16175713906140005,
          0.05344805056270018,
          0.1903286904920092,
          -0.14781423308132222,
          -0.11638627790817704,
          0.25134120709874785,
          0.24627221292945173,
          0.3353371630700229,
          0.12081659336625274,
          0.2533846231551692,
          0.21311754705811503,
          0.12084747585661564,
          0.21537888487088933,
          0.18401075904932307,
          -0.04204912388747004,
          0.04230000636130731,
          -0.07049129586391553,
          0.16082773293929026,
          -0.10070314270358122,
          0.23959076392120301,
          0.2040913237073167,
          -0.1305105048798564,
          0.1901899440535961,
          0.3017283366597664,
          0.11336408379813012,
          0.181096713270433,
          0.030079219949869403,
          0.014146805518809513,
          -0.1065424644195106,
          -0.09144672077323772,
          0.19919888608414238,
          -0.10034661087276828,
          0.18010584321433945,
          0.07552584721918347,
          0.1910177113007128,
          0.2251750338685961,
          0.01615870403552086,
          0.10051126715319422,
          0.020492696018554767,
          0.22447113689679327,
          -0.08432655406744564,
          5.2761420402649035,
          -6.667866291788237,
          3.3159040113717473,
          4.4049930162959345,
          1.3327233987170113,
          -2.1814679709705436,
          0.004014758821489885,
          -4.025042617460495,
          7.711116647199289,
          7.167801381156986,
          -0.632827415515997,
          9.049135765657256,
          5.362350359508393,
          0.33182552487442324,
          4.356158461570805,
          4.896515054077989,
          -5.278805400883728,
          2.0121477730668347,
          -0.12975379486114666,
          -0.004388462734459745,
          -3.18618480873988,
          4.022284639744225,
          -3.3097720091810436,
          6.697761816478002,
          1.29392597703101,
          -1.0059897664629414,
          -3.0206052512522614,
          -4.6912424408224025,
          -2.265999238042597,
          -5.910906082169772,
          2.007351560844327,
          -2.6435986405550826,
          7.036665616084312,
          0.8828778638536376,
          -2.473706440937627,
          -0.5405462273591273,
          -0.003224175971372601,
          9.72376317395445,
          2.634219967987607,
          5.029042042096355,
          -1.0043166775812526,
          -3.355819674018381,
          -5.284322234648333,
          0.8355070065818889,
          5.78288131676633,
          -2.3439212187841085,
          5.657676685156138,
          -5.66113957598,
          1.9295078257409863,
          0.6223448027033458,
          -2.641075317143596,
          -1.3412505238753873,
          0.7555203518926418,
          0.33380490349443653,
          2.426481718956986,
          -3.769767697885378,
          -1.6356671248813095,
          1.6779346323082545,
          8.046559129999235,
          3.0167338603384057,
          3.5130050431642985,
          2.0118778851395844,
          -3.0203611433587327,
          1.3424041130324202,
          -1.3399851683576074,
          8.715432753764498,
          -2.010565143275679,
          -2.0078238637581527,
          1.4262749725143138,
          1.33782804205448,
          1.1239581810704686,
          0.7511514104244983,
          4.016781360070531,
          0.33261218557588945,
          -0.03703246724268882,
          2.344612779287149,
          -4.358950096227065,
          2.685870795669029,
          -1.8882568304021439,
          2.927333832552273,
          1.0089499810311093,
          3.6031280752137036,
          -1.0075292872021777,
          0.0013509888382269883,
          7.372764190546968,
          -5.151916623605667,
          0.3704102303188033,
          0.6687695986865718,
          5.276584322629807,
          -0.9651023533546601,
          -1.6383488916106452,
          -1.0064017960847793,
          -4.3615202957052,
          2.007995438524423,
          -2.394462242696589,
          2.0030994843349643,
          4.14920664380797,
          6.036265204264339,
          2.51151333132957,
          -4.6924045025696275,
          1.000887910232452,
          -3.690012234805285,
          4.360621934047961,
          8.378594880522819,
          -0.0011286862692114644,
          -3.683825899247643,
          -0.0038015041422529393,
          6.118112696426958,
          1.7953892086825358,
          2.303902653618794,
          -2.647716798002992,
          0.12820881657236377,
          8.044429075987741,
          -3.2324061169338165,
          0.7492934133443737,
          1.889533550747691,
          -2.0108923604569036,
          0.003542108732846594,
          -3.3920379564083456,
          4.894566788941749,
          1.7590471042809472,
          1.8837689562880016,
          4.023863278254951,
          4.142788768851218,
          7.41982712146791,
          -4.402437088155477,
          6.029650036263588,
          3.765079661161397,
          1.0014516688758806,
          -0.005141959946798453,
          2.385450613128791,
          -5.030439476065017,
          -0.3380818694317737,
          3.3488313106847136,
          -3.3543577686899377,
          5.911060429063303,
          -2.9706422620096995,
          4.024336518763796,
          6.702466450829512,
          -2.055275451761679,
          1.1275367972092192,
          4.268874130011112,
          -2.3463167085493275,
          3.386978328893965,
          -0.0022526841249566124,
          -0.0012207797329064978
        ],
        [
          -0.329651157349189,
          -0.0002619850450383914,
          0.09911087907363758,
          -0.05199901845659693,
          -0.2724309800644159,
          -0.18460235461050528,
          -0.15691921759471414,
          0.002554272676160981,
          -0.23639031562496252,
          0.0008252973733934156,
          -0.31670038027092234,
          -0.15137363671533663,
          -0.000401081350318412,
          -0.0909728362690711,
          -0.28197685605894457,
          0.047495511134772316,
          0.08062248440823554,
          -0.25613210669873343,
          -0.05009473850838883,
          -0.02995614629416854,
          -0.044931315062583514,
          0.06376994942461037,
          0.1414250439860079,
          0.0009237731822941116,
          -0.16603869871303087,
          -0.1509310943354818,
          0.04026838509953564,
          0.06354915035601125,
          -0.21740500665164533,
          -0.1919676799526084,
          0.12502410755098742,
          -0.060201314700430456,
          -0.14164054803950768,
          -0.2414987027243339,
          0.04793595103359701,
          -0.20943726522783923,
          -0.01011427602716642,
          0.0007240028139952322,
          -0.24155856398977843,
          -0.18173760433736058,
          0.00020357296912389597,
          -0.0015961799909614506,
          -0.17249276338563513,
          0.11929290677995297,
          -0.0031984611863193468,
          -0.11877196913791599,
          -0.06315889335161957,
          0.07090949142207982,
          0.00037214052473825363,
          0.13100927972158774,
          -0.32235117436642563,
          -0.00035756609306079087,
          -0.13066631543344398,
          -0.21193615035451294,
          -0.13077912243686496,
          0.16156782595179714,
          -0.14181418526520786,
          0.05081902086559163,
          -0.007198278735571192,
          -0.02005672320899675,
          -0.04973706722920586,
          -0.09892342389731869,
          -0.1691698643831504,
          0.14758124689651186,
          -0.09587712030795412,
          0.01060315348182148,
          -0.06644592882784926,
          -0.035613811921717135,
          0.06053647537638332,
          -0.29574138715327475,
          -0.0008527642008629486,
          -0.1343445056396067,
          1.3494658888108386,
          6.796403142561198,
          -6.098351051481947,
          -6.051477372061936,
          6.372496439494408,
          2.6731719474139544,
          -3.710235248009903,
          3.3537886950494107,
          -3.706340710070245,
          -5.067091584551192,
          4.038097931920512,
          -1.6882847595037456,
          -1.018737813187099,
          2.6818506079697064,
          -0.2680318055390041,
          3.3479721611079154,
          0.9159736757895032,
          -1.1176995326715513,
          3.262284991495715,
          4.049158190342834,
          2.5245163965512916,
          -1.1364132648132037,
          0.6264556762480723,
          3.3581730426295486,
          3.7304108261871143,
          0.496740956405783,
          4.022922581560551,
          0.0016947234409707484,
          3.525307087735416,
          4.23730588105169,
          2.641405409815106,
          4.160449037940826,
          0.12560861104147303,
          -2.724605072972324,
          2.3663280768694896,
          -3.488313251373615,
          2.6822064333922775,
          -5.732341665111122,
          3.7246609925498553,
          -2.70728984949805,
          -1.0224097122304043,
          4.017151558403528,
          5.79893785161283,
          1.489853052326315,
          -2.3988224835452923,
          -1.6976389038689537,
          -2.9149224225264625,
          5.670433003985135,
          -2.5724027048011147,
          5.03518002503673,
          2.0219550299058455,
          0.6635312517576466,
          -1.2556186228071868,
          1.3626302448252496,
          2.476051435842891,
          -0.271936311150061,
          2.0290066329478704,
          -2.009340396230834,
          -4.0405123026907415,
          -0.8866423296432798,
          4.260145735037543,
          -1.1284523098741397,
          3.9025527885023843,
          -1.671664948670044,
          -0.6473533540735626,
          -3.0422562250418754,
          -0.00044151169966621587,
          -2.3546529550892386,
          -1.6685901684016722,
          2.0084294270480125,
          6.050317527749463,
          2.5273558322857994,
          3.7003845319474267,
          2.008305979619525,
          -4.286624918861287,
          0.6624989368486898,
          2.3457778921881487,
          -4.7182246091298214,
          2.6711254142222343,
          3.764060549181215,
          -3.0149542699529848,
          -1.2870098001921297,
          2.019343328329947,
          -1.533391036160503,
          -0.845710043210429,
          -0.2217883413934082,
          5.670495265206237,
          1.3521001269406205,
          0.7470533278171564,
          1.333035849413144,
          3.758110289899086,
          0.6058587770295235,
          4.883118462031561,
          2.0027340361302737,
          6.053603481449453,
          6.024330845128491,
          -2.1391832788427956,
          -4.4306865618526245,
          0.9841295527297073,
          0.6504224038310118,
          3.335255977326159,
          3.709044329885835,
          -3.996137474459947,
          -1.3530274014919677,
          0.6533182834021264,
          -2.0303665236528468,
          3.009990741060853,
          -2.7951601259301353,
          4.915237310471059,
          -0.035613737466845055,
          7.553542759018269,
          -2.2736977051929586,
          -2.3707485104247747,
          6.259637055952887,
          4.033759064915631,
          -3.8981072600135853,
          -0.023116479368359137,
          -3.1567691139022305,
          -0.6300989235852106,
          5.163357808860736,
          -0.009643977858344439,
          0.653412032948099,
          -2.658058260159423,
          3.40609980650162,
          -5.430901101173327,
          4.045611005552818,
          1.371898249126261,
          4.034044111041921,
          3.2310301261566883,
          4.545308182487879,
          1.632598296351224,
          3.3913661450040595,
          2.4746711269773316,
          1.678555953850473,
          3.027292385525616,
          -4.543200399467018,
          -2.6813538598126208,
          -3.17147419502503,
          -1.030331381758903,
          2.3449703258198866,
          2.8963664605268744,
          3.0244031418294304,
          0.6733164867171308,
          4.778947753686186,
          2.0210438240248507,
          1.0059153056464039
        ],
        [
          0.1762590491834161,
          0.09011462969694772,
          -0.001393584283303277,
          0.17414098266533734,
          0.0506633801172129,
          0.03875577211524132,
          0.05402127889227431,
          0.027545746606756624,
          0.13924929958899854,
          0.12004600291333448,
          0.016270226137423942,
          0.1255107037760944,
          0.025718465105858474,
          0.07689104371535382,
          0.04051624783927721,
          0.15649371127184628,
          -0.053774171942832655,
          0.05508838915375418,
          0.036982401481645895,
          0.037124308430858906,
          0.19920797133542345,
          0.13305588227446294,
          0.13932074934989983,
          0.2045320411726462,
          0.06634176844037548,
          0.07026738352564713,
          0.010891771417903843,
          -0.023541035175927576,
          0.08306309298369072,
          -0.019006225853869876,
          0.1056757629106068,
          0.06524001836431806,
          0.010275442390625056,
          0.21847548462776928,
          0.1005653375774845,
          0.10400936896236632,
          0.02788083963207063,
          0.06888582375874132,
          0.11735019572389337,
          0.11638166105674384,
          0.03875865859969482,
          0.0034744398181485755,
          -0.047778373148883606,
          0.013354561235075417,
          0.029791030137715946,
          0.02717511378740511,
          0.13389633413899607,
          -0.03602140703180961,
          0.1094606313453359,
          -0.052871671478889895,
          0.05824376194767462,
          0.0031823348503761052,
          0.033956956333364666,
          0.04550085511298936,
          0.07178960789559687,
          0.09170720932314044,
          0.07711325692555013,
          -0.03239020733702806,
          0.08789351577967915,
          0.03467940547500766,
          -0.08289401833194253,
          0.19471498573689877,
          0.14384687112065336,
          -0.019522607202296857,
          0.07171254029039191,
          0.00832772042983735,
          0.013394773617612842,
          0.024914986504197194,
          0.12091820962062609,
          0.1722186089636482,
          0.06541166312313798,
          0.13975859138890454,
          2.0176027275250896,
          -0.13898481298873538,
          1.7038257725338835,
          2.1982564343552355,
          1.1916032286517504,
          1.0745343576512776,
          0.577476015280726,
          1.5619506434189483,
          1.573666590549667,
          0.48665140056249256,
          2.2826393758179444,
          1.168171284844192,
          0.720451227103352,
          1.3562351361316487,
          1.1125594663624672,
          0.6330137564909912,
          0.4437761589284499,
          2.3105779491354133,
          0.7744579326797477,
          2.423716249976687,
          1.8404056341388337,
          1.8249668452977383,
          1.1789804026548492,
          1.6009712443545634,
          0.43902849710260294,
          2.0697151579748927,
          0.04877675967898594,
          2.1436931259634178,
          0.38215170821314887,
          1.0228146777212987,
          2.046497239177353,
          2.3868654914340626,
          1.6466017131072157,
          1.7581823937052299,
          2.399134419165944,
          1.101563244631956,
          1.6068211723163632,
          1.5443802985919115,
          1.5880924472606064,
          0.656241953542412,
          1.113613566432426,
          0.4406988522801068,
          1.4635882827540578,
          0.5646237601198582,
          2.1183464424255205,
          0.361391859620625,
          0.7380949474902151,
          1.0934494922316365,
          1.604813493598772,
          1.5296868460918729,
          1.503425349217749,
          0.07726171800215176,
          1.6075195059868463,
          2.4866591651577297,
          2.1494674619802354,
          0.24645916705901394,
          2.2986797195834408,
          1.6197157467625272,
          1.7314337317210182,
          2.206973573768089,
          0.14003229773497353,
          2.170293162466111,
          1.553469529555481,
          1.7929523814141308,
          1.1201846004406897,
          0.6689426071359883,
          1.4509010885719844,
          1.9616098515674594,
          2.10498586987659,
          2.0771206237332596,
          2.5778316119214733,
          2.4073301738712716,
          2.037670414003426,
          0.7009591709328709,
          2.088115110282035,
          0.18247161701535833,
          0.9271080790485374,
          1.112874201315589,
          1.063492206139691,
          0.6571046463959135,
          2.46842345010227,
          0.5854352684448928,
          1.5089724476592101,
          0.19712672470185852,
          2.3411772153957524,
          0.3665902272122584,
          1.1938722899748828,
          2.0793922099821613,
          1.087076731247493,
          1.4571836669187288,
          0.23309702000135865,
          0.6662542170449675,
          2.0249288198081987,
          0.38868912050379223,
          1.3282568696592691,
          0.03404134523530997,
          2.0441321017564134,
          0.3062424993349203,
          0.6834722902295755,
          -0.04069239415948774,
          0.15975822783092766,
          2.2325106834086994,
          2.0645412064799666,
          1.862743594087495,
          1.2049847676899141,
          0.3771643874988189,
          1.5506422724100848,
          1.1461557990141997,
          1.3053091818486622,
          2.1909422136236723,
          0.49930734203456606,
          1.0494377287125773,
          0.16401501516850278,
          1.6262304932519436,
          2.1089496116965982,
          2.351509631599312,
          0.18028910652415772,
          1.2129390452893158,
          1.6353471451665398,
          1.683029305232999,
          1.2294101568379112,
          1.5944924475498357,
          2.189403433918358,
          2.058172134872543,
          1.9068802113237686,
          2.3903043298836746,
          1.1575485197951623,
          2.5935500005497554,
          1.9541129946411757,
          2.5169180538912572,
          2.0601882500867883,
          -0.12949939336858687,
          0.9266637716220041,
          1.8618645964633964,
          1.832711405490779,
          1.627969879621584,
          2.481733534565261,
          0.9042383284041314,
          0.2818204558893763,
          0.5093392862911823,
          1.5741259058228414,
          2.3618575986230455,
          2.0554072902982248,
          1.446782451477306,
          0.8196968213716577,
          0.45508998004028955
        ]
      ]
    }
  ]
}
