{
  "layers": [
    {
      "activation": 2,
      "biases": [
        -0.0017348201759691232,
        0.001638641006338296,
        -0.037373131908804855,
        5.38251676485124,
        0.0,
        -2.4079425268189627e-15,
        25.01057499015372,
        7.718815198541124,
        0.0,
        0.0,
        -2.5467682856402585e-15,
        -2.072820648087008e-15,
        0.0,
        -5.946209135943626,
        0.0,
        0.0,
        7.931814651051226,
        -0.027715894802075657,
        0.0,
        -0.0005137774484892311,
        -3.798290138403901e-15,
        -1.52319318654001,
        -1.33575193722965e-15,
        0.0,
        -0.06839451061701456,
        0.0006402713891991298,
        12.224252437682003,
        0.0,
        -0.06166479936244049,
        -3.225405841402273,
        -1.0743404651676776e-15,
        0.0014528734616710273,
        0.0,
        0.0,
        -0.02143951325255229,
        2.2015441715793784,
        0.0,
        19.584634501953,
        -0.0015587604893514849,
        -0.1177436969286236,
        0.0,
        -6.163066085829379,
        -0.0009463054436785527,
        0.0,
        31.727362724601736,
        -6.828021947949607,
        -4.861901621916779,
        12.855060938343566,
        -7.593979466218103,
        0.0,
        -0.018811132750271502,
        0.0,
        0.0,
        20.41716031201574,
        0.0,
        0.0,
        -0.0014003183676735283,
        -0.0930598563203177,
        11.190984487856607,
        37.084399099269085,
        -1.108170018636669,
        0.0,
        -0.028601203014874763,
        4.20552973163159e-08,
        -0.0540699361575198,
        0.0,
        -3.2156112726803083e-15,
        0.0,
        0.0,
        21.481699278674515,
        -5.050369172756081,
        -0.056768481848206605,
        -2.7922860187880345e-16,
        -1.1152998619216693e-14,
        14.181827074965922,
        -0.0015024572209364762,
        18.321673686659437,
        -4.284408246057833,
        -1.4766686804635773e-15,
        0.0046573905381039156
      ],
      "cols": 80,
      "rows": 2,
      "weights": [
        [
          20.12460561028011,
          22.94260845612295,
          -0.026651887321533663,
          8.009883327599153,
          -0.23318441576253354,
          -46.59175753195251,
          -10.917651567108138,
          17.6294168382135,
          -0.23613921843114008,
          -0.201004416909969,
          -45.84326414471068,
          -40.99168757496099,
          -0.14147402661818412,
          5.946209490365333,
          -0.10622917051509093,
          -0.21174356617578266,
          22.086578575305698,
          -0.24238107596064576,
          -0.21309576980142134,
          7.570976509303857,
          9.290733389138866,
          2.587349226831746,
          -45.78585260579474,
          -0.027174313605664153,
          -0.15105592911947338,
          22.46021647680611,
          19.572956753108297,
          -0.22136513026680246,
          -0.21421719681089865,
          16.9719563729737,
          -33.42713943258713,
          42.06217040961518,
          -0.24754520539779065,
          -0.15403169434965439,
          0.01936732351057064,
          13.226542934952414,
          -0.22558809510474817,
          2.5481961829923923,
          30.07234731466161,
          0.064185604297615,
          -0.16159018666564312,
          6.16309541901221,
          25.54865344097218,
          -0.03499756199106701,
          -4.186144946596025,
          6.828022562934531,
          4.8666955602826265,
          -8.239414658957292,
          7.5939900772977476,
          -0.08975794797451941,
          -0.21846571375430493,
          -0.21181829527673304,
          -0.18403421562109182,
          8.735848735098266,
          -0.07204429599928036,
          -0.09049539935260907,
          21.322148699500268,
          0.08709001226476784,
          19.52972380399997,
          -25.284907742454866,
          1.1081700846887528,
          -0.1967805151682077,
          0.014561355502830383,
          28.669452099239,
          -0.20935385909672802,
          -0.1169143859642677,
          -50.96580950161051,
          -0.1984899990905411,
          -0.024954976653443973,
          1.4057976823323588,
          7.922918318166185,
          0.04163229711821229,
          -34.77377571853873,
          29.296309570200485,
          5.119790435560129,
          22.365778809275543,
          1.4958078279161844,
          20.754237497164446,
          -35.45296247257122,
          11.914142770525098
        ],
        [
          26.428890493313027,
          5.14803587041478,
          -0.02616884214476848,
          -9.097908058577321,
          -0.1135756023738782,
          46.59175475486735,
          11.159895395671645,
          0.8151933320244242,
          -0.0027802200015320613,
          -0.2661156877807227,
          45.84326141223921,
          40.99168513166602,
          -0.05113875380152551,
          21.51734185446247,
          -0.0877922056172445,
          -0.06440261095755266,
          -23.16240019453156,
          0.01694986208381929,
          -0.06881415344757302,
          3.330268325608709,
          -7.76774260850438,
          8.007734808389541,
          45.78584987674526,
          -0.11318577480951594,
          0.05596207494948822,
          -8.473252106093621,
          20.26894617441204,
          -0.014497829389957617,
          -0.04324037307934474,
          28.514062867641563,
          33.42713744017436,
          -12.372998231625882,
          -0.18857276513497,
          -0.1171658044432788,
          -0.14977405474935906,
          -12.494777021156636,
          -0.11863457588322687,
          -15.944028305881815,
          7.173026279758946,
          0.011904282060939367,
          -0.017327671158070223,
          32.6604875237681,
          12.47964367691052,
          -0.1350886537641667,
          -8.265135989563742,
          35.221470374807964,
          36.97934821457249,
          46.86637753992637,
          43.929985369942194,
          -0.24886673606724016,
          0.007024091363936422,
          -0.23837104902975084,
          -0.15588110746425562,
          19.135512232275996,
          -0.08649742847683627,
          -0.2001710892093661,
          -4.723210499411478,
          -0.2082190557006154,
          -22.104035651130392,
          1.5923751769382375,
          1.5438334575888681,
          -0.14623239885878944,
          -0.050295698323580516,
          -22.46453803890146,
          0.011202551322540152,
          -0.06161703417885393,
          50.96580646381154,
          -0.20443429909206706,
          -0.14191249407695122,
          -16.361192006009748,
          27.617664485305497,
          -0.056276121514690226,
          32.43197571674529,
          -25.0785254037839,
          -12.99052073942511,
          19.00832654668258,
          -14.225059581918071,
          41.13113442758071,
          35.452960359409985,
          8.716126303657557
        ]
      ]
    },
    {
      "activation": 0,
      "biases": [
        2.1152048364178064,
        -0.0028984199716933015,
        0.0015721892881262105,
        1.5761012101444367,
        1.0087980308226159,
        -0.0019261365824935514,
        1.4937222897836426,
        -0.0014793038193054973,
        1.2896526746978656,
        -0.3131128181283833,
        -0.00138454346720966,
        -0.00025234495148067696,
        1.402324575747862,
        0.0027271359661814494,
        0.0021878115864890227,
        0.06979195718451546,
        1.4832159859554148,
        -0.0015600132549192021,
        0.40483234063736195,
        0.0033685316398495485,
        1.4656176696984349,
        -0.22900606658514217,
        -0.0026734375668366725,
        0.0014010873045206327,
        2.732126382806391,
        -0.0004785009897503526,
        -0.0006785408945636493,
        -0.03526361459831398,
        1.8558823892874732,
        0.0007826250541759257,
        0.4202363716853583,
        0.006438980319296047,
        1.602344093119859,
        -1.1393653923299962,
        0.0005770519106500492,
        0.0034013752316714215,
        2.2430509552476874,
        -0.003931882198759393,
        0.0011937694513230869,
        0.5151425688257085,
        1.7041856338881753,
        0.00010901740979695158,
        0.9901883092068985,
        0.005830773701095111,
        1.5611685125583536,
        1.0496037249790813,
        -0.0009593736770510749,
        0.0034641456033093366,
        1.5363731315059794,
        0.006346879733770456,
        0.0001779454034223029,
        0.2255260512738917,
        1.8833868378528635,
        0.0018729942452912318,
        0.0012916511965602288,
        -4.632597060555775e-05,
        3.511764680531611,
        0.0025271625400887228,
        0.00037411490074048273,
        0.0004451863388876474,
        2.5009473499689037,
        0.003440187032325095,
        0.0019508253676930073,
        -0.004822329720896456,
        1.8371746582120672,
        -0.0010836413768504055,
        0.0022319700243624532,
        0.001451139324073488,
        3.5802446922331317,
        -0.0005471606872785054,
        0.0017817424919099115,
        -0.0006209152163400269,
        0.004667164465585147,
        0.0016744539029268678,
        0.0010392771290145802,
        0.0049725196878821,
        -0.0023543458826860027,
        0.0039083192796763875,
        -0.002806453113982924,
        0.0008661412129545851,
        0.001771520503996499,
        -0.0008240027789024066,
        -0.0006034155976291768,
        2.942418068003423e-05,
        0.0028801307380135316,
        -0.0005160010985060359,
        -0.00323327859318849,
        -0.000407513963167104,
        0.002538109521759042,
        -0.0037025035222444437,
        -0.00011782862286134605,
        -0.0013552873742207763,
        -0.002263943114283846,
        0.0002596324717434437,
        0.004099525854787011,
        0.0013149982804613808,
        0.00652374245073138,
        0.0006014678359497336,
        2.1270077880648458e-05,
        0.001693457773919675,
        0.001391060550385544,
        4.9748459086931985e-06,
        0.006485394702849729,
        0.0016914504649610503,
        0.00039519631103873405,
        -0.00016778526658412158,
        0.0018145740462714556,
        0.0021016345295349226,
        0.0007886548518982067,
        0.0007486088564985828,
        0.00042760697198041946,
        -0.0005754225720722368,
        0.0029991625928736613,
        0.0030395123450795906,
        0.0015934306475810988,
        0.002687996082939754,
        -0.0017507149484285117,
        0.0018291349546038123,
        0.00025337085189968805,
        -0.0014698201950024878,
        0.0004469569358931103,
        0.000882629877833733,
        -0.0010733787945715642,
        0.004976723425243629,
        0.0014329332309376069,
        0.0012409147809152802,
        0.0034654778116126254,
        0.0019946164714927358,
        0.0014892529356657256,
        0.002961411055448109,
        0.0024620026958308327,
        0.0021221090100711246,
        0.003311387955415882,
        -0.001929673474796575,
        -0.0014579294475645765,
        0.004626259269556202,
        0.0019561035013820395,
        0.0063628119756495545,
        0.0017636001759891524,
        -0.002565912591344398,
        0.005083717118553565,
        0.001556336070470121,
        0.0018844761320285335,
        -0.0007367219134046085,
        0.003652655717129151,
        0.002177231071336147,
        0.0008613366623809343,
        0.00014053409352327234,
        -0.0019542188919022775,
        -0.0005922013095291086,
        0.0035805315295803684,
        -0.0005277646269382909,
        0.002411820346819979,
        0.002746464751828189,
        -0.0006565599218422095,
        0.0011934437276392975,
        0.0020657314666553683,
        -0.002000292521176489,
        0.001266857820991369,
        0.0009862148808577143,
        0.00198454565412809,
        0.0045910529165659065,
        0.004423804201042975,
        -0.0011619143692814847,
        0.0016278686052089756,
        3.9362819497781064e-05,
        -0.0005307190973206226,
        -0.0021095899646400894,
        0.0037432967406736354,
        0.002586709901348719,
        0.0005632841869259607,
        0.0029828047288141353,
        0.002394505317385375,
        -0.0022286476136379662,
        -0.00022534598878187935,
        0.003253381936046505,
        0.0004040655124318414,
        0.0014746974173067571,
        0.004761772948012041,
        -0.004983142632956049,
        0.002524679671315622,
        0.0003099856376204275,
        -0.0011284646016867831,
        0.0041909296280992344,
        0.005005757784069851,
        0.00030537506527852703,
        0.004283713001951859,
        0.002607867518278846,
        0.002843428922185733,
        0.0006655836278248016,
        -0.0013700589656944829,
        -0.0007116463735420605,
        0.010157679896262824,
        -0.0007008447969170906,
        0.0016225060900474466,
        0.0013445706374981981,
        0.011803397771858262,
        -0.00028734252503202735,
        -0.000630745290821249,
        0.0016658775394393338,
        0.006504386559262805,
        -0.00035383643625591356,
        0.00037632515224850325,
        0.0006332641994447753,
        0.0019035630247906605,
        0.00018267178865790062,
        0.0025189270653107627,
        0.0012516293871405884,
        0.0015721074022652958,
        -1.628273325548393e-05,
        -0.0009066101087380162,
        -0.00033912092892186726,
        0.006426144677446824,
        0.0008874167294220959,
        -0.00030292865744915376,
        -0.0001037204084481629,
        2.10029854104898e-06,
        -0.0009371635048577704
      ],
      "cols": 218,
      "rows": 80,
      "weights": [
        [
          4.641097963716367,
          0.0865022033150755,
          -0.03986971793126344,
          4.767802935910924,
          -2.0617056814583847,
          -0.03754065815730028,
          2.9226129484726373,
          0.051941655667048364,
          -2.781644990194418,
          15.711387351621777,
          0.04286383410978776,
          0.003178099816305355,
          1.8605437775265052,
          -0.10113170903501342,
          -0.14023867822972738,
          13.814900238114868,
          -3.371431572624864,
          0.033076246148866416,
          8.774668204842271,
          0.02388439441334459,
          -3.272639350041972,
          11.342165618049192,
          -0.06181751649210749,
          0.0387436650013273,
          2.47259439938513,
          0.050954531682621304,
          0.016001331992667667,
          16.581073119912915,
          -3.9908547056394443,
          0.06785439970579611,
          7.074845220158645,
          -0.003334724380345459,
          -3.549861814118389,
          17.646819566262728,
          -0.10849208816341681,
          0.09816878533807623,
          1.6575068918884086,
          -0.1810184221473189,
          0.03154101752080368,
          8.261848255149053,
          -3.7780821365224515,
          -0.09789904435593517,
          10.068723933650844,
          0.04577201583321164,
          -3.516740484551534,
          2.0491565225896577,
          0.0591115074802332,
          0.08190079935298121,
          2.463344704258873,
          -0.02657901603100606,
          -0.07486616282485191,
          12.720992382179586,
          -4.239848575964694,
          -0.12808057041946228,
          0.04714369893825484,
          0.0724965828406218,
          14.226306039859843,
          -0.10820885349384353,
          -0.06418031797275958,
          0.07601164803618363,
          1.5723561830492305,
          -0.09047919896329341,
          -0.07034005712250166,
          0.07732821951588546,
          -1.0204243991583568,
          0.07663306220377687,
          -0.0672859870227618,
          -0.06356263852765649,
          11.093515139046115,
          0.08707377455598901,
          -0.08706536777853598,
          -0.05145487389748027,
          -0.08965005261621958,
          0.06077540235284281,
          -0.10740555172615403,
          -0.06059679593012018,
          0.08276170082904848,
          -0.08390552325475405,
          0.07999913441829122,
          -0.01085499982303445,
          -0.007995856816141936,
          0.07551612537697193,
          0.14076890948377502,
          -0.036474290508125264,
          -0.12579372457422994,
          -0.07774522816549267,
          0.012537989696532637,
          0.0014844356474975479,
          -0.13432244922639933,
          0.04950206429907834,
          -0.09701366667636556,
          0.026559424942973777,
          0.004326808916279358,
          -0.1205948474144361,
          -0.07578116919221033,
          0.05148959233228086,
          0.017983962055710435,
          0.059075986352950784,
          0.051863769645645624,
          -0.0017602006893153244,
          0.0012320899652212625,
          -0.054976506083574045,
          0.03589943201817823,
          -0.012681415197404214,
          -0.06998551689410146,
          0.10829519780035618,
          0.10662095817080457,
          0.11148178708873188,
          -0.002288805692681433,
          0.12172829726552004,
          0.12127288717585875,
          0.0930615495803034,
          -0.12159933775293379,
          -0.08380573811981563,
          -0.015139629243164624,
          -0.04992622894828484,
          0.010573543363592734,
          0.10439668737623217,
          -0.1048572892918504,
          0.06714038124046415,
          0.06453581147010357,
          0.029126314727160905,
          0.004049214784875296,
          0.07994370940613214,
          -0.08202476206939537,
          -0.07754844856525535,
          -0.05013095253540039,
          0.05480677668555385,
          0.0316215406242627,
          0.10018741262720172,
          -0.045113083235214665,
          0.056703807755476225,
          0.0016214375624929538,
          -0.06909735048851715,
          0.042085266431537226,
          -0.014935667928504962,
          -0.0390650625583379,
          -0.039005119021819815,
          -0.005031687364508282,
          0.03173173281934147,
          0.13510634832334667,
          -0.045156948595432164,
          -0.07093062461643158,
          0.009218633819541392,
          0.011574589475245652,
          -0.027848250533423293,
          -0.004591059145159596,
          0.009926270866891376,
          0.10932646779399624,
          -0.008695862395640524,
          -0.03141230319076719,
          -0.04242396131119851,
          -0.05848958581802272,
          0.00879111767747943,
          0.10333164124093747,
          -0.14994829005331306,
          -0.0444289750899716,
          -0.060931671974501896,
          -0.003926633971852592,
          0.004233085651537498,
          0.02727323305087036,
          -0.025922543314969845,
          -0.030906787578735363,
          0.029047841775133757,
          0.070502493371795,
          0.11173496905112029,
          0.11754978937029814,
          -0.037277627927935174,
          0.09989143463234643,
          -0.0023396640972691185,
          -0.13198487071497786,
          -0.03983676301765514,
          -0.018546915439551555,
          -0.03528071533933985,
          -0.004202781975953538,
          -0.08063551668926916,
          -0.12049453049799849,
          -0.010908204159607204,
          0.11260459346931434,
          0.04050657941622341,
          0.052749913490626736,
          0.14550621112039766,
          0.012547249570071372,
          -0.07895114312023606,
          -0.16395941670851635,
          -0.0838778830329993,
          -0.06375928948238038,
          -0.07208208158771749,
          0.05209385799537981,
          0.08261345532622992,
          0.06318344947093041,
          0.00455960600791174,
          0.10780312576532171,
          -0.08027391854430334,
          -0.10856294965542058,
          -0.037922768352806994,
          0.03480306574018346,
          0.12484159531294955,
          -0.02975380500530546,
          0.11100640289544833,
          -0.10985961199658094,
          0.06663774458855179,
          0.060619587790880926,
          0.11679060073077631,
          0.008205390675068423,
          -0.01766972499451136,
          0.06914462361641081,
          -0.01894260500593847,
          0.052419885646988046,
          -0.017039252986711287,
          0.012170173156847203,
          -0.07916971645191119,
          0.07385026685869922,
          -0.12107470257959015,
          -0.0387589044945241,
          -0.09696576595675443,
          0.03245552903300326,
          0.05457615265263976
        ],
        [
          -1.6204440504740487,
          0.05546667885371983,
          -0.025319803948800998,
          2.2730221212253654,
          -2.941334362800174,
          -0.0015326994600002555,
          1.9509075506279399,
          0.007548747932822731,
          -3.8284595819415146,
          4.883209707217794,
          0.11402075226262812,
          -0.14540139182660575,
          -1.7682714245494515,
          -0.02121546328845777,
          0.02604200288158594,
          3.5519697523412446,
          -4.546448225283657,
          0.05034109640948963,
          3.350113952503336,
          -0.07258894910154587,
          -4.352460422312081,
          4.021387752843692,
          0.03498998624988736,
          0.1213459642528075,
          -3.14463514355005,
          0.08051262480348,
          0.047360966191216713,
          4.057945137999144,
          -5.703042398506447,
          -0.06206588546204713,
          2.773933911206351,
          -0.11550297931463012,
          -4.965039598600876,
          7.231933118240821,
          -0.004968515171919258,
          0.09330473608427979,
          -1.6334262497968681,
          0.09965024673956953,
          0.011783363015723027,
          2.6230250463189333,
          -5.2741956598494255,
          -0.045199769204855834,
          2.677283289406548,
          0.007477087190541493,
          -4.6002201894938075,
          1.0682797854610364,
          0.007704337788946717,
          -0.12080845737570449,
          0.5529984728708564,
          -0.057291885397774384,
          -0.0355179689776627,
          3.6836136358062497,
          -5.59989389901988,
          0.1056097098209691,
          -0.11968017729633026,
          -0.0053894641727135215,
          14.100538667625445,
          0.038657273798851914,
          -0.0049641812044196034,
          -0.04393900039326664,
          0.26792935465588014,
          -0.09165277889659557,
          0.11301616603207357,
          -0.1129708102124855,
          -2.205688395513268,
          0.10783556308574219,
          0.042619793895931866,
          0.024886269876545877,
          10.41424273029859,
          0.00649249294026668,
          0.07089468069202677,
          0.1127379097430008,
          0.04345959825579151,
          -0.14355759904170823,
          0.02851773785361146,
          0.008023509588897254,
          0.1129571826386265,
          0.03452062401594541,
          -0.0221145236507112,
          0.010644356476415361,
          -0.1010812042359432,
          -0.018247052317198087,
          0.036406814153389484,
          0.055985617275792446,
          -0.009719624247930376,
          0.1069421637657599,
          -0.09317035230073713,
          -0.06952699037535785,
          -0.045389225258500907,
          0.040929458551706634,
          0.14612032167300182,
          -0.07440057426268126,
          0.10469301837881705,
          -0.10094583064484149,
          0.09753035498332692,
          -0.030242356939902324,
          -0.04849801057049863,
          0.05903557604725485,
          0.00626719438088108,
          0.09694685796699304,
          0.07154566343520603,
          0.07985480695610248,
          -0.021642883634480446,
          0.10944850900328133,
          -0.001255426516164372,
          -0.0252657514721979,
          -0.028157019163042918,
          0.07293607848472396,
          -0.11319164892605016,
          0.08591581644970164,
          -0.1049136503048312,
          -0.12273752898049764,
          0.021110518227257204,
          -0.09344921640527047,
          -0.027297502118497602,
          -0.037941625435338085,
          -0.008720950323236488,
          -0.11886925111964528,
          0.09370086344242382,
          0.025263718555016253,
          -0.08181939544417825,
          0.00579283672190785,
          0.0639108248822559,
          -0.11976136566557619,
          0.12609577716528736,
          0.09020915228166909,
          0.0795823645506915,
          -0.1417084419390558,
          -0.05394444011450005,
          0.0019492060805581053,
          0.0858874666588669,
          0.07771720753575537,
          0.1140454174074388,
          -0.020291555253191207,
          0.011123148106921244,
          0.07256056708375039,
          -0.05661753462939801,
          0.0006824269787049339,
          -0.05131495804660563,
          0.14864081833273196,
          -0.01483051090852656,
          0.10059286854246725,
          -0.12822999314621364,
          -0.02270000229160221,
          0.1007420402266099,
          0.006173894660892723,
          0.07060054297045425,
          -0.10662541383272633,
          0.08148718445690975,
          -0.02529291886979374,
          -0.035009258026268746,
          0.1377628553480288,
          -0.10614376186821411,
          0.11319840981838393,
          0.030210727999633157,
          0.11266500648224748,
          -0.09512439369487702,
          -0.03778221732892041,
          0.04120669095983648,
          -0.0025658463413582057,
          -0.05317326498546719,
          0.08570004833010744,
          -0.030011460599549036,
          -0.12158102518196932,
          -0.10852184620431725,
          0.07672147032410735,
          -0.13459283246465506,
          -0.047611068933228744,
          -0.12131863069952929,
          0.11945404220630912,
          -0.10301134905744407,
          0.07537101998484962,
          0.03801448753467491,
          0.0486677443966173,
          0.04360983614969267,
          -0.1311246374872474,
          -0.05530718041729025,
          0.041147212751693,
          -0.035152059252495205,
          -0.0017871961958501998,
          0.11748495073540413,
          -0.12092227544347148,
          -0.13716686914019008,
          0.018416207583181857,
          0.11077196247522358,
          0.008539118934231248,
          -0.11423668910283863,
          0.07600396829769518,
          0.027743859704776348,
          0.11527647632196274,
          -0.013449781591483499,
          0.1275197847740595,
          0.18101263476862905,
          0.11112934058252791,
          0.0900706990673724,
          -0.00021357502468463766,
          0.07290372001822903,
          -0.08529375590456179,
          0.06209481531148301,
          -0.0983866058828977,
          -0.0655731963233713,
          0.09108868272610404,
          0.10225227392790799,
          0.023621554663794196,
          0.051960098966989915,
          0.11203936167862366,
          -0.021724576869530443,
          -0.08496901350336442,
          -0.005890097061334942,
          -0.13434725620686927,
          -0.055271893251807765,
          -0.09485568259407812,
          -0.05632785768193803,
          0.1194870076017634,
          -0.06775719763157366,
          0.0027798003653514924,
          -9.901516905179876e-06,
          -0.10076534938110433
        ],
        [
          0.10621233638945385,
          -0.033379281810764876,
          0.08358775951525795,
          -0.07007125879921884,
          -0.13586824440791534,
          0.09443875607813844,
          0.04194891561662801,
          -0.030983116159255326,
          0.09948662319727176,
          -0.13309865487144845,
          0.08415863036924034,
          -0.125596016140586,
          0.029854074939328578,
          -0.0945354718929686,
          -0.021936179902952702,
          -0.042455943489162505,
          -0.08180466859459377,
          -0.11782116659246905,
          -0.0926020837685326,
          0.07113867698885347,
          0.026626757079388337,
          -0.06578627531029514,
          0.12010947779320148,
          -0.018989848332022295,
          -0.1165545561220225,
          0.04947892928128694,
          0.1330500911719653,
          0.01721802033943949,
          -0.0861387742657388,
          -0.019691998098555707,
          0.033094745209847364,
          -0.030233180807621534,
          -0.074209153043752,
          -0.0564615792257394,
          0.06655281932282396,
          0.10999940513530851,
          -0.12760800493862232,
          0.0005112713135101861,
          0.07250004698475408,
          0.07197324531449356,
          -0.06383648093547985,
          0.09855708282366203,
          0.005572137569302967,
          -0.10748731998284526,
          -0.07392219855460481,
          0.12787302464920025,
          0.10123285097523849,
          0.03294757326145433,
          -0.012277778713074514,
          -0.11873375665516518,
          0.13851908473088684,
          -0.03131043616388241,
          0.08741942899589451,
          0.013778781940822209,
          0.07976799903009577,
          0.07015396920158556,
          -0.09602458037297601,
          -0.1384959112046026,
          0.13309193051808269,
          0.10295235083035363,
          0.01358682214276756,
          0.08777434880056621,
          -0.047928975798695934,
          -0.10065482978355278,
          -0.03337138870336134,
          0.06406823810088579,
          0.09065478649030011,
          0.10826254575999647,
          -0.02549753656127015,
          0.03446361120541407,
          0.12813336169839962,
          0.005032549950380077,
          -0.0077811648138415125,
          0.01432933291354851,
          -0.05848746455087742,
          0.11868638885753194,
          -0.09928838358178743,
          0.05976304828706366,
          -0.0802909145208741,
          -0.027084648701812514,
          -0.10146730300291096,
          0.09889304802207073,
          0.0620325806630171,
          0.030762703083802093,
          0.033163961535863117,
          -0.004174438323592526,
          0.031912646606092616,
          -0.041759687653717834,
          0.06883250888801153,
          -0.09308164899709571,
          0.074998820938507,
          -0.07982887060933963,
          0.056936963881645264,
          -0.11425711209101871,
          -0.0549330793011868,
          0.09374656584169487,
          0.010852976184568545,
          -0.0889161704422074,
          0.11512747387560221,
          -0.07999252785487133,
          0.03038444566908484,
          -0.06916859567422379,
          0.09333547903477153,
          -0.060798036796192764,
          0.06579281220480461,
          -0.06325499831448447,
          -0.12667783900968507,
          -0.011760306028614645,
          0.06495604399085327,
          -0.03403228533981419,
          -0.004423292612533551,
          -0.09765502843363333,
          -0.07744849985500396,
          0.1392348606794968,
          -0.06078487156468264,
          0.004420554395958346,
          -0.06827914868687655,
          -0.02865803448954214,
          -0.0475023669462082,
          0.03236933424718422,
          0.11058280396006322,
          0.10459331174148075,
          0.12934198876704087,
          -0.07709859658410793,
          0.06557058565786589,
          0.10256764542888264,
          -0.06950245016412089,
          0.1346174065596031,
          0.03014947279691389,
          -0.127917489480722,
          -0.014582528677285862,
          -0.04353892767326915,
          -0.07070172671051744,
          -0.07269985037224791,
          -0.11048551497382562,
          -0.10106014021055083,
          -0.07558248212415043,
          -0.0575886958849345,
          0.026041224947495223,
          0.030478058669137637,
          0.08270381224453681,
          0.07872095279769459,
          0.02848762281147747,
          -0.08007928674736495,
          0.058392421402618105,
          0.025153351713152312,
          0.0630607375777007,
          -0.05716774517331446,
          0.07593237346222889,
          0.07792535946350254,
          0.04134022674207356,
          -0.061289506893585394,
          0.07227671388092916,
          -0.05997788085074919,
          0.13443023335776366,
          -0.02608051742163864,
          -0.13208079230704384,
          -0.025185929776455826,
          -0.0805406853898584,
          0.02474492296558207,
          0.08991988006442425,
          -0.09838329430999027,
          0.015619522265491011,
          0.06549884800418983,
          0.008770350374229411,
          0.06099431837633072,
          -0.06436104223543457,
          -0.09512987865324352,
          -0.0008136424120637938,
          0.11529750953372538,
          -0.0901021305348858,
          0.1389517118165225,
          -0.08369082021666696,
          0.08103575285511085,
          -0.07411017892330075,
          0.008639489254988085,
          -0.06486854902765286,
          -0.02912766857254519,
          0.08814095711586868,
          -0.07394318640545136,
          -0.12153382285902313,
          0.05808445694225162,
          0.08136350886454374,
          0.013883164751922902,
          -0.049838521693146114,
          0.0533430807404637,
          0.13545134995530034,
          0.1074162057149364,
          -0.10359927787341851,
          0.09570895084464537,
          -0.014500371378904878,
          -0.13024615585425683,
          0.113119267796424,
          -0.037638997331983004,
          0.1314352059957046,
          0.06440869146942871,
          0.04345873656735011,
          -0.00103206521040237,
          -0.06341562065664438,
          -0.05025748616445407,
          -0.09260293867494515,
          -0.04862399917715701,
          0.011089050965762272,
          0.02038456911905145,
          -0.06447522579000023,
          -0.12947884737915843,
          0.006349405546996658,
          -0.12448517423970848,
          -0.09785159701702706,
          -0.005278795932062465,
          -0.029952896228410568,
          0.005499127114100289,
          0.12304534021000023,
          0.11176251960849982,
          0.14131715711067794,
          -0.008456861998868168,
          0.09335159073421873,
          0.13745507643568877
        ],
        [
          0.4873128045779123,
          0.03602105282928694,
          0.09773611498539012,
          1.1931231060586784,
          0.5713458014789317,
          -0.0126028431500285,
          1.7227210570513505,
          0.021967520947415508,
          0.5556872241258768,
          -3.1539050335181904,
          0.03618422327248242,
          -0.06092145172328868,
          0.3954481048607126,
          0.08916648180821762,
          -0.028573581387557705,
          -2.695574089349602,
          0.7659367316847376,
          0.05137235776793086,
          -0.8096545826102403,
          0.021442390495426338,
          0.6450414916730899,
          -1.7133162511392268,
          0.0720724857447887,
          0.10929503157543613,
          0.5343874869287846,
          0.09058774556014573,
          -0.08587190953270692,
          -3.5508574911429456,
          0.722817018128147,
          -0.06174081984610997,
          -0.27940301616964375,
          0.16999291722100826,
          0.7493377077610893,
          -3.1259089401138334,
          0.1273382901330929,
          -0.12176682569759409,
          1.4099254533119874,
          0.060884688410295526,
          -0.08657873445205655,
          -0.7288369887071893,
          0.8868196898998905,
          -0.036562882658512603,
          -1.046384104961334,
          0.08962334201231244,
          0.7206137090998045,
          0.8746812280472703,
          0.0851802866874773,
          0.0967707897936768,
          1.647932284813973,
          0.06603454670636862,
          -0.11477348379720752,
          -2.30327166299208,
          0.921748775490438,
          -0.0006910026561622694,
          0.037693781518881676,
          -0.07301266184559407,
          8.119089649734248,
          -0.03202959454470227,
          0.0466201163897589,
          0.05269054352138508,
          3.2195031283840208,
          0.09627905560672138,
          0.14179199788497387,
          -0.0568088431359267,
          1.654166594258717,
          0.07656091900641873,
          -0.03150813843435198,
          -0.10205407630805227,
          7.182687080771448,
          -0.0009266205835401006,
          0.14095086434949985,
          0.0013964653759965138,
          0.048137788834845596,
          -0.10719162337937255,
          0.04526914686124701,
          0.015398197745342264,
          -0.07902425449609113,
          0.12319439231859922,
          -0.03533628548690703,
          -0.008701216681554904,
          -0.08077842085137496,
          -0.07473114588236454,
          -0.07462479157178464,
          -0.05332041516171847,
          0.030141162527921848,
          -0.06617782388070964,
          -0.030140955536381128,
          -0.038090343327233406,
          0.14578689939328526,
          0.08914567780011286,
          -0.09269044569805931,
          0.06906330884557696,
          -0.026483040493598023,
          0.08890208499926011,
          -0.07547307776782632,
          0.006377953558337722,
          -0.06019553943258865,
          0.023553740981800114,
          0.0634841875940278,
          -0.13004217918156513,
          0.11951478234396944,
          -0.12525342122816874,
          -0.07661826797701023,
          0.09420200598729503,
          0.12046204970212225,
          -0.0530938105813047,
          -0.08152455004221233,
          -0.13472596916592341,
          -0.037067288126310334,
          0.1424555636836342,
          0.01500786236198253,
          -0.11655703793535796,
          0.05006371638938519,
          -0.004751246649943183,
          0.04106909631322253,
          -0.044443370193966006,
          0.05105058278123891,
          -0.06474832174167357,
          -0.07609037754654212,
          -0.004716255131395314,
          0.014617556931403004,
          0.10140396015037324,
          -0.00235918858067023,
          0.017565240302354904,
          0.06634929125627562,
          0.1258756509247621,
          -0.039206282034265356,
          0.1416326392458232,
          -0.1330705000787809,
          0.0892328551331206,
          0.09635447567501808,
          0.14093252640517423,
          -0.05192868753346374,
          0.12476033200229371,
          -0.09854701463694017,
          -0.014736150892935576,
          -0.07913106142885508,
          0.1336903216927608,
          0.0744610768708586,
          -0.004463042412413385,
          0.013520917787714404,
          0.034011923649876374,
          0.04283398540322124,
          0.11725117147434715,
          0.051593692366845356,
          -0.09189975343775639,
          -0.09909742628188184,
          0.09674912293170558,
          -0.011711988051057907,
          -0.010247503417330025,
          0.10215511582703118,
          0.05117579607994732,
          0.11867665591188023,
          -0.013279536771087933,
          0.10315720824327468,
          0.12296368204221156,
          -0.08799839868729228,
          0.09714992250380611,
          0.030782762593157178,
          0.13949248208282797,
          0.08588800347967449,
          0.12154535411076958,
          0.026566306886072834,
          -0.003276250020994472,
          0.09547539494462765,
          0.07801653086130093,
          0.08704725687535494,
          0.02135669750632183,
          -0.04589678978883976,
          0.08845346925778078,
          -0.045844372170522445,
          0.053900294451356044,
          -0.12489919712628895,
          0.042770190289807934,
          -0.017382735958279553,
          -0.08276115536993701,
          0.0637535933230597,
          -0.004709587805813508,
          0.014863989619004633,
          -0.06837286760655344,
          0.09806822868353757,
          -0.0033382133888771657,
          -0.11076615723625953,
          0.07312270914117655,
          0.124528275553994,
          0.06330315417441369,
          -0.01866935368216319,
          -0.10762283141292912,
          0.1398097874421334,
          0.04849687631464311,
          0.06815381112369993,
          0.10947170554647057,
          0.11607929317319392,
          -0.03048306781775039,
          0.006278661959260413,
          0.14881832854115087,
          -0.03301206200170059,
          -0.03739416457631723,
          0.07850055126373237,
          -0.09824443073982495,
          -0.054737740821824386,
          0.08026619737702319,
          -0.07666657122916105,
          0.07354719288014935,
          -0.13391715249447622,
          -0.05637440489379707,
          -0.008067379233663716,
          -0.11502588753872368,
          -0.048875589356689265,
          0.09270703036116479,
          0.026184622491173985,
          -0.07684274125179295,
          0.08085344167055268,
          -0.01523496340461925,
          0.06597719514995737,
          0.03525292583651738,
          -0.11907801881354975,
          -0.12803574760439632
        ],
        [
          0.11212896317133278,
          0.10533766552130643,
          0.03279638598985812,
          -0.032655760005514026,
          0.011647923017353077,
          0.12788889679843682,
          0.06676467974048464,
          -0.10897864354634229,
          -0.023487549567401882,
          0.07323532195065281,
          -0.11648409204321013,
          0.08035929383135594,
          -0.08787888093941804,
          0.07416484197526177,
          0.05510757394036549,
          -0.1200715558695611,
          -0.1001284779220974,
          0.06896435276248525,
          0.06790628474761294,
          0.09178398361441005,
          0.056056358944350876,
          0.10516509541252396,
          -0.07795072447753376,
          -0.06520425671678662,
          -0.061557953437609746,
          -0.08998841884488523,
          -0.007824440232554299,
          -0.12089280052809107,
          0.10076011356155565,
          -0.12332724514337985,
          0.08621867517830752,
          0.06307681484622196,
          0.021455156948429994,
          -0.06774376333538068,
          -0.08142347828324996,
          0.06997074029399789,
          0.0517143616996105,
          0.13636846163078556,
          0.026039060175999017,
          0.031826587263710314,
          -0.06088452901697718,
          0.03221837872680463,
          -0.03847440475069595,
          -0.06734353038572359,
          -0.023245117891321332,
          -0.11562762567250068,
          -0.09855333416584401,
          -0.054667062421319676,
          0.1001007311503659,
          -0.13351378988199764,
          0.0971157695403358,
          -0.07996652300358338,
          0.10628642634181641,
          -0.010838954049511431,
          0.00020435664418032382,
          0.10942655943766201,
          -0.12113682923859835,
          0.027983331250101502,
          0.10360894533141216,
          0.03407250781256651,
          -0.07595781884861953,
          -0.12728029730686435,
          0.016175513502748942,
          -0.04296301411676532,
          0.062751390636457,
          0.0545629345873452,
          0.058021631450652915,
          0.08521927429248019,
          0.06342823391332904,
          -0.11785306466780315,
          0.11292773807747161,
          0.0691910991421477,
          -0.08924818473225876,
          0.0691043530159224,
          0.07001915772613167,
          0.07505581274719761,
          -0.008257703712940368,
          0.015084625604468863,
          0.09164962181094273,
          -0.13977277765479848,
          0.0411592560386383,
          -0.020709277778326745,
          0.09575384276469029,
          -0.04858452032442025,
          0.10526290871641879,
          0.13743531987643678,
          -0.08415728974394589,
          0.06938947288702155,
          0.061172592400266755,
          0.11106775209756056,
          -0.025433302441010136,
          -0.08470086608125013,
          0.1127884494525316,
          -0.06020616971371345,
          0.08302055169427744,
          -0.025169470900061726,
          -0.034191492229439,
          -0.031421278559374134,
          0.058455587529916156,
          0.13144357932922046,
          0.04574081082609163,
          -0.007695062471569773,
          -0.00012075080170202595,
          -0.09008894638047973,
          -0.005028497855526705,
          0.09209830985552314,
          0.08599643908288042,
          -0.040520678155941334,
          0.010462900082139974,
          0.011174689141701812,
          0.09142956698570578,
          0.03935541655602581,
          -0.10523784895345836,
          0.049413770109754826,
          -0.04772522250483803,
          0.0406095636607628,
          0.06905298559624143,
          -0.03167598922989648,
          -0.06367891862987451,
          0.07561030508241262,
          0.0068539327852123804,
          -0.07959218593081452,
          -0.046270167544166615,
          -0.07671378279226085,
          -0.04732988188546741,
          -0.1119335515718189,
          0.006795406924665709,
          0.04288054291537828,
          -0.08883230507402406,
          0.12403055108908523,
          0.0676883456460973,
          -0.020031432803403026,
          -0.03396182559601055,
          0.08955975947533305,
          0.12291743487671747,
          0.1297111745291577,
          0.09152302026007297,
          -0.1308191293535565,
          -0.06384375544468772,
          0.13510088965775371,
          -0.01756513286856912,
          -0.05154166433024444,
          -0.10877799245812743,
          0.10847386794342517,
          -0.06729601144238313,
          0.1077341815931238,
          -0.002940873746816954,
          0.12613681748571764,
          0.09752848525994866,
          -0.09237194627601575,
          0.054670507707586906,
          -0.09932359067559118,
          0.10969686025650255,
          0.09776852448991737,
          0.06410537769961658,
          0.11984740201132056,
          -0.06260593905764647,
          -0.1353854489479643,
          0.08535134051588736,
          -0.0878696758893536,
          -0.10521650776325212,
          0.013277181726822079,
          -0.08624955668348018,
          -0.13388483747351285,
          -0.05353544994693257,
          0.012304616966120188,
          0.12635513916188496,
          0.13617223043611118,
          -0.03177626396227555,
          0.05300147154205526,
          0.08388678964269611,
          -0.1374479591121568,
          -0.10696558303901732,
          0.12627115100905525,
          0.05957886489860215,
          0.012039633208112075,
          -0.04148537482953248,
          -0.001549783549952548,
          0.04372817227415972,
          -0.0827834974716427,
          0.07372076597052357,
          -0.1313051192856504,
          0.031862422416833874,
          0.043250427585672546,
          0.11857372073737452,
          0.01973699264731845,
          0.04670384068998281,
          0.12068632531896145,
          -0.07799469783265167,
          -0.02931788497460791,
          -0.04697060041370553,
          0.058008362123071366,
          0.08273776955913266,
          -0.0394710857223676,
          0.03232917287452812,
          0.07821466094569234,
          -0.014145920484466409,
          0.09896228069919956,
          0.10637481786941921,
          0.061696892261132494,
          0.011811484054726833,
          -0.08901854730401097,
          0.1290123552128129,
          -0.0014920160990521446,
          -0.1366076380524984,
          0.006341993719724325,
          -0.022199177558981962,
          0.08421654546970886,
          0.04643980841297363,
          0.08700386372868195,
          0.1037091890085086,
          -0.0820597378560629,
          -0.005384323336860131,
          0.03263785207591236,
          0.00011808520125339191,
          -0.13578329368031403,
          0.06592991665136157,
          0.13609189663106822
        ],
        [
          -3.1221733909226157,
          0.06207007388566896,
          0.07764157416823708,
          28.746358370318568,
          -2.7799238042768004,
          -0.005611915838005439,
          26.275357401489423,
          -0.02153395777022405,
          -3.498373629069617,
          -2.9929956535082436,
          0.05446417059546003,
          -0.0065821721546879515,
          -5.913860171282713,
          0.1412508275806648,
          -0.09686301186506553,
          4.945247114801427,
          -4.027033395122839,
          0.036921978814992484,
          7.922076247427233,
          -0.03994046642540061,
          -3.968725889530699,
          -3.3687751381978326,
          0.10494278535299822,
          0.07926715685085273,
          22.316570414891437,
          -0.11844887868081548,
          -0.10628694840339642,
          4.048121221321392,
          -4.949442182001774,
          0.03389891792502511,
          7.759234299228403,
          -0.10446816392471606,
          -4.451737103561619,
          -21.26394047269369,
          0.04371900161589481,
          0.02115229789797039,
          9.709153017152703,
          0.03214291386370448,
          0.03259726108759167,
          10.809287818447595,
          -4.613230850277577,
          -0.004573524741782354,
          21.03613468248973,
          -0.07681053149210705,
          -4.169799237837112,
          19.08699135373554,
          0.06725373807778458,
          0.07629554365874992,
          3.4857622044079384,
          -0.024992484181164176,
          -0.1744400854243947,
          6.7676172269260855,
          -5.201644651086383,
          0.05834290902382394,
          -0.030597388371097097,
          -0.08933397983224027,
          20.655939732474675,
          0.04009897153783182,
          0.04363266274233973,
          -0.053277459335611906,
          2.733593278924831,
          0.036475689015233924,
          -0.009939798081603755,
          -0.15595154533284059,
          -0.7485774917283198,
          0.0980692624357964,
          0.02166765793162305,
          0.011628034622842303,
          16.601410701672677,
          0.051351559162083754,
          -0.03671503839879455,
          -0.06424727985369001,
          0.1287313994465666,
          -0.11814210637216432,
          -0.10332087798770051,
          0.02985756613188021,
          -0.009548280695859996,
          0.08457665948738265,
          -0.035862077366374416,
          0.05860231632736899,
          -0.07362611961101857,
          -0.1457801074312754,
          -0.056979457788806726,
          -0.03594178223551533,
          -0.050246899085322365,
          0.11911319410373244,
          -0.02112000127919511,
          0.0977641555616631,
          -0.017806083476989146,
          -0.008952458440594493,
          -0.044734048069955144,
          -0.08725464391787419,
          -0.09823902876076467,
          0.07888115984282493,
          -0.06828681894437978,
          0.07262604796491634,
          0.10211056746853088,
          0.04364520686505898,
          -0.007796631362369856,
          -0.09879726227720514,
          0.015723838065825193,
          0.10327741644524235,
          -0.03901171703696088,
          -0.10198477127571218,
          0.08944916066888901,
          0.06840456973884838,
          -0.0016119315844729874,
          0.03974374152636574,
          -0.06462534433926495,
          -0.03697106489517318,
          -0.06654781615336157,
          -0.0900522392800272,
          0.14175867653114724,
          0.12658672259988396,
          -0.07830258895627772,
          0.002254519413087083,
          -0.044650375454409724,
          0.029405481890761514,
          -0.06946517919094665,
          -0.06597880672011254,
          -0.04330169776119928,
          0.09483590537791642,
          -0.06691028304734768,
          -0.10707432081108317,
          0.02687875015026643,
          -0.006179465591794406,
          0.10676501863745021,
          -0.14927616717633652,
          0.010015527710867802,
          -0.11331158273254384,
          -0.04475201154941367,
          -0.11198311325642822,
          -0.09840888665902374,
          0.021896694048660993,
          -0.15356012871720637,
          -0.014621825245218389,
          0.11482337953611871,
          0.11678010816960002,
          -0.0340440372588316,
          -0.011753456354211888,
          -0.05800126380575913,
          -0.13030603830321233,
          -0.06135034267429328,
          0.08510571990024476,
          -0.056436513064843354,
          0.032536767646541384,
          -0.017145540954932637,
          0.020339445325311407,
          -0.050498500805488684,
          0.11167838139502965,
          -0.06687876175227055,
          -0.06286464020017031,
          -0.07115757644424092,
          0.1048930685221188,
          -0.08126174253173751,
          -0.00931709490642666,
          0.04161812476441024,
          0.003807700785263744,
          -0.03041751676190609,
          0.03773071209139285,
          -0.0709475026199499,
          0.08419383432270064,
          -0.017352862192535474,
          -0.035950215484090844,
          0.16730531925470907,
          -0.047037034346640805,
          0.06322988733124832,
          -0.09743729329988333,
          0.06781063388569115,
          -0.022100632979947226,
          -0.010953520372810513,
          -0.011755527090998658,
          0.024545953205631472,
          0.07133510987879889,
          0.16066102223134884,
          0.00045341278172870823,
          0.10251274291617021,
          0.06649592971650818,
          -0.053047728445090626,
          0.025756006318255763,
          -0.0019407092829226758,
          -0.08450708052299784,
          -0.011116847881197848,
          0.12486306972365263,
          0.18614661360515486,
          -0.034556088796423294,
          -0.0558593564276979,
          0.09859576191073688,
          0.020184351241537227,
          -0.08801151649899747,
          0.015942409283166276,
          0.14633407620686573,
          0.12538994779528498,
          0.10481059105701955,
          -0.11840570035146239,
          0.015863399384646433,
          0.09804744818810354,
          -0.056948825825594386,
          -0.00047169996634932793,
          0.004442295034627327,
          -0.10749682391044299,
          0.025755296866665153,
          -0.11309820480049086,
          -0.1545110544469534,
          -0.06827195321722423,
          -0.08362647968622003,
          0.03926914949434513,
          -0.09287452707234868,
          0.13236426124397802,
          -0.11822519852164545,
          0.03613513767660153,
          0.015873753076931094,
          0.06533040816914393,
          0.001288549884701204,
          0.005018719432842494,
          0.0781990440584901,
          -0.07188811112122843,
          -0.012643850802493813
        ],
        [
          10.543204328118266,
          0.035116716287018054,
          -0.03261931495983767,
          -1.3275600201209294,
          5.1569469311320715,
          -0.11662067995052591,
          -2.04155786781454,
          0.01005503515373906,
          6.428316232733989,
          4.435986425620807,
          -0.005966196202905443,
          -0.0011788102520803921,
          7.552637938154161,
          -0.07389555407726514,
          0.09599109416453547,
          4.086738198136789,
          7.45551331865732,
          0.05395654217423281,
          1.2103591994197147,
          -0.07034354914470664,
          7.284853471753325,
          2.6264406714369466,
          -0.13531365915199264,
          0.13741749735696182,
          7.63670892221557,
          -0.03728135156931931,
          0.0440693401021522,
          5.515803299334194,
          9.373037975677766,
          0.07860650220997056,
          0.8675511923935064,
          -0.05260259881174569,
          8.042423602042811,
          4.256730881613783,
          -0.09136936885701678,
          0.13339647726956888,
          6.378583049401509,
          0.07088408839219029,
          -0.06524747075719164,
          1.4427728338672412,
          8.419587275813628,
          -0.05338014279168816,
          1.93705693978364,
          -0.06812093308223846,
          7.852842610479373,
          -1.1106265264457378,
          0.0718266397322946,
          0.030508614395237263,
          3.7949425467811584,
          -0.055238767419528226,
          0.10221353163086859,
          3.363033127248549,
          9.370081900500967,
          0.009262061825808536,
          -0.07091305552037556,
          0.0552960492219114,
          -4.061599259257384,
          -0.1337335865707919,
          0.10313649601905953,
          0.09035244912602902,
          5.482995114921252,
          -0.07296873342811097,
          0.08550219051249938,
          -0.13177102623847647,
          6.311988511478773,
          -0.11268846711768259,
          -0.03933692268045586,
          -0.09737074626016615,
          -0.8647979177301334,
          -0.05037909279023388,
          0.1007019349188136,
          -0.013067200418994012,
          0.04567991504847054,
          -0.040612758320684304,
          -0.1041935542490841,
          0.024854054141928764,
          0.0825387626709416,
          0.08102511224781572,
          0.07058486944540583,
          0.09863708031689407,
          0.11673451438876117,
          -0.06432501052039089,
          0.1263824770554181,
          0.06805613339056277,
          -0.05484725451153407,
          -0.007139667095042195,
          -0.011123537973011192,
          0.11450036819582551,
          -0.011646876333658698,
          -0.05311695826771218,
          -0.00013982948028960654,
          0.12237422912601909,
          -0.01984493888227515,
          -0.1147062437131721,
          0.09662570574907017,
          0.04332481952977434,
          -0.07921427480438213,
          -0.08534572364797754,
          0.010728829476682567,
          -0.027239060936416582,
          0.133791292221189,
          -0.12113043964794398,
          -0.03276635356115137,
          0.08420229623263599,
          -0.009954605126880798,
          0.09852271029682337,
          0.06374580242249836,
          -0.10039984778939401,
          -0.1206115222156017,
          0.11221876837492561,
          0.06541904419694032,
          0.08313273512886941,
          -0.0032193477739835474,
          0.057254889866584814,
          0.04293874750089083,
          0.053850217006865826,
          0.07896036448774446,
          0.1153317803862577,
          -0.142210335580345,
          -0.03158308014112465,
          0.10316035987008573,
          0.09627719242577185,
          -0.033311972688158394,
          -0.06950302669099417,
          -0.02052079406573279,
          0.12432870883485485,
          -0.03328426806972248,
          0.08468399252729725,
          -0.12488264100917207,
          -0.08161477613020612,
          -0.0036997324700565157,
          -0.009762970535602152,
          0.004341677758400832,
          -0.029634207422948596,
          0.053658913344199456,
          0.16646090502475253,
          -0.09680787301046401,
          -0.01978020604745336,
          -0.1338354066266336,
          -0.04217982931364705,
          -0.0989913799793999,
          -0.0502207671860294,
          0.14867555547381586,
          0.04089194896944037,
          0.11401996299297561,
          0.13408091807398906,
          -0.12139059919013946,
          0.030994502574293682,
          -0.13450913388487593,
          0.02768835848937482,
          0.09935774706680738,
          -0.028082242140455495,
          -0.11515562388343532,
          -0.09675253095247968,
          0.10257646657223611,
          0.06879860589088492,
          0.04755060540694127,
          0.05266436906101409,
          -0.04541060112482799,
          0.04546530715877574,
          0.04314047200462153,
          -0.0424917862912566,
          0.07278039755367995,
          0.07481421744803687,
          -0.003011994925745263,
          0.11530336083156906,
          0.01920850830208506,
          0.09495153317668034,
          0.0889327157120765,
          0.022384502017121097,
          0.10898760631195357,
          0.10110314716235015,
          -0.066253086889156,
          0.026447597039634348,
          0.07085111181827179,
          -0.10517501042214522,
          -0.017972515271509823,
          -0.06222657055456943,
          -0.0013676413717967093,
          0.10648986462905377,
          0.12597810495996445,
          -0.11006804824540857,
          -0.03274705727095444,
          0.04128120954161314,
          -0.09526211427413718,
          0.0632700231272381,
          -0.0076191925521512755,
          0.040332552712541284,
          0.019434160748928016,
          -0.04147514600480048,
          -0.1332337155031054,
          -0.06140270568933755,
          0.06281167203928217,
          0.07669618475274301,
          -0.10011510678957333,
          -0.04716070820940494,
          0.026100184010987945,
          0.052705583192745764,
          -0.09973918625101336,
          0.066873167771153,
          -0.08009949172873781,
          0.09145702552240449,
          0.07071372790129463,
          -0.13327644051453766,
          0.1366210835846652,
          -0.12279545028203506,
          0.02486930235425709,
          0.027168904100293604,
          -0.07469434933411406,
          -0.07425418788683465,
          -0.1416053168504965,
          0.0847819777309569,
          0.001824851893598206,
          0.11790223081992274,
          -0.012117640353566926,
          0.03549839176632779,
          -0.022863325125484536,
          -0.0600562716576609
        ],
        [
          4.784826498816774,
          -0.027337339447265206,
          -0.11768497572264686,
          3.2614490669304925,
          0.8427559444810228,
          0.1020350662531199,
          3.185965910197107,
          0.09411144759652253,
          1.2582781899512998,
          2.491594946775186,
          -0.09940506292627321,
          0.10732311843476222,
          3.2766033072640424,
          0.051681858514911506,
          0.0662089806840165,
          2.1852710132231215,
          1.3783623296117602,
          -0.09596717358349233,
          2.6728403515003794,
          -0.07631250532976006,
          1.4833318688737724,
          2.4438170385975417,
          0.12939481220152302,
          0.14431176344519495,
          3.323525149686935,
          0.08582351196959812,
          -0.015839242537930794,
          2.1290390588317973,
          1.817994831947742,
          -0.04621410943831244,
          2.2636144832995466,
          -0.07812427566542578,
          1.5805416488298039,
          3.5061557851490925,
          -0.058045541715488855,
          0.1415064753382864,
          4.102985340855074,
          0.03150807817726064,
          0.05120673114631689,
          2.3773592353223933,
          1.563775414799981,
          -0.10733462262382805,
          2.482974659335148,
          -0.012730987632699331,
          1.448009224258398,
          2.100064022291624,
          0.03701540186602219,
          0.1383009224775587,
          4.39089319231349,
          -0.08774580177628549,
          -0.07347180618868175,
          2.5042014299803372,
          1.709112372443319,
          0.09302586458601703,
          0.0699729484783084,
          -0.08281087197119458,
          17.580818781764403,
          0.017121347130539463,
          -0.10620154162102356,
          0.12597911134141984,
          6.855656030330025,
          0.07019052113130587,
          -0.0966290092265646,
          -0.01931474030266923,
          3.5796521368870122,
          -0.14476491885501575,
          -0.03335861092062412,
          -0.033393593405570555,
          15.722152149460598,
          0.09113557502082939,
          0.11493140327910184,
          0.11363658030690776,
          -0.10549655952097535,
          0.07914691992584058,
          -0.10865196374374171,
          0.11576085684767372,
          -0.04982893462642899,
          0.14208067317700093,
          -0.1507325357568196,
          0.040755590049608666,
          0.11536064116835894,
          0.012266914911573085,
          -0.015957097725518003,
          0.1064544222001047,
          0.04047975638383699,
          0.07288374979253506,
          0.06576305192960338,
          -0.061185628079654115,
          0.00976963300349277,
          -0.011341104675812771,
          -0.03195352498349697,
          -0.05000580073315152,
          -0.07085207760037669,
          -0.10060493537964103,
          0.14955947210784898,
          0.1038858553196326,
          -0.0014615318841556947,
          0.06935668267460061,
          -0.05799678563989204,
          0.10165494756962914,
          0.08569829539299427,
          0.0954855206273668,
          -0.06739353237132703,
          0.009964420209041855,
          0.04877555663934361,
          -0.07869737957558307,
          -0.10072744541895022,
          0.005585219409029469,
          0.03360707712812097,
          -0.05310444414424639,
          -0.10075659295834061,
          0.13058806876274495,
          0.0367842418525349,
          -0.04145732524777307,
          -0.07330570523439237,
          -0.04598616488861185,
          -0.11610933941432426,
          -0.04524290067667716,
          -0.032242029534164496,
          -0.004756301038312951,
          -0.07465687143420037,
          0.05845870454039567,
          -0.10625810842691658,
          0.040494635499937044,
          0.021425560623258413,
          -0.10797969568246847,
          -0.06217245869708926,
          -0.037780640927849926,
          -0.09912220556880944,
          0.100850763583949,
          -0.09749860650724776,
          0.010989375233559978,
          0.04493186762523042,
          -0.005020517038971268,
          -0.13255746875799398,
          0.09202682924759567,
          -0.0529231783266418,
          -0.0495812371970115,
          0.12241642004067554,
          -0.13999075347324375,
          -0.059168275198761354,
          -0.04637865157499556,
          0.01900654989983955,
          0.04183561402771497,
          -0.07469374633915739,
          -0.00344905942049147,
          0.01967916918589456,
          -0.10809717187329329,
          -0.001140619586249213,
          -0.10360180842122044,
          0.021743554489186554,
          0.11291117974776362,
          0.06134399625031363,
          0.12623550223422453,
          -0.03034636846684856,
          0.07422046225582514,
          0.09292442117015567,
          0.041487866357274514,
          0.12058793542553993,
          -0.045660444547928364,
          0.11446612519461148,
          0.08998329583880901,
          -0.01801176508514854,
          0.10475700005505047,
          -0.07940899765252663,
          -0.10798049068371483,
          -0.06635670580930435,
          -0.1189082159978659,
          0.028953525773330463,
          -0.09707005264332431,
          -0.06879796013063139,
          0.11929367638308545,
          0.019323895982329895,
          -0.0007994538608015913,
          -0.020869316580529266,
          0.027999250149863986,
          0.07106754562523657,
          -0.05745850204387192,
          0.14180792689791272,
          0.030641651714355088,
          -0.13471092834819395,
          -0.11432023672991354,
          -0.009937596873831339,
          -0.04070568241908936,
          -0.01538269479299495,
          0.06962252927983258,
          -0.10029730782161549,
          -0.07274729098071822,
          -0.1065811686191183,
          0.10016120900701367,
          0.055789277304348885,
          -0.07651858422038316,
          -0.04735200231060039,
          -0.04661582526736645,
          0.03708793290701774,
          0.013419874633331422,
          0.16823212546125882,
          -0.03811076235562136,
          0.0030460597119868673,
          -0.023352569018758877,
          -0.08956428306455434,
          -0.10478130702379891,
          -0.10971903236832742,
          0.09538111063220027,
          -0.06470129118857469,
          0.04177132623995176,
          0.0009465921219825674,
          -0.020019715353795313,
          0.06144618700259433,
          0.09240202890813075,
          -0.0664187522675302,
          0.013501324031479621,
          -0.01265098328998502,
          -0.10651658205409337,
          0.04924495503053819,
          -0.04343039400388863,
          -0.036480946022152044,
          -0.09144639512393304
        ],
        [
          -0.11499382818892269,
          0.06735619948737495,
          -0.05062753279284195,
          0.060300454476753626,
          0.0666388484927736,
          0.04819951873545463,
          -0.09656614720203384,
          -0.06894040636444378,
          0.1265181874567204,
          0.09134345029059132,
          0.052259688365502426,
          -0.08887713912299562,
          0.0628002028010552,
          -0.03533327682860587,
          0.13447906114439204,
          -0.12785061514979465,
          -0.020303264978051343,
          -0.0060513232784975895,
          0.05063492672525491,
          -0.14129548582179943,
          -0.1412210599208592,
          -0.13012608883062887,
          -0.04876462563411394,
          -0.023435619452430126,
          0.04182150716503995,
          -0.12395343302551848,
          0.1156748290413098,
          -0.12476748964155168,
          -0.042172555022407306,
          0.12266396536029822,
          -0.06021994068322168,
          -0.1171093711288446,
          0.02373278837672966,
          -0.06770700418848703,
          0.09938902640259256,
          -0.1029483351132833,
          -0.03227369796423466,
          -0.11906105714723211,
          -0.09831404290566059,
          0.00028865733208815157,
          0.0537035877400615,
          -0.08900044683165716,
          -0.11318435844964896,
          0.028354975763793436,
          -0.02557471656878172,
          0.07822570103258339,
          0.10738582642698352,
          -0.092816985258815,
          0.015677717805860095,
          0.05461934485632071,
          -0.12251146053213244,
          0.015516525295423071,
          0.09446762612503329,
          -0.049304579471814894,
          -0.023446441491592255,
          -0.12582554867021453,
          0.08781692776502299,
          -0.024035947666818512,
          -0.012007096654601737,
          0.12413981084154775,
          -0.05542319313843609,
          -0.10321069899479081,
          -0.11351862033209263,
          0.0049122244987505875,
          0.012308643052247216,
          0.14103317387529646,
          -0.027889052433817587,
          -0.14102539234652658,
          -0.050286343732275404,
          -0.1001141988353057,
          0.10917343152935143,
          -0.03330727208304067,
          0.08716220668567722,
          0.08638203072221552,
          -0.05963218523303353,
          -0.13723032527746165,
          -0.044104838889574366,
          -0.0954884591203623,
          0.11396496641191421,
          0.06052185670480522,
          -0.11091183872086612,
          -0.05165783698861484,
          -0.03392364438147384,
          0.03514635534690583,
          -0.0873176004480261,
          0.11679083273420914,
          0.08830080197339561,
          -0.11258877680394402,
          0.02346444496574421,
          0.07372934106087663,
          0.09653144906870405,
          -0.08062361749942105,
          -0.03123171262124766,
          -0.1126696877086429,
          -0.05793186595805756,
          -0.06470995744826868,
          0.1042459897438991,
          -0.10488993358297981,
          0.07097259824735488,
          -0.11518283381046088,
          -0.13973198303911796,
          -0.13666981812868165,
          -0.06873929882964969,
          0.05599652717613313,
          -0.10193661188776869,
          -0.11124577273881556,
          -0.10987042994893446,
          0.12431595389363144,
          0.06109354283027212,
          0.12361766317784162,
          -0.08351824748566139,
          -0.08309902760051979,
          -0.11611268804277072,
          0.015801742957624886,
          0.07181880738859522,
          0.06447070226507318,
          -0.08375854758000398,
          -0.06469778060588414,
          0.02698583121186992,
          -0.003255450544593114,
          0.008840235532444209,
          0.06544798518217866,
          -0.12241889200294415,
          -0.018279920018328663,
          -0.026950858734852076,
          0.1371085793191398,
          -0.05317516360551566,
          0.07876908641293713,
          0.07943353678194777,
          -0.09644188721947251,
          0.13371019802570777,
          0.04694003924046916,
          -0.13567805512442338,
          0.06934536143500866,
          0.13572500185766306,
          0.06569570141015753,
          -0.10989854872330654,
          0.024065953413021736,
          0.041514741894115144,
          -0.08205412266451746,
          -0.07309777559314201,
          0.13896496632217226,
          0.11221906340022958,
          0.10544726674972742,
          -0.031131030469990835,
          -0.07592805520147049,
          -0.10195278442174834,
          -0.00693349602279633,
          -0.13065404171777995,
          0.11738499997697907,
          -0.05827596509682942,
          -0.09566191067057019,
          -0.07179553046315662,
          -0.11303706073340015,
          -0.12128152399356429,
          0.0978626837103257,
          0.016723688797031656,
          -0.11802401673028681,
          0.11128960020018029,
          -0.012804570939075038,
          -0.023283593139916733,
          0.022470836088347972,
          -0.12596875752902043,
          -0.07503338607575172,
          0.1027063643768867,
          0.07170945975629044,
          0.13479055725813377,
          -0.012936150849971613,
          -0.05567402269153363,
          0.09741900309880264,
          -0.04141470238898304,
          -0.02443627378232343,
          -0.06854102353662922,
          -0.02129240678430758,
          0.141693275183241,
          -0.04246765117178062,
          0.051582825662559985,
          0.021085598953278748,
          -0.006786485997399581,
          0.07861948968072457,
          -0.12524207290226963,
          0.0466255003697828,
          0.04463760640273036,
          -0.1097527355817164,
          0.022602525155259144,
          -0.039954563348173815,
          -0.053976840793001614,
          0.04900371311878342,
          -0.10760794715533947,
          0.0994916803660696,
          -0.003193310774202189,
          0.10878531238646266,
          0.005056219122281448,
          0.07192599264817971,
          0.03473326868185354,
          -0.06474191161611757,
          0.10429869135138087,
          -0.007422117328452941,
          -0.12375576165863207,
          0.08527410034559241,
          0.10649164718182906,
          0.02838740157548749,
          -0.06535028856685639,
          0.028299081144659323,
          -0.03287063996346784,
          0.03180996713721072,
          0.13344605936783693,
          0.009097173461404984,
          -0.08842312053826863,
          -0.06877858865170033,
          0.0406137817610414,
          0.11415516230975209,
          0.04975918718186039,
          0.05415862559880862,
          -0.053804465869974095,
          -0.008285805175644277,
          -0.1144537715384138,
          0.12955607453656726
        ],
        [
          -0.08958680334047656,
          0.01629004829229975,
          -0.09373846037942755,
          0.05471313075258711,
          -0.12103711799441089,
          -0.13188634982273803,
          0.00927180577310252,
          0.034229587810685774,
          -0.04925586338036756,
          -0.09594786797709856,
          -0.002278234627607952,
          0.11386142373875409,
          0.0670244554615248,
          0.12663450719819522,
          0.08393484841935335,
          0.07457431631627147,
          -0.12107967721089408,
          -0.10767657999064752,
          -0.06578197946059139,
          0.0036814077081082515,
          0.11939647719349172,
          -0.14141674229600737,
          -0.0007866531042870734,
          0.018427386093854227,
          -0.054407813979333086,
          0.018963779146066697,
          -0.10023260866337493,
          -0.04095319512019364,
          0.11394197519507558,
          -0.12298692378062431,
          -0.1204691123824582,
          0.11205600532628388,
          -0.13213398966793666,
          0.047330840106123435,
          0.04188518000919047,
          0.01655858120658416,
          -0.10085118588687306,
          -0.054050786724637916,
          -0.13721430894494602,
          0.027029328033587482,
          -0.1406239701777709,
          0.02796059759388329,
          -0.04338691912077586,
          0.0782279248551182,
          0.10798541341124367,
          -0.06092614772092292,
          -0.07248095266273573,
          0.019998442710616522,
          0.13804011595486598,
          -0.07416826003860041,
          0.13202321362478217,
          -0.017010049822233916,
          -0.08912307079550083,
          0.005497577591566494,
          0.12033163580022066,
          0.05503521011019026,
          -0.054047217217240276,
          -0.13862974648337284,
          -0.028397259975837898,
          -0.008204706089147822,
          -0.09796750797553139,
          -0.13613724672633157,
          0.01447886073337249,
          -0.023209063633267735,
          -0.01173714907308207,
          0.12828589788430075,
          0.09020841063450599,
          0.002498256151009931,
          -0.03517915752219503,
          -0.026876994736301802,
          -0.10996975901492068,
          0.12286483740354505,
          0.009875816483257216,
          -0.04818955382209242,
          0.1090678341858341,
          -0.06661844252909925,
          -0.009863123198130444,
          -0.040601367444857525,
          0.10871289331752942,
          0.08654697286068933,
          0.12295706736407787,
          -0.09885510257572257,
          -0.020054953810147876,
          0.13725929272002474,
          -0.06746642314294946,
          -0.07371582778413893,
          0.1322992695821651,
          0.03389463359366524,
          -0.10153750763244661,
          0.14075173623566328,
          -0.02486280883839528,
          0.057361279982495725,
          0.1005904975369747,
          0.09297636784095178,
          0.023517436378480226,
          -0.0959712159993118,
          -0.05872737107331341,
          0.019993220004983176,
          0.0659879597674514,
          0.13927885831792947,
          -0.11102168085899007,
          -0.011253435823578456,
          0.008760782243775706,
          0.08512377480536469,
          -0.006824881823761604,
          -0.09745699613154177,
          0.030918059156490894,
          0.11432895123926416,
          0.04600677883833314,
          0.013557629033315484,
          -0.06455011313354714,
          -0.11347805116454879,
          0.11968318061970346,
          -0.047791253568214453,
          0.09871190138162475,
          0.04787301869141019,
          -0.1302101320900664,
          0.1086849739577167,
          0.05402665491995179,
          0.057163244541977055,
          -0.12825864403258677,
          0.01323181603784237,
          -0.014919087733169592,
          0.11423789424336285,
          -0.033824757489851864,
          0.006965954343424534,
          -0.05943998144598754,
          -0.009536441051194782,
          0.09006069664532014,
          0.1111774993518849,
          -0.06778580161601694,
          -0.015688579225763586,
          -0.08631807560536865,
          -0.03911600252836351,
          0.023981035451815833,
          -0.08025546888549949,
          0.12590634209344007,
          0.0753557991124552,
          -0.10198700813608003,
          0.13703323206743223,
          -0.026270610477505136,
          -0.009666495156589423,
          -0.004282047928974212,
          -0.017973329317737156,
          0.09001384228502747,
          0.08198401225850811,
          0.005153601484573798,
          0.10652998750513282,
          0.06656746429157688,
          -0.02020614519808467,
          -0.08395155087538936,
          -0.11789895274628133,
          0.008713122560537485,
          -0.12186655926529652,
          0.0868774983301101,
          -0.07023287753801742,
          0.12267832651232607,
          0.06428152471620446,
          -0.017305646424182662,
          -0.09340524961918747,
          0.019421263368182264,
          -0.05749645768091965,
          -0.08155398460641937,
          0.07780412728917044,
          -0.11029708116497829,
          -0.03635218333921226,
          -0.07276494410380013,
          -0.03454671682409155,
          -0.05680587832217601,
          0.13516415600807746,
          0.08060939946599345,
          -0.05594448407279274,
          -0.06430951081183724,
          -0.001960562609282092,
          -0.12900189566148135,
          -0.021304554950112017,
          -0.02669920681144114,
          -0.06837551064170617,
          0.02321512721023392,
          0.03030363779055601,
          -0.07114672468832134,
          0.08987159732933357,
          -0.1172016641249936,
          0.02247545566074808,
          -0.11452040533857305,
          -0.06858652732250393,
          0.08870409988122062,
          0.04606634128456815,
          0.028571275939288363,
          0.06444877274244923,
          -0.033614682114492415,
          -0.10591216974848204,
          0.1265864788160699,
          -0.08635727411167339,
          0.0054779988877607004,
          -0.06544439122700536,
          -0.024342239840246607,
          0.1241892985576552,
          -0.0642567004447913,
          0.060981891953199134,
          -0.060067645048725526,
          0.0556280181887832,
          -0.07398637374148682,
          -0.009822153219215804,
          0.08279406155373398,
          -0.030735752489785984,
          0.03347996601650311,
          -0.06675680055276222,
          0.08221470583066476,
          -0.08400273315272595,
          0.08025017812254469,
          -0.10014779457217808,
          -0.027242866271182643,
          0.1286505122749117,
          -0.1358834497418685,
          0.08149100792919976,
          -0.0941430591732184,
          -0.07373485515756589
        ],
        [
          -3.0363299916911823,
          -0.1335953213890745,
          0.1307607139177341,
          28.360847313432398,
          -2.8385637819169225,
          0.06527051352517592,
          25.87055074979363,
          0.05451148230920189,
          -3.5796184336720485,
          -3.0928797996198307,
          -0.043490760865851526,
          0.025008793034845756,
          -5.695291796442396,
          -0.022740070744273897,
          -0.02691135043622664,
          4.7634810232877935,
          -4.035339382885608,
          -0.03643372561408457,
          7.9518655976341694,
          0.03686691432686354,
          -3.9744455955451934,
          -3.414774170852633,
          0.08084853100040183,
          0.06364873392175739,
          21.68510304976063,
          0.02669006607553484,
          -0.026104661088108945,
          3.806020829788145,
          -5.12400967078452,
          0.07788544724292168,
          7.714044717885875,
          0.09666827642664187,
          -4.538952399649748,
          -20.880095049818067,
          -0.02981692904918348,
          -0.04942603623731246,
          9.582872956517576,
          -0.04031287589999455,
          -0.08265167861731451,
          10.611733832456842,
          -4.810801257769025,
          -0.049479554522497575,
          20.729836565503298,
          -0.01390979535300721,
          -4.264568750683185,
          18.66627685382491,
          0.09417341289007433,
          0.0598857685810694,
          3.303933390082589,
          -0.12799633321070655,
          -0.07877197813279672,
          6.530188534528012,
          -5.227838504958357,
          -0.0833536682869624,
          0.06559949545445623,
          0.12712480834387338,
          20.246996404017793,
          -0.06667473771639819,
          0.08688477555729601,
          0.004689434173096048,
          2.6629942449349344,
          -0.11677445181840793,
          0.13698537168783964,
          0.09890121611196212,
          -1.004865904350627,
          -0.15163721085382323,
          0.08115941375722176,
          0.007274671905475733,
          15.914481831524226,
          0.025285830116722575,
          0.04054667321827492,
          0.1446307202628801,
          -0.027018304054834626,
          0.01392562777333918,
          0.06546337529715728,
          -0.08982774871097134,
          -0.03150719610863207,
          0.1104312574940656,
          0.11825411227436015,
          -0.11000264073693232,
          0.02131723612027713,
          0.12272547212927816,
          0.062313376688116186,
          0.044111080107871486,
          0.06329732016545164,
          0.09879003377337588,
          0.05713041909899758,
          0.06393264723884186,
          -0.08408288155156941,
          -0.014052602803388518,
          -0.10600255979586706,
          0.024026972614930385,
          0.07137693350015178,
          0.07327658027883491,
          -0.06056798986402247,
          0.041081100402617615,
          0.07329252127630091,
          0.025524060756754664,
          0.01842098357000361,
          -0.09074664702138958,
          0.016809821730969673,
          -0.10685455343167903,
          -0.041371094103374015,
          0.09024254701100767,
          -0.020875712066791657,
          0.04260037966866998,
          0.019520304723589905,
          -0.04290871455966351,
          -0.0579709051512237,
          -0.0017699576484327534,
          0.03743703259373101,
          0.10794550030737914,
          0.019078505151064535,
          -0.10168944843576307,
          0.06017273291817807,
          0.049288360144186506,
          -0.052214446493040925,
          -0.0729057160896998,
          -0.09395773399791066,
          0.07783992788899907,
          0.00972833730915316,
          -0.0912685952203031,
          0.13587666998953887,
          -0.16580860279876308,
          -0.025562496418162137,
          -0.11325528820166376,
          -0.08571850249995414,
          0.04730279683769806,
          -0.09296456266330608,
          0.11293114505642582,
          -0.11032863918754532,
          -0.05550994264564663,
          -0.0163669687595843,
          0.1338148786388765,
          0.03384356204863267,
          0.007258287216732996,
          -0.08603540658175189,
          -0.0641698655863266,
          -0.025167001428119482,
          -0.16971871872324393,
          0.06430103946282989,
          -0.13439439009497786,
          0.1079213919461383,
          -0.09240801373340571,
          0.058308913591619674,
          0.03043006603036475,
          0.09057618007291666,
          -0.030168077331282146,
          0.06032563850747978,
          0.08257897102531288,
          0.029933982234332836,
          -0.09005796697426899,
          0.04359885886853511,
          -0.04320491300067887,
          0.09924252406755572,
          -0.06270907406749837,
          0.08413028687247318,
          -0.013041423026881221,
          0.05764842561827711,
          0.08413731351960935,
          0.05965905370704972,
          -0.043589242103423465,
          0.0075367236565817355,
          -0.05811161919178686,
          -0.00722116027888823,
          0.06112433189506632,
          -0.0934711009716608,
          0.032277388472782456,
          -0.028595296081537724,
          -0.03756473380950036,
          -0.038150270861227235,
          -0.0392374468621112,
          0.09128267902435262,
          -0.016026547535251942,
          0.052785086477390365,
          0.0704034937854344,
          0.012043329082921325,
          -0.11547226206259986,
          -0.011457735968276225,
          -0.14430779416853992,
          0.13042844709707732,
          0.14752014389268395,
          -0.030467477108403695,
          0.021472935900463033,
          0.012512386463291607,
          0.019186310131223988,
          0.05669852497427936,
          0.029913297295431907,
          0.07302190070765976,
          -0.03894954854460409,
          0.012138600049598174,
          -0.11442787884751596,
          0.08468220201358573,
          -0.10942539025140832,
          0.10411305390315445,
          0.026015344588723163,
          0.13668916900706823,
          -0.048696844540309314,
          -0.10427050990788048,
          -0.09416168060028691,
          -0.08587796940859996,
          0.1528964231432504,
          0.09710242808195814,
          0.03417627755874549,
          0.12826349073975085,
          -0.04663975582648187,
          -0.1012275503347199,
          0.14970383981964813,
          0.04897666696984263,
          0.0020290527028120624,
          -0.05540219850933717,
          -0.04988193655919592,
          -0.08731065239733167,
          0.05394439918750537,
          -0.12648880865383258,
          -0.004786693305077163,
          -0.08756806162119549,
          0.09006797409259487
        ],
        [
          -1.936076509482339,
          0.025681582672940184,
          0.0320848981777912,
          25.813079210080456,
          -2.9456601186857436,
          0.12084049270468275,
          23.13762295592396,
          0.13087552054118873,
          -3.668067581953861,
          0.46060922547742106,
          -0.021525460307384107,
          0.08279391691484674,
          -4.9331927522165975,
          -0.042581936063411305,
          0.10692237979274133,
          6.99502325721689,
          -4.3220881981500945,
          0.03774977265709287,
          8.483593458623437,
          0.024075763243776676,
          -4.14526915459875,
          -0.7855950019365937,
          -0.01785445232558162,
          0.031056253927854122,
          19.965781295448746,
          -0.07602269518272452,
          0.030645936356350118,
          6.726469350568316,
          -5.368892181296162,
          -0.07197397571623076,
          8.04585954783672,
          -0.030335010243149538,
          -4.517846953465305,
          -15.524042891553776,
          -0.031598031670791074,
          0.010017878880606798,
          8.643040710058475,
          -0.006567515001507102,
          -0.07019365834989245,
          11.017591495655736,
          -4.8645287857116575,
          0.032516020742283214,
          20.234140047993055,
          0.08386396404474722,
          -4.430816513262548,
          16.891922459177962,
          -0.05463259719585374,
          -0.0659800066126014,
          2.9287266611094767,
          0.030929527235996776,
          0.011711435395546851,
          8.480993949813316,
          -5.27777076520764,
          0.087337861449249,
          -0.0020005878701703254,
          -0.05315980481671697,
          18.61181255019145,
          -0.03812555498890261,
          -0.02933751480530943,
          0.1119978786490339,
          2.000050953327324,
          0.05826958675801177,
          0.09341991796338397,
          0.06576631462253875,
          -1.319895709682482,
          0.04278775016747331,
          0.0995310644488518,
          -0.017967477690056893,
          14.5593198464496,
          -0.1823278628830067,
          0.055809296229214066,
          -0.11298741034865503,
          0.1263369342338055,
          0.13751032708906136,
          0.019821168062847557,
          -0.09104789973520659,
          0.012671574402446161,
          0.012507125219980394,
          0.026798123449073886,
          -0.029567249930657378,
          0.08122416819259433,
          0.040752089659443366,
          -0.06662053627499331,
          -0.0622554676051776,
          0.04463961569065677,
          -0.023416438325917367,
          -0.013361072200109937,
          0.06809995249588334,
          -0.05813233494518122,
          0.0378085210482963,
          0.07637564615805739,
          0.047002308489231086,
          0.10469050919015037,
          -0.12404041222477905,
          0.1353392158646953,
          -0.16505188899398612,
          0.021168569306373196,
          0.13179870994290027,
          0.03714780734720128,
          0.038632912689070466,
          -0.03453982423331595,
          -0.039412712199503916,
          -0.0035197495670094784,
          -0.11706766491398544,
          0.016386738903211052,
          0.00862094100791029,
          -0.1029480103229091,
          -0.1460428126942132,
          0.024514383605528937,
          0.12508660328447527,
          -0.02950746759340541,
          -0.11959091103235986,
          -0.053130151317837666,
          0.03279573831085452,
          0.09494316370530055,
          0.029008434085234996,
          0.07651404633105344,
          0.02955452233359175,
          -0.006804051337525176,
          0.08217730702547663,
          0.08489641509718185,
          0.04542465681245857,
          -0.11078232104335557,
          0.10232415509578859,
          0.0224635298616454,
          -0.03231716971551651,
          -0.15585830165842418,
          0.10715099313618999,
          -0.018377264298718814,
          -0.05966446563663381,
          -0.029231582211161317,
          -0.09795953449416138,
          -0.08682439742896678,
          0.07466950546681098,
          0.07088999745093282,
          -0.04129534803655346,
          -0.06292427535466208,
          0.0540837195017458,
          0.0020604683031511923,
          0.08058934342656697,
          -0.002707697732549569,
          -0.008819927538658193,
          -0.005790526468354806,
          -0.08263165617500275,
          -0.0053476263805832085,
          -0.08594086770365147,
          0.024076776878721527,
          0.028633261636061853,
          0.0588866641484026,
          4.352524355040083e-05,
          -0.1272950594141668,
          0.13837136439992795,
          0.07839625184077201,
          -0.005988790324649158,
          -0.008901906080023936,
          0.05162018082962006,
          -0.052817554175890125,
          0.06925756546294871,
          -0.08498661207500806,
          -0.017963716852093716,
          0.039014928844630474,
          0.132891718497974,
          0.009839401562487056,
          0.13519407628530053,
          -0.005398733763383273,
          -0.09703554516549753,
          0.12685375745520966,
          0.019868382227566282,
          -0.004484400581851311,
          0.05941227052328515,
          -0.10307095238166762,
          -0.0816636866370271,
          0.07846366437801623,
          0.0578561159231871,
          -0.035860574845423404,
          -0.004460212037878447,
          -0.043394453001679115,
          0.09535424031154228,
          0.05855592317906639,
          0.042318713404702286,
          0.11135917048255668,
          -0.026929246528094173,
          -0.011999333341874157,
          0.014408706069712918,
          -0.06811011341353532,
          0.11779837897273238,
          0.05232118399639055,
          0.09244078749313546,
          -0.006836221016309586,
          0.07980224819415964,
          -0.08263934235651776,
          -0.07039909270146105,
          0.05272574459834495,
          -0.050151730911013506,
          0.05037283061965006,
          -0.11323729107593071,
          0.024020647003347325,
          0.1194497860810604,
          0.027673355575520156,
          0.07350185847931157,
          0.12541587210726898,
          -0.01040613842601801,
          -0.10865990722659452,
          0.003130116836631966,
          -0.07033282504086252,
          0.11181190023834651,
          0.03740003601063064,
          -0.05209014441571384,
          -0.10682832861636822,
          0.11108453297916356,
          0.010626839048185807,
          0.025015977766449142,
          0.11625348092202124,
          0.040221062860728685,
          0.037665173535167636,
          -0.035717278688371094,
          0.08467626197288299,
          -0.058477141544702564
        ],
        [
          0.03207012992600728,
          0.06515316892679922,
          -0.11028420590911046,
          0.037088686456971554,
          0.09720147392701739,
          -0.10370757386951288,
          -0.07687120003753423,
          0.05026735600389007,
          0.015007967026934537,
          -0.09137043204516962,
          0.08585150579691404,
          -0.032850106871360016,
          0.0522034332407898,
          -0.1296613196999648,
          0.07792927941731846,
          -0.0067190368308842705,
          0.038961027549804295,
          0.11624960681927263,
          0.09142102162913394,
          -0.10447270150022522,
          -0.08032265216593565,
          0.06667753967469572,
          0.05603435211389577,
          -0.006354957516185093,
          -0.061755078627972734,
          0.012889997414014833,
          0.07328208618455087,
          0.11718002718277684,
          0.09375365883473452,
          0.07433131599814388,
          0.013816384951734982,
          -0.01864714926373497,
          -0.09525354546567498,
          -0.0569240837139806,
          0.12875851831900792,
          0.04450874733104039,
          0.0682626598413734,
          -0.05288306990729464,
          0.13642630572876643,
          0.049645465644263455,
          0.05918161193457376,
          -0.014204004699249394,
          -0.05565914932556799,
          0.026906390081014146,
          -0.023645652143294768,
          0.09115008107147175,
          0.08522008820518472,
          -0.024602523414269967,
          -0.0819304318526037,
          0.05265052887619834,
          0.10610060910667572,
          -0.012150947630931786,
          0.12478314441128772,
          0.033947635842712626,
          0.05704280079112241,
          -0.05651211160319848,
          0.1331010946456563,
          0.023613743831544017,
          -0.017034442887744347,
          -0.08244469054947717,
          -0.0035886885277617926,
          0.14001443678116793,
          -0.12098440171826373,
          0.10540625937232352,
          0.13837723531975976,
          -0.0130056767559173,
          0.050830598660542084,
          0.05681386309785929,
          -0.05027568027327977,
          -0.0021251953842810777,
          -0.013939448446940114,
          -0.06141562179142485,
          -0.10245843763373685,
          -0.07739625407924178,
          -0.008646403655688903,
          0.039547222571154166,
          -0.06713250088636237,
          0.11271188271934372,
          0.12347619962591813,
          0.06337403187317198,
          0.09616054248138686,
          -0.0019009642182093594,
          0.02666862502278311,
          -0.052404560598104694,
          0.0495805924804027,
          -0.015462163089297846,
          0.11377332439510802,
          -0.02757526814042346,
          -7.968408888582277e-05,
          -0.026366599713034837,
          0.09658366542087633,
          -0.037386894874262444,
          0.09073826066904889,
          0.13616543818327995,
          -0.024197383862111396,
          -0.045145191121146754,
          -0.0485871986112822,
          -0.10347875458277407,
          -0.1124157561953386,
          0.028442892343797595,
          0.01428522523172335,
          0.02048947443480383,
          -0.001974867861801254,
          -0.027457811643455142,
          0.07751007050063835,
          0.0055715153298942005,
          0.09294586468162633,
          -0.020155311268513814,
          -0.07186466824414482,
          0.019222610257915107,
          0.015592615759510913,
