{
  "layers": [
    {
      "activation": 1,
      "biases": [
        3.98998420583893,
        5.018069942340453,
        3.4994626393436965,
        4.650995542525926,
        4.399888853380739,
        5.4542174321236345,
        5.0577368443612585,
        5.361251631820164,
        4.44057842552846,
        4.309907986288768,
        5.033309267533053,
        5.100431638742167,
        4.374588165690755,
        14.603469454587962,
        14.185014286437998,
        4.705761966343218,
        4.314851770313708,
        4.337255103035804,
        5.3941806836500525,
        5.178669928885563,
        3.4370275491814004,
        4.366063242620447,
        4.3014186026275185,
        14.464083287972882,
        7.832301201135438,
        4.6252266650257905,
        5.068301149260081,
        3.9861680672743782,
        4.7099557130661385,
        4.392270401823908,
        5.975172559111917,
        7.063206129625898,
        5.137287857502543,
        4.09231064996634,
        5.0609156716166,
        4.340413495547123,
        4.210086626948002,
        4.0833343624377765,
        4.455221835605234,
        7.11904576812237,
        4.898242919635612,
        3.857281562284961,
        4.984394177695049,
        21.679800375530633,
        4.751902001723414,
        14.633171243514177,
        14.61877557033457,
        4.089846012449265,
        4.993485055723247,
        5.036535753794856,
        4.536564881950123,
        4.039637820701889,
        4.983895514541612,
        3.6628128757214746,
        3.974259964635101,
        4.696463392716957,
        4.4544058033470755,
        5.075025711206509,
        5.029300455539502,
        4.135661256278491,
        4.170672619068773,
        4.767013683640113,
        4.246137758156712,
        4.250626305647786,
        14.029761774566476,
        4.5203081618802905,
        4.86501912775828,
        4.682267953076155,
        5.016263488999,
        4.413160347425419,
        4.556991276863191,
        4.300079462408787,
        6.908535574885997,
        4.230226733117953,
        4.463145861910477,
        4.814268314658088,
        8.717827553586991,
        4.024645679503423,
        5.836352212131129,
        4.968395632443063,
        14.402053694546904,
        3.7042745194521958,
        4.150159430148114,
        5.3462507831213495,
        4.823493955875816,
        4.041501524297206,
        14.125743544569355,
        4.873892847042263,
        3.9300253643409415,
        4.415666898993368,
        5.239731908596172,
        4.370791315096954,
        3.8919882100829244,
        4.764215594652018,
        4.460076408055229,
        4.348721792318692,
        7.108036134485679,
        4.929959957741779,
        3.363153589467734,
        3.7916372345523928,
        4.948970189297025,
        14.634531735275754,
        4.734124895163858,
        5.34441418272501,
        4.227286380009443,
        5.57240154619898,
        4.055091184361795,
        8.695878346720628,
        4.51403711596869,
        5.699422720857612,
        4.386813205760554,
        5.84496383777063,
        5.761184725625581,
        -7.966206914583553,
        4.208797597243795,
        4.870638409134096,
        4.533658526141997,
        4.854320935447723,
        -2.0050737955810347,
        3.9847991472876427,
        5.184115316622807,
        5.789304660261383,
        14.60723770885999,
        4.993406798230193,
        4.3292802576190805,
        4.270017637891423,
        4.969065356303553,
        6.220570517037021,
        4.253618104160962,
        4.077411026260149,
        4.582959183697278,
        3.892850654550458,
        4.190857644652946,
        4.703305863404844,
        4.969040366237746,
        14.623911256902721,
        3.8630333117201068,
        -5.873743002639835,
        14.551435995987095,
        4.23288206204211,
        3.7702623151990404,
        6.798320879096985,
        4.52260726229083,
        4.06539504089748,
        4.7320613392155675,
        3.4693668988659043,
        3.9235518943364407,
        3.936838192783714,
        14.703401273156905,
        5.729465017002898,
        5.300214496373224,
        4.492794657793814,
        3.94359965351644,
        4.469126513594508,
        5.093148663713271,
        4.417330865016404,
        4.023628624433903,
        4.373336879797684,
        -5.8786910673249055,
        20.112006758738502,
        4.902561524471101,
        8.845938300656192,
        5.004482346489576,
        4.841577282141366,
        4.381045516664902,
        3.956359048676912,
        3.4136422041551446,
        6.612960830213478,
        5.373529338481378,
        4.964709242074365,
        4.244209405659049,
        4.3193816132968,
        14.665079983320735,
        5.062212176284754,
        5.4057842998074905,
        3.96223205788564,
        5.583237454239371,
        6.731706436410982,
        4.700374052173119,
        4.479466761509359
      ],
      "cols": 180,
      "rows": 2,
      "weights": [
        [
          -11.836713576227906,
          -17.20698509683158,
          -10.687675272712449,
          -12.731796447255492,
          -12.439354057469876,
          -13.72493745373509,
          -13.208293949782806,
          -13.28496101635858,
          -12.46749864763344,
          -12.342879253858207,
          -18.864602599940664,
          -13.29567772219864,
          -12.399852513252247,
          -2.9867174389183466,
          -2.5429627107366315,
          -12.789663500652393,
          -12.330324075820677,
          -12.31382318313264,
          -14.642496780931301,
          -13.331348999456146,
          -10.691106404848274,
          -12.36190945577142,
          -12.325260002992398,
          -2.9075015923285723,
          -17.30082034702197,
          -12.701446702526342,
          -13.248494702507553,
          -11.920921823063638,
          -12.472899809636436,
          -12.361062512725216,
          -17.753518385201282,
          -14.645370141722001,
          -13.338220904694374,
          -11.990975703628358,
          -13.242632815405583,
          -11.916540290538132,
          -12.217310244107171,
          -11.990296363462898,
          -12.497912939557736,
          -15.242117828048878,
          -13.065550445910066,
          -11.583933101237694,
          -13.12602392695595,
          -15.707992102805148,
          -12.854467645097678,
          -2.8916350912741127,
          -2.8934320223947183,
          -11.96619282482813,
          -13.147506957107582,
          -13.168626181235668,
          -12.583316532959346,
          -11.983813673393966,
          -13.17810306577082,
          -11.265712121704128,
          -11.905697622653765,
          -13.353732582304193,
          -12.49480522652011,
          -13.18901082829251,
          -13.206431390901466,
          -12.024813402973933,
          -11.847206462930194,
          -18.320227246458796,
          -12.254437156669455,
          -12.235348264742665,
          -3.1917469134737253,
          -12.566822446457307,
          -14.35216974851048,
          -12.753072401642982,
          -15.189845849805774,
          -12.437821862773115,
          -12.637200394948314,
          -12.28273344829259,
          -14.6778995610652,
          -12.210619953271385,
          -12.507353415384348,
          -12.92679770286992,
          4.808002373625613,
          -11.898267833512007,
          -17.585256016444664,
          -13.03765199257265,
          -2.677328435647181,
          -11.303222381609487,
          -12.320585588653877,
          -13.59238165293944,
          -12.985700006565263,
          -11.931110145480869,
          -2.786929391749953,
          -12.965783401090674,
          -11.853154828870585,
          -12.439896399615609,
          -13.466957353144442,
          -12.373984740328677,
          -11.585812081823823,
          -12.83916309470389,
          -12.525710321437987,
          -12.336295049503816,
          -14.788758563737192,
          -13.029555244966657,
          -10.187045380988582,
          -11.675086440302836,
          -17.57250743460854,
          -2.9598814784065333,
          -12.816285116933651,
          -13.629309829648637,
          -12.215837412775578,
          -13.872781887682063,
          -11.581440315984135,
          -16.066341250052695,
          -12.542415369911138,
          -17.971656480277343,
          -12.40142147259302,
          -17.841640288880974,
          -13.551051088497232,
          -14.7180623909128,
          -12.12746307758646,
          -13.027167588117168,
          -12.305071943049507,
          -12.947725973695222,
          -14.544364822401501,
          -12.440603746909472,
          -13.368352783380054,
          -13.798725148361212,
          -2.817785462403234,
          -13.149964021238446,
          -11.934213273621307,
          -12.27283456565752,
          -13.086287421388153,
          -14.114757681652728,
          -12.169989995874756,
          -11.9503241557964,
          -12.641047234871468,
          -11.82776457244962,
          -11.745838156845616,
          -12.791314723094212,
          -13.151474421456673,
          -2.814264711598807,
          -11.785576714644582,
          -15.544409862536007,
          -2.8259614571370597,
          -12.236525046254963,
          -11.377161073103677,
          -14.406331818583832,
          -12.58228517133193,
          -11.767738393430783,
          -12.842144138656689,
          -10.704957226625583,
          -11.856424438759783,
          -11.870260996233878,
          -2.8720483700766626,
          -14.00496049807981,
          -13.00109273305112,
          -12.528758035832144,
          -11.479398128326771,
          -12.50855252497378,
          -13.26032783204438,
          -12.462254622991168,
          -11.91057953442547,
          -12.349394333751357,
          -15.87549320146965,
          -17.330460818995732,
          -15.42499374758493,
          -17.50854703326514,
          -13.154913298435018,
          -12.995425030989628,
          -12.352096393438986,
          -11.90715398697262,
          -10.641614947429977,
          -14.706853575182723,
          -13.613701960325136,
          -13.084287373263244,
          -12.266263260567605,
          -12.345164497494284,
          -2.87885677455881,
          -13.237357419308449,
          -13.66247999659211,
          -11.738323203137659,
          -13.923972857983017,
          -14.703506458683709,
          -12.798554530771222,
          -12.491027294672442
        ],
        [
          -11.965905978026642,
          -16.640406615472305,
          -11.176437074324886,
          -12.785438243007109,
          -12.473555945017822,
          -13.798039255162864,
          -13.282651763661109,
          -13.384329869666725,
          -12.558150862683954,
          -12.421827192081498,
          -15.267550062411047,
          -13.309846636805739,
          -12.44540284109556,
          -2.884819270657706,
          -2.8424002833097997,
          -12.860887040387086,
          -12.37590646336649,
          -12.429364211894327,
          -13.785143110828209,
          -13.480913374476826,
          -10.901519075659037,
          -12.384887550376568,
          -12.370894207930375,
          -2.8505048588868798,
          -17.22926389664453,
          -12.738782688413227,
          -13.29304518232747,
          -12.014195349874377,
          -12.636331188588072,
          -12.452386836097352,
          -17.689335616735033,
          -14.987584973756903,
          -13.350558918389039,
          -12.0642418121479,
          -13.258045510331051,
          -12.308605661553624,
          -12.329179898502503,
          -12.063047223419769,
          -12.543493037307748,
          -16.029666553460107,
          -13.044339823789965,
          -11.632328756832896,
          -13.186578095264887,
          -13.92902505689661,
          -12.89926306220846,
          -2.953883375348636,
          -2.92847097629654,
          -12.063993729654674,
          -13.187887715835544,
          -13.269697997723595,
          -12.684176304869265,
          -12.070731026379141,
          -13.142037562996997,
          -11.34869282933814,
          -11.97173641701376,
          -14.4774599533746,
          -12.557316226745563,
          -13.35778324748255,
          -13.226811103893345,
          -12.173704399591111,
          -12.075822311488196,
          -18.354609557064652,
          -12.269003827769213,
          -12.305872409193706,
          -2.837047605184843,
          -12.617911698452778,
          -13.097819793838942,
          -12.848390899321862,
          -17.437191432483008,
          -12.51726882548135,
          -12.659028240939413,
          -12.339929446748894,
          -14.68487757308,
          -12.270878725107108,
          -12.570150282245748,
          -12.972295694606064,
          -16.16810597352789,
          -12.007769757803551,
          -17.592680750803943,
          -13.224875592840297,
          -2.931300962862652,
          -11.493107246946769,
          -13.417593733993936,
          -13.639278722849475,
          -12.96166007275001,
          -11.989774239834507,
          -2.897556291275266,
          -13.083424741231843,
          -11.922892498360088,
          -12.513690854088798,
          -13.476233084596014,
          -12.453947408693155,
          -11.71228044595215,
          -12.954007811210605,
          -12.615864084666446,
          -12.399975270912197,
          -15.037417481024518,
          -13.150969147412285,
          -10.917910481326402,
          -11.747434037679879,
          -16.6942568722215,
          -2.88569358622526,
          -12.893479825703999,
          -13.627383868798539,
          -12.254166139069236,
          -13.984132905907506,
          -11.982368972470402,
          -16.5951385282085,
          -12.601876892942592,
          -16.73987696160603,
          -12.481182326097736,
          -17.69278383551587,
          -14.6411332155105,
          -15.453138342680749,
          -12.244949068060354,
          -13.016001869452316,
          -12.890786744378204,
          -13.053406394537577,
          -15.598319862782988,
          -13.105318509012301,
          -13.446838491683845,
          -13.858709408302445,
          -2.985049799602306,
          -13.181727725926528,
          -12.4477762354353,
          -12.31789733119548,
          -13.214038983513422,
          -14.451866110687748,
          -12.311858441102684,
          -12.091663896617154,
          -12.713360023851184,
          -11.874076019885166,
          -12.375980248579822,
          -12.843155729354985,
          -13.13680486079759,
          -3.013048729972484,
          -11.842279479428047,
          -15.861973288744583,
          -2.918605145501493,
          -12.254543081691557,
          -11.640252083412,
          -14.707620338610415,
          -12.628261048075858,
          -11.937108500946259,
          -12.89436207973386,
          -11.027934521090234,
          -11.912676020281205,
          -11.940826027599629,
          -3.022364864422505,
          -14.272157108571195,
          -13.18325600583758,
          -12.554723190693128,
          -11.836613407821597,
          -12.590893566247656,
          -13.329752453707492,
          -12.504128434958995,
          -11.961251827918055,
          -12.4489942787633,
          -15.920392792749608,
          -13.121743845047806,
          -14.19488613047229,
          -16.745527094087958,
          -13.224977382332415,
          -12.990051547553588,
          -12.462359661578526,
          -11.909850668471822,
          -10.994458439063356,
          -14.57096131142914,
          -13.709354000603568,
          -13.184886683311397,
          -12.296886230283528,
          -12.399774736056324,
          -2.982683074811311,
          -13.265403774500358,
          -13.720048170323437,
          -11.661662870760491,
          -13.940423578874482,
          -14.742140342013261,
          -12.841956631149046,
          -12.57079044030836
        ]
      ]
    },
    {
      "activation": 0,
      "biases": [
        0.7067804678551715,
        0.5217686657683916,
        0.10816212255430299,
        -0.02571493391473456,
        0.6997398739561591,
        0.5317401590086791,
        0.15549245911856555,
        0.019556086720627065,
        0.7054101125584842,
        0.5720467661564095,
        0.12493301131649054,
        0.013704372348579812,
        4.97361963310351,
        0.05684301039377538,
        0.10440974953424056,
        0.01554590818635032,
        4.979022366989453,
        0.04412269205349643,
        0.14202823379747428,
        0.02874433440839654,
        4.9946884725240315,
        0.0389827926691715,
        0.10967292659648391,
        0.023400900242464596,
        5.6094446038915855,
        0.18186323808782962,
        0.08207698693694311,
        0.06302131288679072,
        5.6499325506621005,
        0.16688921274007767,
        0.06004936374679398,
        0.021438464209161127,
        5.614627625030348,
        0.18102489036353447,
        0.09182486671377213,
        0.03157302810238802,
        6.515228141295653,
        0.4729864680338342,
        0.09480698055734157,
        0.06755066570696477,
        6.523366684806371,
        0.4891374007917452,
        0.14125099110540995,
        0.10579854222353849,
        6.485181226658303,
        0.4738800625906854,
        0.12117628785739239,
        0.09153784250768006,
        1.4109958090154724,
        0.09940673678238963,
        0.03810392721367931,
        0.05853766580435203,
        1.4329414433975884,
        0.09004596508792201,
        0.03135666188655596,
        0.07073613054228327,
        1.4361332941782967,
        0.09535801690724408,
        0.04993170979312928,
        0.08080749745451095,
        2.654742301144172,
        0.0819347759809085,
        0.0703017088288056,
        0.021040293049023016,
        2.656695116612882,
        0.0579279624389193,
        0.07382599123879233,
        0.03077358641000104,
        2.6637678134953324,
        0.0885653904100636,
        0.07946785372146557,
        0.03603006937765882,
        0.6094564030869905,
        7.545317562779172,
        0.3556144004554676,
        0.697829913126629,
        0.5731288389665252,
        6.791129469833824,
        0.29396639392303775,
        0.5161556152311635,
        0.14898385588266128,
        6.575290438308375,
        0.24542161751931738,
        0.935084965078632,
        1.1245330640318982,
        6.348402164785126,
        0.046438441623784146,
        1.0578761958312346,
        1.06378178209978,
        6.5997399471257845,
        0.06764152340308432,
        0.5050091039570325,
        0.8872860130597634,
        6.692978978249566,
        0.5319225040679894,
        0.024947361484684228,
        1.3855581320000459,
        4.584574967946697,
        1.2464213472812251,
        0.3010447534250521,
        0.05060774739873572,
        4.274692485477891,
        0.11747035104467589,
        0.05512978617365807,
        0.0626194060592309,
        4.878809070832695,
        0.297545149090966,
        0.27740826589288725,
        0.7495850451244002,
        4.392782077504533,
        0.12888211952659367,
        1.3715576137793863,
        0.7460079339459534,
        4.836639384550075,
        0.29195072645797315,
        0.09858128733103547,
        0.9292689098132869,
        4.175026481620782,
        0.4827316419954309,
        0.2679968305219231,
        0.32451791435438176,
        4.754875080514367,
        0.40283698372196053,
        0.5098140596644432,
        0.8484583154042261,
        5.5585586280285115,
        0.7258596621437557,
        0.12117860283768489,
        0.8481600094624655,
        4.829614575197758,
        0.7754967679626353,
        0.6691682290586612,
        0.4224880379778284,
        4.975649326114169,
        0.75912862813505,
        0.19160024568993084,
        0.3588987667151915,
        5.603045818857807,
        0.5424012684127397,
        0.5161416845868342,
        0.8660134858121211,
        5.5566665907181365,
        0.14002764228719025,
        0.1709023901902458,
        0.25627217762834564,
        1.2726550992183894,
        1.2533053538203338,
        0.4414471816066572,
        0.40457144984559473,
        1.5834889340494305,
        0.8944703500640787,
        1.0551801249381334,
        0.5563740949127864,
        0.33639319300817233,
        0.6206817134866743,
        1.2796679750128834,
        0.28392982856450677,
        1.0842082739702845,
        0.7640161947993954,
        0.23992932710532883,
        0.7539538612247505,
        0.48399905100452023,
        0.4435526598522141,
        0.7345296127496758,
        0.37831372769863253,
        0.471771661181132,
        0.27340014541155666,
        0.5634697702001646,
        0.15088856340645201,
        0.8111482984621573,
        0.030976240985322413,
        0.26644700938451604,
        0.09648809838303805,
        1.406873449100291,
        0.845193486935754,
        0.1356990099150633,
        0.007851787378261702,
        0.992950005606897,
        0.5541129211696753,
        0.6537064431876295,
        0.11579377666481795,
        0.5522911482928569,
        1.1028580177545726,
        0.5661104436845019,
        0.40847419381760586,
        0.6925892429953485,
        0.873761964231555,
        0.3151746325931231,
        0.31780793502637267,
        0.9759380456307505,
        0.790369085947733,
        0.040115458950676024,
        1.0310129467609543,
        2.8794430426068667,
        1.0104324796759119,
        0.5617468597504665,
        0.5373237665487638,
        3.7825219650401403,
        0.6097450756210258,
        0.8934532073341538,
        0.7814395300416895,
        2.9027425163813856,
        0.6600945796953402,
        0.46681105340649665,
        1.0673635397670187,
        2.9785390513731906,
        0.7405011932728865,
        0.7902418952574684,
        0.23133903489551957,
        3.7498410630738683,
        0.8967542098312423,
        0.14055955522200997,
        0.19155367924576946,
        3.0380074272369626,
        0.23453085626154238,
        0.35041524980600774,
        0.04897703081902008,
        0.11139730576480796
      ],
      "cols": 218,
      "rows": 180,
      "weights": [
        [
          1.8991550195119018,
          -0.010389874071183072,
          0.051101677335729755,
          -0.075686289749207,
          1.8539991445637483,
          -0.02647972151315249,
          -0.054110172279703814,
          0.0615807808836394,
          1.7407947963959793,
          -0.08358798501185213,
          -0.018896418772585594,
          0.037824936406767075,
          -0.0183576352416084,
          -0.09167662707590389,
          0.06806294483808317,
          0.044506607957730024,
          0.057109024186561316,
          -0.09647972219564481,
          -0.060454224318314556,
          0.08039703870865358,
          0.16403528573120868,
          0.09430872629244373,
          -0.04184249705355939,
          0.035905840046655896,
          4.271739253909863,
          -0.026071800916779627,
          0.10159199103545835,
          0.07081680135122562,
          4.150086287169605,
          0.10879966510448613,
          0.027271917816329958,
          -0.056307370320256664,
          4.240675736513038,
          -0.11309795016844466,
          0.11628862690415452,
          -0.06111485053862723,
          3.2026918491463836,
          0.1233120835004853,
          -0.025165566712417934,
          -0.02094611306886281,
          3.071029375045652,
          -0.021083035663343706,
          0.009615480049174983,
          -0.04851341663562146,
          3.1419885517466555,
          -0.06771037637134263,
          0.13982479179529816,
          -0.07222524670122578,
          1.3773502170397398,
          -0.11213222927475332,
          0.021016201821550427,
          -0.11475023749906262,
          1.1785239549154636,
          0.04663787548217089,
          -0.10352256028342843,
          -0.017093460503791832,
          1.3384123158297083,
          -0.06969815746013112,
          -0.01606711342420883,
          -0.07311455420209337,
          2.7800157351684787,
          -0.03137887463908895,
          0.042641045869410185,
          0.09770486726367293,
          2.6009832025240036,
          0.13446550579560615,
          0.15137785901480824,
          0.01934687726808766,
          2.6345594712959217,
          0.09633751494280117,
          0.036793131427420606,
          -0.010928337781719493,
          2.4802880773076406,
          5.950069482727568,
          1.2990129896686509,
          3.1598864312596526,
          2.1405384254006643,
          2.7060407806860707,
          1.0080791694166684,
          2.022152297203336,
          0.26852115530606907,
          1.7599321523642513,
          0.9968591350512271,
          3.9026819911020976,
          4.458131682936273,
          0.9466730158124635,
          0.13858434500811162,
          4.430185738802508,
          4.180212353058617,
          1.7325925529380883,
          0.134887654886162,
          1.9092261946565152,
          3.4768611433819085,
          2.0113761095572626,
          2.21923914746189,
          -0.014803642602888677,
          5.735966714144013,
          1.8105717646507944,
          5.1099998436559595,
          1.379070521032681,
          0.1365439217313796,
          0.6185063519709257,
          0.4931741967689506,
          0.3126457817866946,
          0.05327003471366485,
          2.9577609437483923,
          1.1154381673714904,
          1.3065911900389011,
          2.9147289802334444,
          0.9694218990513014,
          0.31920634720876356,
          5.82844499940811,
          2.9296535129444536,
          2.611535263054369,
          1.38334332989666,
          0.4341586271851691,
          3.593391581951686,
          0.2020784903242358,
          2.078820659125302,
          0.961713542769668,
          0.9686556041464046,
          1.2155524543133815,
          1.6914985962294666,
          1.9527418428716103,
          3.243866630747448,
          4.543676211574338,
          2.84773736104508,
          0.38535855601873553,
          3.414380537400102,
          1.1298487652861766,
          3.2038159922535567,
          2.6006148434014755,
          1.439979710550304,
          2.0989196860356594,
          3.1448872611598997,
          0.8463156736931403,
          1.0993521831483546,
          4.807610763127002,
          2.258243811391429,
          2.079207696322832,
          3.16514825007149,
          4.281116952284054,
          0.537551452105949,
          0.7338624662696497,
          1.176642023876963,
          4.290466609249808,
          5.3145607917196624,
          1.886734998210003,
          1.5778041520681132,
          5.57679418115712,
          3.5886003537693503,
          4.287827234644377,
          2.0604836859280415,
          0.43008251414454474,
          2.6118005762163277,
          5.461834851900794,
          1.0395003935694274,
          3.3874708816021406,
          2.9740437898890444,
          0.9756659221411326,
          3.059669496415243,
          0.8539407129287871,
          1.590023689249847,
          3.0370172234621307,
          1.3862528234261617,
          0.9155803813754148,
          1.1420100644642233,
          2.199593868443247,
          0.5311521315661635,
          1.7806930110383987,
          0.05731477634630647,
          0.9631648789135464,
          0.3437609951268779,
          4.24588273253618,
          3.4310826373369263,
          0.4935285218704692,
          -0.019676527842548825,
          2.7088998924607512,
          2.1759022603021902,
          2.7449551976818913,
          0.34644882156706025,
          0.6988503108807542,
          4.517270290493636,
          2.3048571033684766,
          1.5351111384871838,
          1.1584826548273723,
          3.493983836695617,
          1.4709876171958625,
          1.2549541097097827,
          2.2758649440193914,
          3.2162592710898736,
          0.27139097606000845,
          4.355490135854515,
          0.8865014369139228,
          4.344591217773899,
          2.328618969519419,
          2.3419106903106806,
          4.43654022710483,
          2.5117779595894616,
          3.687120282499708,
          3.252646142245105,
          0.6508354069084142,
          2.7393500194003066,
          1.8696891898568067,
          4.2063505986724845,
          1.0533248406413644,
          3.1659402809971464,
          3.262026140560483,
          0.7939451266498878,
          4.672816925960963,
          3.544581236695769,
          0.6576548566974186,
          0.6519711403279679,
          1.448498525623505,
          0.8327987447201848,
          1.5427795205487431,
          0.0643876833406803,
          0.05755414818911469
        ],
        [
          1.4857881460142095,
          0.11531558306930546,
          0.1295669653493762,
          0.10799297155704884,
          1.5322729665207404,
          -0.09414796168943879,
          0.08210915536208223,
          0.07402048847190204,
          1.4801587289913645,
          -0.09375786885922222,
          -0.021040953813867003,
          -0.04249162837976169,
          0.6838298970706514,
          0.05758215520300158,
          -0.06843116028494045,
          -0.09116655530753863,
          0.5299314268169609,
          0.05688688344393183,
          0.025457935889422943,
          0.0805553616378075,
          0.629230865829537,
          0.07920934469759501,
          -0.013235566384071319,
          0.08139001156909023,
          3.490673390268928,
          0.043041999128637216,
          0.13046015351246504,
          0.09135265910992084,
          3.421848278752609,
          -0.02431114955783338,
          0.002994096477556951,
          -0.040692676211064725,
          3.4397972269508146,
          -0.02965827982794354,
          0.07648585981841691,
          0.0532888088106351,
          2.632017046746108,
          0.0900480733374531,
          0.06621652342618857,
          0.07900736244427392,
          2.6421839162915526,
          -0.011726321129325198,
          0.05070559898368472,
          0.06647745132204971,
          2.6727100063092712,
          -0.04952191912673614,
          -0.05311346582089585,
          -0.03150037674177649,
          1.1384135945694212,
          0.08247163831094943,
          0.002270869985287214,
          0.09301299240077916,
          1.198643548235104,
          0.11320772158686117,
          0.06911605329068261,
          0.06418185084817819,
          1.1897332096658575,
          0.11155684823885899,
          -0.01616682303193852,
          -0.09647706026744139,
          2.187729820784369,
          -0.005514008254259419,
          0.05913146592831191,
          0.08013783918701033,
          2.1707566736832784,
          -0.0761415839790992,
          0.004330021023836315,
          0.08729533583117079,
          2.153111171224668,
          -0.07149118178155736,
          -0.06658327609986302,
          0.0010165299440235407,
          1.7347459538950956,
          4.241169143061892,
          1.0579760951771358,
          2.067878585790924,
          1.6506375711801344,
          2.002657536255183,
          0.8253269766552418,
          1.4873952027521677,
          0.2638877897503918,
          1.4340205049453039,
          0.6909960738843148,
          2.8796535477467597,
          3.0752665760487643,
          0.6124131701839227,
          -0.03560527258038915,
          3.2133198491657917,
          3.0950508970357364,
          1.4788969226052995,
          0.25319444464354296,
          1.412141115823463,
          2.4055911969619204,
          1.4521187532278956,
          1.6485308955881666,
          -0.07478926636820844,
          3.909497958997732,
          1.437070332414256,
          3.4567864656383094,
          1.0030501502496745,
          -0.0010938139574698498,
          0.4740400372104327,
          0.41640167945142104,
          0.14084311491276913,
          0.1440468830869892,
          2.279609246424471,
          0.8112910050056197,
          0.7965543684529892,
          2.153067330520666,
          0.6174731913535644,
          0.41246803407570654,
          4.216584867946441,
          2.1319516450312737,
          1.9974140236422706,
          0.856855548240049,
          0.27110441481289344,
          2.5602358646815824,
          0.10618481103025093,
          1.3059996630114572,
          0.629574504692919,
          0.7113379456526953,
          0.7397655851302963,
          1.0887648100670049,
          1.483996577754343,
          2.2403426525915973,
          3.229392749732829,
          1.9900530442164606,
          0.3428312774575696,
          2.4444828794317934,
          0.848599290975314,
          2.2383551914415913,
          1.864807203101504,
          1.0688125824035746,
          1.5754616495827851,
          2.2417946365319583,
          0.5407607734093195,
          0.7371348869811644,
          3.42468515125825,
          1.564857573226785,
          1.5494684334550697,
          2.225214880909539,
          3.160546754419809,
          0.46200254281681735,
          0.5447391723732276,
          0.7694020493226801,
          3.0331596903875275,
          3.803076492823803,
          1.224804551843679,
          1.2138735313353104,
          4.024306119490112,
          2.429149243345335,
          3.0037038106720133,
          1.4925233497720247,
          0.2936046806634398,
          1.896879337412072,
          3.8344303446958814,
          0.8011408358356951,
          2.507956821746014,
          2.1612247628602366,
          0.6806843406241545,
          2.2742306414668167,
          0.607263361635604,
          1.1092833669963729,
          2.062752430896687,
          1.019521731953422,
          0.4996299540911785,
          0.8260352726866768,
          1.5728287410172648,
          0.35546313871189705,
          1.1945419551417893,
          0.1294647845401604,
          0.6810670159834027,
          0.3641959074559828,
          3.1260466098308584,
          2.3214007433839616,
          0.36425872183329094,
          0.03281192607924725,
          1.922936272785759,
          1.3552643544653709,
          2.079957517456287,
          0.4218285419512937,
          0.4340170606855661,
          3.2694002806417144,
          1.5482843412440264,
          1.1463110419950648,
          0.9084999653557854,
          2.4975799769471956,
          1.0122261519509266,
          0.9103242604086628,
          1.7667517867977784,
          2.3233312871119414,
          0.030497222223388278,
          2.9520809289546066,
          0.5391815943455311,
          2.999199251411962,
          1.6844663512797091,
          1.4879963544915946,
          3.26507063485294,
          1.9031123632057634,
          2.516301070560812,
          2.3693114799586454,
          0.6798052662896864,
          1.7675351020005878,
          1.4299219508228997,
          3.0107379492832713,
          0.7623830710444877,
          2.2347955210360757,
          2.204397505052693,
          0.5507054772664502,
          3.2330370379788995,
          2.585862010825698,
          0.47587484559145,
          0.4446730974242702,
          1.067267240018072,
          0.6534582887200016,
          0.9980723073909559,
          -0.08532145541484196,
          -0.05722448522383699
        ],
        [
          1.3033396223277713,
          -0.08712799130826242,
          0.013967659083846715,
          0.045544575553420716,
          1.3496488584902089,
          -0.0033279989419255857,
          0.11012627702142382,
          -0.029854707110019894,
          1.3411558599478826,
          0.019380888716333478,
          -0.07812923968814692,
          -0.08291787525488493,
          1.2544513668158808,
          -0.06529953604661547,
          0.08792592624374361,
          0.0510773773157792,
          1.2767079158945198,
          0.011306540009771151,
          -0.043734256688788574,
          0.0066312862712383635,
          1.208489578038937,
          0.06964621652733466,
          0.021662625494027903,
          0.050966937074173095,
          3.417575311115668,
          -0.06424976158844764,
          0.0720547508591701,
          0.04647870074938285,
          3.314963669099192,
          0.001812805381497685,
          0.0026311929357516217,
          -0.08795506700206117,
          3.427822654518217,
          0.0159971233799737,
          -0.06098748380983902,
          -0.08715322989224297,
          2.7486760488784756,
          0.023234888822139935,
          0.08750202710548367,
          -0.040014948755393145,
          2.730982985471682,
          0.043594520440508384,
          0.11820165893130397,
          -0.04716058413617667,
          2.764060115142257,
          0.14042045642386913,
          0.12108873436681268,
          -0.09416476955834703,
          1.3432196344625211,
          -0.028687232852430314,
          -0.07569766841054892,
          -0.0680968961283862,
          1.1672836311554293,
          0.08660972883789654,
          -0.05768995807280153,
          0.11877501849169685,
          1.2072633430125856,
          0.10179300314530322,
          0.0338844688738914,
          0.05205331089763995,
          2.095023614039625,
          -0.043825766186143006,
          -0.08707063253664721,
          0.09223431817578459,
          2.1321381785633164,
          0.015673652655087255,
          0.12191595865306784,
          0.05900021306540073,
          2.176912970369492,
          -0.08640966641990304,
          -0.051033757006220364,
          -0.07718162714919931,
          1.291889541275393,
          3.3896299234497027,
          0.6655671297611435,
          1.6989863617200118,
          1.305546685528538,
          1.658620600184231,
          0.5597742928938356,
          1.1101017615185462,
          0.09454112489937883,
          1.102228291639696,
          0.5846237527055185,
          2.0375915286683632,
          2.45762292899062,
          0.8295619850947392,
          0.027368228851312824,
          2.4150401106010606,
          2.2979340406665525,
          1.1777468903690809,
          0.07932265871193461,
          1.0081989779998874,
          1.8262739995555024,
          1.2510131586490831,
          1.3318982782038946,
          -0.001618360187184752,
          3.0138420581006993,
          1.2417841908106615,
          2.7459035742025653,
          0.7236915652846424,
          0.185121902258983,
          0.5955702966769848,
          0.24993391951845378,
          0.2212127576787094,
          0.11970289796815342,
          1.8248425016366094,
          0.6049195130796293,
          0.5628488007324354,
          1.502856490725004,
          0.7421532451814193,
          0.3450436065169733,
          2.9862213758097,
          1.6516411023630715,
          1.6098416448162232,
          0.7277155937985813,
          0.22674813490141502,
          1.8951186080592375,
          0.293744451775928,
          0.9739579555609306,
          0.5173049057963699,
          0.5789143778265103,
          0.7678441206841405,
          0.7762441179054319,
          1.086884301609576,
          1.8819917120980991,
          2.6119237347641207,
          1.5276438635394498,
          0.2232435717785431,
          1.8709620716365118,
          0.9293717102096545,
          1.7586964474690718,
          1.5057995729049347,
          0.688566889706277,
          1.2039793707785051,
          1.7475244547337834,
          0.49744571786757413,
          0.7764587429899446,
          2.5853223784181356,
          1.2237639207909898,
          1.1393733551924026,
          1.7471577432709007,
          2.5159105030394677,
          0.1667777690770129,
          0.3646894075075252,
          0.6335147342579998,
          2.322598699330343,
          2.706542858061721,
          1.0677081747654111,
          0.8773455505957612,
          3.03759548906276,
          1.9148930268681656,
          2.30731485061637,
          1.1092267694471756,
          0.2279929210090818,
          1.5128285316846954,
          2.8123481003185855,
          0.6992480382259275,
          1.9417594489096894,
          1.7571914864062648,
          0.47122195245782406,
          1.5912458979638842,
          0.5976677544008614,
          0.8126701084538503,
          1.7296773988189946,
          0.6997731313325694,
          0.484727723572784,
          0.5282296547233588,
          1.1647913282448041,
          0.436491547440187,
          0.8961792872307638,
          0.051771951126293445,
          0.6290461932742657,
          0.1324416854819439,
          2.4200291617344036,
          1.7815050335062586,
          0.3740768199892828,
          0.010825257823128664,
          1.4916628101499108,
          1.204013536775937,
          1.534604497897564,
          0.256032206952518,
          0.24540454032118228,
          2.31348872872839,
          1.2028160118018154,
          0.8161938557613575,
          0.5758337389110832,
          1.7985825670280602,
          0.6335101452606052,
          0.6554243353975144,
          1.3322260843969478,
          1.6972898779701389,
          0.18391979562373084,
          2.3986085677992026,
          0.563467488174835,
          2.3442701952428253,
          1.2303526264035074,
          1.1831296200843473,
          2.3633930525264546,
          1.3676822443581331,
          1.911458583344888,
          1.7125221204535563,
          0.611442593752604,
          1.3652303462062667,
          1.035143775103858,
          2.280444510722355,
          0.7130281884758187,
          1.7125823478209117,
          1.832436346298702,
          0.338192797571775,
          2.565004371357606,
          1.8651198994121356,
          0.3556428742081433,
          0.47088442760916904,
          0.9199934622412725,
          0.31753716323937664,
          0.6835778499520504,
          -0.04151836878358593,
          0.12064266620531743
        ],
        [
          2.041654651775016,
          0.022327461459025644,
          0.07656570736808245,
          0.09948548299103105,
          2.001225731062601,
          -0.02014210483603139,
          -0.039967776741478264,
          -0.02429892179144905,
          2.004487177705928,
          0.0630105913475895,
          0.0611953219956207,
          -0.06009748424595882,
          -0.15761603876629096,
          -0.0885672670180888,
          0.08579301090040742,
          -0.06841982503494948,
          -0.1432077448812207,
          -0.06216037230600026,
          -0.012402740123093968,
          -0.12081522738629387,
          -0.11053974296931604,
          0.08137938176526639,
          0.07139949701701187,
          0.027435939709416463,
          4.573483159340986,
          -0.06732501909896776,
          0.026199350674769133,
          -0.01391393769784156,
          4.491781458368017,
          0.056840020361204974,
          0.08965580265400493,
          0.10283788707613581,
          4.391614939157736,
          0.10514650253882393,
          0.09706299439519216,
          0.04961742879425883,
          3.216858031274299,
          -0.048971095242166675,
          0.05282804056836114,
          0.07253611275315557,
          3.198795986816188,
          0.09958819127765645,
          0.11518798815491627,
          -0.04503475738729428,
          3.124339151238689,
          -0.051278701180446744,
          -0.018338646178717593,
          0.06494372967145866,
          1.2398354634351543,
          -0.0809891773327163,
          0.07383141180938231,
          -0.12742825916162231,
          1.34167272846442,
          0.10873240989617364,
          0.07658720297991121,
          0.09659681267689993,
          1.388676963462437,
          -0.10304347281762453,
          0.11124873720314067,
          0.020473393953718833,
          2.937476841411667,
          -0.03298433641264669,
          0.08100747641271668,
          0.04017578161377298,
          2.823921732992715,
          -0.09501672092110386,
          0.13920038886926533,
          0.04330232494176308,
          2.7329807565332915,
          -0.029049650432061216,
          0.04620936485305936,
          0.00233684379590133,
          2.5997501610927545,
          6.460795226511937,
          1.5623731297658703,
          3.29808690138374,
          2.291768281295559,
          2.9771854989488156,
          1.3061337262562132,
          2.180091332859458,
          0.2883390067041784,
          1.9174426165424854,
          1.08349899773311,
          4.379470203793688,
          4.726287577967626,
          0.9745926876279489,
          0.10438695675393332,
          4.85439138743706,
          4.594539940352422,
          2.0959925865103837,
          0.16648569721023113,
          2.185787912614331,
          3.5863820816190635,
          2.232261832329061,
          2.5024149645986506,
          0.17222894300141453,
          6.146493239111717,
          2.0197594671264882,
          5.479629642097724,
          1.3128638614355712,
          0.07584691550022236,
          0.7500559433702428,
          0.48131440119518465,
          0.23412622687999232,
          0.01654850638948148,
          3.225301742034602,
          1.3715165878246036,
          1.4193363891810646,
          3.0515519873205372,
          0.9225199389444755,
          0.5899783381470852,
          6.239098304479524,
          3.3449028156270515,
          2.7699701502795886,
          1.4760501720873664,
          0.6358707406692784,
          4.026614532246255,
          0.1952707940205674,
          2.1407801921716083,
          1.1832189777203648,
          1.0995626079056742,
          1.1666911697494424,
          1.6889024182634635,
          2.2803860261136486,
          3.666222385434889,
          4.863811806256014,
          3.0758508721008035,
          0.588933648134054,
          3.5822016210584837,
          1.2703402871957397,
          3.5810976301895057,
          2.97758579988786,
          1.530776561949269,
          2.2189406793641617,
          3.4188903001319426,
          0.8935148390408496,
          1.3884879556523504,
          5.115189160281783,
          2.4948848362854155,
          2.272408970278184,
          3.6318219920686574,
          4.646294772098834,
          0.5876432824147629,
          0.614717890076017,
          1.2339571559642466,
          4.718021066621978,
          5.6572680347296105,
          2.1565038083686665,
          1.7319715345991873,
          6.013401255730933,
          3.827073283355762,
          4.497832183789838,
          2.467814792893546,
          0.4734586667688997,
          2.777965861917554,
          5.974828934168856,
          1.14432972685278,
          3.601751959296268,
          3.3735300830031316,
          1.1608585155720559,
          3.3806425838577034,
          1.0495657832326277,
          1.7382888223653679,
          3.193801478567861,
          1.7186756538797525,
          1.057608354328866,
          1.0370297115431384,
          2.5270223327202777,
          0.5455565582111166,
          1.8219479966565253,
          0.20394288367097976,
          1.1462073990905504,
          0.5121384194400549,
          4.607453488104153,
          3.6469325840177795,
          0.6351142346685823,
          0.03057804551802526,
          2.9632687139682794,
          2.1688721101600286,
          3.100735290083552,
          0.4002138324316213,
          0.652492745391654,
          4.893106302461713,
          2.5736626523727755,
          1.7236171084455132,
          1.2884297085355314,
          3.778027395267641,
          1.429539514855004,
          1.388288391921895,
          2.674337049464587,
          3.4555502436242316,
          0.1391297376676857,
          4.580070985384006,
          0.7503515076560404,
          4.876667008769896,
          2.568217376539132,
          2.302852314219695,
          4.927010368400015,
          2.6651209974833923,
          3.98665632216355,
          3.5191866446010005,
          0.9306050643350559,
          2.8873264534900387,
          2.1570295176385548,
          4.659141430732428,
          1.1602057178212437,
          3.4313504609839827,
          3.631065838875425,
          0.9141166036210578,
          4.981374289214272,
          3.8720435171843075,
          0.6288506710615913,
          0.8721269321154216,
          1.5363946000750874,
          0.90173581620896,
          1.6519401651708976,
          -0.11322285884136718,
          -0.046106401969315515
        ],
        [
          1.9162921748453932,
          0.030959964997734117,
          -0.016532050525835916,
          0.04972441004140905,
          1.9008522889421602,
          0.040578912057219786,
          0.06959551590246871,
          -0.09700168369952479,
          1.8153481171085435,
          0.12315622747027798,
          0.0021000760036071022,
          0.010874248301285628,
          -0.023071482616583042,
          -0.031120792261689456,
          -0.06839847100069439,
          -0.016204711205419327,
          -0.12378411020195093,
          -0.10322005124370982,
          0.013823087938395002,
          0.006871649354888783,
          -0.16295334342479903,
          0.059376134731956284,
          -0.06950167348160069,
          0.07770157954198502,
          4.478498743863809,
          -0.0376897348164238,
          0.02720059215164251,
          -0.049223570367753114,
          4.425194795343774,
          0.09088152662322209,
          0.07135114295468273,
          0.060313686513169366,
          4.426508445767304,
          -0.10720473899731706,
          0.1137679007081846,
          -0.0887336163591393,
          3.194372695000658,
          -0.020249401953867284,
          0.05393403128307418,
          -0.1087650222360086,
          3.1580916739717515,
          0.1287375888614984,
          0.14700569950138312,
          0.018301892071683163,
          3.3397319094762805,
          -0.08955684784016121,
          -0.011283535976309152,
          0.0367113957428163,
          1.1849593146642283,
          -0.0111454210160267,
          0.0139219266936237,
          0.0925523036729491,
          1.216373441127695,
          -0.1276317980535704,
          0.04241223055079175,
          -0.012210401364653442,
          1.171356766461398,
          -0.049801545954913116,
          0.08091982039416011,
          -0.028304656980846183,
          2.826121470451313,
          -0.0640884827470216,
          -0.03478072113635196,
          -0.0475910885500129,
          2.8253138345292355,
          0.015092206729521357,
          0.10827874564188199,
          -0.021723847422943553,
          2.9303051180057516,
          -0.0995148377530414,
          -0.0025431311627464406,
          0.028200366785953977,
          2.557156195075957,
          6.288612305058635,
          1.5252283828156339,
          3.279003312063375,
          2.410579028759507,
          2.94036120978321,
          1.2406236055241262,
          2.124139429530937,
          0.4903390878696492,
          2.085881450563241,
          1.1303559556836773,
          4.2979760728668825,
          4.705479039015838,
          0.9581462350329056,
          0.08445234363054568,
          4.850444341756476,
          4.637782107953412,
          1.9050400957044271,
          0.2601112355794146,
          2.177443307142702,
          3.7090399473126747,
          2.256510683435606,
          2.386832104847534,
          0.036445240694637934,
          6.148984445520826,
          1.951506796215531,
          5.471672823177226,
          1.4369083898042334,
          0.08361609177919814,
          0.7606026160562211,
          0.4750713391583871,
          0.23072506288151248,
          -0.015410269555538262,
          3.3131643224894733,
          1.159770804967771,
          1.219880219317361,
          3.2123853779560316,
          1.0247317078831768,
          0.48267457609902475,
          6.196137689306541,
          3.215017902129583,
          2.795364912748108,
          1.3901995536078284,
          0.5586196661766213,
          4.02866166191135,
          0.013045571910080576,
          2.1636621333370343,
          1.14081721144557,
          1.0090518713705527,
          1.2014441611272582,
          1.727707039344337,
          2.1066082331518055,
          3.5825932718780877,
          4.744336265417511,
          3.1226577978868204,
          0.5520618181217941,
          3.6925146389577908,
          1.358088945493433,
          3.525121633651761,
          3.049602640414404,
          1.5700122443135422,
          2.193088214123133,
          3.261973790567016,
          0.8641692582734264,
          1.1727406525402588,
          5.02951714005028,
          2.5667595857719103,
          2.3302624005247674,
          3.424804672251191,
          4.648917011568293,
          0.5294315505160518,
          0.6494605744466064,
          1.09641227676101,
          4.55012975139706,
          5.5577974282655145,
          2.088701899114544,
          1.6175456129918055,
          6.135105355378285,
          3.733093475331299,
          4.578585916413282,
          2.3525977176375292,
          0.4247472702941869,
          2.8956095093644376,
          5.93179247025948,
          1.2399361092529255,
          3.5789329256446414,
          3.2449300814012108,
          1.0639977506344636,
          3.3369661442971172,
          1.0106773742682504,
          1.8489688299115614,
          3.240939747991641,
          1.5287220927256189,
          0.9506247851625027,
          1.1305991374977797,
          2.5098508278470355,
          0.5595757987123333,
          1.8669972051886103,
          0.04741420483841724,
          1.2127736845424528,
          0.4074563581367837,
          4.531891133707722,
          3.649656605434034,
          0.5808308936167548,
          0.11315513397054043,
          2.7693100878723724,
          2.329553475542808,
          2.8814885822727567,
          0.47494926382131375,
          0.6868120304503395,
          4.964203451927634,
          2.466192590944785,
          1.6555580331063071,
          1.198769259109534,
          3.7937872990940646,
          1.5076493899249082,
          1.2217436511151765,
          2.657572872643782,
          3.5092645605827184,
          0.12793628397896079,
          4.734610108884927,
          0.9459146605539419,
          4.6011389820651205,
          2.4106819936899666,
          2.51557365600966,
          4.706297566525203,
          2.7202097383908517,
          4.058855282476896,
          3.5203942760775884,
          0.7010222458693425,
          2.7916856874657077,
          2.0866145844807296,
          4.55053146007144,
          1.3017178951323551,
          3.2774560798719725,
          3.400826179929611,
          0.9521815395079876,
          5.039861391696909,
          3.9507996421711074,
          0.6724227569371459,
          0.7805504678714457,
          1.424239925463904,
          0.8058503334314889,
          1.6392344070089482,
          0.10118843991719967,
          0.11436830994030499
        ],
        [
          2.0304736298276445,
          0.034870938250127735,
          0.02395712423056493,
          0.019457114621441358,
          1.9760889032820375,
          -0.04552342619386049,
          0.09744530250348173,
          0.0042338903162524345,
          2.063641071240036,
          -0.04402989188270216,
          0.0873098187912636,
          -0.04297878391695228,
          -0.14881852091551936,
          0.009891997106395496,
          -0.03162602117956761,
          0.08460824001002597,
          -0.16381696298187334,
          0.05570255998502732,
          0.12283849230191381,
          -0.006518978704706566,
          -0.12228708730819911,
          -0.020372032009808007,
          0.005566656497741524,
          -0.03139227603280627,
          4.572291798268783,
          0.13852070909700484,
          -0.020183806375638897,
          0.04442719170429908,
          4.642133975028448,
          -0.017911094657039186,
          -0.007981186682647277,
          -0.054996862146203175,
          4.616712418343854,
          0.0009090763546886596,
          0.15621034574308312,
          -0.08762200872205009,
          3.353538212272155,
          0.09769795618063633,
          -0.02365605567200778,
          -0.11763203977235616,
          3.2490586760108386,
          -0.08912713005425443,
          0.08372320710234436,
          0.0688016233927734,
          3.4070495388920055,
          0.05577049990794041,
          0.08853852194474564,
          -0.007633899198418465,
          1.4059316031277194,
          -0.04431815441866847,
          -0.06180126798903744,
          -0.03359839669066097,
          1.364119948015183,
          -0.07681348966996383,
          0.08614491415257483,
          -0.09074049282439393,
          1.291673949788839,
          -0.03695645467501279,
          0.027772388548315714,
          0.10563872501743125,
          3.0101453825122544,
          -0.07960367359360557,
          0.0010571369333851068,
          0.0011988469195988167,
          3.0521132017238286,
          -0.09709427049280699,
          0.1514087145417585,
          0.028503800052453572,
          3.016627706016691,
          0.030420344770795527,
          0.1350608724490637,
          0.017102819008747966,
          2.688798041571909,
          6.6651235747307505,
          1.662804697379014,
          3.3933455594367175,
          2.6057573754143477,
          2.8929783895022827,
          1.2526691259883487,
          2.373188714645483,
          0.3050366908259768,
          2.1275121163911077,
          0.9759371891827234,
          4.380545845490479,
          4.928127628151524,
          0.9201888591064586,
          0.08931758657224624,
          4.981365862279642,
          4.833265007876446,
          2.0521908077450255,
          0.3050965159889064,
          2.2109761362745313,
          3.807864413110906,
          2.286456697791371,
          2.5013686011186764,
          0.13102709420185024,
          6.346875009982637,
          2.0063632369286553,
          5.720141926168254,
          1.3858449256503638,
          0.22216694463529485,
          0.6939411406122112,
          0.5969399375566034,
          0.1818905607446653,
          0.021460529695227236,
          3.3193911788392505,
          1.2979530923249356,
          1.3993956118835795,
          3.1761687041406885,
          0.8629739532873091,
          0.41791856599994354,
          6.578039319250594,
          3.434088948767915,
          2.945574693252384,
          1.6444916090159394,
          0.537541203308851,
          4.221404094294121,
          0.06802133125044853,
          2.2737346033381014,
          1.296021784722152,
          0.9782006475458076,
          1.1684529479248091,
          1.9098529447022623,
          2.4237261833254444,
          3.7762193130836197,
          5.077371303863216,
          3.32501449935611,
          0.5991824979755217,
          3.8438476275278397,
          1.433592070131933,
          3.6334094872839193,
          3.026592965196347,
          1.5523153245708923,
          2.2960198215560923,
          3.3873669700448623,
          0.9318762380118879,
          1.419208603123853,
          5.1993826534754755,
          2.7628038647681157,
          2.4897857847709246,
          3.7019068416755516,
          4.877542927970979,
          0.5019626879717412,
          0.7130167809920717,
          1.1879692571856828,
          4.692312318016202,
          5.802032490330721,
          2.040563357539137,
          1.8424825711476778,
          6.264912151299426,
          3.9105770557317636,
          4.849188919174583,
          2.5439013493575615,
          0.38476653912554437,
          2.9059657071147775,
          6.307900682851265,
          1.1625215951414902,
          3.84392967076823,
          3.5667743963536305,
          1.040106234393666,
          3.6104626577251278,
          1.1107138385518613,
          1.8128594099738577,
          3.4979395778201696,
          1.737012788655279,
          0.976080734227323,
          1.1498220087375333,
          2.4531291502231256,
          0.6255313161449246,
          1.8724660777860809,
          0.14674822273866242,
          1.1601294340612878,
          0.42126273786751717,
          4.821266291767289,
          3.845681764619748,
          0.6573509741986736,
          0.14860653345045233,
          3.002264104387317,
          2.320959885517918,
          3.111045049690165,
          0.5733283207341427,
          0.6759351872691804,
          5.261272691583903,
          2.49265474573702,
          1.9153271717904339,
          1.2517354184592338,
          4.013795574792607,
          1.5973005910310616,
          1.2698650758967684,
          2.7987061770807693,
          3.622130654746126,
          0.28630168678347123,
          4.864157505980978,
          0.7335908310220999,
          4.937070649739704,
          2.699253105487627,
          2.4738277861161198,
          4.882373894394332,
          2.96689100456559,
          4.207188013224516,
          3.6495527406016803,
          0.735030767976509,
          2.95272070164649,
          2.163471246542479,
          4.9753109459640275,
          1.2483603892612545,
          3.519182532702395,
          3.7699128520610836,
          0.8364509952725938,
          5.158094585752144,
          4.217559593524953,
          0.749574433599518,
          0.732320700292458,
          1.5933917943455669,
          0.9479960952242952,
          1.6850386684172245,
          -0.0475868066597847,
          -0.12599928141130845
        ],
        [
          1.904743246244606,
          -0.08117428949930329,
          0.05083118001942332,
          0.034534601082188504,
          2.054013349723783,
          0.05096140222585134,
          0.07439032427917847,
          0.050190117076325105,
          1.8779250958615723,
          -0.07428387732206712,
          -0.028449629202155987,
          0.035829272043202014,
          -0.11108394562870974,
          0.01681445069137788,
          0.14573579416808669,
          -0.07262495430546588,
          -0.23595075962146772,
          0.07136516458726795,
          -0.07252531926161437,
          0.12111111179795524,
          -0.21942318262671912,
          -0.0812797338515293,
          0.16743697464558444,
          0.047693803704484436,
          4.557322528716177,
          -0.06342265127099989,
          0.009630804124302417,
          0.009737792094328877,
          4.466418101270374,
          -0.09495165964454344,
          0.15359704217098138,
          -0.011595025508889066,
          4.579153711354591,
          -0.10222568937684322,
          0.013303206508041794,
          -0.07670255579950455,
          3.2085423741259653,
          -0.07388364412571022,
          0.12526877550137147,
          0.11063074107807414,
          3.320516499146938,
          -0.04328649492401116,
          0.10716751558300913,
          -0.04244178532527216,
          3.18590508195893,
          0.1003850862388136,
          -0.017267083032369485,
          0.09289600708074795,
          1.3924737843079453,
          0.09711125400464034,
          -0.015188186649304231,
          0.030485668847024854,
          1.254634352853133,
          -0.128463815719709,
          0.04531816782789495,
          0.07168107497958212,
          1.296118915289114,
          -0.07911688339077966,
          -0.07910457632060794,
          0.09591269367687502,
          2.8614000397065515,
          0.003823903619127778,
          0.02205965753025103,
          -0.0008765914772477022,
          2.9586353125649136,
          -0.09457469634502808,
          0.13339662355316356,
          -0.01783989986524958,
          2.834192498376243,
          -0.07250367374332138,
          0.011330521346756934,
          0.051723383460050516,
          2.5578324606922185,
          6.381043403888815,
          1.497330613870642,
          3.267642899020738,
          2.3491867331701464,
          2.884426754797403,
          1.2253434689615228,
          2.200081276997451,
          0.3489967471414504,
          2.0600841733268394,
          1.148523870703443,
          4.292452025727468,
          4.969485587487658,
          0.9905138853373342,
          -0.003616804998216214,
          4.722058970494707,
          4.578745719296347,
          2.0654771690266727,
          0.29582410426358585,
          2.2121182659668928,
          3.663481577560101,
          2.279677256020704,
          2.5276351016071534,
          0.15953835681751502,
          6.205750681247597,
          1.8288838709611133,
          5.545912307375999,
          1.337221938723186,
          0.14002954708054105,
          0.6787450784599688,
          0.4853756203265608,
          0.3501184954454473,
          0.1810587794207321,
          3.3407758057904675,
          1.3657620679242768,
          1.2957095359344402,
          3.0665733937240582,
          1.0030402668457612,
          0.4064990424907852,
          6.325047692478281,
          3.316301444884818,
          2.994724318089766,
          1.480054576883744,
          0.673114945446952,
          4.087257694141241,
          0.12194218369169377,
          2.082117537804783,
          1.1305657714315107,
          1.0410610249354393,
          1.0903243064785326,
          1.918522647348933,
          2.208862139141282,
          3.6034515638994167,
          4.879274192893745,
          3.2217132730516833,
          0.5074957542117882,
          3.6552673985993156,
          1.24703785334324,
          3.5298465752677006,
          3.054865401700026,
          1.4842367692611989,
          2.0686630528950416,
          3.273909594453172,
          0.789391584620336,
          1.3342720027394592,
          5.066420465675936,
          2.5684438172786286,
          2.364577805630341,
          3.4692933417619964,
          4.7971745926160665,
          0.5011654758947135,
          0.8346355048229733,
          1.318097426714462,
          4.660227651351318,
          5.830328305798892,
          2.0427422707992915,
          1.6584471902294355,
          6.147589641930683,
          3.817966762638756,
          4.7408011719265115,
          2.486172718646144,
          0.41958897522765315,
          2.7697680770496063,
          6.068622226598554,
          1.2305157306517953,
          3.819583197217114,
          3.365552271126562,
          0.9880378868623324,
          3.45446989264926,
          0.990344625432448,
          1.8769779881977393,
          3.3538101400829268,
          1.6003153201834441,
          1.0235083636534512,
          1.1428282120846298,
          2.4990037063058823,
          0.7468173322587701,
          1.8009722527557517,
          0.10982767540200987,
          1.02548461196,
          0.5772239003148817,
          4.588992482854926,
          3.655597119873553,
          0.6881739932971218,
          0.10633097577022813,
          2.8150067172009416,
          2.308027684267246,
          2.9296340992462837,
          0.4387403206770606,
          0.6256621243349089,
          5.093664848327109,
          2.4386431661684087,
          1.7799414895692087,
          1.117495772026406,
          3.7292617668490426,
          1.5431247766684906,
          1.3062434624815105,
          2.625822697218897,
          3.5416592532453475,
          0.26993630411249053,
          4.747617817904345,
          0.8601647112842729,
          4.79939093870116,
          2.639086896983906,
          2.3621684621533747,
          4.785141717453999,
          2.899486601922042,
          3.9535240869454324,
          3.596332930474384,
          0.8128871673906461,
          2.8030103525793755,
          2.0593545721382043,
          4.78666041982645,
          1.3120248371681005,
          3.4234878415396635,
          3.650301189178046,
          0.9426096332424639,
          4.98661790547372,
          4.104594224124533,
          0.6441628728754908,
          0.7108215353848276,
          1.3737024316966924,
          0.7839937060315582,
          1.6897447317444814,
          -0.04872034448305034,
          -0.06531727755063865
        ],
        [
          1.4546361380314496,
          -0.0809158317231471,
          -0.027407912380911174,
          0.07233688859063522,
          1.5136791042474311,
          -0.0031526515722803987,
          0.07803540279209345,
          0.08032034743507407,
          1.4186295557970088,
          0.0166526114066345,
          0.06885446551227409,
          0.12376269239383202,
          0.5581438179013097,
          -0.047573540990920704,
          0.10734874425459913,
          -0.09780424595876755,
          0.369465471148438,
          0.0937179019459309,
          0.11234737109601717,
          -0.07776568576905654,
          0.48107811408067597,
          -0.017419532796965828,
          -0.08632522144063724,
          -0.06882787878078361,
          3.5153479428738135,
          -0.06462513340821589,
          0.06276996996043703,
          -0.07992424464788381,
          3.4858553791706997,
          -0.04515072778668412,
          -0.006114238933803277,
          0.019034747990592554,
          3.6487297826245437,
          0.0044596824556143565,
          0.14473197842843571,
          -0.11168350320708681,
          2.7457340059913506,
          0.08172356435426675,
          0.013364549417034022,
          0.01223926773118003,
          2.6277233865877134,
          0.03993316407545965,
          -0.03730854447592915,
          -0.0030406974740562506,
          2.758560663985291,
          0.09327199567794209,
          -0.021946127548157657,
          -0.006683823001063916,
          1.0568114152313322,
          0.023436825868379408,
          -0.03846731689308934,
          -0.010034383048643824,
          1.126423053810117,
          0.054328390460387045,
          0.057934930124025855,
          0.03654351870136193,
          1.1860070352506271,
          -0.016602108187939155,
          0.08106629987932146,
          -0.014407156432736505,
          2.1406770893546385,
          -0.027827691322465483,
          -0.0837784414717281,
          -0.0583781247601058,
          2.2406571852874926,
          -0.01354707541133816,
          0.06261357982921509,
          0.0950271024791681,
          2.192010279675559,
          -0.023454264921319364,
          0.14623103712705524,
          -0.03500386829048941,
          1.8788493682940914,
          4.416910874731585,
          1.0689052950146982,
          2.312538032765894,
          1.576306892125325,
          2.0003128121201885,
          0.8096484385679552,
          1.6553007969573017,
          0.26801623109798006,
          1.3222758953637979,
          0.8147673413884187,
          2.987082369503472,
          3.2713337722587172,
          0.5714168502782331,
          0.06280596337028743,
          3.3595677825043397,
          3.1714107685210737,
          1.486798339794573,
          0.20743951589264673,
          1.4722449001952922,
          2.5917013215765383,
          1.443606401675423,
          1.8161778549598693,
          -0.029004416516754603,
          4.076102235012478,
          1.3860692648914301,
          3.6279400576375274,
          0.9039390246873537,
          0.10151071241994263,
          0.5322202001823804,
          0.30008497989278404,
          0.26186283307746544,
          0.159800352756147,
          2.186152974616223,
          0.7840241968682533,
          0.8682799358556816,
          2.0925898623538832,
          0.7020439464016806,
          0.24612991314444715,
          4.346739151094059,
          2.271655148478575,
          2.084705988661059,
          1.016434982231928,
          0.3778124140148779,
          2.826792004558833,
          0.18787867761310406,
          1.576876963994596,
          0.711273958342678,
          0.6402996877378704,
          0.7767808473235408,
          1.1604444980197406,
          1.6422101516555871,
          2.377467424733712,
          3.223275450642685,
          2.0437636126993923,
          0.34583766466971894,
          2.481901987432428,
          0.9607327550236292,
          2.3565577898138623,
          1.9661439342338531,
          0.9124203076108661,
          1.4347529211732926,
          2.3756170552476723,
          0.6792034214899638,
          0.8286676740554259,
          3.3749768538299816,
          1.7305597617690593,
          1.64249310862474,
          2.399580786198771,
          3.148149464584361,
          0.33449067739734406,
          0.39985657044272827,
          0.7647900509889908,
          3.1950188854924417,
          3.8989797800967283,
          1.4391845038612285,
          1.1520298860646474,
          4.1540026005264945,
          2.6839360061873565,
          3.2060172617352745,
          1.6151236515313694,
          0.2940355435816074,
          2.0239358611530665,
          4.143663258407362,
          0.7462589180046292,
          2.426911191075134,
          2.1943906393634935,
          0.8265464208260522,
          2.290583473725082,
          0.787341561109436,
          1.2402734545828709,
          2.230966948034405,
          1.21249213691615,
          0.6948266321435546,
          0.6871394575268316,
          1.5929072501028516,
          0.5320021126714634,
          1.3941783820580935,
          0.21427627270485242,
          0.7163210084214524,
          0.31620790147102357,
          3.061860110810818,
          2.3990517321820857,
          0.4190475604980005,
          0.044980796982760474,
          1.948097376500982,
          1.4912496334118863,
          1.939011051894761,
          0.22042705125877005,
          0.39804103398244284,
          3.461803540688488,
          1.777294920688705,
          1.219459777761873,
          0.8799375030120277,
          2.6379600221391937,
          0.9060107673186351,
          0.9300101162796063,
          1.8440711337537443,
          2.3533187215654396,
          0.06556573703439601,
          3.1929619469717867,
          0.47576805543894907,
          3.2523163478470063,
          1.680878338774838,
          1.6772826167528652,
          3.2271279669403468,
          1.8652127555288973,
          2.8236779224109325,
          2.3457044641363414,
          0.4604774984067089,
          1.9648267514540056,
          1.393091110175016,
          3.2785034853744026,
          0.8311894120241226,
          2.4073577030074587,
          2.416732705394976,
          0.6038807858684648,
          3.2908883506384603,
          2.681339339788749,
          0.5958173546432165,
          0.4937647769583141,
          0.9533611553708197,
          0.5733932685632306,
          1.1239290190121058,
          0.0895178607569637,
          0.04810111584156486
        ],
        [
          1.94684395905423,
          0.0101471363733147,
          -0.08455105451361868,
          0.05900083678440496,
          1.9513898731714217,
          -0.031026558983322794,
          0.06780532729619058,
          0.025557606616596344,
          2.046328933912301,
          0.1081208157156126,
          0.06166200209557515,
          -0.06750002631579766,
          -0.11649381564786811,
          0.0022513483169287756,
          0.04253588441916315,
          0.12450041075779228,
          0.005668689803691229,
          0.07793962783524348,
          0.04530313672541687,
          -0.08160423463880911,
          -0.09094129316337815,
          -0.05217209130794323,
          0.023551969495930924,
          0.09432490868608971,
          4.518777100674315,
          0.09897117757943073,
          0.09811518103325932,
          -0.012671246824430365,
          4.38662215945354,
          -0.07853357191974626,
          0.0199421236227256,
          -0.005289418238278551,
          4.405577428419023,
          0.12705555075988245,
          0.14481155376536653,
          -0.09847841861514105,
          3.289723544135497,
          0.05024486305555533,
          0.017947863945824847,
          -0.00047443160082973865,
          3.238205676763383,
          0.01112522749219822,
          -0.009819678669508825,
          0.10459429463110546,
          3.2878151101014437,
          0.07926511985666466,
          0.040445458177246,
          -0.007429105478073033,
          1.439480969493689,
          0.009614097171138054,
          -0.043578994290445955,
          0.02975868721082504,
          1.3973856819264332,
          0.10112277924846985,
          -0.12150189673888537,
          0.09354070951378662,
          1.3698803083139102,
          -0.07342890169422057,
          0.0751156615403166,
          -0.023360818408628976,
          2.7580780041056205,
          -0.008078343739922372,
          0.02897475390915259,
          -0.13733040780338604,
          2.744317988577208,
          0.07070784869772385,
          -0.07687156513897575,
          -0.09581550521730722,
          2.920094250420104,
          0.12453684568824992,
          -0.07945115549641452,
          -0.08898267690451869,
          2.660177256284837,
          6.48268520507979,
          1.557154487812664,
          3.3841104797852273,
          2.445635368944835,
          2.926046135447676,
          1.1068972522581506,
          2.320260899110959,
          0.4445614846755353,
          1.9977748538950024,
          1.16837701352246,
          4.217942051439371,
          4.879019772767596,
          0.9969688236015471,
          0.06992577553162851,
          4.6674897606323436,
          4.624857736361223,
          2.0150817508982435,
          0.26354266413378274,
          2.159090923380582,
          3.6089657863590605,
          2.2858515778770236,
          2.5202488034184976,
          -0.004905703813238269,
          6.063882414947162,
          1.9700090759790072,
          5.558174232879974,
          1.320370828450989,
          0.20286557715637688,
          0.7216512917172262,
          0.6167410815462637,
          0.1669010482982956,
          0.17344786085479133,
          3.1995633391376646,
          1.324977787566234,
          1.3807078866085547,
          3.111965899049342,
          0.9673583691154233,
          0.390246298698898,
          6.2646730839989955,
          3.1640397374844373,
          2.8634164137720375,
          1.572619234608318,
          0.5847552943849426,
          3.84710525973043,
          0.07847940517834814,
          2.226065859485581,
          1.236773082368366,
          1.09078950141034,
          1.1780532623862703,
          1.818405218368837,
          2.23432608792193,
          3.582726734473984,
          4.731487742895567,
          3.1305608046323816,
          0.4438806472826233,
          3.682937725964332,
          1.4386748989098648,
          3.512142975791599,
          2.9969036793336916,
          1.5085966711185579,
          2.089020548930261,
          3.2749930514939196,
          0.9329892725347477,
          1.2000400790476982,
          5.165486028759477,
          2.5826318068848138,
          2.323431637811382,
          3.555844944617673,
          4.807619622252101,
          0.5744054541516308,
          0.6041318277490992,
          1.1754962112684249,
          4.620524696656217,
          5.678732110218469,
          2.1693649347677653,
          1.7405400816800922,
          6.060911064399835,
          3.7962765526937656,
          4.596979054620564,
          2.324157870613715,
          0.28504881458200787,
          2.897527159938594,
          6.03014826115225,
          1.0716148951399689,
          3.665554562716832,
          3.2802490579024233,
          1.1260849351450928,
          3.3700050320781285,
          1.0069493156100908,
          1.827904427795762,
          3.186735832758709,
          1.5862031977582822,
          1.0475118321309653,
          1.0522247167334975,
          2.4383698361651978,
          0.581437817238012,
          1.8326274420255926,
          0.1762725397205955,
          1.150723132688146,
          0.43744344866336615,
          4.544863254353794,
          3.6254146499030435,
          0.5497148838529787,
          0.08533570225553165,
          2.763278197084763,
          2.2120690778149914,
          2.9045961408455536,
          0.3936042612314866,
          0.6082766010581366,
          5.047840729074473,
          2.5862299610363295,
          1.805364414929751,
          1.2143128359395203,
          3.8369528963705415,
          1.3740111400237554,
          1.3424236501924331,
          2.628874319327356,
          3.4573982575540874,
          0.24626959646885202,
          4.648274672272322,
          0.8667536740646222,
          4.816664149592577,
          2.661232066062784,
          2.410134525586752,
          4.767180368052927,
          2.7945398877551346,
          4.0123789625381026,
          3.5145833343412125,
          0.7744948138446496,
          2.9111512091366736,
          2.2048784745723222,
          4.783191369048256,
          1.1750658262335016,
          3.3481850072482557,
          3.519434453862868,
          0.9683351141432991,
          5.063885296938147,
          3.9995825780695253,
          0.7694193483150951,
          0.8331131452858475,
          1.4235724253622595,
          0.8720513560817539,
          1.6698805133670458,
          0.006131568407182649,
          0.07106669410393175
        ],
        [
          2.067401625219567,
          0.06454965672308456,
          -0.10159214482906938,
          0.10255042664610259,
          2.1786608530376648,
          0.10644051641699208,
          0.03166249120199645,
          -0.039082084669685616,
          2.046755315455313,
          -0.12368291176100929,
          -0.08146640160909895,
          0.11348022565795966,
          -0.08270254683731745,
          0.023311100101999258,
          -0.03586415383475517,
          -0.08343693042772966,
          -0.07409058317742905,
          0.0019577662177270557,
          0.01249768844743727,
          -0.06240922184299085,
          -0.1328465207442381,
          -0.00425550880992721,
          0.13272275577599257,
          -0.0263239275767219,
          4.754457373426373,
          -0.05597612055502403,
          0.14042013644016946,
          -0.03728832830292366,
          4.842468527056971,
          0.07569829658192972,
          0.0626465959243321,
          -0.08910418979719625,
          4.81259517718177,
          0.10931598716519951,
          0.14302317690753022,
          0.04135435965088703,
          3.5213564599690335,
          -0.10376971585588732,
          -0.038914976802315135,
          0.031191215911914844,
          3.564982501124443,
          0.03315254725302716,
          0.02710464669025341,
          -0.06057426750259945,
          3.6124001042532186,
          0.02431323164149747,
          0.12309823038735158,
          -0.004445210362093867,
          1.6083170307453145,
          0.041281412640229755,
          0.09264684269213952,
          0.08384670723085506,
          1.5493087354709796,
          0.005522906121798378,
          -0.04078117902566253,
          -0.07024424464863731,
          1.5295583592755606,
          -0.016359045778622017,
          0.09181608057960483,
          -0.10450305818080774,
          3.181920372901223,
          0.0465387122027808,
          -0.06095149085894217,
          0.04226791747129896,
          3.150365639253369,
          -0.0448118950417318,
          -0.02704915568971366,
          -0.05874012997746102,
          3.1636226527491984,
          0.027356183111270548,
          0.13704412885637995,
          0.11255112825606645,
          2.7212273564724123,
          6.679355122202118,
          1.730845103864792,
          3.639904667148818,
          2.692730257209947,
          2.9928227949096535,
          1.4054517344577564,
          2.420862080494807,
          0.508322389528215,
          2.01165538831316,
          1.1583119585311843,
          4.616813975296945,
          5.1866059051029065,
          0.9807646653475238,
          0.020126966056196127,
          5.1880064958167935,
          5.038472297673793,
          1.962454440526079,
          0.24915187672652922,
          2.4204721220775682,
          4.04244051989884,
          2.2449686581977333,
          2.703702159510551,
          0.17441548508524019,
          6.571836274054505,
          1.9710418570108035,
          5.973820356042979,
          1.565509466680499,
          0.2664186797526648,
          0.6048242526475316,
          0.5334385697019887,
          0.37818612757285175,
          0.1479118959310241,
          3.48988631548829,
          1.3457699390474667,
          1.4224354692122692,
          3.420941421508405,
          0.9190496846465803,
          0.4821347055374572,
          6.909975471685756,
          3.4873161553790717,
          2.9804517778168043,
          1.47123591527333,
          0.5668137893322058,
          4.178304615577465,
          0.06367634257342934,
          2.194318151007135,
          1.3362432384601413,
          1.1797289317363497,
          1.1326298758182365,
          1.9478953674110278,
          2.50957470446913,
          3.7966964274956627,
          5.1316280077052205,
          3.390103741474798,
          0.46618101687909874,
          3.933989444675545,
          1.3918261844748936,
          3.662729876449691,
          3.263574172206796,
          1.5599090867019294,
          2.34519509236478,
          3.507090755102546,
          1.0285731257113577,
          1.321132118467341,
          5.3998772698098305,
          2.8300966574650475,
          2.4857252340834677,
          3.8634108721402227,
          4.941067267372829,
          0.5269706945050516,
          0.8984190172647327,
          1.2375055910406585,
          5.00931579335662,
          6.14363974025972,
          2.277153828364918,
          1.7525259224351182,
          6.518569456884058,
          3.965359631075008,
          5.000771603273846,
          2.495217610810506,
          0.38243598903131965,
          3.1977289268688254,
          6.339810740444967,
          1.3279570523499145,
          3.975898787344598,
          3.641835803711768,
          1.1701300254037865,
          3.5384306569615394,
          0.9512635997870537,
          1.9087358167852035,
          3.595179823740134,
          1.6445467746124252,
          1.015880817310866,
          1.285357785078395,
          2.607904073817649,
          0.6349481832174131,
          1.9358238759694204,
          0.09347962822069972,
          1.1188948508743035,
          0.5710721053409037,
          5.0022013414690605,
          3.9719109803282913,
          0.6624247827854269,
          0.024008578276039486,
          3.1818316260501667,
          2.38279942893773,
          3.19797201742152,
          0.5422756051291254,
          0.6403121312321413,
          5.3439586294543115,
          2.7995523511615668,
          1.9517194566615628,
          1.2667360757129642,
          4.1869139449188095,
          1.6956495447856885,
          1.4733992413290642,
          2.74151090077625,
          3.649568116272822,
          0.16248958440824468,
          5.077225325955436,
          0.8251026034601365,
          5.148471904251697,
          2.710791926490526,
          2.61068883322919,
          5.195669288469677,
          3.031549373590821,
          4.38075446882199,
          3.8275261322571508,
          0.7708818378916014,
          2.9887685240544584,
          2.2472332577597776,
          5.011775838458361,
          1.270406652219614,
          3.669118878547768,
          3.796128541996116,
          1.0761773191873598,
          5.324312141132231,
          4.19801292798433,
          0.7403845121617019,
          0.9785431129831171,
          1.6397306237686204,
          0.9862409120998106,
          1.670260884498707,
          -0.031229013650585558,
          0.023205771965126264
        ],
        [
          1.3173000022670096,
          0.11973093832210656,
          0.007158627761662669,
          -0.04848800027685931,
          1.3648417069773173,
          0.011433892553976172,
          0.038702636962911686,
          0.052517850672521814,
          1.5058796481957588,
          -0.013170910146039386,
          -0.09167425367280664,
          0.04339054639313748,
          0.43902743824406976,
          0.0868993888071711,
          -0.051500004798895965,
          0.036128541071272294,
          0.47438867635820964,
          0.0024199553282453676,
          0.047848041442780445,
          -0.05435006405033877,
          0.4478451724835747,
          -0.022342083876673614,
          -0.08745167220173312,
          0.08852507463200394,
          3.2371295527709005,
          -0.07543952484808204,
          0.10780129229059986,
          -0.07295580531744353,
          3.3337452274860926,
          -0.09015377627940263,
          0.03934705788122888,
          -0.016810365117256348,
          3.421194325751649,
          -0.05529820707698284,
          0.0938504968031958,
          -0.10509121940142252,
          2.572134354949795,
          0.02745540434970264,
          0.0985040599007859,
          -0.03192687632530793,
          2.527090720831821,
          0.10364702944135373,
          -0.04310725170634678,
          0.04197611739714038,
          2.537165255477732,
          0.04077692337776171,
          -0.03575747619617734,
          0.00890881756784087,
          1.1065451683187362,
          0.12955508154341472,
          0.0452186398476591,
          0.06611201006209876,
          0.913345861008733,
          -0.028174020043908045,
          -0.09839922243673238,
          0.029530972586627437,
          1.0223128697332038,
          -0.07369341596638938,
          -0.06784401137317517,
          -0.05298512094238792,
          2.0401455145580667,
          0.11676806677108849,
          -0.07132542684759366,
          0.034546760647730074,
          2.1760942550362308,
          0.046663411120271524,
          0.12736666684436043,
          -0.04668713166103908,
          2.207155273836761,
          -0.028152496420711118,
          0.13998823278480124,
          -0.12521428613811283,
          1.5914032121543502,
          3.893692367062381,
          0.8807938362922313,
          2.0056179284835767,
          1.4205198337966838,
          1.8185441493905106,
          0.738992387464419,
          1.4124036948457181,
          0.1426956685287322,
          1.061036313752175,
          0.5548830395328077,
          2.7394671482559385,
          2.9821548296251112,
          0.6791581412484017,
          0.018937810054667204,
          2.856553092010742,
          2.9207339537086052,
          1.0892352034864559,
          0.18090770872850903,
          1.2514105206143753,
          2.227894720272878,
          1.4348103120062483,
          1.4938567175003579,
          -0.07242394256817003,
          3.697477415474009,
          1.0959275913839575,
          3.2709281971801962,
          0.7405731670140304,
          0.14063345376441336,
          0.3846511619378059,
          0.43589491405225783,
          0.08752830211580699,
          -0.0425006260431311,
          1.9900769145852768,
          0.7011510076286906,
          0.7036984476641693,
          1.9084039969611601,
          0.6658024177806403,
          0.40580604208428384,
          3.8883615166060257,
          2.058446842245652,
          1.7288904624548482,
          1.0108042411707645,
          0.30294567446832804,
          2.3844646633035578,
          0.03625528690458302,
          1.260702775806849,
          0.7331857667093898,
          0.5719671370818675,
          0.6903537142942187,
          0.9800245981876754,
          1.359191021916595,
          2.253947209021292,
          2.9391440873896832,
          2.015607761663948,
          0.3280742910768316,
          2.1798505967970545,
          0.8589100185799149,
          2.2122306201607747,
          1.7293364714864548,
          0.8321266312043468,
          1.3286470154273982,
          2.007151571566435,
          0.5770909929326022,
          0.8498335176393457,
          3.117172681472742,
          1.5431344209245454,
          1.3691414025500004,
          2.2231987342697166,
          2.915141380782067,
          0.44222608837651495,
          0.49163852825477505,
          0.7960271210488995,
          2.7370282451029744,
          3.4559213368797144,
          1.3828212692590407,
          1.1123027126082103,
          3.7807242182796874,
          2.362252124181135,
          2.7754251925572273,
          1.4566763681964434,
          0.21480034285462737,
          1.7326017613504587,
          3.5788302901317213,
          0.7677663391515118,
          2.1684934283839583,
          2.08795252401751,
          0.7461461190155092,
          2.025806663287475,
          0.7104513782294413,
          1.2379467761301313,
          1.9783099889437161,
          1.1083746691345642,
          0.479818411050491,
          0.5878530249862973,
          1.5258908730840468,
          0.3907770655115111,
          1.2616274386003117,
          0.02451262650542601,
          0.8012631741145138,
          0.39032827571541584,
          2.936181156237041,
          2.123173633263468,
          0.47958554395419445,
          0.051311151182050686,
          1.7646358762774719,
          1.4997612771918487,
          1.8814643146220498,
          0.2504494710657687,
          0.44197466614473996,
          2.957000639248362,
          1.650733198779772,
          1.162277443011948,
          0.8246563232029218,
          2.2880537653485113,
          0.9181671082084405,
          0.7994799532388227,
          1.4857398986083925,
          2.050053504043216,
          0.11596685243778224,
          2.770592901449775,
          0.4081375076612799,
          2.807585513046727,
          1.5103575087999481,
          1.6007005167987347,
          2.8092305506638042,
          1.5873343494834147,
          2.4517673502070525,
          2.107657543746974,
          0.569254990226061,
          1.856628470928816,
          1.3545486228665646,
          2.9402321660464956,
          0.857467879327598,
          2.0521558414926093,
          2.1961056344058942,
          0.5206861082024365,
          2.9600227292672123,
          2.374627373421422,
          0.4790058817086831,
          0.5199449306378042,
          0.8573125430597766,
          0.5891739961194429,
          1.006808313160656,
          0.018210167649560946,
          0.07653205538419196
        ],
        [
          1.9644592499020215,
          -0.03185271894394502,
          0.0885985295144887,
          -0.10614379336413056,
          1.8951465069615132,
          0.07267517302327275,
          0.04236838962799163,
          0.058918824798428485,
          1.9765457637891912,
          0.10369898723580859,
          -0.07304794161137058,
          0.11751496150817095,
          -0.23337331551654944,
          0.06765056277249173,
          0.0812757484527269,
          -0.1073193653254927,
          -0.19809796853515596,
          -0.0807149143840197,
          0.0970171734822207,
          0.032172868154016585,
          -0.06002497393152715,
          -0.07813729935477383,
          0.06531043427406122,
          0.0601395729369482,
          4.5939922215646,
          0.009403413695083292,
          -0.013868129660887931,
          0.050416589185346083,
          4.442126842647931,
          0.10909649573024915,
          0.12220511738347105,
          0.010243055392120299,
          4.372080040665358,
          -0.06906426673029913,
          -0.03108500738746377,
          -0.017297110206758212,
          3.162284781801188,
          0.1102362971954613,
          0.0668429794585583,
          0.05045454651125924,
          3.1700596832821604,
          0.12255340384098663,
          -0.07527103693806557,
          -0.02124775089750586,
          3.174693451598528,
          0.11732622285962994,
          -0.0519063064307328,
          0.10197253674687748,
          1.281630933355273,
          -0.06174223485689617,
          0.01200402292295269,
          -0.012364304533611004,
          1.2141549231798139,
          -0.08480344928938725,
          0.07324829145850702,
          -0.08774072806948022,
          1.3807445631939548,
          0.08602948675889999,
          0.012351461383269082,
          -0.08039819474872863,
          2.866033954385348,
          -0.0352727759094541,
          0.13110665557864043,
          0.006607603808193311,
          2.821414824599835,
          0.04658262905964434,
          -0.042332666020858355,
          0.07475964042922985,
          2.910849163939438,
          0.12421112180976379,
          0.03276761917496997,
          -0.10899982393237106,
          2.763408043825524,
          6.55659767384588,
          1.4876049779682885,
          3.44941970928913,
          2.3661183825872487,
          2.9362936847449754,
          1.1584342960150749,
          2.266859659377968,
          0.5070525689568146,
          2.0162036708349063,
          1.0291930516279109,
          4.344082207614152,
          4.949830606112859,
          0.9079568113013943,
          0.03887061340482674,
          4.734093660059204,
          4.633650520940157,
          1.9705425843194242,
          0.20113905882961958,
          2.1745917215344805,
          3.6433220845875187,
          2.296342340929785,
          2.663382143370964,
          -0.012928524681752212,
          6.229168023931961,
          1.9420624969104567,
          5.47310606757795,
          1.3416269150963813,
          0.21525839709934666,
          0.6539529898094439,
          0.4666079988361469,
          0.19142049036194067,
          -0.04634068085478107,
          3.379122880045571,
          1.246343472671254,
          1.3840122105787023,
          3.247806137421837,
          0.9542677779552543,
          0.5735390782334424,
          6.391039597120864,
          3.3944051532394,
          2.8426463851554167,
          1.3820333240558946,
          0.5028799602578802,
          4.048227327758995,
          -0.045837035953168744,
          2.2195069374145637,
          1.125167549006694,
          1.1176507803987004,
          1.1833163436814504,
          1.7327515681657932,
          2.2032551361258976,
          3.6713228688697432,
          4.933274302526725,
          3.2036835223167537,
          0.553168238895939,
          3.7172240776533094,
          1.2331622224977914,
          3.4458259168074274,
          3.1070971336507847,
          1.4152560965623011,
          2.2540716395161566,
          3.3875118180861374,
          0.9059825920060438,
          1.3767748328729836,
          5.077714880274053,
          2.5967085741476095,
          2.2909387236553154,
          3.525201585874363,
          4.65328788299807,
          0.6356294682653354,
          0.6256462966296846,
          1.2870046729174558,
          4.649210741935905,
          5.703593992414268,
          2.068121743303132,
          1.7030110397870364,
          6.25850550649849,
          3.7680704149140705,
          4.607950543433305,
          2.508276975401789,
          0.4289501090945821,
          3.000652010232864,
          5.94812562220217,
          1.0622944924133608,
          3.713257142397372,
          3.4165304162803967,
          1.1545264124220116,
          3.4382661253437523,
