{
  "layers": [
    {
      "activation": 1,
      "biases": [
        0.0033671936233450805,
        0.005444824155636736,
        -0.007106263581129774,
        0.014523298259025085,
        0.013245316705262558
      ],
      "cols": 5,
      "rows": 2,
      "weights": [
        [
          0.8235222060576609,
          0.8150237275970894,
          -0.07407061129809608,
          0.29877238501715964,
          0.19560672239803245
        ],
        [
          -0.0729279794259162,
          -0.3304065103892186,
          0.049153471861355096,
          -0.181770078556515,
          0.9008279030732331
        ]
      ]
    },
    {
      "activation": 1,
      "biases": [
        -0.040516362337036635,
        -0.008918668493614355,
        -0.0029719180790281382,
        -0.049299883166107526,
        0.033580347224421644
      ],
      "cols": 5,
      "rows": 5,
      "weights": [
        [
          -0.595930511202546,
          0.4973011307866562,
          0.6451234608092244,
          0.2173386220426424,
          0.3765662729949482
        ],
        [
          0.2091841022593024,
          -0.764190490174608,
          -0.363763957395515,
          -0.15181216695268765,
          0.3779377503766372
        ],
        [
          -0.228357185868136,
          -0.34600662256936354,
          0.7274743898847185,
          0.5248574419360255,
          -0.12031049731271347
        ],
        [
          0.010255056746637584,
          0.20873956781605402,
          -0.3945602401496595,
          -0.8237247678471206,
          0.18371079072609622
        ],
        [
          0.012409947128532718,
          0.06668452079291647,
          0.5303505223297155,
          -0.5406757676880708,
          0.401043262965373
        ]
      ]
    },
    {
      "activation": 1,
      "biases": [
        -0.16603607562815653,
        0.17781965740672084,
        0.18586473233358206,
        0.1584521466495793,
        0.09127150049885689
      ],
      "cols": 5,
      "rows": 5,
      "weights": [
        [
          0.6928124272293448,
          -0.6945276853028798,
          0.5136362255728585,
          0.0920421885641086,
          -0.14015069048985906
        ],
        [
          0.21511216193061342,
          0.08698724883941,
          0.481382902376039,
          -0.586325639136497,
          0.244977343711126
        ],
        [
          -0.4205725451399621,
          -0.5643516332299867,
          -0.013790823245955593,
          0.13960631591818407,
          0.2888397670670893
        ],
        [
          0.3637463519758557,
          -0.48917256230540185,
          -0.736560992357239,
          -0.14841458270902824,
          0.33851208073579725
        ],
        [
          -0.6477096273678211,
          0.7718167968121794,
          0.2898674528651003,
          -0.3039064827909065,
          0.13734008786166985
        ]
      ]
    },
    {
      "activation": 1,
      "biases": [
        0.7102474350902461,
        0.0850876555625646,
        -0.2728442876933023,
        1.000734390511305,
        0.5656407354362629
      ],
      "cols": 5,
      "rows": 5,
      "weights": [
        [
          -0.029890815876257217,
          -0.7296484666817231,
          -0.8163952523843495,
          -0.24883195560056984,
          -0.2981081128793967
        ],
        [
          0.8474083910321947,
          -0.5621658641394011,
          -0.791969673295506,
          0.4566821970491523,
          -0.04235231637087153
        ],
        [
          0.24449772792314375,
          0.09216994949944986,
          -0.6886091536129906,
          0.54780649820047,
          0.8729939230324056
        ],
        [
          0.5445833247485208,
          0.4615329560805598,
          0.2518050097020417,
          0.38737014402591147,
          0.5093107986988744
        ],
        [
          0.12076564433330228,
          -0.3815013577833631,
          -0.4723103721160745,
          0.49968561660965793,
          0.4519104312782963
        ]
      ]
    },
    {
      "activation": 1,
      "biases": [
        2.9385240056201978
      ],
      "cols": 1,
      "rows": 5,
      "weights": [
        [
          2.214764441001257
        ],
        [
          0.614568540227285
        ],
        [
          -0.2964530179569925
        ],
        [
          2.8768195338504197
        ],
        [
          1.9453649059531728
        ]
      ]
    }
  ]
}
