{
  "layers": [
    {
      "activation": 2,
      "biases": [
        0.0,
        0.14641657549910844,
        0.6103088444431457,
        0.014766435388193774,
        0.0,
        0.44103746028673535
      ],
      "cols": 6,
      "rows": 2,
      "weights": [
        [
          -0.20755679169852553,
          0.2559900762196863,
          0.21241969592302526,
          2.28428617048557,
          -0.6674316762909244,
          -0.6979402092784587
        ],
        [
          -0.056671633399529554,
          1.6477882699071855,
          -0.7042874825331504,
          -0.8238720623351085,
          -0.7631536055177587,
          0.30377667138847436
        ]
      ]
    },
    {
      "activation": 2,
      "biases": [
        -0.029051642099348254,
        1.6337317051406803,
        0.6458867904956088,
        0.6213785976344948,
        0.0,
        -0.05589097090870355
      ],
      "cols": 6,
      "rows": 6,
      "weights": [
        [
          0.464282362702184,
          -0.2517572326254369,
          0.2951994112034375,
          0.6483334671602491,
          0.08724921682610158,
          -0.18035378567088756
        ],
        [
          -0.44467644185018884,
          -1.0356424665895836,
          0.5554267545994549,
          0.3896820042926824,
          -0.14187698461163978,
          -1.2451031192446977
        ],
        [
          0.4187192113833417,
          0.7331850694025565,
          -0.17381508275740842,
          0.03547834692544579,
          -0.162414206791727,
          0.715566438281843
        ],
        [
          -0.030526806111037533,
          -0.7917155842907736,
          1.3135101623237384,
          -0.990174615136013,
          -0.26339816848196435,
          1.688047263628374
        ],
        [
          -0.6717424149143458,
          -0.34760191626570647,
          -0.4331305620868067,
          0.35410408510280444,
          -0.44456744858598507,
          -0.46250398959932887
        ],
        [
          -0.3173176509629885,
          0.30131168635460426,
          -0.7534576114508864,
          0.7706298093525432,
          -0.5548583675893295,
          0.5366064686860857
        ]
      ]
    },
    {
      "activation": 0,
      "biases": [
        0.07202572561149366,
        -0.0036299781870529177,
        0.08502282410146227,
        0.11961271636454092,
        -0.05648105790643663,
        -0.11035089391926034,
        0.06315297948209511,
        -0.09966500766593517,
        -0.05914830565801726,
        -0.07604366136706198,
        -0.030351586751954596,
        0.06423672666644892,
        0.02265425149577579,
        0.0201632197106128,
        0.0019021240656776244,
        0.009657204598602694,
        -0.04298586595167049,
        -0.05362267052802687,
        0.025893514023661416,
        0.0651078353904402,
        -0.046985698211515305,
        -0.032780070518673494,
        -0.09538496823976082,
        -0.05615441681815417,
        0.020009388015497943,
        -0.07628532138985512,
        0.07587735509091136,
        0.10711051475215015,
        0.07938038295903474,
        -0.040595535126696704,
        0.04063759845426812,
        -0.029813328097634966,
        0.05099891778013003,
        0.035839171740452064,
        -0.041416260738903074,
        -0.13458994948117484,
        0.03866707357557513,
        0.013807704040886661,
        0.0965957185541986,
        -0.077173395572407,
        0.05519775003312437,
        0.008701595902967377,
        0.12420472104815979,
        -0.00043691934650513803,
        -0.10511249198759792,
        0.02859496090239749,
        0.09268177913624498,
        0.10264333777523202,
        -0.03160553946828697,
        -0.025908279183670346,
        0.0694589994985281,
        -0.0898130683170679,
        -0.031646517894460345,
        0.021743781469665303,
        -0.007570553497287759,
        -0.19745725149124543,
        0.02177853894314422,
        -0.0743025294252421,
        -0.015644902741618238,
        0.08100660926565979,
        -0.09789533645139487,
        -0.04489594668619543,
        0.031125424840130797,
        0.12242871530641945,
        -0.0014108304615756016,
        0.13571055514547603,
        0.03738580796831944,
        -0.18723471336337366,
        0.0025786872041407196,
        -0.01313333353654153,
        -0.001157371307375887,
        -0.0659759715790363,
        -0.06467330034311337,
        0.048573975787586814,
        0.31882417547994907,
        0.03395140250836381,
        0.10817820061422419,
        0.2626960422708597,
        -0.2683779030919334,
        0.14197920908400616,
        0.11100291324804963,
        0.00952332033900842,
        -0.4046109039982315,
        0.13713587347919226,
        -0.07377608583678623,
        -0.16906532950229883,
        0.2961914529625703,
        0.049253785161774345,
        0.05360301833948436,
        0.04655532374342021,
        0.17219491184510105,
        0.11345053996854752,
        0.09961140613258244,
        -0.0057442584634493,
        0.09478783863583821,
        0.06538049959269523,
        0.20366196365152836,
        0.20757443503427403,
        0.1983449227095303,
        0.05218972434001549,
        -0.1685668486858991,
        0.05914232436514846,
        -0.11843981264950497,
        -0.02844229162148509,
        0.09888576644473784,
        -0.011078688013593505,
        0.23844409136378913,
        0.040965393896690294,
        0.13735501149259335,
        -0.20310471155120638,
        0.2660142746219517,
        -0.18585473077655537,
        -0.132836753967614,
        -0.25972594651767944,
        0.31229350813942863,
        0.014726924699195235,
        -0.05251631839306099,
        0.14763218284424853,
        -0.028457773413584193,
        -0.049002425846137995,
        -0.11839387102837597,
        -0.005616604652343603,
        0.043850724447750004,
        0.017037777928943364,
        -0.2945093801155181,
        0.3024279764332513,
        0.019989459259327512,
        -0.11763155410666694,
        -0.018722800956153834,
        -0.06524004469205459,
        -0.01376667371445383,
        0.0034260357577345726,
        0.11457374488144036,
        -0.16944459982465537,
        0.3983129219769222,
        -0.10541279570718083,
        0.09793242073542632,
        -0.3066893642335111,
        -0.2660423726749717,
        0.11388534373844003,
        -0.07736367287900263,
        -0.09425764309760919,
        -0.025206632486033415,
        -0.1485408018678196,
        0.1694338032159835,
        0.08538512647235955,
        0.17737539559591953,
        -0.09193171697543016,
        -0.0943591915303212,
        0.1776542058561548,
        -0.21948448598621859,
        -0.14433814744559223,
        0.046378206641750234,
        0.11127049631932799,
        -0.12215607656356503,
        0.13422644094458064,
        -0.18770094137993373,
        -0.17443356985712244,
        -0.2813004353725396,
        0.05756244225439891,
        0.017304033585724514,
        0.027963179351290213,
        0.21709529739765662,
        -0.07889326294558217,
        -0.017162670629973027,
        0.32152830715962316,
        -0.21567565244637618,
        -0.06070249078715064,
        -0.06208270843252931,
        0.08451960216724712,
        0.26277618465085584,
        -0.07960066197650544,
        0.13361681266976547,
        0.09505851557433351,
        -0.1374967209527786,
        0.010167993198463562,
        -0.07223277320425592,
        -0.3160719309920026,
        -0.005555697483288828,
        -0.1039141944690731,
        0.13001265020136143,
        0.09519078378991726,
        0.18211949412427592,
        -0.04096112115597181,
        -0.014747907675687963,
        -0.4223225692278792,
        -0.15700692500187063,
        0.11165260783693379,
        0.07813799412637927,
        -0.20442023713601576,
        -0.03732274896063138,
        -0.027936143329747948,
        -0.15383757277964075,
        -0.15926243662722187,
        -0.09674152938041411,
        0.01004224618160448,
        0.00010806839356491595,
        -0.3289609278139967,
        -0.21577261102346249,
        0.0977362584520249,
        -0.11174210505711571,
        -0.08345557829265686,
        -0.34324359954828576,
        -0.07926031146931158,
        -0.04702527360273647,
        -0.08420994246234302,
        0.04576663660062468,
        0.08668570961261254,
        0.02501034480278798,
        0.07278114222541071,
        -0.10261210262813215,
        0.08439095501333313,
        -0.03552649657975005,
        0.03790248811850225,
        -0.1273876202597837,
        -0.10779411950845638,
        2.6994247377222873,
        3.0529400673456193
      ],
      "cols": 218,
      "rows": 6,
      "weights": [
        [
          0.07452220303998489,
          -0.01071807115929844,
          -0.07522146376975741,
          -0.10565171093051236,
          0.06589296070695522,
          0.020081396255416547,
          0.14750137298338326,
          0.08940121037847941,
          0.017649353406579787,
          0.015098206561006168,
          -0.13715369091477098,
          0.06719353000009241,
          -0.10282669298468688,
          0.0583207974878326,
          0.15753678545475852,
          0.14087116480718886,
          0.1325044964470983,
          -0.13920625576320475,
          0.009048759406012272,
          -0.14682344063097558,
          0.15494278857657579,
          -0.07448449202511641,
          -0.042733436305535256,
          0.11435761816446684,
          0.0828868868627163,
          -0.007691204624153103,
          -0.010825462995481285,
          0.1192064175571133,
          0.034989974916996715,
          -0.07496676420982819,
          -0.005100420335040034,
          -0.0034914545505598266,
          -0.14168695038041706,
          0.026830181158787145,
          0.0762962781965855,
          -0.14562596479219647,
          -0.07072248346361176,
          -0.12908982908714753,
          0.11357510467408617,
          0.04497076454575389,
          0.13321877930449283,
          0.06120688261500604,
          0.1469280062246395,
          -0.12481653247274027,
          -0.03198866264026279,
          0.09021912970132318,
          0.12322132207698336,
          -0.01618893171456024,
          -0.106896377689368,
          -0.06633604632342797,
          0.10542415790346968,
          0.1039909372462013,
          -0.07020783471179765,
          0.15572491156153656,
          -0.15601051198355176,
          -0.0034034869989173653,
          0.0008220205416770431,
          -0.05091162122346783,
          0.03622074027542806,
          -0.13520431696010238,
          0.09701386740016844,
          -0.051235279150598695,
          0.002138222371496866,
          0.10376911545599865,
          -0.08928986250897519,
          0.03532108074848792,
          0.07968859380033828,
          -0.15766661960196043,
          0.06078933202707521,
          -0.14618227398789999,
          0.13570952737065578,
          -0.1402175449704989,
          -0.029922131169145473,
          -0.07576871669645109,
          0.12202265807837775,
          0.1011657208624745,
          0.1583995308126436,
          -0.14593139711586292,
          0.01771075605772145,
          -0.07190234815916458,
          -0.09666689593043709,
          0.03754400088511985,
          0.0962185686134131,
          -0.1002104857745947,
          -0.0693592413218432,
          0.11652900273743508,
          0.013437224769382848,
          -0.0727279922459974,
          0.062389860959171546,
          -0.11990259061104498,
          -0.04912716299537414,
          0.07502639830898039,
          -0.15203137576001918,
          0.11783279671933075,
          0.08627781261996086,
          0.051880241186442265,
          -0.061194595054141106,
          0.045168094652039865,
          -0.08136783349974906,
          -0.033066388616304544,
          0.0773343594720355,
          -0.12831050264888788,
          -0.06586257263098996,
          0.13100809758153636,
          -0.01481978711266974,
          -0.1418111297465384,
          0.04856902202713736,
          0.1397260194387011,
          0.048366964154745506,
          -0.08584001631861046,
          0.026884309426701204,
          0.12940584843387232,
          0.07525420186550746,
          0.153387171845403,
          -0.012963283863565649,
          0.04279063163511765,
          0.13038269375543501,
          -0.15158578096573386,
          0.1473773763235438,
          0.015530172459338205,
          0.10505573150992714,
          0.13048993661122446,
          0.13555862818404782,
          0.07448761231171128,
          0.1606031757311278,
          0.11154316642535692,
          -0.008670714183463489,
          0.05682068190883705,
          0.12338379786600036,
          0.10695093835881989,
          0.13245024791809396,
          0.08914230543869044,
          -0.10149563314530813,
          0.09157768426910211,
          -0.05597966029729558,
          0.1097022295176542,
          -0.09718933664710228,
          0.007806234879440512,
          0.1278940814345679,
          0.021224407905201175,
          0.10478037554119046,
          0.024539305802525557,
          -0.02392448941017884,
          0.02814368440366304,
          -0.15788379935181587,
          0.07142254058787205,
          0.003532483046371778,
          0.08935716580454055,
          -0.08103884716915762,
          0.10409070363922314,
          -0.0047314246325180186,
          0.04738725023389779,
          0.11465924751850888,
          0.07534226198729513,
          -0.10838142005253304,
          -0.09646251013567221,
          -0.11515770553953193,
          -0.0011658622375097674,
          0.12195390798027848,
          0.044017940330185024,
          -0.15094018022647768,
          -0.06704228635732538,
          -0.09088216712700965,
          0.0166303634478263,
          0.004963202836738865,
          -0.08461853899572144,
          0.006315873504444543,
          0.056728833449856256,
          0.0367153603810328,
          -0.1067778793181594,
          0.08088301038517112,
          0.1516154811727218,
          -0.13977464815419693,
          -0.16346948171722914,
          -0.031266539357486606,
          0.010224718670136336,
          -0.13886541783030884,
          -0.0669392534419875,
          -0.014445299701338623,
          -0.058838914551272485,
          0.11513397217270772,
          0.09032935067938008,
          -0.11639660425516705,
          0.02081376209957155,
          -0.07685481532484122,
          -0.0037556854976364866,
          -0.11480595171262385,
          0.06897859978397655,
          0.01958120193022719,
          -0.049382287127080975,
          0.0486075726536199,
          0.0769033451075522,
          0.08556274262226642,
          -0.07480122972061946,
          0.052908472036882835,
          -0.04531944249134734,
          -0.09723192211087818,
          -0.0654902395677774,
          -0.043993887030246266,
          0.06543732295990058,
          0.019215399502143175,
          0.12542119483267006,
          0.05214963494404334,
          0.05873734981327436,
          -0.008300986199598664,
          0.058789870101556806,
          0.10388357902505276,
          0.0322051267234897,
          -0.07697287702826033,
          -0.07329021722076809,
          -0.13496493810380417,
          -0.10877698178404861,
          -0.12751835196862987,
          -0.060696836305076676,
          0.06988893217690315,
          -0.03477060135908188,
          0.13025934895215233,
          0.034687940777867445
        ],
        [
          -0.050791871215121874,
          -0.0439253123308065,
          0.05696216061091759,
          -0.2548833551175078,
          0.0027860252366759086,
          0.002590016900557273,
          0.02447877101314876,
          0.27223534653950643,
          -0.07454495479991367,
          0.060223586798970684,
          -0.02092848100405929,
          0.11063198689414311,
          -0.08979970134526033,
          -0.04048626339354287,
          0.0026711980266146767,
          0.04456247022330573,
          0.0930867439106339,
          0.04892836176448476,
          -0.0071367616446390125,
          0.21417361980541677,
          0.05325936547882281,
          0.0456860113535547,
          0.09945839656738614,
          0.013705823006973343,
          0.09705972840009039,
          -0.006766518052347004,
          0.0644788071592199,
          0.20607218544102457,
          0.12956787461152536,
          0.011344980261958265,
          0.09429671741172878,
          -0.00043838381390459133,
          -0.0951788745269317,
          -0.01754652641883978,
          0.06562008217293727,
          0.03159299933779495,
          -0.11796557692688249,
          -0.02328654553280268,
          0.00721250088023884,
          -0.37335901785069514,
          0.03836506034952701,
          -0.03106663664766834,
          -0.051728877774427875,
          0.22085808213878036,
          0.02126725108450108,
          0.02849386402103042,
          0.009212395741650174,
          -0.17669732576681627,
          0.0046789910072720445,
          0.01145917904058579,
          -0.11091123630234354,
          0.001604242786067302,
          0.07093496339059652,
          -0.026334637991257508,
          -0.016662184999914908,
          -0.03562175010959321,
          0.06387942888345921,
          -0.031570414046223384,
          -0.05052934915984475,
          0.09359552355377172,
          0.12726084111006528,
          0.020114165037496794,
          0.039950400925942736,
          -0.037796247052520784,
          -0.13956074619840445,
          -0.010738657061106934,
          0.036852122506071505,
          0.1697339978063605,
          -0.11011190810325915,
          0.033365921726133035,
          0.04377992946523388,
          0.046405167159432825,
          -0.016266069382908657,
          -0.007586404405344737,
          0.13731605720522774,
          0.0729641201202133,
          0.21899419968096562,
          0.18337107416773027,
          -0.3424607765962048,
          -0.013346578291657052,
          0.1711305580538418,
          0.04486763155088397,
          -0.39569145563701186,
          0.09658910062427525,
          -0.0749539954319101,
          -0.21476070735183447,
          0.3059419050872918,
          0.043057706526361914,
          -0.01498383590871882,
          0.04427854982774192,
          0.17308099356282,
          0.00951622589077153,
          0.011575979015453389,
          -0.07915894250997914,
          0.34806958617804457,
          0.08896456951074727,
          0.10858624138227481,
          0.19169120621032654,
          0.4053965767892205,
          0.016363878845218595,
          -0.12114472143067781,
          0.091114323293763,
          -0.11164123946422785,
          0.023199205939087347,
          0.09798660479149324,
          0.2010460867904826,
          0.20459617772882777,
          0.06148385134847556,
          0.022220761161209947,
          -0.43349020007818373,
          0.3583972297598449,
          -0.0636863927239065,
          -0.16532130960208258,
          -0.3689426002872425,
          0.2707732131869643,
          0.13007508045033953,
          -0.15230958783365417,
          0.3576593989579602,
          -0.13743528182503387,
          0.009641714566412756,
          -0.016724942797583197,
          -0.02589286487398915,
          0.3148489504850355,
          0.018639598164871,
          -0.1613216667937803,
          0.4397289359067911,
          0.055906416913009405,
          0.025117369600989477,
          0.11048869912473039,
          -0.0846747089638933,
          -0.25443532843583044,
          -0.13765774139748815,
          0.13385732607278047,
          -0.22347547431077205,
          0.24889277478585772,
          -0.22395159968815234,
          0.1610698786313032,
          -0.43643730398520325,
          -0.2752361192312537,
          0.07950708516012746,
          -0.12915096315930347,
          -0.10189248155681895,
          -0.0010229908978410499,
          -0.17533652644095785,
          0.23992532398064192,
          -0.08845282521610467,
          0.30427075119007585,
          -0.057029667859754336,
          -0.04399008837106676,
          0.31220476757380206,
          -0.3582521771275576,
          -0.1160461263083417,
          0.03761147698455478,
          0.1510818987321592,
          -0.189620143175837,
          0.07857858749119036,
          -0.13783612563523784,
          -0.10337394106949095,
          -0.16317971923373045,
          -0.03419395956080172,
          -0.025455664363889692,
          0.2015087966823289,
          0.0863941810951178,
          0.014253751744116293,
          -0.06427339414028624,
          0.3861777168759009,
          -0.33970936206767616,
          0.12116799730195536,
          -0.16427807128944677,
          0.004794189477193914,
          0.4167163611307075,
          -0.02470959921190501,
          0.14711247833525354,
          -0.013322931297653332,
          -0.32760035062578385,
          0.11333704666863118,
          -0.03936740996599546,
          -0.3133877939539776,
          -0.17613421107983016,
          -0.16712557645079404,
          -0.012604710394822466,
          0.12427477851752415,
          0.07330223603917317,
          0.17922484682737383,
          -0.07550469138407874,
          -0.32124816852954935,
          -0.0905733124210326,
          0.14506585784960493,
          0.09628322439892002,
          -0.23501584385585456,
          0.07689244758134503,
          -0.08239959385184079,
          -0.07616691627119032,
          -0.20470329143828278,
          -0.18142650227890553,
          0.00843238497213023,
          -0.0771240184552955,
          -0.3164617508434548,
          -0.38413186180694,
          0.08580483933427252,
          -0.12431024292185563,
          -0.016917019466891513,
          -0.41044051641966917,
          -0.12984707109725852,
          -0.14632381032162403,
          -0.058933817216280944,
          0.06842024750806296,
          0.0719243385304542,
          -0.029086409889381274,
          0.16459396476014088,
          -0.16550764185973688,
          0.07820115728771992,
          -0.01774026470829353,
          -0.039538687477313345,
          0.0156879237110079,
          -0.05446322880091095,
          0.6395756263672879,
          0.9016925820811809
        ],
        [
          -0.09526953654916255,
          0.01746927185156691,
          0.1387947502956913,
          -0.029326552764811692,
          -0.10194495682308295,
          0.059521848196012944,
          -0.09701919540869233,
          0.16082473214563311,
          -0.23223470092596324,
          0.0747668130150529,
          0.12637923438469165,
          0.08611198403140685,
          -0.2550075108524343,
          -0.023850189567367,
          -0.07404284663263094,
          -0.1833346593313285,
          0.09683676737074084,
          0.02098230488768659,
          0.01538963072229043,
          -0.1777628971716715,
          0.09183849476278097,
          -0.027658077796515156,
          0.15138221783077607,
          -0.1758205322903598,
          0.226089847752638,
          0.0750061319180717,
          0.11265299113502851,
          0.1752976233322183,
          0.14153502963199616,
          0.016313237574842415,
          0.16469203867500526,
          0.017790048217174923,
          -0.23203832685763534,
          0.02898191422186059,
          0.04044481341304637,
          0.16948125589831567,
          -0.24156590572510347,
          0.014635953386791042,
          0.08109650337424011,
          -0.136227761450523,
          -0.00039923332686293746,
          -0.02314574215592487,
          0.012476540435545875,
          0.1083146559317667,
          -0.18165458665734063,
          -0.009756327399438738,
          0.02332510431301223,
          0.16740834573654756,
          -0.22168092711352472,
          -0.03995478252737995,
          -0.11212181631584135,
          0.21812730906794636,
          -0.034377916611594415,
          0.008639685517803117,
          0.17684486412816383,
          -0.007995492753380072,
          0.1846915120539272,
          -0.01958418602215135,
          -0.15893701012257372,
          0.17312651326469103,
          0.2015056185333917,
          -0.02266663176421551,
          0.03281264829920966,
          0.19825713181217527,
          -0.2529512798139796,
          -0.0377433890673316,
          -0.047304456569110365,
          0.14833517278925973,
          -0.23824679511806635,
          -0.047997054808319624,
          0.20220891918841938,
          -0.18886162598645923,
          0.11738066373330583,
          -0.01146580689487952,
          -0.1823281806167202,
          0.12271253623130211,
          0.051603997992452987,
          -0.1104101761196817,
          0.21293426990885952,
          -0.039527080241311664,
          0.0045027082145091,
          0.03365426720431741,
          0.049647713322785926,
          -0.06545790351334678,
          -0.06906981975678923,
          0.03602458294008216,
          0.011311045637238126,
          0.0509107337018388,
          -0.016789366232154306,
          0.002129841637857618,
          -0.007482162002581387,
          -0.032467617930809496,
          -0.14863155754992874,
          -0.015565486608666804,
          0.09997824275529678,
          -0.06479500426769326,
          -0.11180133574946755,
          -0.07601535485311571,
          -0.12970423358734262,
          -0.10346525648645119,
          0.12054543646170485,
          -0.027857866668216828,
          -0.1421268805378306,
          -0.06891223436243278,
          -0.0064301725109868965,
          -0.04561044457808869,
          -0.18451379502389761,
          -0.061742138965458694,
          -0.035780826567687406,
          0.008767372750100352,
          -0.03628551743818196,
          0.17203821116488294,
          0.042306764090622874,
          0.07867325383699016,
          0.14851810935986368,
          0.1322119115718837,
          0.1372500775540216,
          -0.08922220222727789,
          -0.13148636976640005,
          -0.14764928245888218,
          0.14721586181940502,
          0.015499371589767465,
          -0.24898408978765466,
          -0.15578359749944867,
          0.0923808517693195,
          -0.04011007578213947,
          0.2152933130557103,
          0.1004016073128463,
          0.03116968626047787,
          0.05382175889112895,
          0.013190112264266234,
          -0.10802007370357342,
          0.09194704503710871,
          0.05867690228297512,
          -0.25930349161256244,
          -0.11942298119353391,
          -0.14882330545023956,
          0.10133694701120471,
          -0.07326058039277515,
          0.10491031055610248,
          0.10010712385952976,
          -0.003521881744564578,
          0.149126653938252,
          -0.11896797236649992,
          0.08828144767714231,
          -0.0051744241095160555,
          0.16491575580024004,
          0.01793692375432804,
          0.03260193543726439,
          -0.0937834106659233,
          0.24310063257279144,
          0.19824422259385202,
          0.035533451256199305,
          -0.022549485827302037,
          -0.07482211990221128,
          -0.12323571803571486,
          -0.0812297837754542,
          0.020690198155734408,
          0.2894796944247425,
          0.0323990432018239,
          0.06104341210538957,
          -0.016673379133143814,
          0.17389985520953263,
          -0.018751228434197426,
          0.057667882934630627,
          -0.09285295751869914,
          -0.010965746539995101,
          0.03181668861657148,
          -0.10889441415565287,
          -0.050393731969417856,
          0.15026696780800589,
          -0.14013205956307118,
          0.05451358895225446,
          0.006889723129630869,
          0.1985239882422649,
          -0.11944805572338114,
          0.15096249632035216,
          0.13740939160984383,
          0.23861828380261088,
          0.10706623746847797,
          -0.04376439508822302,
          -0.0738193200744909,
          -0.1729005364400592,
          0.16755485273466714,
          0.0690582295259496,
          0.0989342529158091,
          0.2485549816945264,
          0.08429690282057381,
          -0.08237464529443747,
          0.09271478170515803,
          -0.09830674193470532,
          -0.0258684244930666,
          -0.01208370105105178,
          0.010837084018692341,
          -0.096335713440874,
          -0.046633047093407896,
          -0.04316135931812475,
          0.10638346453639339,
          0.23433754916875144,
          -0.08299570026446539,
          0.03486205687306999,
          0.008615947169298758,
          -0.15017442864049246,
          0.01425943265020067,
          -0.10651618918320772,
          0.06763734453769836,
          -0.05944681737804658,
          0.05291969866313657,
          0.04837395538982262,
          -0.06817715857376765,
          -0.135512238366934,
          -0.08310132906594424,
          -0.06983139895346209,
          0.01634933565249061,
          -0.029773295543394904,
          -0.08445485827416571,
          0.9002348943772802,
          0.2583038323850773
        ],
        [
          0.08026219706215301,
          -0.007498428587854912,
          -0.09639868704522528,
          0.1426060549215447,
          0.01144673564439334,
          0.025901043743335638,
          -0.025586070171539292,
          -0.3392312774075541,
          0.08680358320122615,
          -0.0031966471273170345,
          -0.026603437145744747,
          0.011101064233123683,
          0.21586293293637698,
          -0.0005928060941374555,
          -0.01294021185449021,
          -0.010845322187850368,
          -0.0924863759312715,
          0.008131755755075106,
          -0.08065494326720045,
          -0.11711118025197723,
          -0.104577568495396,
          0.029826193202246835,
          -0.1336312841601589,
          0.07607420108216612,
          -0.12141869362060771,
          0.0033479128424248198,
          -0.12335054821603632,
          -0.1640988386193906,
          -0.2191558798221556,
          0.013604388256917994,
          -0.12067828540840181,
          -0.03182602131355014,
          0.1968210552909469,
          -0.03601848536880245,
          -0.004978422322136681,
          -0.28311068383214133,
          0.17351497278349406,
          -0.006516548073373699,
          -0.11779510676825707,
          0.4100133899601202,
          -0.03515889461280963,
          0.019081726534624244,
          -0.059351185304252464,
          -0.3397182122407306,
          0.05456222232269304,
          -0.007358270077020067,
          -0.026578185140245927,
          0.1551385947756353,
          0.06173388675419893,
          0.04413510911323712,
          0.08638239071407933,
          -0.18598974679860655,
          -0.07571063167368144,
          -0.017713655906233874,
          -0.0033833278868568386,
          0.023506488341285065,
          -0.2159346655724757,
          0.052259704406949006,
          0.09563059791061475,
          0.006043853685110661,
          -0.13875067572359973,
          0.04425986375249679,
          -0.13224888977546567,
          0.04046837929039083,
          0.15447263669528616,
          -0.057734071263116776,
          -0.0702089209432162,
          -0.26427142608449544,
          0.2085050847249387,
          0.02694549873528375,
          -0.10087794131010405,
          0.14788971519651165,
          -0.0331498227898713,
          -0.01702587378460194,
          0.03526938834171149,
          -0.05495223181152564,
          -0.08472900826131236,
          -0.08404546087808001,
          0.15466259298590523,
          -0.04007574704408585,
          -0.06229962774223105,
          -0.033242406212475706,
          0.22263535979731863,
          -0.08126587156702073,
          0.07946890794298896,
          0.06717684526735226,
          -0.16530045213841238,
          -0.10340831423209423,
          -0.01945867272895378,
          -0.019860639449049984,
          -0.07706867522814762,
          -0.02346832792442766,
          0.03423847770720474,
          0.012368026939920933,
          -0.24969206116172224,
          -0.027988466068587906,
          -0.04479528618093774,
          -0.06093066743314737,
          -0.1648345909062736,
          0.04174299936636842,
          0.021878318470923454,
          -0.020787872368889262,
          0.05152941733707619,
          0.06113967498568133,
          -0.046279808120358194,
          0.024180534245491013,
          0.022741224129165655,
          0.03725960148751754,
          -0.05283717344273841,
          0.10884813905528777,
          -0.24809266033190114,
          -0.03640243257506982,
          0.04649799040526828,
          0.08189317167982478,
          -0.29801960648141984,
          -0.09572209288817732,
          -0.05099808883816197,
          -0.01708744913249132,
          0.08017317741311347,
          0.07954343044530847,
          -0.02106179266745878,
          -0.01534845211236432,
          0.008745514975138195,
          0.050213856730017464,
          0.10433114528489487,
          -0.13501463153719598,
          -0.10461070010569408,
          -0.012510515792214726,
          -0.007771800581348749,
          -0.0002741603283407566,
          0.13276147817866119,
          0.07088022752366474,
          -0.11435975961305238,
          0.05420279992961679,
          -0.02294872387328218,
          0.17859608056661344,
          0.03174616629161347,
          0.1092269014353406,
          0.07761464525852353,
          -0.12921832131195213,
          -0.015437135483822398,
          0.05707277692363949,
          -0.06296191740776248,
          0.1316011892675876,
          -0.13736565952153193,
          -0.048718920929522555,
          -0.2367262213175432,
          0.009685084871785718,
          0.03228328160409743,
          -0.0316454349053878,
          0.07537639850668343,
          0.02417383136849586,
          -0.04275524897874626,
          -0.04187088901043996,
          0.08192627398467395,
          -0.03776228876422847,
          0.144893946975053,
          0.0895994834657219,
          -0.03435166259709571,
          -0.0956742054377303,
          -0.04540395798961737,
          -0.001196445227588942,
          -0.05678539567096901,
          0.024290178258023872,
          -0.023303205321571725,
          -0.12402475626862888,
          -0.0013573875578303837,
          -0.03361056714074544,
          0.09533390526460181,
          -0.016044783829964743,
          -0.2386815265517862,
          0.062133701328316325,
          -0.10369429830358383,
          -0.06064453778810251,
          0.06301613605520358,
          0.029093512225197894,
          -0.046658459028741335,
          0.09106249751824837,
          -0.06408318304895304,
          -0.00978028869756955,
          -0.04396199891054218,
          -0.010838707766462504,
          0.030401797477524462,
          -0.12953391245815876,
          -0.03234536559123157,
          0.17566076298922179,
          0.016435961297593903,
          -0.12361491038581836,
          0.006903952201137211,
          0.05740311087900948,
          0.01553941114005555,
          -0.006881552932275348,
          0.0877219267349559,
          0.07238710069654045,
          0.11554145339848775,
          -0.03647914217010466,
          0.023701592783293632,
          0.11948336628590044,
          0.06579057222943763,
          0.02329644301488392,
          0.041320780940541986,
          0.04698919554927034,
          0.24716146132283398,
          0.02064478696977211,
          0.08686376916954433,
          0.009581089397147512,
          0.10476443167892167,
          -0.08123578891947354,
          -0.03867298986556306,
          0.008384666651470833,
          0.25641131451263044,
          0.006441076185879544,
          0.059785053548521906,
          -0.024283465099330923,
          -0.01206976705901351,
          0.10719635298178001,
          0.7005116933562536,
          0.8803293882594829
        ],
        [
          -0.0974351168044366,
          -0.02377141646375369,
          0.060717414106235226,
          0.15543382595766217,
          0.09171804799996429,
          0.055957120010544266,
          -0.07255519915246852,
          0.14483690013311562,
          0.08176266266072575,
          0.11207822332624785,
          0.07108858558032609,
          0.017807186046990428,
          -0.1570904935680228,
          -0.016852263740221814,
          -0.10668203008902352,
          -0.07110829225389036,
          -0.02246870396432704,
          -0.11240695129162727,
          -0.07833341536175055,
          0.039918201516963785,
          -0.004427333560140305,
          -0.0020356798385068094,
          0.13075220052575914,
          0.11108364851998023,
          0.1465022913939655,
          -0.09421074260735816,
          0.08333556399055199,
          0.08064346492928352,
          0.1153707931402212,
          -0.04746490789408346,
          -0.1064180476360744,
          -0.11931699107521537,
          0.0605470228436319,
          0.05259701990797235,
          -0.1352581363366477,
          -0.15880198514454413,
          0.1633941496365691,
          -0.06560424907119089,
          0.14561087295832081,
          0.015024726410093522,
          -0.023704937896860723,
          -0.025905744673564105,
          -0.0625071874632315,
          -0.06614288788543683,
          0.1523733903294647,
          -0.04943824936726658,
          -0.05538196343717568,
          -0.1106955092527225,
          0.015806618699741815,
          0.06092747280583429,
          -0.05810844511008101,
          0.15953117398286767,
          0.07905671349155877,
          -0.16265738520107317,
          0.14128853544345937,
          0.12140839486405834,
          0.14341620823637807,
          0.03713664331226499,
          0.10428692565323167,
          -0.06725045570874338,
          0.020125427612069296,
          -0.014413662685885282,
          -0.05796995576770026,
          0.026764638844098645,
          0.041604834050527506,
          -0.018266224313196716,
          0.0698295812631727,
          0.07357686524290802,
          0.15581532474552487,
          -0.13088045463443987,
          0.05747998148858274,
          0.15588281022163336,
          -0.07204451586327426,
          -0.07386544731412742,
          -0.04969645009445684,
          -0.1512442736429513,
          -0.029450354716731394,
          -0.1467098776330158,
          -0.10567340504288644,
          -0.002879023160448491,
          -0.14554972265746585,
          -0.15280136790038942,
          0.055148224232623014,
          0.16084017425385935,
          0.07102107983190066,
          -0.08082245927543856,
          -0.05270942624720768,
          -0.1464094531753915,
          0.054986480408791116,
          0.1272388699055035,
          -0.13990413190857393,
          -0.05296746494828591,
          0.004406671496481713,
          -0.14539922585409945,
          0.024679465820455826,
          0.038495476596442355,
          0.12193326816541254,
          -0.0018305931913767753,
          0.09767895421402072,
          0.06038584938829601,
          0.13201356710131734,
          -0.13143590407697386,
          0.1330790250544962,
          0.12013981744060917,
          -0.11198950343648013,
          -0.12938140306885185,
          0.15644807558099605,
          0.09871582210338557,
          -0.0725098393098472,
          -0.08978489936735937,
          -0.036867104567818186,
          0.08292412603904682,
          -0.08376890640913927,
          0.021143093197018268,
          0.023459149314877612,
          0.023155175982402423,
          -0.14625588305829326,
          -0.13607850213052072,
          0.1080689809243646,
          -0.10728077098815789,
          0.002179794215354628,
          -0.10973657805717439,
          0.02880844795790761,
          0.028613054679164057,
          -0.03341702662486463,
          0.11030105645433913,
          -0.017220280065512645,
          0.05564495254659507,
          0.07655620154342367,
          0.05526273691131477,
          0.048732228281459324,
          0.1142305830760654,
          0.08065988504872956,
          0.05522958237529847,
          0.007366842531476273,
          -0.007399726363470958,
          -0.07602227444241873,
          0.11264689352031482,
          -0.04937238811528776,
          -0.07153316968455858,
          0.11773683225592685,
          0.12712154577654222,
          0.06968442263336762,
          0.023302958886498113,
          -0.15479900490708876,
          0.10634641182223817,
          0.047491241481357,
          0.009131654264542766,
          -0.04796774411996657,
          -0.06550963969229531,
          -0.12086163797763275,
          0.10063999025201227,
          0.06528850057104586,
          -0.07084311891663894,
          -0.15967011236468967,
          0.03611177434817337,
          0.1344369902872079,
          0.14676599902746026,
          -0.07152468762521474,
          0.0001612901354758504,
          -0.042344447889728395,
          -0.13042150995622304,
          0.0004092662986065631,
          0.12480346440849414,
          -0.03171491305264154,
          0.03385062999237365,
          0.06880037859596033,
          -0.04277987439395052,
          0.027352776711782874,
          0.14576764914996332,
          0.016272516477820066,
          0.08935542012074717,
          -0.018274191791021993,
          -0.07242264898925563,
          0.09563845299361097,
          0.025018916012412004,
          -0.057707330340598204,
          -0.1502916465282758,
          0.005486515325935255,
          -0.02902099893310203,
          0.11892191044470081,
          -0.026900211106769017,
          -0.09184413129407529,
          -0.0783128618235781,
          -0.1068942960323934,
          -0.10239903656862748,
          0.018232280681054362,
          0.035543158874119796,
          0.12604506517019504,
          0.06277945428232852,
          -0.09638925212178591,
          -0.1350723667687806,
          0.019394300709762207,
          0.04884100983897279,
          0.04617888606570102,
          0.1056733696806494,
          0.06882515868357833,
          -0.01961884847630178,
          -0.10447071661248135,
          -0.009737117342033611,
          -0.05485760776580877,
          -0.1202315475408064,
          0.09664334305588229,
          -0.029794556099598402,
          -0.10837748397649873,
          -0.07165526923975696,
          0.0028437878921129295,
          0.10030467439332309,
          -0.14980634478957636,
          0.0867113400813574,
          0.09670819130170816,
          -0.11231204301037451,
          0.10656612334558983,
          -0.013414934950691503,
          0.11603634123117566,
          0.1448293951079939,
          0.044965750837867344,
          0.10444238155307506
        ],
        [
          0.0005121852157284971,
          0.20552255210475942,
          -0.29831634622723774,
          0.19899186375071637,
          0.10929207780729744,
          0.13250493546365674,
          -0.11216327021748719,
          -0.2941503654653741,
          0.39978621158111216,
          -0.1468122376618499,
          0.11882534293336544,
          -0.03604497723608884,
          0.05238251967844921,
          0.15528543231595077,
          0.05234505945235493,
          0.35838355635027475,
          -0.15593016066727278,
          -0.12887395645185293,
          0.1405428218240503,
          0.02562493335068582,
          0.027645758051387328,
          -0.17993167618201997,
          -0.05027707461033443,
          0.005346129714224049,
          -0.3672354382640147,
          0.13892509753943108,
          -0.22816784433493414,
          -0.3556573723696418,
          -0.3647489278366547,
          -0.0003510379989545432,
          -0.3561823531121095,
          0.2197848715424521,
          0.04117228457895203,
          0.058380835967206716,
          -0.22279755332383344,
          -0.03269599998154297,
          0.20827982424786234,
          0.08594987955587612,
          -0.0042761030461618615,
          0.29791805076178896,
          -0.20053446856348378,
          0.09329630448450339,
          0.07866140227177446,
          -0.11996715483710027,
          0.13514763862534562,
          -0.17204657554965283,
          -0.23826867598735177,
          -0.23390902149195508,
          0.10386046061652421,
          -0.05966085713418934,
          0.22295288418430634,
          -0.05199379896087918,
          -0.08366842393711926,
          0.09969898351704441,
          0.02843721586186426,
          0.246477295284295,
          0.03296165831643554,
          0.19938688594509882,
          0.1766632812211861,
          0.004583903005064781,
          -0.15029008148079837,
          -0.07170370655957559,
          0.030106095364815743,
          -0.19654164675599767,
          0.45013301131243716,
          -0.09808664974307715,
          -0.10057199952591908,
          -0.17447690382346898,
          0.12940416094093632,
          -0.14244840188667734,
          -0.1456385009487379,
          -0.015912442518352568,
          0.0806360272356301,
          -0.08711615003008695,
          -0.01718490986969664,
          -0.09869613923212933,
          -0.12671619449936927,
          0.2322582615764256,
          -0.3588699973290842,
          0.09291642167502592,
          -0.06992099703460289,
          0.06036921439332851,
          0.1323862248560897,
          0.03672419302766574,
          -0.05896783433511783,
          0.006764619837450922,
          0.11346614632077966,
          -0.14751964978794824,
          0.15513220654392434,
          -0.23024376203915423,
          0.08922420618896798,
          -0.02456175517796468,
          0.284316564985846,
          -0.11954839895834915,
          0.01944082444051018,
          0.17605522687771039,
          -0.06154114909788783,
          0.18550631721416097,
          0.012579416878401927,
          0.16087910313944223,
          -0.23075505596637866,
          -0.07789275359908136,
          0.4102282786700999,
          0.12159993906513536,
          -0.18690697098596717,
          -0.06318315221565016,
          0.17028180570157106,
          -0.054906771196414995,
          0.09930176823546814,
          0.2069420561788533,
          -0.010144718551496967,
          -0.2032152944817002,
          0.058730833835559104,
          0.05326820852195081,
          -0.14463588983324716,
          -0.17868912144734314,
          -0.22879656432260934,
          0.044345096096252125,
          -0.04108148660789532,
          0.1950981553347904,
          0.02131621361855806,
          -0.07340221737424513,
          0.03374610331250547,
          -0.0022656043726101117,
          0.04264268225385151,
          -0.23272301972089637,
          -0.443062038183747,
          -0.030434671709799535,
          0.11654655569682752,
          -0.12391967434340917,
          0.07582559204135426,
          0.02998638471135146,
          0.036960283089437884,
          -0.17525606820884831,
          0.27859140847442504,
          0.09950413981627527,
          0.030418396339675906,
          0.19317730984382295,
          0.2892158143794726,
          -0.0329316537656518,
          0.10003536950572273,
          0.21886711867889647,
          -0.11060344752120557,
          0.1386944843733842,
          -0.29667556172538834,
          0.1071147003847152,
          -0.15211833650873846,
          0.1545204254756777,
          -0.09631466233164479,
          -0.05698944139133086,
          -0.1699756185862856,
          -0.2060401466456196,
          -0.18412855072677842,
          -0.17979088600020207,
          0.30074707096235515,
          -0.023727759164209612,
          0.12479352557954053,
          -0.1881655413841465,
          -0.06125984092014409,
          0.07452488033378837,
          -0.13459965639658025,
          -0.009121831968383684,
          -0.36784530657845527,
          -0.02427133827727185,
          0.047123480200659144,
          0.002762479368923642,
          0.17434806806697983,
          0.0007596948563297147,
          0.11911862598354009,
          0.17357350207346303,
          -0.45441977152493007,
          0.3053521209411621,
          -0.1301035868767842,
          -0.13131820946759226,
          -0.23811680717020753,
          0.048655274852017136,
          -0.058622874217274634,
          -0.20392735190863923,
          -0.07622020735973029,
          0.05580684339226816,
          0.16242552615286718,
          -0.1719180640106524,
          0.3378511195780003,
          -0.30421514707034475,
          0.10380617616196022,
          -0.21103641845723747,
          -0.20055381542571094,
          -0.07099255703656628,
          0.12028521763731194,
          -0.1242649806273074,
          -0.026853349212368177,
          0.024030633390871567,
          -0.11689186720254646,
          0.17453434415239008,
          -0.10097258989813689,
          -0.03705471555476395,
          0.04330189451512519,
          -0.14099213699231758,
          0.030129476514393988,
          0.15258060717369942,
          -0.005874884538253205,
          -0.19435501797422225,
          -0.012383061796740674,
          -0.10204293381014849,
          0.21390311269915152,
          -0.05580975161254716,
          -0.06967673285309565,
          0.08307819596886301,
          0.019074248337130787,
          0.07072847611452351,
          0.018395704741840133,
          -0.09611508827716748,
          0.23023007255395134,
          0.07974315111011021,
          -0.13106744361873995,
          0.17698287553093275,
          -0.02058695537857704,
          0.2497261227901571
        ]
      ]
    }
  ]
}
