{
  "layers": [
    {
      "activation": 1,
      "biases": [
        -5.308216156819388,
        -2.9033716672338414,
        -5.873919738986087
      ],
      "cols": 3,
      "rows": 2,
      "weights": [
        [
          4.572305288629416,
          -0.65785632795632,
          4.871998627136116
        ],
        [
          3.8380814294533026,
          5.79218082349295,
          4.173423931765378
        ]
      ]
    },
    {
      "activation": 1,
      "biases": [
        -3.145480652146099,
        -9.162633616634084,
        -1.6995212352018645
      ],
      "cols": 3,
      "rows": 3,
      "weights": [
        [
          3.67599794556327,
          5.890919527294618,
          5.094815218754595
        ],
        [
          6.926029750929306,
          1.7963854893967115,
          -3.2068865344804087
        ],
        [
          3.6498092695009343,
          6.815450013337715,
          6.013550972210881
        ]
      ]
    },
    {
      "activation": 0,
      "biases": [
        0.2677368743875044,
        1.1969493737613208,
        0.8102839397286182,
        0.45652474339546806,
        0.9861484330928016,
        0.22955705130117943,
        0.7678063887952543,
        0.39245249227403506,
        1.0240232956948365,
        0.45930389362227425,
        -0.013004221620504726,
        0.7661040320152992,
        0.2529516146161417,
        1.3801979832521871,
        0.24336969530307057,
        0.39292812012987716,
        0.5224242154712815,
        0.27403434237328,
        0.3198538044845505,
        0.406593466071327,
        0.30198657100973,
        0.18877734025699183,
        0.4025631319682798,
        1.5206837203812447,
        -0.024502681036649793,
        -0.16068160835139467,
        0.7657098259343684,
        0.7742071384887944,
        0.9255328656560093,
        0.2545298877848375,
        0.6073882226309345,
        0.8042198364209185,
        0.25881121302503535,
        -0.001501924037865915,
        0.44974634405881914,
        0.3142160436263156,
        1.524915374551942,
        0.734645833919478,
        -0.07768444235432473,
        0.6107304655072058,
        0.004945880542827092,
        0.7502775327269917,
        0.35469973312586356,
        1.2228240566471933,
        0.9141374104786801,
        0.22478531369647223,
        0.6162159677227805,
        0.6655129071984707,
        0.046981453714102436,
        0.6753242937240714,
        0.9151248892101681,
        1.4736386782358504,
        0.16185665286695064,
        -0.014515054290999432,
        0.5500363509013182,
        -0.00770593734897926,
        0.21971873084389867,
        0.5676656437091121,
        0.2180188039521712,
        -0.0016872855531996059,
        0.24689590417751323,
        0.62992919985013,
        -0.29343820434903517,
        0.5525826309209856,
        0.8035206548918946,
        0.020836116502834786,
        -0.14625055294635422,
        0.7526330559737463,
        1.211770623141891,
        0.6017197313647352,
        0.9855654517982128,
        0.4637669685707284,
        0.7595692077294088,
        0.7556119546652165,
        0.14384261594583778,
        -0.19009446894740362,
        -0.06744961939685364,
        0.2348105526129394,
        0.5763815883589217,
        1.4645180203270183,
        1.055128097546938,
        -0.06901757121735107,
        -0.010276253350578015,
        0.9964652181699737,
        -0.01418445013763513,
        0.4187356199473449,
        0.7329224597298808,
        0.6208703680433169,
        0.564448899843573,
        0.810202509641592,
        -0.011358924115440526,
        0.637918133527687,
        0.985448771501775,
        0.6037767922391846,
        1.1885444277532937,
        -0.07201930188837108,
        0.8076998826283196,
        0.3460096412030431,
        1.5136083973614356,
        0.3968309522363768,
        0.9113577449422767,
        -0.01882754476335753,
        -0.07477437951163889,
        1.5327472999206875,
        0.7411870471395333,
        0.3802837644231369,
        1.188554343153887,
        0.15190288854926795,
        0.3358123208802652,
        -0.2767922223238508,
        1.295443021803401,
        0.17027038216010168,
        0.6456807534579708,
        0.6750611730256703,
        0.6255357886144939,
        -0.21844496455728177,
        0.19992295024431858,
        -0.27985116802862825,
        0.898045398586541,
        -0.06927584221891324,
        -0.215680452405825,
        0.29498168755933085,
        0.6905502997147525,
        -0.0702893074528267,
        0.19780573559048598,
        0.289367188382715,
        0.5942190936861927,
        1.1458979358388706,
        0.319928705606726,
        0.25277856404801013,
        0.33086205137223185,
        -0.06929715507549149,
        0.35210542767878217,
        0.20015780684786114,
        0.7079856749091793,
        0.5039311032170551,
        0.4037779223427186,
        -0.07237678606363719,
        0.574968959914994,
        -0.06877786505243523,
        1.2155029033021667,
        1.056670557616365,
        0.45295722302302827,
        0.7347092295902415,
        0.39709565507123673,
        -0.13265123527071163,
        0.716397943266673,
        0.3885761782054561,
        0.938192261443599,
        0.9065564845098126,
        0.7890197795890522,
        0.2998522261441493,
        -6.614724174954804e-06,
        1.2153821280727908,
        -0.005166499235085169,
        0.26682401631404123,
        1.203915856001423,
        0.29525216888517175,
        1.2072231225141399,
        0.6210207511181912,
        0.7010774944150097,
        -0.27711673424906796,
        1.1409608279592702,
        0.8075680039508047,
        0.019279123034975358,
        0.7323798639259899,
        0.2790257451230241,
        0.40106146819465005,
        1.0959031812337465,
        0.5424269954601855,
        0.6009271856437234,
        0.23372362472437375,
        0.9064159101301017,
        0.7574989085461867,
        -0.0783140559838874,
        0.34771926460916475,
        -0.0019800460430897757,
        1.4534306342075511,
        1.2152930996202902,
        0.6021334250812092,
        0.6842859196042899,
        0.8555669946204799,
        0.22277243981580414,
        0.6077596916707024,
        0.5996658893627925,
        0.8101955757659262,
        1.6069622722451697,
        0.3280972311704287,
        0.680319773900585,
        0.3680873682269613,
        0.8076899273017686,
        -0.06907220685371444,
        0.8076348615307622,
        -0.3282557487579835,
        0.38646288662350725,
        0.6076499830211437,
        1.0074689530361072,
        1.2047542906747388,
        0.6079206667769066,
        0.3921647906710438,
        0.5888588025209851,
        1.3098473111174758,
        0.2481920960877929,
        0.32717431049913065,
        0.29869939640683946,
        0.33960240086141746,
        0.9308346092291545,
        0.9117529852180931,
        0.13257560743477512,
        0.15189031441609896,
        1.2286601011959568,
        0.2551805555014496,
        0.09396624055667031,
        1.0633678524469472,
        0.11680038450001128,
        -0.0008359590753261554,
        -0.414861514514211,
        -0.4148591509986653
      ],
      "cols": 218,
      "rows": 3,
      "weights": [
        [
          0.731273134214347,
          0.9744902152602467,
          -0.41452196046190176,
          1.6444560555232477,
          0.058476570549987936,
          0.4434292137730535,
          -0.06427193029154235,
          1.296617348057374,
          -1.1140854479927902,
          0.13445794494046265,
          1.332173138139962,
          -0.7850892392394325,
          1.8871238267718866,
          -1.0455666056413582,
          1.7875885462348942,
          1.3344054792292495,
          -0.6125450527959265,
          0.03082973773142858,
          -0.41679037596815155,
          -0.4019852244060278,
          0.6982874167915735,
          0.9131950876758851,
          0.11844141558870365,
          -0.4999651905622625,
          1.9502936673911204,
          2.1715830847351523,
          0.24582278614182923,
          -0.7626258188384443,
          0.3445092246548105,
          0.7247771110491782,
          0.3934851286690313,
          -0.29639883300493813,
          0.7388835036910889,
          0.3796187074090254,
          0.5857507247198392,
          -0.3720154547002475,
          -0.8578895663477075,
          -0.7481020828338801,
          1.5812354389815577,
          -0.12204099916402168,
          1.2671486563826377,
          0.2916655166610686,
          -0.39186041656362636,
          -0.13064380701659356,
          0.4024865222589452,
          1.1741914964865672,
          0.32625653209834776,
          -0.6921193271685686,
          1.888928601409643,
          0.32227450675706554,
          -0.2965904168871788,
          -1.2144688946497466,
          0.4783310882233093,
          0.7728463662764511,
          -0.21524075134995813,
          2.0173003858198877,
          0.7855792297345794,
          0.7864491568546473,
          1.8368391205377164,
          0.3399311708897436,
          0.43192857119043704,
          -0.009795281064827301,
          2.266768749048743,
          -0.6261662904583662,
          0.24812193708748617,
          0.9154830010781385,
          0.34785722317891726,
          1.2777196274379405,
          -0.49356336803398265,
          1.4174985118255006,
          -1.0481887752492116,
          -0.5020092412944713,
          -0.7339993600388767,
          -0.7774997970151756,
          0.8940656074467076,
          1.162755096953082,
          1.9886701228019434,
          -0.24955202783516253,
          -0.6279616254636131,
          -1.462536743611725,
          0.014667642812328215,
          0.044048225470300933,
          -0.11788453916863498,
          0.35301377827144687,
          1.8220724340397634,
          0.9665086871562015,
          0.30338039724690274,
          1.0380762057619948,
          1.119909883771776,
          -0.7829272783560682,
          1.433104451242749,
          1.0284758894178958,
          -0.9759348591041597,
          -0.6313773269580559,
          -1.0287470640213734,
          0.3933180909247038,
          -0.4373620674692807,
          0.5542501630847029,
          -0.7731339921659792,
          0.6508048517532962,
          0.7992343329857045,
          0.9262726056795113,
          0.7407389787457019,
          -1.5248263994114677,
          -0.7388814895854463,
          2.735349440108671,
          -1.028758521638971,
          -0.14678721540902767,
          -0.3455378831168047,
          0.18152351499871033,
          -0.9297194467172297,
          -0.10624196882618095,
          -0.491575707987424,
          -0.003868655557347535,
          -0.12677567821590602,
          1.5246039630921264,
          -0.22474423542088195,
          0.5310549896171706,
          0.8128852272439053,
          0.04591062808545543,
          1.1771721425424349,
          0.45910722825780925,
          -0.6899495898491083,
          0.17617070593723916,
          -0.25747442797678377,
          1.5303556306665258,
          1.1064833787075392,
          0.5515586820928697,
          0.5721715708200333,
          1.4374569004533617,
          0.3044542722272421,
          0.045935255891287205,
          -0.2267411461207276,
          -0.22657958182018034,
          -0.7023437479125372,
          -0.5197254897068142,
          -0.4059588782550358,
          0.4367608272929196,
          -0.26606759548422937,
          0.04240277040539628,
          -1.175794007339883,
          -0.7236624727752988,
          -0.0929449587832953,
          0.04470171691827097,
          0.6489350169133249,
          0.43350788579157473,
          2.387898788006259,
          1.69305539885814,
          -0.9907390127372353,
          -0.2312254586518552,
          0.48795820736886486,
          -0.33707914572120756,
          7.643562091871589e-06,
          -1.1750679617544393,
          0.651414987458948,
          -0.3015234763605106,
          0.25874701935524064,
          0.45723071615459093,
          -0.1335145639884839,
          -0.6421818337427808,
          -0.02132440892160036,
          0.18365795653251996,
          -0.47776666026882225,
          -0.8119318069976457,
          0.2866889280478285,
          -0.7319945081392562,
          2.83319536385572,
          0.12897392356197304,
          0.8487053319648514,
          0.5762968227247308,
          -0.2832607220870381,
          -0.11881607089885556,
          -0.23008554417558333,
          -0.4734290901566669,
          1.2165914891644418,
          0.3371263483636495,
          0.2598794937166448,
          -0.03131002549419669,
          -1.1743786007614068,
          0.10765590660967653,
          0.09221401113356849,
          -0.8898644786487022,
          0.148921841493403,
          -0.5879065253219307,
          0.45298504236599013,
          -0.7829192660024483,
          0.12783579160130437,
          0.6929611169405954,
          -0.6968557899022189,
          1.0154538873906571,
          -0.4373505637157403,
          0.044502349228450234,
          -0.4368959429208645,
          2.2911045996837327,
          -0.39448575729153795,
          -0.5871932675848909,
          -1.0366506192533917,
          -1.2903957794536707,
          -0.5890700136034819,
          1.298709253882043,
          1.0900454707755842,
          -0.5926143232351396,
          -0.15787570135510826,
          -0.3398238627325267,
          0.39845482707203045,
          0.6272318449491985,
          -0.5947804928519445,
          -0.8826751139392951,
          2.3264773614840504,
          -0.14677268552613484,
          -1.2293628145624513,
          1.1334737284946241,
          0.6679165147139517,
          -1.027565549122949,
          0.47834418026450193,
          0.12888199227387348,
          0.26985492855326126,
          0.2698521974223249
        ],
        [
          -0.15817759960418148,
          2.793145699788954,
          4.506255979146735,
          -0.9147520256222077,
          0.15519339714065641,
          0.037481008440293576,
          0.5046958215701017,
          0.2946199890556476,
          2.9186788395090915,
          -0.7835234236273987,
          0.7694452447994272,
          -0.07789803067480583,
          3.1255958517432734,
          3.186271939798335,
          -1.5943813231501884,
          1.2865345655739457,
          2.8221164885699634,
          1.2965599156257015,
          2.6533443117561113,
          2.2482722658702348,
          -1.2384498436288465,
          -0.7565949675518872,
          2.0489211355983388,
          4.105131483130068,
          -0.41344888982696465,
          -0.5730756641167477,
          0.5459202071026762,
          0.04062168192734421,
          2.264989969683954,
          2.7957461817353315,
          1.0528114573203842,
          0.7626405691110308,
          -0.5552945774620245,
          1.7931457771288775,
          2.6560344857438976,
          4.510488290475634,
          6.2337351013673805,
          3.215456243677665,
          3.6559365461714175,
          0.36046969887842484,
          1.4016143684278484,
          0.05910638816954267,
          3.384854984408404,
          3.6965586599606195,
          -0.7689820654029539,
          0.9334312342193285,
          3.272064498643821,
          0.729420414523985,
          2.848436081469347,
          3.363963044353955,
          2.570095681526346,
          1.2409626622452965,
          1.5739113420805635,
          1.2134193410592595,
          0.7931255109400793,
          0.9122723631101474,
          1.757999677813533,
          1.6230923431716158,
          -1.5132079890952141,
          1.1409786829319932,
          0.1523529200227288,
          -0.15488431640395361,
          -2.8895364051922754,
          1.7549051989093463,
          2.0596230476087176,
          0.8195547104188099,
          0.5280647570519622,
          2.564077074730328,
          3.1244589949240247,
          3.7114063545904648,
          4.685000506635988,
          1.5798001233314285,
          0.6327595195707943,
          -0.2741872827405485,
          -0.27217095404578523,
          -1.8591959416739028,
          -1.5697788549861251,
          0.13345729986556612,
          -0.8753415206508874,
          0.31633905979096255,
          0.2323691798464498,
          -0.11964736784113583,
          -2.078804397889859,
          -1.2368936356094,
          -0.8038757696036879,
          -0.6639241762280341,
          -0.09819479803095062,
          -1.8274631617118988,
          -0.9827873825247216,
          0.6749343976530663,
          -0.8985336423369005,
          -2.0523402560140718,
          0.36908944635713414,
          -0.27339276604848944,
          1.098139378042007,
          -0.6771387849601168,
          0.7967789789709921,
          -0.45145053742585994,
          0.8298221400190795,
          -0.3160298933817983,
          -0.7398062412985511,
          -3.0720308227256288,
          -0.8949678583662936,
          0.8130686755064457,
          0.5552911439035942,
          -1.6230369205006243,
          1.0981587229327354,
          0.12653053467943853,
          -0.12189072116503455,
          -1.4551437130358202,
          0.8014733237525972,
          -1.294449351233428,
          -2.0334924913163173,
          -0.28228156101170565,
          -0.5552490475578078,
          -1.7397557244851711,
          -0.43587712643708126,
          -2.0551443856172447,
          -0.30261824730021686,
          -0.45933237811640837,
          -1.5219082253727587,
          -0.8416601762120438,
          0.513109543645644,
          -0.54097986538547,
          -0.36112971303480373,
          -0.8904916481853439,
          -0.555719366284847,
          -0.9460575116411647,
          -0.7510930603908602,
          -1.6703343186217743,
          -0.2755139444499887,
          -0.4593739593795858,
          -0.08872927659635328,
          -0.0962377975205041,
          0.7977603170673503,
          0.07196461328565898,
          0.03514332348832439,
          -0.7043929690096258,
          -0.7908093816514296,
          0.17760376296346672,
          1.2671759918984344,
          -0.23893986715090448,
          0.16176962249373242,
          -0.27454950049119087,
          0.023667665364021973,
          -1.079084977490558,
          -1.4051575934735225,
          -0.9694966894696909,
          -0.82494374516259,
          0.6905297368519082,
          -2.1053736169449446,
          -0.6538785101570782,
          -1.2905289619566621e-05,
          1.139747442019561,
          -0.40843092243772144,
          -0.24148098993461514,
          0.11381144633868541,
          -0.5019513436628539,
          0.6136604077682303,
          -0.2858989391904836,
          -0.06756038883335187,
          -1.8373555882339083,
          0.2720251930022276,
          0.07031036963491463,
          -0.9525008494710206,
          0.28559823299199516,
          -1.7073699687975896,
          0.13809762673529555,
          -0.9018649486993578,
          -1.480442485714569,
          -0.6185991830335564,
          -0.03312880146173297,
          0.47826727010956055,
          0.46937993291313107,
          -0.8548167580128713,
          -0.3153313806097751,
          -0.03601058520304603,
          -0.24248368843927337,
          1.0123808299236157,
          0.07052647470601739,
          -0.061928849334975,
          -0.4921384009334672,
          -0.5087427214702753,
          0.6336040721810967,
          0.2348371671912284,
          0.6749208697006868,
          0.2879291815722462,
          -0.09594234617035194,
          -0.18629532036743307,
          -0.7061282617928293,
          0.7967595561849448,
          -0.2045492504927007,
          0.7118568343431144,
          -3.373938830993865,
          -0.07968212095467386,
          0.5061971131371362,
          -0.3656096809395212,
          -1.4061169779500324,
          0.8459063406259616,
          -0.0875200694110481,
          -1.4525211800829703,
          0.486177778953452,
          -0.7777269869619893,
          -0.17926536991409953,
          0.3269623567751138,
          -1.8697824526357238,
          -0.06585518387877812,
          1.0990191919949022,
          -1.0433323514696846,
          0.12650600261642755,
          0.22027742913399334,
          -1.4797508867709854,
          -0.4532707297509208,
          0.8858066736945044,
          -1.361097434839378,
          0.1730846624196728,
          -1.7369026763108832,
          -1.7368980651053656
        ],
        [
          0.15804819213355542,
          -0.9400302757367028,
          -0.8609287173415195,
          0.8069668089759102,
          -0.8252629595984438,
          -0.04353202901731536,
          0.7984641003749634,
          -0.9831333348637854,
          1.2020923979374973,
          1.4356313947593502,
          0.41977199873563414,
          0.22163369738622665,
          -0.23625731103870462,
          -0.4916017116671976,
          -0.11871533205430736,
          -1.003862046673172,
          1.298028662998094,
          0.41194613719782186,
          1.4724116750316931,
          -0.3572169137094906,
          0.22687870667090773,
          0.6489349130618169,
          -0.5516071221935483,
          -0.8385469347924759,
          1.7378357521631167,
          0.22395372177401796,
          -0.21940314788504742,
          1.9527308283947884,
          -0.5145566190834274,
          0.2523113879677247,
          -0.04370474921964036,
          -0.26379227288250356,
          0.2194912204356082,
          -0.15445242751935442,
          -0.7929577874585538,
          0.5918397556875853,
          -0.7178225840731135,
          -0.17166006172238094,
          -0.12474283128094223,
          0.15464496906156264,
          1.2176001628848445,
          -0.7271767064199325,
          0.3104065893903608,
          0.24720243839361694,
          0.4460634931473089,
          -0.3241946859575545,
          0.8186977946807651,
          0.3048564481209813,
          1.24589395907656,
          -0.20484213681726035,
          -0.16443321456589838,
          -0.48944622234118373,
          0.4269781943179873,
          2.169965861306267,
          0.6311415598339979,
          0.08713392864402836,
          -0.1217337729836173,
          0.37255208464113726,
          -0.5573741011267255,
          -0.13527563754937572,
          -0.16341953167202108,
          0.8686380178681102,
          1.141303900012268,
          1.0879937204288674,
          -1.0941131239671116,
          1.2549360666920286,
          0.902507184338944,
          -0.5711937957242266,
          -1.3158689580479352,
          -0.44611171604587385,
          0.5487017258130216,
          0.4746553628400996,
          -0.6538282702880521,
          0.2941170946885867,
          -0.5195297304731532,
          0.8708278568757299,
          -0.36725596607834105,
          0.21639241924726965,
          0.9206790147268051,
          -0.3160835948603316,
          -1.302990864676167,
          0.4779244095299931,
          2.526323810049375,
          -0.12469747564086274,
          -0.6798999854640311,
          -0.7293499150491788,
          -0.6071262655247087,
          0.4855375567921287,
          -0.044379874141549105,
          -0.6974096151838041,
          -0.5330095282617451,
          0.36720322534375194,
          -0.3759846101387936,
          0.42434747141005014,
          -0.916277098807937,
          0.35019656965454393,
          -0.8281152879682376,
          -0.32888106812545226,
          -1.56605033649044,
          -0.736333757780482,
          -0.6042533934924141,
          2.140232433961792,
          0.22098430000811128,
          -0.4810530966746614,
          -0.21948846948703282,
          -1.511581469653984,
          -0.9162924456942462,
          -0.13074870119804644,
          0.13074227691923615,
          1.9159852007564295,
          -0.828164966308608,
          1.2208933099059511,
          1.8642839981324597,
          -0.058415556218951684,
          0.05129190911966485,
          0.919153796387697,
          0.45759493007789187,
          1.7884837503419326,
          -1.4144934309414297,
          0.4794268213698401,
          1.04835147536758,
          0.07971845770219953,
          -0.17590179168620754,
          0.43094174764272464,
          1.0865468624444954,
          -0.9399013721140251,
          -1.1529642559671482,
          -0.38633988188266916,
          -0.14852387549101648,
          -0.0359192593289664,
          -0.11269126829988413,
          0.47945980904227437,
          -0.03758033572822127,
          0.4561287586401367,
          -0.2964900220889321,
          0.19495729548996565,
          -0.03271645238829107,
          0.3340653155616501,
          0.4754487764933972,
          0.4765885651401,
          -1.0472496696237112,
          -0.09660481021782152,
          -0.5214639994286505,
          -0.5086817371867776,
          -0.7378461247011607,
          0.7697191187626383,
          -1.382409067723416,
          -1.123986742796788,
          0.871605427708029,
          -1.0283398254894685,
          1.3113375692496527,
          0.6864422325187322,
          1.0238156181743388e-05,
          -1.0466492366540734,
          -0.2422718702723886,
          0.6086213880305454,
          -1.5790791144488303,
          0.07819714693267808,
          -1.4348639496119475,
          0.3050203764771818,
          -0.2383970739640743,
          1.917727972174199,
          -0.8095268529811126,
          -0.06545172467815213,
          0.6389279003485961,
          -0.15864235195198773,
          -1.4244320419589935,
          -0.5430803856234666,
          -1.0538094655474484,
          0.3483859906576711,
          0.2956950112283084,
          0.16829671588442086,
          -1.027433081603538,
          -0.7507312923913421,
          0.04183006868776063,
          -0.24810437214242329,
          -0.09745621350874119,
          -0.8506160693874343,
          -1.0460979407990516,
          -0.7814689135786649,
          -0.46625241247705174,
          0.5229245199680499,
          0.1324917198117584,
          -0.5236375885723404,
          -0.9123667211481868,
          -0.6973988830504414,
          -2.024710848921739,
          -0.2599513510580222,
          0.20150099902958973,
          -0.685745406215396,
          -0.8280998792852183,
          0.4782846397595273,
          -0.8277389833006905,
          1.3821222769293582,
          0.08713418648071866,
          -0.5230542842643952,
          0.39217725841483475,
          1.481734937592386,
          -0.524575908351464,
          -0.9814475378289349,
          0.09330564164521771,
          -1.076297768082366,
          0.6815592114520906,
          0.19063738637569017,
          -0.5222008935892559,
          0.8871562703372964,
          -0.1461916397620459,
          -0.7861143909807063,
          -1.0530950232738852,
          -0.13072923917123652,
          -0.21801745030053732,
          0.07715492520002096,
          -0.0630723990227927,
          -0.9153146333076465,
          0.7547103285935532,
          -0.049586813001343266,
          2.872024642780607,
          2.8720209845719444
        ]
      ]
    }
  ]
}
