{
  "layers": [
    {
      "activation": 1,
      "biases": [
        4.284564544220748,
        1.5831954111819493,
        -2.217351641371641,
        -2.0227566657679072,
        -1.9639220360707614,
        -1.5755139786913412,
        1.0365885494853733,
        -2.3530566193941183,
        -1.7872989665018992,
        3.1725170528870446,
        1.9318695825272114,
        2.0068641145524158,
        0.37087951692816723,
        -2.2178428131472288,
        -1.9623826107789384,
        -2.072859802552078,
        3.01857423927689,
        1.9564003352156185,
        -0.1094455058748191,
        1.3111982339139607,
        1.1866025001246845,
        -1.6297607430080285,
        0.24140256229093318,
        -1.4013976369585568,
        3.529899299415276,
        1.1199895809459979,
        -2.0501545945231228,
        0.1528313426237924,
        -1.1573433107998217,
        1.6262979746172386,
        1.8119055944746119,
        0.676193520005863,
        1.6945432847232789,
        3.54103800437712,
        1.9395432880252694,
        1.2983484249254538,
        1.6616182721173725,
        -1.286616969701741,
        -1.6988152621486972,
        -1.6259064588136212
      ],
      "cols": 40,
      "rows": 2,
      "weights": [
        [
          -3.9521785560913183,
          1.3885184648723952,
          3.7460213341546513,
          3.3330293731211995,
          3.3911516802635906,
          2.6353806665239263,
          1.7297841693109484,
          3.9794137775728844,
          2.8959332375444364,
          -3.790246017907175,
          1.3661852779930894,
          1.0874629991143876,
          2.0503688766314694,
          3.669238194881986,
          3.374760830139085,
          3.5453780770990093,
          -3.222023447244234,
          0.9212929557149933,
          2.289390211837137,
          1.6353528025790913,
          1.730154666153357,
          2.81056899992895,
          1.3302136615619315,
          2.583696512086688,
          -3.666139678329488,
          1.728355784905072,
          3.3453028352536376,
          2.134325452560332,
          2.2976419674483357,
          1.5528325240181111,
          1.3914780497205863,
          1.5531338227926819,
          1.895778821268126,
          -3.839069707713578,
          1.9285499158952464,
          1.0143454823352116,
          -0.6850868438724494,
          2.6102842768218477,
          2.973617362461766,
          2.6897015095737546
        ],
        [
          -1.9776563936930942,
          1.5179158348034898,
          -5.307560126607601,
          -4.92306131972821,
          -5.110803784363137,
          -4.500217149350023,
          1.9903089232593283,
          -5.450517095861175,
          -4.569443410965667,
          -1.041608936308162,
          -3.5636489290123716,
          1.1984015038872202,
          2.3900129658763287,
          -5.165203575100568,
          -5.05931559050004,
          -5.202543186926189,
          -1.2549026062458042,
          1.015866844201686,
          2.760358256777526,
          1.7616904263876416,
          1.8737416521180525,
          -4.679164884999735,
          -3.580267888842655,
          -4.623901758596552,
          -1.4269908986471618,
          1.9346897353559869,
          -4.885040213950603,
          2.5580301408306956,
          -4.360557203614317,
          1.628554428994755,
          1.4573886172882076,
          -4.0055681529509375,
          -3.436399149476497,
          -1.3290804733559645,
          -3.5584674170724027,
          -3.4846624338089356,
          -0.46095933976659964,
          -4.682994107563453,
          -4.830535088809675,
          -4.437381515550303
        ]
      ]
    },
    {
      "activation": 0,
      "biases": [
        0.021555148700149417,
        -0.01579893663919199,
        -0.05294412732596409,
        1.7027999843588815,
        0.03388338739172495,
        0.025033193222881507,
        -0.03504077582085047,
        2.0064839398133847,
        0.00951413781496322,
        0.09939589396795745,
        -0.014546228731618956,
        1.5339474919725566,
        0.0494057310951587,
        0.05192166807750957,
        0.0008036011841096138,
        1.7730223577013875,
        -0.017568502530897537,
        0.05410353165310196,
        -0.0880393700112475,
        1.7313849831829005,
        0.008559732653100269,
        0.03086773869284904,
        0.03412390142769543,
        1.6815269960898411,
        -0.010675830426869936,
        0.02672514935198258,
        -0.026764660433260895,
        1.4714693152879321,
        0.02026500713316805,
        -0.024249056941871468,
        -0.013969809231489817,
        1.8095008426563643,
        0.05315528243151735,
        -0.022765780505544307,
        0.06449337932068118,
        1.4454906250045059,
        -0.02400451346189221,
        -0.04583978505132435,
        -0.061996660300078256,
        1.7095799795434092,
        0.00026947091899049466,
        0.04486498531698273,
        -0.005221174741525398,
        1.6224947928902813,
        0.03579034379147053,
        0.019931195758640004,
        -0.058278959153397036,
        1.5793751951773967,
        -0.023529056743624398,
        0.12434098339477083,
        -0.005892369864286056,
        1.570592227472708,
        -0.05005389617239252,
        0.1409295374275406,
        -0.03596207428988788,
        1.5034943460370462,
        0.030201007340826418,
        0.07061706514867211,
        0.0337847547875969,
        1.6322800262249293,
        -0.04442244121456716,
        0.03644914895532274,
        -0.10143700587700595,
        1.6726011954979476,
        0.007774753969353938,
        -0.06048670961704947,
        -0.012767414625824534,
        1.4519938062525655,
        -0.0330928361245429,
        0.07891567366085168,
        -0.05706602005055204,
        1.560090481954875,
        -0.00016478125472632976,
        0.0006204564925625939,
        0.00957402016530299,
        -0.014840706732477721,
        0.044360438724533297,
        0.011722185585430202,
        -0.05791912059190413,
        0.018251186686279154,
        0.004326801358636849,
        0.019799638086199854,
        0.0329847222905478,
        -0.01406878576290495,
        -0.002408869386076361,
        -0.03551764400711696,
        0.010607223660179892,
        -0.02034589862209848,
        -0.035606572999842684,
        -0.014007286328840435,
        -0.008054321363631194,
        0.01692914240132003,
        -0.06746576968048378,
        0.016543059439357743,
        -0.007012738226521031,
        0.05294236101728284,
        -0.016496428590974867,
        -0.049188987666375826,
        -0.008215966425808843,
        -0.03393491466447118,
        0.011074990932465818,
        0.022862504159167768,
        0.043974672461669174,
        0.011941028534446986,
        0.04797898891902621,
        0.03768007323924958,
        0.05278458988654856,
        0.008048013333046573,
        -0.04368452713874403,
        0.004224873077212908,
        -0.048720957830152734,
        0.03649275206210576,
        0.022958098421719517,
        -0.025103126897138065,
        0.0004871215501500717,
        -0.027388677768478316,
        -0.013282979983600689,
        -0.004240162434311818,
        -0.0770964968770958,
        0.05516869170488472,
        -0.005515906227532658,
        -0.020600039559660454,
        -0.03869163005886509,
        0.03780613914651943,
        -0.004812598773625145,
        0.008530783228166722,
        0.028635844985144824,
        0.008503520627701374,
        0.06530754436226377,
        -0.010001781979525972,
        -0.038506432662472216,
        -0.08565782367378161,
        -0.00689598627347078,
        0.046704225944677595,
        0.057507483604445075,
        0.04297449110213344,
        0.019969120214291817,
        -0.03116986860050009,
        0.028028299545730186,
        0.042900468650831115,
        -0.012195664698410272,
        -0.012751411964173214,
        -0.00011870844386927254,
        0.010562675022300358,
        -0.00030591106420643993,
        -0.029183160322682002,
        0.011155347108265976,
        0.021143999606806962,
        0.0260614652037199,
        0.022709878796617615,
        -0.00945980291116598,
        0.019868042509471363,
        -0.016408603194431066,
        0.059317166760118833,
        -0.007701007989541077,
        0.0008015273720663786,
        0.017664301491118025,
        0.004317465290536564,
        -0.010100423763043901,
        -0.020290787961651003,
        -0.042651768654752904,
        0.027841757693772534,
        -0.02608678221437466,
        0.017462780041969477,
        -0.029911701299085863,
        0.03792642237120737,
        -0.02108747223005763,
        -0.0023202761840855806,
        0.018831523153555876,
        -0.000945417223908142,
        -0.02847614532117563,
        0.013533885139317837,
        -0.005780500921526023,
        -0.04011676042463712,
        0.00917923222924851,
        -0.0014251214185784036,
        -0.01754579751120924,
        -0.0578410472848815,
        -0.012713497296520744,
        0.005745613878637903,
        -0.0550627148181108,
        -0.0014997504117486885,
        0.0030830835793879347,
        -0.011392505223451718,
        0.005968683879774832,
        0.01799068109513487,
        0.02101544751796019,
        -0.027517956489068286,
        0.010725212972089853,
        0.0505568659869171,
        -0.0038147494679079412,
        -0.0035940656302151305,
        0.0008272644077026791,
        0.021519232866849265,
        0.011285096240084605,
        0.01027904433180843,
        0.03281063120817484,
        0.05225324338583708,
        0.03356604889093926,
        -0.014096597215912525,
        0.002794374930179387,
        -0.005791739961827393,
        0.016988062326691408,
        0.02315454373966673,
        0.015259624641215257,
        -0.018132054292497854,
        0.044253231624736294,
        0.03465033404579862,
        -0.014550534194792453,
        -0.03648659878623963,
        -0.00810725139364064,
        0.0363731086152996,
        0.04572452918317994,
        -0.03871146151973784,
        -0.011452365263676852,
        0.013999141071419747,
        0.08959634918896782,
        0.09914820478964066
      ],
      "cols": 218,
      "rows": 40,
      "weights": [
        [
          0.018543447107915362,
          0.05647818014480087,
          0.3232568929189942,
          0.6866458578507925,
          -0.03269219335202168,
          0.018718208477213488,
          0.19409086083072147,
          0.7382696474309741,
          -0.046158699607890985,
          -0.2809164676282456,
          0.19001655085492053,
          1.1941883731339606,
          0.05265803969337582,
          -0.19393785641445138,
          0.17054009332926023,
          1.0107084300282283,
          0.03465586180563412,
          -0.3675192286143368,
          0.2907468947636618,
          1.102380897177781,
          0.0353146232272881,
          -0.42409072066031006,
          0.27812528078889437,
          2.740105055255057,
          -0.1654155352759507,
          -0.3414796066275941,
          0.20693806290866115,
          1.6100137654526345,
          -0.09354059012170834,
          -0.04881513662799556,
          0.08728958472021779,
          1.1480562247552766,
          -0.034232314059387564,
          0.1901847076714838,
          0.14374092703602565,
          3.282766921200208,
          0.1110234990571901,
          0.06425332634800908,
          0.34588940785552674,
          0.8186281209799218,
          0.01136042974951561,
          -0.20280770036183335,
          0.23280127223097286,
          1.6633320650448062,
          0.04941333244700593,
          0.12571053976009408,
          0.24503295516231408,
          2.385166076585658,
          -0.07787882098263471,
          -0.34343337585525874,
          0.1793533104297851,
          1.295363417666297,
          0.12208968010287714,
          -0.2937669618155135,
          0.26748672087628433,
          1.070023386245226,
          -0.056251118953818235,
          -0.2172630271658314,
          0.16500457484533035,
          1.9229948032566035,
          -0.0250143609853578,
          0.020635620066150957,
          0.17841928445914398,
          1.3081822878929477,
          0.07348641987397966,
          -0.0007638626327857863,
          0.2553902216829371,
          2.5448491990376434,
          0.00353098002562062,
          -0.3152440865690352,
          0.34180891053547185,
          1.7744823755885801,
          0.05043682247901716,
          0.04738755983416535,
          0.0711835037569951,
          0.035252723744854095,
          0.08903747913184004,
          0.02904928544500437,
          -0.10828232955025095,
          0.1642291845019513,
          -0.09391316787897012,
          0.08942374722669105,
          -0.028820733353035886,
          0.10675411257068722,
          -0.03686685305313116,
          0.08831901604120612,
          -0.005274317936015205,
          0.008283842458485582,
          0.021121885342476304,
          0.07488989908959505,
          -0.0650439318155596,
          -0.11876770766912259,
          0.028036768114670187,
          0.08347964708250927,
          -0.05907264009235426,
          -0.030082507748505835,
          -0.029598606433692505,
          -0.07433114731624928,
          0.043001954890637885,
          0.09015273723855123,
          0.03363825075862445,
          -0.10298792419885983,
          0.05165752755737725,
          0.000489224800322769,
          0.09203243608814363,
          -0.12129439056468208,
          0.008192158039285358,
          -0.05684091191615385,
          -0.08132493585216805,
          0.026343961067868016,
          -0.09356731123012725,
          -0.04112841289902397,
          -0.03804571885455328,
          0.020778108624568616,
          -0.05790386726577362,
          0.04611442950523941,
          -0.07578155713984548,
          -0.02666276297861821,
          0.16708700566658186,
          -0.010277376098706981,
          -0.024508484456995543,
          -0.12479333094796716,
          -0.07813189648895313,
          -0.012610078758911302,
          -0.11985514218438212,
          -0.044294535836047,
          0.02833793541392928,
          -0.08627253007576807,
          0.07552460171180475,
          0.08609851113607075,
          -0.0224741484708515,
          -0.04213948571281079,
          0.11737225807448666,
          0.06200409087835629,
          -0.05042562485419067,
          -0.06287119363094762,
          -0.09541300621455233,
          0.03324363782299205,
          -0.0010046322365074086,
          0.10237615018718452,
          0.14787826787836766,
          0.12902972232728158,
          0.023442796357749086,
          -0.018474380563181365,
          -0.08949520529693585,
          0.11828572461386228,
          0.08165985538581642,
          -0.10279064530118094,
          0.09731298501081835,
          -0.024591012574465308,
          0.11491842369655184,
          -0.1195469020888041,
          -0.026224864301976784,
          -0.07007318098992114,
          -0.01228969471539781,
          -0.010324404967111603,
          0.07432340862028758,
          0.013206120416901727,
          0.0201650519045698,
          -0.0396735646921971,
          0.005741626960754421,
          -0.1221826040328923,
          -0.029142733942024476,
          -0.11537495055094911,
          -0.05515273243275277,
          0.03282913818471177,
          -0.043289209393346864,
          -0.08157726540936432,
          -0.013549543321345454,
          -0.0450929578411461,
          0.11546073318848783,
          -0.12930649065086178,
          -0.08106784240956537,
          -0.13934229762057482,
          -0.09589936243863145,
          -0.05514279073316305,
          0.08762350497946125,
          0.14145323076469124,
          0.03845603008108376,
          0.11559797798349686,
          -0.07333197908422608,
          0.031390251902692116,
          0.06421172649976178,
          0.03179864893518911,
          0.0014702387104429334,
          -0.03562916696517976,
          0.06227190705710901,
          0.037560138875497306,
          0.07444361938283707,
          0.08778442458058813,
          0.1115294921716029,
          0.013623209702648988,
          -0.03887735171380008,
          -0.015944144181244947,
          -0.09775905589072648,
          -0.1136317350556868,
          0.06048449976229994,
          -0.0980647345475052,
          0.01898781052701476,
          -0.03943829796021478,
          0.0035281846507039484,
          -0.012983811722856155,
          -0.024346318654591963,
          -0.11764237067808452,
          -0.11114569501200386,
          0.001579820205699696,
          0.031482610244451925,
          -0.01069724297597068,
          -0.09636562085337283,
          0.12631216353885286,
          -0.04235187317689117,
          0.0036471408159913865,
          -0.07809142629245681,
          -0.10860573751343883,
          -0.04648950562475402,
          -0.0773017997457483,
          0.10421139015547205,
          -0.024487729885203074
        ],
        [
          0.0339560726247546,
          0.1575300754769326,
          0.02168976624800995,
          1.4604497386591742,
          0.0996448984492932,
          -0.07404009793954706,
          0.11162866075470389,
          1.3165509618204037,
          0.09710975712519214,
          0.05288562575193283,
          0.13432442669441164,
          1.3564493121539232,
          0.06400531011660332,
          0.015628908934795797,
          -0.05908359223886239,
          1.4067885433696767,
          0.09292947613837305,
          0.004039280311327819,
          0.06311431875625102,
          0.9832072627524782,
          -0.1169638283681144,
          -0.08687065596174424,
          0.04506213703522929,
          1.1989853730883997,
          -0.1321260509396438,
          0.08167254279440922,
          0.02964176074991885,
          1.3057722526352558,
          -0.14421653587329822,
          -0.008024974132563041,
          -0.11914500687911843,
          1.0684977586686562,
          0.06935406879148444,
          -0.06704361429413627,
          0.009084824106320076,
          1.0660341798929094,
          -0.010517847408079678,
          -0.042209871115841215,
          -0.13415442590640606,
          1.135901482750206,
          0.10354133517822045,
          0.1635615321770672,
          -0.07779170760249325,
          1.2420257178346223,
          0.05746997326069743,
          -0.11355819393007058,
          0.05920672372067635,
          1.1521609348085542,
          -0.15224621624889398,
          -0.019672841245504752,
          -0.04370145675929704,
          1.1668033560181694,
          -0.16775103238727385,
          0.07575711499255071,
          0.010653414969786315,
          1.12651475812162,
          0.018958037725900507,
          0.1161191080545833,
          -0.04948368783751389,
          1.4555599167223352,
          0.08910596373315764,
          -0.08783635210689685,
          -0.16386331617102948,
          1.2518753636679734,
          0.005858751277835205,
          0.03049137334221076,
          0.16944180729256217,
          1.3214676741071207,
          0.09466597053285136,
          0.15882500815336026,
          0.062415307189633125,
          1.3283558821653731,
          -0.06855554731998081,
          0.09485475495028468,
          -0.02926828040660316,
          -0.03445612283924646,
          0.1021692703485711,
          0.012112742690378493,
          0.07266247520923722,
          0.03596223094193923,
          -0.07292388394112306,
          -0.08109499316386853,
          0.005903090483952377,
          -0.03659038778712991,
          -0.1281092613780343,
          -0.026722801147816586,
          -0.01733964203452968,
          0.1243065911440732,
          -0.1643067964909112,
          -0.06796280144960772,
          0.07146966048297296,
          -0.08099217434308666,
          0.050877456542088965,
          0.1431952160951655,
          -0.011753942177383875,
          0.030968597025124472,
          0.00458490983394823,
          -0.046960870478986456,
          -0.00553456137518026,
          0.06632399365704525,
          0.10110070643005052,
          0.025694054628312906,
          -0.06073602176343755,
          0.0846885172675941,
          0.12417554467711593,
          -0.08624639446103972,
          -0.05524742253023267,
          -0.021084454143343423,
          0.054711601588211166,
          0.12185928452683861,
          -0.10614459529636674,
          -0.07721660719394412,
          0.09258128735725993,
          -0.05616360118073728,
          -0.11261112694047029,
          0.13660386994792456,
          -0.01466018006662827,
          -0.05807350689898796,
          0.07032336860455202,
          0.08769952594020178,
          0.10444721381205532,
          0.12675397918227901,
          -0.02530486431128579,
          0.1750793543442256,
          -0.023634970605069645,
          0.1347496437820704,
          -0.10786718485369085,
          -0.03740791002244123,
          0.0885670582329164,
          -0.09641028121306482,
          -0.12343837384490103,
          0.05466208028868214,
          0.1081558746842124,
          -0.12462235141246064,
          0.1406013583653965,
          -0.06123653609695424,
          0.1526966204234079,
          -0.15730615806335932,
          -0.023843417502769405,
          -0.13396562768351442,
          0.12210641117479078,
          -0.03365031179765213,
          -0.13707076470376964,
          -0.03035502355313667,
          -0.09594270635518799,
          0.07010548739899669,
          0.15285329375829518,
          -0.1097738050207206,
          -0.05846200137021922,
          -0.12347932913762359,
          0.024945766439797363,
          -0.1346084593990411,
          -0.1341118110846477,
          -0.09255125597605712,
          0.07402949086445788,
          0.0008636486409169139,
          0.12299527204321635,
          0.14612012821965842,
          -0.13430024426984022,
          0.07488607395107509,
          0.12199732658476592,
          -0.0013651601453072062,
          0.029829063946585632,
          0.1171806285799206,
          0.05890564807541254,
          -0.07340756780998033,
          -0.06651268800922293,
          0.07248052661778857,
          0.10517236446275996,
          0.012672379996270262,
          0.11778976529848807,
          -0.056165791989178745,
          -0.07529912581843436,
          0.09221089059608624,
          0.13217741821685708,
          -0.07987619520374499,
          0.017897482121735274,
          0.10387046636720342,
          -0.10317926388860657,
          -0.02789905668533245,
          0.10605411572756658,
          -0.14474333329575267,
          0.06250854322388355,
          0.1328097281989257,
          0.02712991593924854,
          0.015805157751771323,
          -0.08353955291298147,
          0.05181606878640483,
          -0.03209805198808469,
          -0.010992277955896836,
          0.11074462586773057,
          0.09043254872230336,
          -0.002772260553527245,
          0.04013775970095891,
          0.10909808055742445,
          -0.013529713560180855,
          0.024357372917556745,
          -0.07599606271581907,
          -0.08790802146572776,
          -0.12728803200517802,
          0.07335073582558045,
          0.07427297065969639,
          0.10321565147869895,
          0.11521037460603996,
          -0.12902560794472587,
          -0.03070937984380297,
          0.07700789991244221,
          -0.14163929122883498,
          -0.019310751072716105,
          -0.06473149400558344,
          -0.028112043890298394,
          0.00318779546427754,
          -0.05483476112662951,
          -0.03215617663965769,
          0.08429847142480336,
          0.044010239093740675,
          0.16953129464533442,
          0.16177003747498517
        ],
        [
          0.04510909667707882,
          0.20744319540195855,
          0.011101937155102453,
          1.6090586490541516,
          -0.03011473205226552,
          -0.09301294004991477,
          0.12666328342169572,
          0.885347852838234,
          -0.06820638743268967,
          -0.24391076641939502,
          -0.04618065215483949,
          2.068342859182834,
          -0.005613135318957448,
          -0.11969773638163482,
          0.08196706588334654,
          1.5416697518287463,
          0.005520278807134541,
          0.010208864761918587,
          -0.02134192349909042,
          1.3999606445868644,
          -0.09014592009161486,
          -0.08857605876497675,
          0.13866315549363906,
          1.7733409002195497,
          -0.11254663789888239,
          -0.11957263900551389,
          -0.014688357871504805,
          2.0944769647649784,
          0.013513400998413808,
          0.013773220709877668,
          0.16574780997291366,
          1.2433453044968223,
          -0.011645018078295573,
          0.04988715257271343,
          0.2025931863297171,
          2.2372744738098973,
          0.1024642732095189,
          0.17194899545962714,
          -0.03553706890341526,
          1.4187988835142495,
          -0.020465947068493442,
          -0.10682290025450139,
          -0.01168538058994563,
          1.8013473472901376,
          -0.12082381049808674,
          0.05125273082742167,
          0.12837567007003509,
          2.0399926736562897,
          0.12768715964184457,
          -0.0954413017887909,
          0.20060706245462295,
          2.063765563372755,
          0.06382209917835419,
          -0.13876125994949623,
          0.12929728842653512,
          2.075577601645903,
          -0.04430568494571498,
          -0.07023150122530021,
          0.21969158926184562,
          1.960591737233477,
          -0.049887676051040365,
          -0.04639211387989516,
          -0.0006614594777649389,
          1.7922025395134618,
          0.06847998498435076,
          0.206552206060914,
          0.1306358987619967,
          2.4159952306021357,
          -0.11194851987875863,
          -0.007050974285060101,
          0.04705123352563395,
          2.183892188100247,
          0.1161845026117079,
          0.025657175191594456,
          -0.1302428096867934,
          0.07649096163063972,
          0.08024538305578477,
          0.028567426545830023,
          -0.09143868431628574,
          0.05301024167602011,
          0.029266042236209013,
          0.02677622367542945,
          0.08863490563552892,
          0.06557676428636275,
          -0.14896830756481422,
          0.11818597641259494,
          -0.1366628021835828,
          -0.11452628868707024,
          0.16720396953529607,
          0.07721180575766469,
          -0.09062718271586577,
          0.06325924117760055,
          -0.05121101019996943,
          -0.036345423780653224,
          -0.002338588810672818,
          0.15581546571173224,
          0.05014126741813566,
          -0.11733003643181612,
          0.00578347290198442,
          0.11828511495618371,
          -0.10314265958756466,
          0.005771933005526163,
          -0.0545935423617716,
          -0.09700103252648508,
          0.003648243534828307,
          -0.05488589164340209,
          0.06884936766643589,
          0.04500545400380537,
          -0.02803713040407273,
          0.03718879351678144,
          0.09251357073503702,
          -0.1723561085472908,
          -0.07460193180481273,
          -0.11457011441803704,
          -0.12278386552124139,
          0.006165721046052733,
          -0.0355542161744024,
          0.02616290347533019,
          -0.02375065896147457,
          -0.007490539315331762,
          -0.06548226642910926,
          -0.13413133981679234,
          0.06896307375009318,
          0.10573642552516428,
          0.00303217780371612,
          0.04581877601690798,
          -0.07838137478546148,
          0.07645347295960567,
          0.0459432667715282,
          -0.08805437301987086,
          -0.11916622396019644,
          0.04181728047429208,
          -0.13545506278142197,
          0.10033358871282134,
          0.12124573602056302,
          -0.026113656365517754,
          -0.019035481524242528,
          0.0974834791888038,
          -0.0757157275974719,
          0.012757896798093044,
          0.018729619760028935,
          -0.13731314440311,
          -0.07140795199783494,
          0.02405039939226129,
          -0.004837656695398998,
          0.04214301430888027,
          0.06328374632925787,
          0.05755277902862821,
          0.004601218331343549,
          -0.07781355274039055,
          0.05088350288734358,
          -0.05585246754943128,
          0.0599916143710885,
          -0.05508815349692829,
          -0.04971834231174682,
          -0.01417977882375235,
          -0.048701649942556165,
          -0.1717930978735337,
          -0.13659833418346545,
          -0.0017635748157566011,
          0.04987595498372503,
          0.018265468149031926,
          0.14409956774403826,
          0.055626468082433836,
          -0.11378660907522134,
          -0.05794936598015865,
          0.08356621209594679,
          -0.1273283842828572,
          -0.10534538544428114,
          -0.14752531030905158,
          0.04918055338695041,
          0.07140108223010605,
          0.09546328536300032,
          -0.017240106831173146,
          -0.012187574554153308,
          -0.06429724910278155,
          0.04855796756002154,
          -0.04772541345365693,
          0.0382391397780756,
          -0.02955728349831084,
          -0.042594272484760394,
          0.17554342584136484,
          0.04279753583832437,
          0.0007190372393519092,
          -0.036434096263016656,
          -0.07114149998026496,
          0.09282122224854283,
          0.024896942541078885,
          0.04350553199124715,
          0.0969203023471944,
          0.05262023333564165,
          -0.1248861290909843,
          -0.01839362614448793,
          0.062105656012602255,
          -0.12451183294566044,
          -0.054880822914420216,
          -0.10182130229042531,
          -0.012811704899161521,
          -0.12749767675956272,
          -0.09246357863442772,
          0.08973684615261505,
          0.07115827322741561,
          0.03364649101781518,
          0.03987514090372013,
          0.10481661758643002,
          -0.04389865263234663,
          -0.023095481491149324,
          -0.0735613982686546,
          0.08444297328793372,
          0.014100451717042339,
          -0.09706000456616894,
          -0.09686042270803767,
          -0.11510952050648794,
          -0.12794558320515012,
          -0.028792485793503683,
          0.026668149712985586,
          -0.06643960234817647,
          0.06348343435931048
        ],
        [
          0.137580137451359,
          0.16423336443272332,
          0.1688739906214414,
          1.7687974898670462,
          0.09570200735229831,
          -0.02789121864106609,
          0.16360116221818496,
          1.0508432944347166,
          0.11050824261637675,
          -0.223973897518204,
          -0.07891481768584628,
          2.052952858839578,
          -0.06276395825679432,
          -0.11756754458020698,
          -0.021996230715868533,
          1.3810612589700688,
          0.12114047080816358,
          0.039004493439984085,
          0.10764985280284939,
          1.2839240652813686,
          -0.08490273334967313,
          0.07684905021288792,
          0.1987595558291569,
          1.6836560242749434,
          0.0747852162368613,
          -0.051189804160685415,
          0.16493557952241653,
          1.8332501137604804,
          -0.021757293547543386,
          0.14001785415610238,
          0.11022665004760694,
          1.194106477716158,
          -0.06994561304332537,
          -0.15375127770988875,
          0.009294470520720959,
          2.069408848467163,
          0.015084943278352017,
          0.18973600171871707,
          -0.019033612884466755,
          1.3866586214588241,
          -0.006927196739146637,
          0.041911413407813056,
          0.1272007364098669,
          1.8019915680976968,
          -0.03359614373616402,
          -0.07878513795442195,
          0.09576243554632276,
          1.592286227456033,
          -0.018320628302985264,
          -0.19511052631287573,
          0.1207485322310877,
          1.9077780254110386,
          0.0038927709266318193,
          0.001016452300519315,
          0.06321548939656087,
          1.8832253833209285,
          0.1095343911407967,
          0.05208587089876079,
          0.09468531625025829,
          1.8904924737709974,
          -0.029627840325925622,
          -0.08814691577186634,
          0.1347010831872246,
          1.7326326050040428,
          -0.11620109020483282,
          -0.01663642031795879,
          0.21419554758706597,
          2.1344319956274482,
          -0.14913271266644273,
          -0.0108309113470068,
          0.05451182872785657,
          2.02335288853181,
          0.046174385464986915,
          -0.045581833409186,
          -0.08208267128951009,
          -0.0159292783417841,
          0.014708412500156191,
          0.038841182113132415,
          0.030275111457005385,
          -0.12902239281451092,
          0.06023907904741668,
          -0.11112969342392102,
          0.04596472489647493,
          -0.08342140674384202,
          0.11181571114107812,
          -0.008935666160066243,
          -0.005331183053600189,
          0.013836360741458793,
          0.09048091609131417,
          0.06006220958880605,
          0.00957647721224656,
          -0.06593296720294703,
          -0.05215041007676727,
          0.1082378092019713,
          0.045468598704957834,
          0.005604850509356882,
          0.041083369445382684,
          0.006699406880599968,
          0.06705255807180092,
          -0.16122244762433238,
          0.07588793303562315,
          -0.07310564209395716,
          0.02709272972126332,
          -0.025712120629753994,
          0.14389851907253254,
          0.16829434504297294,
          0.06639562613944108,
          -0.1438167816213944,
          0.07476243119090506,
          -0.0033058139231516965,
          -0.07911825851827067,
          0.06865154182588123,
          -0.014946039366006086,
          -0.15432261033288094,
          0.06415916214335385,
          -0.1069338059469855,
          -0.049639858318045044,
          -0.09739648220047982,
          -0.15771924613783386,
          0.004787562000037039,
          0.07854660083539505,
          -0.09727619136713181,
          -0.007068149807665349,
          -0.1589604982229712,
          -0.1273927654525573,
          -0.13218450187218497,
          -0.0175175905326801,
          -0.07532089727817899,
          0.005136662653427282,
          0.03128208079423618,
          0.09421909798570022,
          -0.09715320433232204,
          0.0826735784902077,
          0.07513897003004441,
          -0.016395636485982714,
          0.028171227555541977,
          -0.053560881912249246,
          0.10022245923342399,
          -0.06749590367233371,
          -0.0838021804201712,
          0.08029306499713311,
          -0.011125106361643782,
          0.1588142256725397,
          -0.04353368655291418,
          -0.04782654123587124,
          0.025917846290045895,
          -0.03943648764221452,
          -0.07679951804047119,
          0.013269916365591623,
          0.09806395855178082,
          -0.06342792410484649,
          0.1327398175746363,
          0.05449138567110115,
          -0.032252585046398954,
          -0.08546079426011421,
          -0.0958831270946892,
          -0.02147514859295889,
          0.024670145518892062,
          0.11598240170281712,
          0.001332708486975409,
          0.09644325800607262,
          -0.07525743365981075,
          -0.03873646755651293,
          0.0006889741132352885,
          0.11047833800448041,
          0.0774273689057368,
          0.1368151897392044,
          0.13067872505572076,
          0.014633869776631555,
          0.10944588870922638,
          0.04973219842839838,
          -0.15353692139371236,
          -0.1086999454917107,
          -0.15349163843432967,
          -0.11547081764990062,
          0.06760384429559067,
          -0.011543484927046207,
          0.09532879196651746,
          0.06272255590675808,
          -0.05588628538096257,
          0.07929820619589856,
          0.018280202571231533,
          -0.1489451459261351,
          0.05499626189594922,
          0.0043801150489258395,
          -0.03611401647144216,
          0.02212696464216445,
          -0.058238637358015544,
          0.1439001585396578,
          -0.07604024893778344,
          -0.10287409736686047,
          -0.046701756410268525,
          -0.06065202948475146,
          -0.011001196846064269,
          0.13144448062745462,
          0.14984295599696087,
          0.031063878611212004,
          0.1277474273271591,
          -0.02486571391975284,
          -0.05246516852857953,
          0.07986327895459024,
          0.13373603419557137,
          0.004797469497135913,
          -0.07335438796898958,
          -0.05565369997021621,
          0.0012656202391928275,
          0.14852359759401498,
          -0.1637309975715996,
          0.08487291691275205,
          0.06247323593312419,
          -0.0216159547084272,
          -0.06517657146944904,
          0.06593290764777687,
          -0.05810296205475965,
          -0.10902047998837423,
          -0.005424060319889628,
          0.11111241479473573,
          0.06878548391113615
        ],
        [
          0.005123384360229812,
          0.021627314091976078,
          0.0075767598996358335,
          1.791938939690257,
          0.020212124677647256,
          -0.06891851146890146,
          -0.050426913551232945,
          1.0159479341718676,
          -0.06880541961816339,
          0.03759651988926346,
          0.1929031121256406,
          1.9606109906367375,
          -0.08637318297480347,
          0.1524073725586827,
          0.10817978670202111,
          1.4633994440711557,
          -0.06517951403286881,
          0.10154429995114286,
          0.1678574268591723,
          1.417294072310008,
          -0.015637459574183662,
          -0.19568996353949317,
          -0.09256857450875525,
          1.8244757578150157,
          0.020387114123148017,
          -0.09707555191818897,
          0.12173380753984922,
          2.155060571597058,
          0.13561316236868876,
          0.13124176663766873,
          0.17843476635841302,
          1.2740364004260039,
          0.12559791609138882,
          0.11742249982492309,
          0.11143002736444177,
          1.868276298300256,
          -0.1355819386524192,
          0.16996690423938857,
          0.12516626084236934,
          1.5274769107570083,
          -0.06380833414363307,
          -0.10282766694858617,
          -0.07294013472947795,
          1.6433333652588813,
          0.07595511488893501,
          -0.0402148888202134,
          0.2091405457480498,
          1.8361596795225679,
          -0.13065836105439413,
          -0.029045591618778604,
          0.21204119517230005,
          1.8070741112094546,
          0.013677962989372194,
          -0.058491635336676874,
          -0.007346860516375313,
          2.2220898728261043,
          -0.09680829232906053,
          -0.05392874886773549,
          0.0304473889351218,
          1.7662096383167116,
          0.026893059444081012,
          -0.1031946596526538,
          -0.006885917410911968,
          1.6776032975198147,
          -0.055571232590225124,
          0.04137652741915837,
          0.024880897370378224,
          2.176731603887293,
          -0.12042981918011642,
          -0.12450920466185979,
          0.0037841270470929966,
          1.7859307156195545,
          -0.05218894008633151,
          -0.06966687730306781,
          -0.1414706762945783,
          0.005313555768520829,
          -0.07546049606218778,
          0.03426343301137242,
          -0.008626998939028976,
          0.1250081821107905,
          -0.031190405824787205,
          0.12106584352103239,
          0.10491012888749308,
          -0.13513048410723927,
          -0.07561121189017704,
          -0.12172309191488591,
          -0.10998793052263663,
          -0.011444214514779156,
          -0.11522409798774697,
          -0.16049186653388947,
          0.1282088841343696,
          -0.03563149565073576,
          -0.02732798490770692,
          -0.1284277234341531,
          -0.046974649781447976,
          0.13113171179395794,
          0.015871637941566808,
          -0.03429970661182505,
          -0.06528613663754596,
          0.08405233659725075,
          0.07715332500089717,
          -0.11427402665294932,
          0.0744257771822507,
          0.08708780884826697,
          0.022523676672436998,
          -0.0112917269967049,
          -0.10799051424505877,
          0.09752620105877621,
          0.04256455164267322,
          -0.02008841810472894,
          -0.027516939188164613,
          0.06385341699513387,
          -0.09919699282060301,
          0.10345118152439227,
          0.07215700533369017,
          -0.0040541287896004195,
          -0.04453916387218744,
          -0.023730151583303608,
          0.13643102540646976,
          0.11770373883690101,
          -0.046183980161862724,
          -0.01609920092658165,
          0.1502279972965836,
          -0.029826981618699972,
          -0.01630503910251266,
          -0.06295104285122038,
          0.06721509487651502,
          0.010928575018719333,
          0.06189194029181329,
          0.07546859343549099,
          0.1421616999410174,
          0.06509265175918139,
          -0.004304123807606835,
          -0.049527396269601,
          -0.11063354920285191,
          0.09486598152988206,
          -0.053643482567394096,
          -0.08526361214454872,
          0.11211382593202471,
          0.06518839736119661,
          0.016726021068502548,
          -0.15409887595858995,
          -0.1303120215955044,
          0.13471690953010745,
          3.551168210017833e-05,
          0.09007069175506857,
          -0.10176679356229673,
          -0.132209766198832,
          -0.07122517107672167,
          -0.10848700516563205,
          0.03035624586562844,
          -0.09135819508356971,
          -0.01284589609046207,
          -0.09858793422601908,
          0.1525860782662493,
          0.12712141194783255,
          0.05295576614907789,
          0.053400682717038336,
          -0.0056663772964466895,
          0.04593411070481449,
          0.05623541533030019,
          0.0976172186457901,
          -0.055454595477880536,
          -0.06088862224863053,
          -0.08027123421860513,
          0.09174375338473753,
          -0.00014054108368050574,
          0.043897935520241835,
          -0.017383842208699332,
          0.05817521853480638,
          -0.03530452226514303,
          0.06288646773541495,
          0.057292801641351754,
          0.003137882221159987,
          0.007779194180544609,
          -0.0930598148794008,
          -0.043982719721839036,
          0.12187095830400418,
          0.004184279509970493,
          -0.08956629032802883,
          -0.006791048649309694,
          -0.12114179687009145,
          0.08052262556643316,
          0.016853727687630327,
          -0.054578077229822344,
          -0.03632033292026587,
          -0.0034746810900143474,
          0.01864635092470924,
          -0.10643078624389439,
          0.0833092353670109,
          0.0836117352739767,
          -0.031883619640997576,
          -0.04604869434373964,
          0.06170770055239,
          0.05157845018650639,
          -0.023254782179142005,
          0.038320394228655276,
          -0.11614710108474206,
          0.01760284202702441,
          -0.08197903982886352,
          0.11783244180613803,
          0.01751570326967369,
          0.00999270925163406,
          -0.1097711706139896,
          -0.12190333983171947,
          -0.034298489795936304,
          -0.003237853302664878,
          0.08333493643627136,
          0.12028870944452574,
          0.02923143080625376,
          0.06251311944548156,
          0.0008906032136093994,
          -0.07120995038609251,
          0.0223302930832546,
          0.16177291610872047,
          0.12139775269572857,
          -0.07042722443712661,
          -0.12365861589713119
        ],
        [
          -0.008014253373508792,
          0.15899156517072718,
          0.1345222415606568,
          1.4822236913495876,
          0.10344927601850354,
          0.1703294557316207,
          0.040989481158065215,
          1.201289099206257,
          0.0779254465135846,
          0.10160599864348521,
          -0.11892891010111337,
          1.9154268737370919,
          -0.12580843647395945,
          0.051262208948602964,
          0.14970019778602964,
          1.5412687173846573,
          0.01081060431476928,
          -0.09316372402203109,
          0.15664178266025405,
          1.4867800464293464,
          0.030934826877821793,
          -0.14266978508082356,
          0.08617236258770568,
          1.5109079093094544,
          -0.05517953863719197,
          -0.09198208198503319,
          0.07925830305718845,
          1.6708303564336935,
          0.07382005567137662,
          0.11716357589663372,
          0.10975817784460487,
          1.359770658471214,
          -0.052051693291403286,
          -0.1690813037972296,
          -0.07466357751914639,
          1.6016072185962342,
          -0.00516479285790601,
          -0.06592520994062057,
          0.06649678722886433,
          1.573136942867082,
          0.005449817387581029,
          -0.03592779606663505,
          -0.009644594692670051,
          1.519384688498286,
          0.06270676836350896,
          -0.056182539391474134,
          -0.08340091494367137,
          1.5343878331667027,
          0.020579227363490434,
          0.06001622392113211,
          0.10288976877017086,
          1.5699687117547878,
          -0.11911156038219307,
          -0.1668196707243768,
          -0.11184741525804713,
          1.7136389895765478,
          0.043110483444825216,
          0.025405883249804542,
          -0.07942174757353586,
          1.6649358123879345,
          -0.06324398841581358,
          0.1429220445171109,
          0.016573229009956555,
          1.6193625408788523,
          0.05733921304576318,
          0.17264860020745776,
          -0.05446951011371313,
          1.886279939887199,
          -0.08552703092362626,
          -0.07243606849570355,
          0.14907027526356353,
          1.663301086878751,
          -0.056539119311397684,
          -0.009803236061553323,
          -0.11118349863729574,
          -0.13823428459061352,
          0.015185541726845395,
          -0.11650225281881223,
          -0.08167760507868188,
          0.013898076020411704,
          0.02582260773608556,
          0.07687849000086816,
          -0.12824029664483153,
          0.024527077500711793,
          -0.06097937989534444,
          0.10294932235519487,
          0.09658621757394784,
          -0.04058336485227109,
          -0.0924254250377281,
          0.1040766724526029,
          -0.018048127977963582,
          -0.0717594288073492,
          0.09526431407303482,
          0.04157876662540292,
          0.180225415572104,
          0.016402388634057723,
          0.07782899342780093,
          0.10421799287845682,
          -0.10830889127923296,
          -0.026602419836099858,
          0.0327083076751029,
          0.05892472932731872,
          0.060431507769594314,
          0.07684075162278738,
          -0.10082413343282513,
          -0.1106178060221924,
          0.055773185283825494,
          -0.03452581588974308,
          -0.022270311554903142,
          -0.15160786409845053,
          -0.07214257438994817,
          0.12300233893114133,
          -0.1054715945171408,
          -0.15565358083904335,
          0.07231746468059058,
          -0.09432434014624845,
          0.07174001047335399,
          -0.08170634150435649,
          0.12007119590452153,
          0.0023938140157389524,
          -0.06173003440552977,
          0.08569263809029107,
          -0.07413961284588318,
          0.015086271192321582,
          0.15235387452937127,
          0.14883732053807644,
          0.01587275523637242,
          0.04218218098825345,
          -0.1352907108170729,
          -0.16259036810808347,
          0.04177927762443163,
          -0.12298784711638673,
          0.14145854560249835,
          -0.16329175509164476,
          0.1526378017630254,
          -0.008417067281621279,
          -0.06999889948294569,
          0.06825993591042277,
          -0.07820916231720448,
          0.02224677552534886,
          -0.06587709710459921,
          0.004619618368086026,
          -0.13550764811787586,
          -0.054582094525368434,
          -0.021032129032197883,
          0.0483281663038088,
          -0.13436546800772528,
          -0.04814278148497507,
          -0.07233679018208068,
          -0.036821816448450055,
          0.09707100409271927,
          -0.12231809263755372,
          -0.02297262937415954,
          0.04091401954602513,
          0.08190031331583354,
          0.0781806073411368,
          -0.12401976648166187,
          -0.09147971901709574,
          0.06256186456196129,
          -0.13592076120005353,
          -0.10528079453843892,
          0.1067377934308657,
          -0.006989607733268163,
          0.029588145160683244,
          0.13524652040115262,
          -0.15952714916205105,
          -0.1464335270853166,
          0.007016494679377412,
          -0.11631680345626622,
          0.11184410968748977,
          0.0737443025001606,
          -0.01534441593692089,
          -0.13797225778083125,
          -0.15758627585486643,
          -0.01032901883252621,
          0.17288694481716357,
          -0.11864008165913147,
          -0.034582360171259596,
          0.0036477927828202773,
          -0.11068501308838928,
          -0.03654873727549574,
          -0.07819974487954219,
          0.10637064940930621,
          0.04118478643635496,
          -0.09404651993717456,
          0.07019360678564507,
          -0.1352533382403416,
          -0.09816643909094204,
          0.11600173644233042,
          -0.14051544082090417,
          0.14354479124055575,
          -0.0009274945842216036,
          0.11425657156624433,
          0.14013454413559873,
          -0.09959296008603567,
          -0.10366815414131654,
          0.024873451880055353,
          0.07382250325296548,
          -0.11054589685172964,
          0.0926157596081604,
          -0.014959314507507817,
          0.04817856915296826,
          -0.09174903449290472,
          0.12131983380311535,
          -0.006367503131460506,
          -0.09856254781866484,
          0.05015477133893829,
          0.0924712107815994,
          -0.08326767621706052,
          -0.0265531984842501,
          -0.0006449238010753487,
          0.1517151399182506,
          0.061011851389219225,
          -0.043668509620494816,
          0.15924454212677078,
          -0.05997691154503984,
          -0.0755881637776777,
          0.018588135391854825
        ],
        [
          -0.10665107895030977,
          0.03208728088845427,
          0.1603827845342001,
          1.0365760323230813,
          0.06938798059615793,
          0.10547333831196512,
          -0.04400723296713,
          1.0750323436146891,
          0.0510913327899042,
          -0.02493852336355663,
          0.10850632779076856,
          1.3726439582481176,
          -0.03921274685069763,
          0.187144225484082,
          0.11668065770137466,
          1.301817985507068,
          0.12864646468417723,
          0.18681137888181243,
          0.04240722670387713,
          0.9888017062393605,
          -0.07268480371937652,
          0.07025765676656649,
          0.12469579647030384,
          1.37501067266867,
          -0.060992012942319915,
          0.16165877615390034,
          -0.07049063324370188,
          1.1737902865425753,
          0.11736040868317692,
          0.10100541457774084,
          -0.021475779267947803,
          1.0276617267132726,
          -0.03548513956667581,
          0.11691532941018787,
          0.0017512657051059848,
          1.476787786912951,
          0.11162849420985793,
          0.07744264691479523,
          0.12487905452723516,
          0.99743664542309,
          0.04215569862836598,
          -0.011089682520040781,
          0.07726674041798143,
          1.0081860119574217,
          -0.07927481042270806,
          0.1423451477271229,
          -0.0836492832029481,
          1.3530780262059598,
          0.09915752575543223,
          0.15258614289028458,
          0.2054160137734104,
          1.08714851567606,
          0.10823875861009435,
          -0.010709158034345296,
          0.04660803531316475,
          1.061097938780201,
          -0.055829182299931675,
          0.0663978418325594,
          0.23469143481516502,
          1.4880094486923636,
          0.09540691695613136,
          0.05250327398003315,
          0.15152572898070357,
          1.0849827118841573,
          -0.07189210446675025,
          0.0005985624699886477,
          -0.0536490828168381,
          1.4845771977657924,
          -0.04747738144925121,
          -0.028631870008383777,
          0.1267559500095386,
          1.3922614799623916,
          -0.11637938331955239,
          -0.12072411073631845,
          0.06612555644958262,
          0.05297586683066612,
          -0.00849376546170664,
          -0.16854861572353555,
          0.01055314571713895,
          0.01846995194407095,
          0.07163030593254582,
          0.023566776308069453,
          0.1085031033466814,
          0.006121600407748442,
          -0.057287342567708635,
          0.06417750870435199,
          0.010802750259958156,
          0.12504209948360523,
          -0.012053846788572797,
          -0.09015762886068998,
          0.055969776215174113,
          -0.04535121655772914,
          0.04470907111298854,
          0.1319911134365267,
          -0.04653426552462429,
          0.10349003404182615,
          -0.08637877389336336,
          -0.10299547583406567,
          0.05306715677026336,
          -0.011462602315788611,
          -0.022683149290129656,
          0.05971174019806072,
          -0.08843504959462446,
          0.028169151052866836,
          0.01703557147823365,
          -0.055722116864313824,
          0.10271623416429751,
          -0.063238109224234,
          0.07763682759039313,
          0.04389392795212586,
          -0.051060393705533884,
          0.14172967014742346,
          0.08347896278682572,
          0.029326290565567074,
          0.07222281907601942,
          0.13547288941829866,
          0.13933837258792447,
          0.025427922554719963,
          -0.009557050815711796,
          -0.04168068400213898,
          -0.07898753964553652,
          0.1188831001398235,
          0.08659424666458275,
          -0.0620175700065812,
          0.09144969132293172,
          -0.03330953700880158,
          -0.08781812417788978,
          -0.10247045549384082,
          -0.04557568534026554,
          -0.0010140533964046901,
          -0.08932255171553959,
          0.0808865724045481,
          -0.10697173449806566,
          0.010799387808294546,
          0.006125812740067248,
          -0.0556494763748333,
          0.13746291015237447,
          0.09518506910605123,
          0.12357270846002383,
          -0.003783274395828251,
          0.005557809110649976,
          -0.17588768195160245,
          -0.12025090701970008,
          0.006516344594322808,
          0.05167740726843067,
          0.05334847546961753,
          0.07825403052081645,
          0.0983464708121939,
          -0.10527712379993756,
          0.11306542728561729,
          -0.07732128772076695,
          -0.0808972293053172,
          -0.05139633398081825,
          -0.010806321048270697,
          0.13065324219901872,
          0.06758124002808116,
          -0.025987631099942607,
          -0.13687931032348788,
          -0.11504360999821879,
          0.08030558450091509,
          0.07712317856915471,
          -0.08239391230097896,
          -0.06459454909783317,
          0.055474239908688175,
          0.11992985150811754,
          0.10241304246481289,
          -0.04163290609381112,
          -0.01945339574589933,
          -0.08515715930193614,
          0.06251137639045966,
          0.11463593887210624,
          -0.06553133161289701,
          0.15177113159884378,
          -0.160214033881119,
          0.06393608402864039,
          -0.010332305189367771,
          -0.09860950306154993,
          -0.009968976148406609,
          0.0907519377701225,
          -0.043542289209051725,
          0.018780311162564706,
          -0.1728011843025339,
          -0.02378673172985821,
          0.09782518602491067,
          0.05952464055111611,
          0.05804900140311505,
          0.13023790368499297,
          0.08663258191603264,
          0.1165879367415673,
          -0.025003332137362725,
          -0.05384619422344823,
          0.06903629925353287,
          -0.06864207389330049,
          -0.013757104428979207,
          0.07505965975196709,
          0.002447547510330147,
          0.08052834293710368,
          -0.030510399295104157,
          0.049275850473910345,
          0.10317423231356342,
          0.0936074742756741,
          0.09056264788151003,
          0.049963242643237746,
          -0.09552485874571003,
          0.15292868847419208,
          0.052012216867212774,
          -0.01679256640372308,
          0.08637575371537565,
          -0.14829729083240326,
          0.10215315577644374,
          -0.09687372140905628,
          0.11392056962063585,
          0.04179421290960077,
          -0.011743081099836067,
          -0.07325082708860362,
          0.008601942285786675,
          0.19046924585950417,
          -0.06266668620484021
        ],
        [
          0.1381286656519193,
          0.14281617845692682,
          0.20306752283254342,
          1.669528025445984,
          0.07596180827551029,
          0.03587694898378749,
          0.04273056292000421,
          0.8917766107078993,
          0.14342861898173856,
          -0.2254917545403438,
          0.21783567687750588,
          2.152574192179514,
          0.05046927962964851,
          0.17040553617560328,
          0.14743636733867968,
          1.5552206047621793,
          -0.013053251540817743,
          -0.008242373102896952,
          -0.013058079273312345,
          1.4182703995025934,
          -0.060173943616015906,
          -0.002978351811340436,
          0.1906586737999224,
          1.8241718267532525,
          -0.011633834079179423,
          -0.17539637621468576,
          0.23097152742122826,
          2.1513878287747588,
          0.03405635823411976,
          0.07652627988199993,
          0.07261118348774179,
          1.1196159757445234,
          0.008895363021633147,
          -0.022054623261994498,
          0.02541001753283924,
          2.35418371189547,
          -0.10888432737083224,
          0.09350827875103851,
          -0.03187577462044497,
          1.692645320240016,
          -0.12944924326151694,
          0.170735534199275,
          -0.05225613260307605,
          1.955844642445514,
          -0.09782009260171216,
          0.05067869900237032,
          0.043832642164269554,
          2.0201244242054752,
          0.08585106681257951,
          -0.1750060162832566,
          0.033556716353390255,
          1.9387729049600493,
          -0.08367930688374453,
          -0.14875175774749497,
          0.16974861941760674,
          2.3829811519443362,
          0.06697574547274814,
          0.09381153665619288,
          0.20696260280010448,
          2.1540578282048384,
          -0.0825468689804319,
          -0.011039751599210931,
          0.24804879614474923,
          1.8988423251425985,
          0.04178796910273952,
          0.042738323926862325,
          0.06827063855585949,
          2.8255159358097828,
          -0.04279199334415125,
          -0.20357501914624174,
          0.003672275651953828,
          2.2156728258509535,
          -0.13304979592993396,
          0.00653422845217099,
          0.038310696234354645,
          0.07159293156123459,
          -0.007066390462517512,
          0.04470286017255073,
          0.008402070238469549,
          -0.06290857116793709,
          -0.01671682336952421,
          -0.1501413922662015,
          -0.017594986612332764,
          0.04022465821822476,
          -0.033513011832339075,
          -0.05899266538883128,
          -0.13677145647172842,
          -0.044322588346629666,
          -0.09151421116173154,
          -0.0003206791376985808,
          -0.10881744049312632,
          0.12780923662852647,
          0.03413804467910453,
          -0.013933316215320393,
          0.01034729273599738,
          0.034310594501084875,
          0.02771241031404977,
          -0.055757147974246045,
          -0.038150900163041145,
          0.01582504844812317,
          -0.13053415416378444,
          0.09152524620933333,
          -0.12098482495580269,
          0.013192161769569999,
          -0.12372560913531219,
          0.09408794550398977,
          0.06906171845745754,
          -0.02927310769771371,
          0.15228055054378775,
          0.09482326719563551,
          -0.10002455376810833,
          0.008216765324507777,
          -0.01652487771507788,
          -0.03301440760741178,
          -0.09266764416963637,
          0.01643554707938242,
          0.09575289466420624,
          -0.06477251042668439,
          0.11702496924386219,
          0.007520284410884556,
          -0.010533443197228905,
          0.011541600469496515,
          -0.09513608661847839,
          -0.011321834027482214,
          -0.011917404292035305,
          -0.08918895008429897,
          -0.08734190822447976,
          -0.044294870596187086,
          0.014315935110823233,
          -0.09012215679107102,
          -0.10810025736527694,
          0.035795189579163694,
          -0.10019547226846452,
          -0.05503116028274773,
          -0.016662811634867512,
          -0.09481035728679607,
          0.14772083367256625,
          -0.05214258580998846,
          -0.002737406367710846,
          0.037179370380725316,
          0.02840698359921799,
          0.12251891706168214,
          0.06797562845891915,
          0.12192696256449637,
          0.09746393773516533,
          0.009363779763254497,
          -0.10179873390211629,
          0.11259559682405135,
          -0.01576981719613155,
          0.03636745486268971,
          0.010240542405883055,
          -0.15099246428130184,
          0.09934576507009261,
          0.11577990364821142,
          0.013969526196230826,
          -0.14564704855781938,
          -0.11789011697458462,
          0.03608911811070894,
          -0.09623760906783607,
          0.14721996479408211,
          0.13571393183942612,
          -0.1084032122842597,
          -0.019285219453565875,
          -0.10524292080634459,
          0.00016550134794343063,
          0.037094349772254245,
          -0.029747305573146345,
          0.03792797256071089,
          -0.13962191480568112,
          -0.0072282159212392495,
          -0.036098132775716496,
          0.09077565889565793,
          0.13632517427720084,
          -0.06697453946178204,
          0.0477210820831408,
          -0.08224885681182906,
          -0.049053297719632696,
          -0.056274788151403736,
          -0.009270302255285143,
          -0.011228233018510586,
          -0.06518600231627011,
          -0.05521147179619837,
          0.11768237088596549,
          -0.13693493957285485,
          0.009332192903435023,
          0.0743093600686403,
          -0.08677240264098453,
          -0.05081768239573756,
          0.13179602967854895,
          0.12322744902045017,
          -0.11112908890951903,
          0.05991369658128837,
          0.039296782203688846,
          0.00842282217587955,
          0.006144863199277645,
          -0.1025131535847097,
          0.002085054010411546,
          -0.13797619524069984,
          0.11157593251190771,
          0.08203251803104424,
          -0.06217422510081628,
          0.0363260062181468,
          -0.07681339381013232,
          -0.08686477254995537,
          -0.1250614835647483,
          0.04335988098148586,
          0.014425900431873705,
          0.029909658190395393,
          0.07243292360335381,
          0.026046492586950562,
          0.08756226268282426,
          0.05758200211708537,
          0.1016629360146019,
          0.11404835823714339,
          -0.07845454495867032,
          -0.08235954291333597,
          0.019248794033803352,
          0.12695723709495055
        ],
        [
          -0.11520208763291458,
          -0.01584477589650406,
          0.0997013472845294,
          1.4973383351688723,
          0.017699806661393702,
          -0.04608461024917932,
          -0.08418337403500872,
          1.192759136762865,
          0.052623862797999695,
          -0.04083378926477753,
          -0.009125912828259409,
          1.930816717019668,
          0.11137069097391869,
          0.14417234062410034,
          -0.06665473430598406,
          1.460889437352626,
          -0.11860739034976377,
          -0.03744520576027563,
          0.06623899406642894,
          1.3775991826317273,
          -0.03450727767135011,
          -0.17825975427714155,
          0.031624026882251494,
          1.5287229282570445,
          0.007531576115837725,
          -0.1359949133192761,
          0.17282905301665852,
          1.8833814927149835,
          0.07868256475988789,
          -0.07657529757938802,
          0.08259058830497051,
          1.168000584244796,
          -0.045129493876578136,
          -0.12722082913394067,
          0.14644281704392081,
          1.853360132468299,
          0.14093130285720093,
          0.0010378143124791976,
          -0.05615126140602678,
          1.3708541703249697,
          -0.03623128598701811,
          0.03253690396003111,
          -0.015943135871110858,
          1.5493597256967249,
          0.14221425814877864,
          0.0952171328324795,
          -0.06334488546130793,
          1.438710205709626,
          -0.0028605306530529295,
          -0.0010492545689669956,
          0.04589282779169686,
          1.87582169679895,
          0.0730699995841311,
          0.06818758197975164,
          0.09930375453342825,
          1.8251880683804256,
          0.10299452817738122,
          0.08230356098489792,
          0.18096170755144347,
          1.6934598440025814,
          -0.029569414976188105,
          0.14723406034920486,
          0.05351651067280392,
          1.583182325596196,
          -0.07911623210997464,
          -0.02693540744622842,
          0.09677749355656878,
          1.9506187106324833,
          -0.1278529146363385,
          -0.011801570279698737,
          0.14441741125904994,
          1.839920886500104,
          -0.029124113870565887,
          -0.050352569895296136,
          0.01465729156995599,
          -0.11132544932292099,
          0.03833400399263101,
          -0.17154076846886993,
          -0.07162627886652607,
          0.013405516796980616,
          -0.0874971203523364,
          -0.026316626311342402,
          -0.03562245900628441,
          -0.058814235607675354,
          0.02815247645180732,
          -0.0477655719123018,
          0.14947935918079797,
          0.08139423022881656,
          0.12156203048690645,
          -0.06145939378100158,
          -0.016805180051059652,
          -0.1456547869174037,
          0.10244719086464617,
          -0.12152493213277378,
          -0.009384594069166974,
          0.08294649464635598,
          -0.023152575646398856,
          0.05402380818746523,
          -0.029100943284633144,
          0.06215431169111993,
          0.11254951197210937,
          0.13104449820001024,
          0.10198162105669978,
          -0.14590476715620745,
          0.11575133013544546,
          -0.07140392985471535,
          0.09541657404654168,
          0.066083683819922,
          -0.00595676526828107,
          0.0002761168409395271,
          0.07618611159013862,
          0.06123263328263282,
          -0.054422474836982156,
          0.0918126448683937,
          0.02622194621209458,
          0.013068027962284264,
          -0.13306603713431708,
          -0.09887490429767963,
          -0.1081626173535957,
          -0.12119959560430359,
          -0.06520476610703309,
          -0.12179970255574471,
          -0.121471645286529,
          -0.06490939528193021,
          -0.1019407499575888,
          0.13707333210641953,
          0.176321282312668,
          -0.049148351251912296,
          -0.12355554980197839,
          0.006449114465893989,
          0.02545365605780756,
          -0.11768093720668069,
          -0.04878079061823547,
          0.026115481312603685,
          -0.0701202250511001,
          0.026811921748752958,
          0.03204010847770523,
          0.06394718422305559,
          -0.03643639971652099,
          0.1068678135016186,
          -0.058029412468919565,
          0.10980219519118518,
          -0.055959756000799235,
          -0.014521645087898332,
          0.06883040079723261,
          0.0606465363633113,
          0.14103138124367154,
          0.06659487061490503,
          -0.07827308716979228,
          0.06421004554867635,
          -0.08425953898631222,
          -0.12552596445379824,
          0.0015706009541754922,
          -0.04581771660095701,
          0.07641650400609432,
          -0.08545829333287128,
          0.13278936105599232,
          0.1261875975712584,
          -0.010730082467928592,
          -0.047419667385481014,
          -0.08704689971106402,
          -0.036079834090245524,
          0.030443769956892498,
          0.09410168809776363,
          -0.0682899093760356,
          -0.15276703627381957,
          -0.07984786400462544,
          -0.10706896104097006,
          0.07394474615029878,
          0.08909963555108989,
          -0.010031239178474559,
          0.043037251112856244,
          -0.010287811011819116,
          -0.028416205853447365,
          0.02568851378558014,
          0.08110062626944758,
          -0.0704668913728886,
          0.036032271840117994,
          0.1108027754168687,
          -0.07778147317244054,
          -0.12607005706177646,
          0.08836514181315196,
          0.12593326678367447,
          0.014435712669728436,
          -0.00628052368074489,
          -0.044427121245861116,
          0.09111120459838978,
          -0.05899596087309553,
          -0.030999900397416097,
          0.0015141945158638399,
          -0.016437202575541147,
          -0.013512271784557868,
          -0.09984392582459681,
          -0.0656440436118621,
          -0.0807926627115523,
          0.09303653963374299,
          0.09505189800480808,
          -0.01207216224595756,
          -0.05045530889058075,
          -0.06965071250724889,
          -0.04053262841120819,
          0.03610077215045905,
          0.02969172010211997,
          0.04523143947205571,
          0.08015059163560347,
          0.054231887583060835,
          0.06287645196554846,
          -0.10295214006342794,
          0.1264876783439277,
          -0.1619010646098987,
          -0.11710617982941454,
          0.08227392900956595,
          -0.06262985107279584,
          0.050623765945726304,
          0.04521681703442218,
          -0.13649430811705088,
          0.09111393220517114,
          -0.12988618428978177
        ],
        [
          0.08239402708343738,
          -0.08234146544868702,
          0.13266690191217317,
          0.923524036558402,
          0.05275725005754779,
          0.009909062015384102,
          0.17745384239069337,
          0.6770143434037493,
          -0.09558003657346542,
          -0.16292149443428286,
          0.24380472460204358,
          1.1278925387914054,
          -0.14230944430154907,
          -0.25290881329389325,
          0.333964844315115,
          0.9422349549293098,
          0.06103072505079431,
          -0.2253350894988895,
          0.044749150948271886,
          1.0174831946394072,
          0.030881680496305613,
          -0.17586569443257397,
          0.20079380626349097,
          2.565091586339182,
          -0.01520345331075299,
          -0.17400315375006395,
          0.10969968772073581,
          1.2779751046962584,
          0.07371392247747599,
          0.19933518329303282,
          0.16228056059349472,
          1.009895748042264,
          -0.06120622904168874,
          -0.07814246424839386,
          0.1768513973103501,
          2.809737086861211,
          -0.017380985416762234,
          -0.07288218228153627,
          0.29112397898239356,
          0.733447738448243,
          0.019363662451348795,
          -0.3173463707602141,
          0.18048212593335422,
          1.4723479483192432,
          -0.04400937463266517,
          -0.07296286888383056,
          0.2565160998318499,
          2.1867768785163424,
          0.15022290490484494,
          -0.20503483656315147,
          0.14018987344730352,
          1.2626799503551243,
          0.030803769171220085,
          -0.3031531579284165,
          0.165945495917586,
          0.9927809342194768,
          0.03227903014286861,
          -0.21482834881108748,
          0.20285415636439272,
          1.6733823453581704,
          0.025461686626171823,
          -0.03888501637156686,
          0.2303949770992642,
          1.1579907805566498,
          0.05032907762057792,
          -0.127730805796716,
          -0.0010106043534922882,
          2.3882771336229873,
          0.14104361556399714,
          -0.15912220463780288,
          0.1090968040182142,
          1.78683611804525,
          -0.016172789599403395,
          0.07062123225290579,
          0.11905295342533635,
          -0.06641919413669568,
          -0.009304295363773397,
          0.03272971049925971,
          0.09622620049795673,
          0.05826625252147464,
          0.0533340685330526,
          0.0717962133395317,
          0.04982249122586065,
          0.17722684063059235,
          -0.0232241137502315,
          0.11864093361683224,
          -0.0009104204640769397,
          0.1277559859046439,
          0.0022953236466203737,
          -0.004522165509811368,
          0.06729065478365728,
          0.03127884791900699,
          0.022764148289123834,
          -0.09847952522204267,
          0.14298360409083724,
          0.04571429031359043,
          -0.12419067603792866,
          -0.024534787365829067,
          -0.003535017793456581,
          -0.01642031921875481,
          -0.08620435191172707,
          0.05133155266812868,
          -0.10552628505035727,
          -0.10484232184690963,
          0.07912012216882591,
          0.049304679534498845,
          -0.035226292066182455,
          0.008966327327888341,
          0.06047104238250225,
          -0.07870063449832257,
          -0.04274183819236961,
          -0.035073466578237206,
          0.08658593328802591,
          0.07317962615254615,
          0.0393435602514012,
          -0.0512898434432676,
          0.043039901401704966,
          0.021420322127327297,
          0.004075531145396212,
          0.058633981035956746,
          -0.011988534117436358,
          0.09082830257114347,
          0.025898161254039063,
          0.14633878604703354,
          -0.06393411683790712,
          0.0734878621434814,
          -0.1161109336589755,
          0.030321305836346426,
          -0.082365252450822,
          -0.009674891419817958,
          -0.06471654372435649,
          0.012133257603251383,
          0.08580028022979518,
          -0.10423170159479284,
          -0.045097101968579884,
          0.08067686917584212,
          -0.02445124491189252,
          0.013328864063912973,
          -0.01541452510407603,
          0.0010989104964780388,
          -0.018278925107548666,
          -0.03583631279492265,
          0.060853667992875914,
          0.025940133476244916,
          -0.02206272217634663,
          -0.13694740796283916,
          0.009929971519223658,
          -0.006807540814931648,
          -0.07415630579523036,
          0.16613259881600767,
          0.03686016000940267,
          0.04815523336156707,
          -0.019246859183507912,
          -0.12085027704748989,
          -0.01125112343109417,
          0.072709258759059,
          -0.0957174602346889,
          -0.006506164330662977,
          -0.012589340482663547,
          0.07894743561325711,
          0.028473398352406764,
          0.09291566184310933,
          0.04486547866986096,
          0.1658481082664143,
          0.0813129461726235,
          0.015074624842215351,
          -0.1137888555597312,
          0.08629873674279501,
          -0.0094286207924513,
          -0.037484662751222246,
          -0.11721606732783726,
          0.04915262207693564,
          -0.11959692713490419,
          0.11458882727084588,
          0.011890168672542157,
          0.06313430899604061,
          -0.10134769450978924,
          0.08221211948251447,
          0.01003317383627007,
          -0.09251619385913383,
          0.03150350016401888,
          -0.01561169733732524,
          0.11032310496606623,
          -0.05590732056856611,
          0.09264625409681444,
          0.17679527534761694,
          0.013088268436796155,
          -0.06168950527219689,
          -0.014259226360229553,
          -0.029240772055873332,
          -0.02750174261400915,
          -0.07331870152089784,
          -0.06435066069253938,
          0.07870796188773706,
          0.02279868644395444,
          0.17671793891826407,
          -0.04108417986476362,
          0.06447083666600364,
          0.09968771180550173,
          0.027447087990714162,
          -0.02734325116588751,
          -0.03894611423759724,
          -0.0024507126322693682,
          0.04197703776288951,
          0.1630039517175193,
          0.0778081631976952,
          -0.0502508332942166,
          0.06356123273122481,
          0.0554650647045357,
          -0.01443249009260371,
          0.03944851014219678,
          -0.006450512744598039,
          0.010130093939931807,
          0.023918340389419052,
          0.14472467209521245,
          0.12887031049212108,
          0.10757923672695813,
          0.15828739432063849
        ],
        [
          -0.013458561185012336,
          -0.002458723066869614,
          -0.30386762971055575,
          1.846660614519581,
          0.045368393063860535,
          0.06926447345536547,
          -0.42551529673420907,
          2.3478741842925017,
          0.029321234914862847,
          0.11162445947796043,
          -0.4819398374685699,
          1.094608690778184,
          0.12402083962571207,
          -0.06212976209654032,
          -0.450281941088055,
          1.8547972220258062,
          -0.17639856796451525,
          0.07362630600667078,
          -0.3322847602214863,
          2.3033012891105367,
          0.022185847160931423,
          0.06661877126602814,
          -0.3199604012949377,
          -0.49147607923315495,
          -0.06153220336740863,
          0.10035143382748613,
          -0.3072886266164559,
          1.3298435081738733,
          -0.03167966334489506,
          0.07226237223826931,
          -0.38313972988513817,
          2.390971446745797,
          -0.103479356960797,
          -0.1357804976050135,
          -0.37493988045434423,
          -0.7222971278712619,
          -0.1040604113362057,
          -0.07722549294971102,
          -0.2539297571626421,
          2.1589861340899277,
          0.054914997674744934,
          -0.09290816770626392,
          -0.28903774589407055,
          1.3774005420232014,
          0.07871231277728778,
          -0.09574910988154621,
          -0.3328947314327629,
          0.23534132935308297,
          0.14124010725974295,
          0.13440975934129606,
          -0.4072538795851492,
          1.3762291656590482,
          0.0011004017651927713,
          0.016436693515220466,
          -0.31724298416243224,
          1.499911606368665,
          -0.08165624969257285,
          0.06380758199305585,
          -0.36656129593055264,
          0.4296406763868533,
          0.07810967486273063,
          -0.09102655518879624,
          -0.31971600366486197,
          1.4154801730781885,
          0.025409574844538624,
          -0.050271522855550255,
          -0.40944123940323096,
          -0.43520505530311826,
          -0.14940830574083472,
          0.11459659133911254,
          -0.2571499913110919,
          0.5092296138331194,
          0.10269781732519688,
          -0.059639928534059715,
          -0.04159633430214758,
          -0.1868534559581316,
          -0.10470157501896525,
          -0.04843463812061652,
          0.00037057044753185817,
          0.03830965482869606,
          -0.06905475470691633,
          0.08058346081347166,
          -0.03856580125420484,
          0.0606773819854208,
          -0.09944873038385763,
          0.08956036683040698,
          0.030703568620473017,
          -0.13390544685653735,
          -0.11073286619401831,
          -0.02519230401611572,
          -0.035196471870478495,
          0.0850317425101933,
          0.019711707405754238,
          0.005332816454951598,
          -0.08790485493692958,
          0.004992750589206288,
          -0.016834885633685077,
          -0.044021188131441256,
          -0.04766191415501765,
          -0.10530799839579282,
          0.08021501181306182,
          0.08342167316534936,
          -0.00426990935846603,
          -0.0876754623430723,
          0.004382820088269596,
          -0.14678569305337474,
          0.10728537598027754,
          -0.08394816150389513,
          -0.07578144857804217,
          0.1180211772716298,
          -0.002193668977888799,
          0.03877601066610884,
          -0.11861040118998221,
          -0.021998652075730166,
          -0.07482620426781844,
          0.06525825611164193,
          0.031199877092142746,
          0.08647932787308028,
          0.06864873611746554,
          -0.039426882605906814,
          0.02144821017868205,
          -0.08725495445872715,
          -0.12656489153240455,
          -0.052140117708592365,
          -0.1220350303445981,
          0.11878577516062794,
          -0.03207030922727214,
          0.0003064269359370689,
          0.1205307548880213,
          0.1164789210467831,
          -0.09953694434454428,
          0.03694066145446566,
          0.10789971630405264,
          0.012063335122748377,
          -0.08130621635895058,
          -0.011800255776118174,
          -0.010078521156009016,
          0.04697121538554442,
          0.13581502872602022,
          0.08454656824424883,
          -0.04940720832391877,
          0.018996421171155065,
          0.05916573723685585,
          0.07461543525233046,
          -0.02962526540711019,
          -0.02923650340320913,
          0.08532281991882736,
          -0.08319931490040532,
          0.002243622505970538,
          -0.0958392020054745,
          -0.06277422412585569,
          -0.07855771221236925,
          -0.10052437838857907,
          -0.003930279857072581,
          0.02791252252984917,
          0.08266973745706048,
          0.10417128760062508,
          -0.05387197132074872,
          0.10165067304008331,
          -0.05919871062443861,
          -0.06569231751536515,
          0.00856885694930248,
          0.03641155566318205,
          -0.002408942419705416,
          0.09435892240993925,
          -0.09411125541958883,
          0.03566927361249188,
          -0.049796067829881156,
          -0.08030650363942311,
          -0.08169797189928851,
          0.018623305982851116,
          -0.08914237957789325,
          0.006012878217056491,
          0.08196819591317438,
          0.0891477552280962,
          -0.06931354747624828,
          0.060926325172077085,
          -0.004406104655958786,
          -0.008745164771889693,
          -0.05455933851287121,
          -0.09606418554729386,
          -0.0763608785801598,
          -0.12151904155190206,
          -0.11375791746928074,
          0.018538273605960817,
          0.027221626100444665,
          -0.005849624148551749,
          -0.044099795032167564,
          -0.08460820554984773,
          -0.0042748154582784095,
          0.06883314936778835,
          0.0995527715976565,
          -0.021234744109211997,
          0.12333984295658626,
          -0.08307286370218034,
          0.15934151446432232,
          -0.03691492000642145,
          -0.06923651095451229,
          0.013615632073565373,
          0.08569545327290239,
          0.02966227236416772,
          -0.04690757459140203,
          -0.07050555741037941,
          -0.08364944661968542,
          0.024145838258353074,
          -0.08196303101165824,
          0.12916406038573505,
          0.07733002508136226,
          -0.05292163109151796,
          0.02889009452122762,
          0.06978797941094704,
          -0.06328007315345338,
          0.0013932746175218105,
          0.06938764185249563,
          -0.04564619144939696,
          0.12909663732467844,
          -0.03336789926522001,
          0.07820605683000727
        ],
        [
          0.08883326774638846,
          0.09802186038310819,
          -0.13448261377580956,
          1.1968353637388378,
          -0.11679003193723042,
          -0.050481156824895616,
          -0.0002421908900582975,
          1.3679234993582694,
          -0.09100822221794508,
          0.042462201168029894,
          -0.03399810524211072,
          1.2001851493262077,
          -0.02197780766761699,
          0.17985387338837303,
          -0.007294860876587508,
          1.2687620183181212,
          0.08074012285387637,
          0.12718884712517745,
          0.06659604441851581,
          1.1610556583686515,
          0.07175850134359418,
          0.17413885250817362,
          0.07131515934453891,
          1.2006598522946292,
          0.021964521112882638,
          0.09724858162791794,
          0.026463770129180608,
          0.9343410383243238,
          -0.041247688578548145,
          0.004126284241542496,
          -0.13116484790074476,
          1.1349351019518934,
          -0.006840351815317544,
          0.019790171403742035,
          -0.06596110115395924,
          1.0491629132555806,
          -0.13938359860598987,
          -0.04559636221159998,
          -0.12219326438744886,
          1.1521074733351087,
          -0.03492945887111114,
          -0.0038607277260005166,
          -0.14107328254155957,
          1.0061485124861473,
          -0.009123157987453721,
          0.02507174510797613,
          -0.028646168143778114,
          1.095189710079842,
          -0.1620246610843872,
          0.2579430818084047,
          0.13434533042191482,
          1.1129052785791838,
          0.08842689610973356,
          0.219060203552274,
          -0.14725460109140887,
          1.1897466918996358,
          -0.1290961063299276,
          0.07951221550421829,
          0.10374287043902362,
          1.2157466145976434,
          0.10133791184467744,
          -0.11544966844149632,
          0.05236918028638776,
          1.28601998000703,
          0.06375341649764826,
          0.1069810414819762,
          -0.03376634317165876,
          1.1191338619714908,
          0.01854415354301619,
          0.1619390293283092,
          0.024129798737473823,
          1.2177740507133685,
          -0.04776682140804792,
          -0.06630221769154099,
          0.0026919283877869966,
          -0.001590658119728029,
          -0.031376871989205656,
          0.0625463376406877,
          -0.0043841584559885525,
          -0.008716198988321303,
          0.0708537764756933,
          -0.12157571074105737,
          -0.1294341041309805,
          -0.1055771777452205,
          -0.04323273634327473,
          -0.018696028807314285,
          0.1094340471768385,
          -0.05690811930741014,
          0.0668555939154941,
          -0.019488618160394423,
          0.035892714672756655,
          0.14278234243391288,
          -0.11524679001728527,
          -0.038568426637885456,
          -0.08445940421734963,
          -0.03199882709018298,
          -0.013058502228750903,
          0.08949805872611219,
          0.11547091489521129,
          0.1233404131857956,
          0.15393814195958475,
          -0.05625469187956279,
          -0.013945284965552774,
          0.05843177452196496,
          0.018268663869665983,
          0.12847734758542648,
          0.0242435937592614,
          0.09039959691736082,
          0.01967585076246853,
          -0.13353420776548583,
          -0.016958603581296354,
          0.04316481864441982,
          -0.11550190974317567,
          -0.15120109362865916,
          -0.14661289858074872,
          0.08882814723924018,
          0.015739389976920645,
          -0.03601740527299033,
          -0.05026012675325899,
          0.1797457167199093,
          0.09900773977861313,
          -0.019476681057481144,
          -0.17293483080565533,
          -0.05405854195643666,
          -0.005362822085333575,
          0.036927398277316545,
          0.05163968408490228,
          -0.07228341934666473,
          -0.03472360743883355,
          -0.11978874337342739,
          0.07491901666014565,
          -0.031387633274945065,
          -0.0738278682139782,
          -0.09882401551524127,
          0.05099211874079322,
          -0.007385515191720385,
          0.06386802090834483,
          0.00038968308950032706,
          -0.07979892114247206,
          0.06929862704739569,
          0.004312976983397989,
          -0.07844483836117289,
          0.10219803644012777,
          -0.10333440679730964,
          0.013027734893643035,
          0.06763792329453237,
          -0.02380453726272577,
          -0.05620452545152208,
          -0.09888729075007163,
          -0.10358429651307748,
          0.09015042700888998,
          0.08443898634950278,
          0.07777738700449159,
          0.1790501121385089,
          0.08350954588585498,
          0.02897874756242822,
          -0.10527332425464432,
          -0.14931981258526028,
          0.0599985130059055,
          0.05306159737500747,
          -0.03079548370011812,
          -0.0156406404311053,
          -0.1467028444867412,
          0.08417058889963563,
          -0.0040986315663541426,
          -0.04485715347912451,
          0.11286434579419526,
          -0.036749882216856884,
          0.06964310113791841,
          0.04128165527739394,
          0.07945875343561544,
          -0.0025516930114541274,
          -0.0803115741321559,
          -0.007879753330880878,
          0.03358422109844968,
          -0.0018742160144088929,
          -0.006109694252957875,
          0.04056985990526042,
          -0.11182190469068608,
          -0.037979374207272903,
          0.10147372936934942,
          -0.12205603596516675,
          -0.08437902558675321,
          0.10229583092680158,
          0.06724681182245584,
          -0.08325857226355282,
          -0.10241165715741532,
          0.11460329664826381,
          -0.13157331368454628,
          0.006175412943243595,
          0.0008227091093948176,
          -0.07388603017331694,
          -0.08603612045300493,
          0.1747823063837722,
          -0.07355858150812764,
          0.07302480165609689,
          -0.13807945985968292,
          0.010196008506944939,
          -0.12451862991526301,
          -0.05221771876270566,
          -0.12234962498785124,
          0.04982445241372614,
          -0.00869093213774779,
          -0.023137550455060128,
          0.038482925152493075,
          -0.07992319307438171,
          -0.02937550728684152,
          -0.12595271121732904,
          -0.08385622294664155,
          -0.018327123104833584,
          0.11120992442240574,
          -0.09633788874693208,
          0.05797669042969088,
          0.07866274432418499,
          0.020961269503527828,
          0.042144012715659665,
          0.1483115738842743,
          0.207304456929112
        ],
        [
          0.039362042387028034,
          -0.0030712994870887005,
          0.13030162253496472,
          1.218081975980835,
          -0.10555756447971577,
          -0.038021886774112154,
          0.17484770191702545,
          0.8884730641809284,
          -0.03151486981373003,
          0.11664267695966166,
          0.0061350137576927114,
          1.2968903830945973,
          0.0354613843197662,
          -0.04522694396302712,
          0.06069250433034907,
          1.0022289575790733,
          -0.10986018581101599,
          0.06682387597967587,
          -0.05636757224404263,
          0.7266088230019402,
          0.11915128662361818,
          0.10544498330203075,
          0.122979864759196,
          1.7162754928077502,
          -0.013727760927074536,
          0.06520324573658506,
          0.11686050798749743,
          1.3192501327841872,
          0.11294084917353277,
          -0.0006536462856399761,
          0.2044281353634341,
          0.8025574011415137,
          -0.03750127622057536,
          0.05842688452580612,
          0.06747663291806179,
          1.671793995106523,
          -0.12242168726018315,
          -0.10146490107621656,
          0.19430349657776588,
          0.9710440462266903,
          -0.03239681792920232,
          0.1633590428130575,
          0.12651465009927726,
          1.1528735345966497,
          -0.01230822302016603,
          0.10437680962466549,
          -0.02337818457324285,
          1.4654086207443673,
          0.09712704474013048,
          0.041300360101543344,
          -0.00482251863148739,
          1.1202452085387349,
          0.07221043103826345,
          0.03785277045250533,
          0.11275945272210686,
          1.3249995910810053,
          -0.07740298894974758,
          0.17084069017125195,
          0.005164817769400856,
          1.4668064044813764,
          0.12594813727045845,
          -0.07352703550009954,
          0.12084522730076808,
          1.2968865493548727,
          -0.04196519931667492,
          -0.0876962678400187,
          0.01385449918390266,
          1.7391755810650287,
          -0.0590493868817316,
          -0.0055125131643193525,
          -0.03644414152444405,
          1.4472328091063877,
          0.05705106209597921,
          0.024237416478380604,
          -0.10628291844667132,
          -0.11305018698962907,
          -0.11058064341118719,
          0.09772803424944147,
          0.08435591109877388,
          -0.01860686625600703,
          0.016166713021036814,
          -0.04351358317503834,
          0.08023356958199025,
          -0.07936705355938774,
          0.10053493632001104,
          -0.1313182435807563,
          0.07388077119648888,
          -0.05429805441099608,
          0.0979499043928879,
          0.08119505626039251,
          0.05723225788370994,
          -0.11392107479596685,
          0.011417829479293172,
          0.13336651199579638,
          0.16225781989945265,
          -0.10251752381716979,
          0.046696399845309974,
          -0.04941373663111896,
          -0.07524836112454349,
          -0.09202624512458082,
          -0.10710281382878113,
          0.017743050823602675,
          0.1332768694395043,
          0.1312658699062753,
          -0.06667912715215558,
          -0.025090624211347775,
          -0.05805879982195096,
          0.14528271820330374,
          -0.04988945063263592,
          -0.07479744593582936,
          0.10463279607426516,
          0.030047651143732826,
          -0.06116428223985822,
          0.07082463653861064,
          5.5851214130628916e-05,
          0.12873909836284153,
          0.03949828253935033,
          -0.0033930727339694126,
          0.08549039918011891,
          -0.028635796285545627,
          0.022734992544864805,
          0.005619162459820322,
          0.12065732809603186,
          0.11603055720644119,
          0.09420411161476182,
          -0.15741917081327186,
          0.05932802188280442,
          -0.10280060021168039,
          -0.05656746954435592,
          -0.02750028349596219,
          0.11615114619367384,
          -0.1297787810206638,
          0.004946852230425562,
          0.06103503283517313,
          0.043328585476914566,
          0.03968108727734314,
          -0.08599707314973169,
          -0.0726293526528433,
          0.10354318865129597,
          0.09632209214515473,
          -0.026170725925154882,
          -0.04369878716694551,
          -0.05541009635382699,
          -0.036919051181944745,
          0.013080077341325389,
          -0.17266608947338355,
          -0.09373454190112594,
          0.07822296846847844,
          0.18044621950888043,
          -0.05669277231631164,
          0.022888733394779624,
          -0.012426582289962159,
          0.10703431510158194,
          -0.06644345184209652,
          0.01756695126629078,
          0.06622985859095101,
          0.07320761057684587,
          0.04066283581282371,
          -0.036083396508165375,
          0.08322808549086286,
          0.08780372618747832,
          0.12256651037043075,
          0.11491998107535682,
          -0.14776128742537079,
          -0.1522997768471538,
          -0.016282952263191083,
          0.05527431187262064,
          -0.16298485586460923,
          -0.04178730157421619,
          -0.0901366887363827,
          0.03446800853540521,
          -0.1181023403122675,
          0.0267805892024445,
          -0.0007318357446662927,
          0.15722536189582095,
          0.04240312283674304,
          -0.11376971132621462,
          0.10576132581541176,
          -0.05189578392699136,
          0.006269992415205943,
          0.09335964214730022,
          0.028550428599862645,
          0.023466581872397738,
          -0.0012232423514797316,
          -0.10045210469598251,
          -0.009560682680659063,
          0.02451168085362665,
          0.04514990375061498,
          0.07439576051386498,
          0.12118538604487795,
          0.1352355153414038,
          -0.03802295898452765,
          0.015996191618537495,
          -0.11267581840418876,
          0.08711686947095455,
          -0.11254501045410091,
          -0.12384962138893846,
          0.15499199594579305,
          0.09032474419457644,
          -0.10848347510100331,
          0.05231950118361509,
          -0.027680636620555938,
          -0.023418112734699667,
          -0.050178963408363184,
          -0.11607526087955888,
          -0.14106620925717214,
          -0.06621439179157627,
          0.10077097481254635,
          0.08540387682887596,
          0.004340464820626754,
          -0.04303607556868192,
          -0.11971605706707658,
          -0.0021226176299247537,
          0.0432747225825399,
          -0.11255358851976047,
          0.12279884119856721,
          0.19589764928236608,
          0.10790443533355072
        ],
        [
          -0.058035071661026796,
          0.1289113880632144,
          -0.03671784726460394,
          1.7036049816633387,
          -0.06331016258036488,
          -0.03618372251647993,
          -0.024041257581936277,
