{
  "layers": [
    {
      "activation": 1,
      "biases": [
        0.418604955073707,
        -0.8659006100419354,
        -0.882012975133784,
        -1.7490518455627093,
        0.6238493610614666,
        0.7726432310982176
      ],
      "cols": 6,
      "rows": 2,
      "weights": [
        [
          -2.994298896606926,
          -0.04653254236659799,
          -4.671267571669528,
          5.461528242409209,
          4.112149150939818,
          -3.909996124426295
        ],
        [
          2.6786001042844556,
          1.5671008766850605,
          3.108220802223223,
          -1.4715697983212568,
          -2.5868956170374844,
          2.1166152794632986
        ]
      ]
    },
    {
      "activation": 1,
      "biases": [
        -1.3713916054819173,
        0.9825880123106497,
        -2.2976272834967744,
        -0.10794465035127031,
        0.48422009350467005
      ],
      "cols": 5,
      "rows": 6,
      "weights": [
        [
          1.4386482351172751,
          3.6029530586109084,
          1.4529528889072605,
          1.4614419344826375,
          -0.846989987715938
        ],
        [
          0.19094958705436774,
          1.3591942263681591,
          0.13828792061843512,
          -0.5572855929427873,
          -0.12369455119839048
        ],
        [
          2.7761640482306458,
          3.4762175203576717,
          3.152180819623694,
          2.838506556112151,
          -1.8384233373408596
        ],
        [
          -2.694951966499915,
          -2.5734314624317416,
          -3.754032023820943,
          -2.9788477726601807,
          2.751156952293027
        ],
        [
          -3.0193002680314214,
          -1.081400841106811,
          -3.0262243493370877,
          -1.7049649839463825,
          2.485308850254705
        ],
        [
          1.0156709625755327,
          3.5504268962362833,
          2.207444928979917,
          2.541128972934305,
          -0.8276061518634285
        ]
      ]
    },
    {
      "activation": 1,
      "biases": [
        -6.709656781670714,
        -2.7631205134575545,
        -2.4206459664188604,
        -6.3749693719316625
      ],
      "cols": 4,
      "rows": 5,
      "weights": [
        [
          3.4568902354486375,
          3.1409332525428844,
          3.105215533592145,
          4.377608551412196
        ],
        [
          -0.3412619670002339,
          7.385844455176943,
          1.1924668034160355,
          -0.2564612066900031
        ],
        [
          6.203419059306105,
          5.180038859405655,
          4.503401180476458,
          4.498026433139771
        ],
        [
          2.6907962374677252,
          3.0411675854194313,
          5.0033668272323535,
          3.0020015277004832
        ],
        [
          -4.408820888835892,
          -1.9889283680832766,
          -2.8973085330189448,
          -5.116525889978618
        ]
      ]
    },
    {
      "activation": 0,
      "biases": [
        0.32137015445757317,
        -0.03438813486802702,
        0.46981151133426347,
        0.22265765309486607,
        0.6716814953857201,
        -0.010439978520818252,
        0.02967754979672414,
        0.4703236560250155,
        0.0905749832494473,
        -0.0188397313362321,
        0.5329428793743262,
        0.12904274804076254,
        0.45350064191453415,
        0.7778813095588629,
        0.32645349058214007,
        0.7542733102214328,
        0.15667688934293852,
        0.3197290474072594,
        0.5959649047640553,
        0.3068953533444901,
        0.08493845630785751,
        0.4058822998739981,
        0.33791698624743843,
        0.15684692600825764,
        0.4369997075010165,
        0.15308219820328176,
        -0.020299140346791065,
        0.328354959955305,
        0.16717592038829,
        0.5162281101834488,
        0.318015523649914,
        0.15280798977093726,
        -0.01234450357369177,
        0.12921506745191427,
        0.3949317568009136,
        0.07094137475925764,
        0.09290565224933643,
        0.7497395308258997,
        0.582438054902411,
        0.17209049489089834,
        -0.0054897314012762365,
        0.6731443839745823,
        -0.016677409370199545,
        0.3261886320655789,
        0.6861146334795403,
        0.15832652599862757,
        0.15061882272116223,
        0.30797889534474415,
        0.6672989995525775,
        0.30241254182265653,
        0.17059284813706477,
        0.32466108962280565,
        0.6118826929059428,
        0.20696824466902194,
        0.024937095476945816,
        0.7629926161900675,
        0.6580942573728406,
        0.23694338257529615,
        0.08637672785777102,
        0.6597834789380702,
        0.29363840866270213,
        0.6724871966830355,
        0.13614216139436539,
        0.7745681560981031,
        -0.03471330762948638,
        0.26838929344381945,
        0.43889404954630395,
        0.6937854837278845,
        0.1381669703034346,
        0.11293725582806145,
        0.7748048105341792,
        0.07847228516250984,
        2.3848787147027766,
        -0.006483535284139822,
        3.0674344061374144,
        1.2836132462988097,
        1.0208714933913836,
        2.745290578700845,
        2.3989987323584856,
        2.265981965354915,
        0.9834566206860651,
        0.641488463384002,
        2.3517727094249556,
        2.3906270630301814,
        1.68488666627148,
        2.356111524711645,
        0.9838245985802915,
        3.078346500408061,
        1.9086875512567565,
        2.0186922469911175,
        2.402131159505205,
        3.0481796287610377,
        1.4106740712289856,
        0.6762229989736198,
        1.8015994996582714,
        -0.035256797445301795,
        2.435730935905021,
        0.30480130912526027,
        2.0459969681489376,
        0.9878903191764606,
        2.382457487203721,
        2.0388377042200574,
        2.0186942904921357,
        0.29713953597789605,
        2.0194045467686172,
        2.032711218090258,
        1.0251530089032854,
        2.3561031321548906,
        1.630468283730876,
        2.5594114301582986,
        1.669785898026719,
        1.6774468332942938,
        1.8995973369891372,
        2.015453168305106,
        2.925954322478406,
        0.6789688077102438,
        0.49976723366273945,
        2.0589735782020195,
        1.7109365996624297,
        2.398995721288536,
        2.782892996682943,
        1.8920649371432419,
        2.016259562509601,
        1.329957482053151,
        2.0273141481748214,
        1.3953244737868982,
        3.044568495201212,
        1.34244353368114,
        1.5179574105169282,
        0.24151796213631743,
        3.0359236286364446,
        2.035945150443198,
        2.010790314311541,
        1.0084665744461359,
        -0.004322141264451852,
        1.3649735475057652,
        2.0589716787814814,
        -0.0208682879762867,
        2.7226430757699096,
        0.07942886592188252,
        0.3158159561408954,
        2.039586922106955,
        8.207849298576155e-06,
        2.033082353972145,
        2.055731166876667,
        -0.05033558193779159,
        2.3990020912237133,
        -0.015328825832970313,
        2.042139762606644,
        0.07942388644280057,
        1.7032664166618443,
        1.3397904572888886,
        2.7179422078712165,
        2.7352091245256767,
        2.184775024248617,
        0.662565557273217,
        2.008606374040054,
        2.0043029579296636,
        1.689903918628684,
        1.3839059647383367,
        2.1646354242578876,
        1.5223861727770396,
        0.2098992665651254,
        0.5952443612810978,
        2.0459911772092343,
        2.772089863650456,
        2.7818034551765947,
        2.0273377681705185,
        -0.04026264587675016,
        -0.03835780331460072,
        0.21371022888504754,
        2.0589758993378675,
        2.9539947685988537,
        -0.019650779304210834,
        2.1827916117112,
        1.4155503430729468,
        2.7396048942718965,
        2.014119418472788,
        1.3337803982649203,
        -0.0021517769647972453,
        2.0136430331331443,
        2.7354786039630246,
        2.183337480290813,
        1.651320822024816,
        2.041706830011861,
        2.0199488917151207,
        2.7231681029496406,
        1.9204464984240877,
        -0.0446092944646913,
        1.6899157424242628,
        0.22786414375516692,
        1.3525040809041553,
        2.019638865751285,
        1.3954046913611535,
        -0.017504770898925815,
        1.8979017605313457,
        1.7157962466921437,
        2.0524827011770386,
        2.052471532641835,
        1.6365459834902552,
        2.020989442980921,
        1.4155337597559032,
        2.048049587095892,
        2.3956458194906696,
        1.9274201905253874,
        2.0217949952061667,
        0.9856173611677386,
        2.402121440581604,
        2.0496807253357443,
        -0.007191943236345672,
        0.6254405677148565,
        2.0480431283154785,
        2.0503388763874106,
        2.0359558994685254,
        2.2933285958236596,
        2.0589690956221443,
        1.4584151598313037e-06,
        -0.029481878245606923
      ],
      "cols": 218,
      "rows": 4,
      "weights": [
        [
          4.336099049761192,
          0.9553928375185767,
          0.04022754547132455,
          2.9199004520150216,
          4.261951687853658,
          2.4740324044701447,
          0.8322787214807018,
          4.795910577629195,
          1.39514693278908,
          0.816402800971745,
          4.012727552914402,
          0.699222799280495,
          1.7974972996612573,
          -0.09961169439494993,
          0.46498224591584736,
          0.2368492911511584,
          0.3031271329366616,
          3.105272172767822,
          2.5630572426657365,
          0.47386728977328146,
          0.5720911862781083,
          1.3022586068388797,
          1.4688707212857386,
          0.0566474240335229,
          1.061407966457938,
          -0.02640116294027284,
          3.2287217175456853,
          4.11909099067914,
          2.872957628023606,
          0.01849803980823178,
          0.8378492070567852,
          2.046290553984662,
          4.41761314797313,
          2.985753692362133,
          2.0259972381751843,
          0.08523336544420594,
          -0.17122059641039433,
          1.7101543837656978,
          3.3989757035036643,
          1.4227792723043504,
          3.3901435808974534,
          3.5527381640102895,
          1.277869022721814,
          3.714211993172939,
          3.2995515523823107,
          3.9341225359275747,
          2.841743232615007,
          0.869059140251911,
          5.107944104519583,
          5.117566339422676,
          4.639073397456051,
          2.467970751081702,
          -0.46588842385592494,
          4.529173083719238,
          0.07315596038196086,
          1.380896729112759,
          0.22067381656858087,
          1.8094608306229294,
          -0.247223520087712,
          1.2421400039441688,
          5.208261826752748,
          1.4109057230272544,
          2.6185839163772435,
          1.5214367977150671,
          0.3598640179647444,
          -0.1341481031416217,
          2.5979039371404844,
          0.43534974538288307,
          3.3457626386377752,
          2.9150367943637154,
          2.076624872198924,
          1.7176110622307839,
          0.4629523043711784,
          -0.5895850988705045,
          -0.26277592049243254,
          -0.24240714494249732,
          0.36124694809483016,
          0.15567419938758026,
          0.3754627166583984,
          -0.13576806310764436,
          0.1822469965468392,
          -0.16787087086168212,
          -0.30929129031516334,
          0.44487435326346625,
          0.2633835133119677,
          0.5114670118081089,
          -0.5815052696970807,
          0.11495624749740457,
          -0.38633667264739163,
          0.32713049282505613,
          0.0738787762278153,
          0.37311366752711145,
          -0.4541297600262451,
          -0.05776159881656754,
          0.23030472553196205,
          -0.4045700338125309,
          0.05545215196351731,
          0.08082716741985191,
          -0.9171617500417377,
          0.17828314779047374,
          -0.3630291727886479,
          0.38391833316552115,
          0.04566025379649358,
          0.2527671791384967,
          -0.019892377247468552,
          0.08368848396053605,
          -0.40456908503341643,
          0.2574845201722662,
          -0.11458455272646069,
          -0.13559172187384141,
          0.37269748386900153,
          0.38612674341769926,
          0.38618580672541003,
          0.10775478303541966,
          -0.1568770287602035,
          0.44432394388935287,
          -0.665044242073379,
          0.414319920245181,
          -0.2915211908259112,
          0.028988629025012657,
          0.03266422988642473,
          0.14044254453047447,
          0.03234015230565337,
          -0.31569597808813654,
          0.07847625279934425,
          -0.29519116216640284,
          -0.04862174359029462,
          0.06585797285856737,
          -0.14783629321633698,
          -1.265765340665529,
          -0.586269702976967,
          0.08163202171575397,
          0.509935333003857,
          -0.48904859842703524,
          -0.23498366387605799,
          0.1679671888307405,
          0.37642975250663796,
          -0.5579786633571194,
          -0.45744768941854386,
          0.19695328154316383,
          -0.3170385168130261,
          0.20052331821105054,
          0.2402273559273565,
          0.3597827576887334,
          0.039707250406434,
          0.21700800652916558,
          0.4304046720563858,
          0.2953074476411411,
          -0.2865981546000395,
          0.08629864541016197,
          -0.36634358531938704,
          -0.19874256800385998,
          -0.24555603534059273,
          -0.4234408293121642,
          0.12524566707885681,
          -0.5423660348667689,
          -0.24388694245228126,
          -0.24954773010980716,
          0.06116035183198371,
          0.5483832957151334,
          0.12218687419304917,
          -0.6084275852725229,
          -0.12506622382390126,
          -0.14296306403023745,
          -1.0753799932257484,
          -0.6447642552093011,
          0.014890246373554733,
          0.5520055988167643,
          0.3281364868723109,
          -0.018228320329569617,
          -1.0577295520714705,
          0.4522798982089203,
          0.0482852209874724,
          -0.12725561972033453,
          -0.030720924054511562,
          0.2164010852783933,
          -0.33683647120675947,
          -0.5048244451230859,
          -1.0263148306836647,
          0.10760172637784651,
          -0.07323495382915184,
          -0.3557038352893919,
          0.09448369625756704,
          -0.39786322376733113,
          0.27598020323347416,
          0.36063492981231826,
          -0.0014050939744911098,
          -0.10562700774531392,
          -0.8261951182783617,
          0.1823880079513839,
          -0.5494525512068219,
          -0.041054777736523496,
          -0.5013037923349906,
          0.060596206267948816,
          -0.2230492572888169,
          -0.45071064306295244,
          0.04978770681577409,
          -0.3087352065300634,
          -0.5226307328676937,
          -0.42106607725246253,
          -0.03529941899907298,
          -0.012050578984571831,
          -0.15584686813198936,
          -0.2945040958809603,
          0.5499993705577835,
          -0.5729871244382065,
          -0.16603116161536768,
          0.014459805889875969,
          0.15718176168344422,
          -0.2584728521921489,
          -0.30751197618969467,
          -0.2461737416739733,
          0.13127360857402293,
          0.33454819160634625,
          0.46353053445071807,
          0.12404265942355973,
          0.0031295182888690016,
          0.02945380581495942
        ],
        [
          0.30098187801454274,
          1.38239242399123,
          -0.25341673876228643,
          0.5186433873999282,
          -0.4205754481747508,
          0.32473419670328874,
          0.5602439423329463,
          0.23319258536474413,
          0.292240740217852,
          1.0179391952469001,
          -0.22969643063920872,
          0.2627856212829674,
          -0.1429794727058909,
          -0.9425213430095498,
          0.2383915318807454,
          0.004862720300739814,
          0.18694303432400466,
          0.5695273943318584,
          0.07649288805015607,
          1.0743577228698438,
          0.4858770314409133,
          0.40670556407832026,
          -0.12304539394587415,
          1.3294770277606385,
          -0.12337441479362739,
          0.6106929863920944,
          0.6639429973563423,
          0.3951742514940215,
          1.087226065375946,
          -0.5334094664085971,
          0.827595655868866,
          0.20721629223589264,
          0.16424893653642864,
          1.179776940077957,
          0.24051167886355318,
          1.5108150061344328,
          0.4514868003203498,
          -0.39905975417256123,
          -0.3143689438550102,
          0.24011174595794016,
          1.568476937672223,
          -0.42935999427237836,
          0.39183183218116624,
          0.003958361011208709,
          -0.7997541783639844,
          -0.008134914395092464,
          0.9671354625993002,
          1.2356313168022777,
          0.10919831713476906,
          -0.0114176310001226,
          1.0032646854421936,
          0.4112006403253354,
          -0.35425888618665496,
          1.1890518125865304,
          1.1492177729029223,
          -0.09903299013892103,
          0.450520457636531,
          0.016662562741818446,
          1.4923937117051913,
          0.6166671523026942,
          1.1554290185180573,
          -0.5783998906134566,
          1.35062726329762,
          -0.5057459276045212,
          1.3868273717335093,
          0.4734018480541206,
          -0.5364772605123318,
          -0.0322695958962337,
          -0.08647519846709147,
          0.308264353040552,
          -0.5177330762604929,
          0.2016885592602267,
          -1.9289236372109633,
          -0.015693279717214022,
          -2.8632374880462117,
          -1.5399576075480295,
          -0.7602020116402156,
          -3.268521791792705,
          -0.4282700937516435,
          -0.28549177075295656,
          1.257063548976941,
          1.236169288980681,
          -0.38765248874131875,
          -2.2392706509678817,
          -0.49633271192097383,
          -0.3771988016938946,
          0.8256486311313804,
          -3.2691851479458993,
          -1.3775866359691453,
          -0.27896640602384853,
          -2.8599800555794883,
          -1.5046728612660745,
          -1.6971050327672854,
          -0.4092176982671768,
          -2.1449740764859775,
          1.5360615936717579,
          -2.5011566205852582,
          1.6604257394526585,
          -2.4827719084562627,
          0.8354498431826334,
          -2.0428330090645166,
          -1.3651868566566143,
          -0.2789876316911443,
          2.074206665245933,
          -0.4393792549755521,
          -1.217834887920874,
          -1.2361436838069078,
          -0.37719593474986857,
          0.17544409311939738,
          -2.6124564315852545,
          0.4399443900932518,
          0.026160220480815843,
          -0.6430002870995509,
          -0.28680178977959603,
          -1.8222103702297339,
          -0.5107215835777595,
          -0.21668541965554233,
          -2.451394801919342,
          -2.0545951384154573,
          -0.42827590121512393,
          -0.8931355557239241,
          -0.2828834381863194,
          -0.28484630053954396,
          0.4242730009432892,
          -0.7444789406328329,
          -0.8694965099358964,
          -1.6755073700015175,
          -0.24816320488470547,
          -0.6049847364427392,
          -0.18261211221134432,
          -1.209989581555812,
          -1.210001350035266,
          0.026147116123686417,
          -0.4118419832551846,
          -0.010445301678869983,
          -1.2204654796093553,
          -2.4513887827609935,
          0.7601760738914503,
          -2.458570357415436,
          2.3217220238924097,
          0.8223806723786558,
          -1.6336173215677112,
          -7.148519851408505e-06,
          -1.0548419443040795,
          -2.459238281260519,
          2.472300525925266,
          -0.4282704651773473,
          0.8275876333904321,
          -1.6813918662829022,
          2.3217304399269527,
          -1.6407862754635234,
          0.015700897837715416,
          -2.0375927295791456,
          -2.9686483930335914,
          -2.4494494035719394,
          0.09824603283744116,
          0.020929456018614987,
          0.010447369978669642,
          -0.6462500174522056,
          0.021565069868433068,
          -1.3632288342595948,
          -1.0266220553738161,
          2.0107025940822227,
          1.7114590579971436,
          -2.4827578782482584,
          -0.9192838093783309,
          -0.8957270675571273,
          -0.7444934055406827,
          2.1724188246281764,
          2.068982253268278,
          1.3173916535010186,
          -2.451402017878388,
          -3.2135075382586447,
          0.8171247962792355,
          -2.6163643336843765,
          -1.6853573680526899,
          -3.2822407642927094,
          -0.3981045523417362,
          -0.26906799308636786,
          -0.005232624611832758,
          -0.12900882659107693,
          -2.9679933345369442,
          -2.61506104853171,
          -1.071172009243022,
          -1.5203595019844895,
          -0.43804319102531764,
          -2.3492479194506624,
          -1.8896260206511901,
          1.675539489854764,
          -0.6462780151656341,
          0.9192931964964809,
          -0.5480489344224528,
          -0.8171408589989101,
          -0.5991372269575138,
          0.8223635073192453,
          -0.9173156997939823,
          -2.0428074195047117,
          -2.467085174965927,
          -2.46707007300246,
          -0.35030256514933505,
          -0.8138439846854638,
          -1.6853266707309318,
          -2.0454303342934113,
          -2.8756492604620485,
          -2.143022930745494,
          -0.8119111035810119,
          0.7758465257567837,
          -2.859959059723438,
          -2.041518717105846,
          0.14470880047091325,
          -0.16106079665932901,
          -2.0454306528428963,
          -1.9858773621277626,
          -1.2099982915963206,
          -1.516416695178814,
          -2.451394860004316,
          -4.187211886325266e-06,
          1.2256996604259438
        ],
        [
          0.7151653946014569,
          -0.05634139697704217,
          -0.23594384572804175,
          0.37484296616972074,
          0.9012268271879,
          0.3701170324170882,
          -0.2833514472001981,
          -0.029097530739717003,
          0.33856344390536564,
          -1.092643123888459,
          -0.3514615415932018,
          -0.42959798766400736,
          0.014469331632218264,
          0.941435206109379,
          0.1445120592563816,
          0.2605261903395018,
          1.0764784343995688,
          -0.11418828676216906,
          0.34320331901077056,
          -0.08973558751032897,
          0.1383730812501602,
          0.6328867949718444,
          -0.24189594925681993,
          -0.2025369884261074,
          0.01580572134280835,
          -0.06897862439781001,
          0.588092416324705,
          0.2793545116994819,
          -0.7277158403394582,
          1.3251509017092624,
          -0.8884434637540032,
          0.3233492162402308,
          1.3349347145045618,
          -0.7874837590601883,
          -0.1580914669064755,
          -0.6335284431874407,
          0.9334579392469361,
          0.3710765068383177,
          0.8872840603053896,
          0.3055580141351347,
          -0.9576293010800091,
          1.239952635460924,
          1.109431029433936,
          1.1444863673503711,
          0.10559001146225391,
          0.4685778535367792,
          -0.7960194657293608,
          -0.9227776251143738,
          -0.5462480614601253,
          -0.344292624980378,
          -0.9392108233791274,
          -0.26956810413701837,
          1.1378231207228375,
          -1.1082848031830401,
          0.3554266623286864,
          -0.7308449728531935,
          -0.44594623255682986,
          1.2388542582763282,
          -0.6274347918122586,
          -1.396744417252668,
          -1.2420133578362933,
          1.413936284401169,
          -1.6326376302811947,
          -0.30122285047270453,
          -0.02139471939938116,
          -0.045135610697191055,
          0.7454596785249061,
          0.0037423177114537004,
          0.6514071685327094,
          -0.11108347007924282,
          -0.2913132900030142,
          1.210463819013528,
          -0.5004588325468168,
          1.1163537262337684,
          0.7303909965169472,
          0.8232656672265245,
          -0.28633999889298234,
          0.5664194233902697,
          -2.1481378676076055,
          -1.430568317739754,
          -2.440000762433309,
          -0.9546263402546507,
          -1.4118673536957798,
          -0.16811224487451423,
          -0.9329428089854644,
          -2.158196652279583,
          -0.7423533350392865,
          0.6143923951672945,
          0.14861710695525487,
          -1.896389944442025,
          0.49653615340940394,
          -1.6839139293351506,
          1.1300609622576567,
          0.1174879008710126,
          0.37160592536590376,
          -0.5421147396029623,
          0.34160827850453873,
          -2.1402043766919308,
          2.6576631453392685,
          -1.4418127471876756,
          0.3567802446298059,
          -0.7365375460500769,
          -1.895451643611819,
          -2.583050281469697,
          -1.3575110011848133,
          -0.3443188159717602,
          0.957161474737717,
          -2.1570347431784995,
          -1.6032062972018937,
          1.0098649671029405,
          -2.299952645761153,
          -1.8569496070905296,
          -1.3704108682736489,
          -1.339178447559895,
          -0.839587454067469,
          0.08664138434194817,
          0.9201825567894324,
          0.424024020172616,
          1.1921935465059552,
          -2.147226033098746,
          -1.6961944365567214,
          -1.6167096290036171,
          -1.4777753321211227,
          -1.1830327532730776,
          -1.398038217407195,
          0.2457430404850837,
          -0.40283847050920213,
          -0.46660720343906886,
          -0.4488971183337354,
          2.120091436471014,
          -0.8978265654308307,
          -0.9006000370281655,
          -1.857761871054395,
          0.3054318592469081,
          0.7432797564112545,
          -0.1589388083291524,
          0.4240114595841839,
          0.28729794058575164,
          0.9387080920505201,
          -2.070653960958568,
          -0.5112849684806712,
          0.236480460282057,
          -0.0009182422473231941,
          -1.0678007053964678,
          0.982183616665229,
          -1.91056933575008,
          -2.148611687610614,
          -0.8862093139151448,
          0.015427731380409745,
          -2.0703188221434097,
          0.7492767213624271,
          -1.112629798853527,
          -0.014392840300571535,
          0.9804611924698239,
          0.28672973045720535,
          0.26342370742293336,
          -1.4828523905382565,
          -0.7404641966894014,
          -1.1374082041936635,
          -1.5329635030509339,
          -0.8739601493222798,
          0.5514102109351035,
          -1.68964663610492,
          -2.1477498165594313,
          2.657863401397138,
          0.16347455706261355,
          -1.5101443717069534,
          -1.4008436984760775,
          -2.3227505739206995,
          -2.2108310809396374,
          0.5172863757410595,
          0.42403774903247626,
          0.28057138568972606,
          -0.14197810063493724,
          1.287894515767953,
          0.2918899369644514,
          1.5443097984532312,
          -0.6685741573058898,
          1.0236058527990075,
          0.37072166954910973,
          -1.6891669764762223,
          0.9339529880945214,
          1.1942779885450785,
          0.0953886838433517,
          -0.5696567520072019,
          -1.4526866295676806,
          0.4083772433433234,
          0.3292451987874408,
          0.40737030035318533,
          -1.1377225486895113,
          -0.15692080928620494,
          -0.8767665381574861,
          0.14478551488271799,
          -0.8678588045819571,
          -0.5122195827262073,
          0.02334059179586153,
          0.35453016387773717,
          1.5413190965482413,
          1.5422343467042927,
          -0.4458049094024234,
          -0.08932649053669388,
          0.2927875333791788,
          0.5409400460298617,
          1.6118171040421831,
          0.2310267545572547,
          -0.2264109829039599,
          -0.8281010087330473,
          0.49686826694210284,
          0.2609244867824007,
          0.5774823826503028,
          0.5852783552301298,
          0.5418921938915243,
          -0.07249127775189462,
          -0.9023728120651395,
          -0.8498457690867067,
          0.42481931888740726,
          4.601203913729637e-06,
          -0.2129399818315767
        ],
        [
          4.0519854343625346,
          0.8513513290975092,
          -0.010402757817303291,
          2.9469450598082947,
          4.111241855995897,
          2.5597285561257865,
          0.7169178133046198,
          4.4338221063285586,
          1.1857483642310296,
          1.0392047478666249,
          3.623329613987178,
          0.3996110439818227,
          1.9256394853033585,
          -0.020347923884967565,
          0.5662575523070129,
          0.4169385079967588,
          0.28276974595476856,
          3.183985850302178,
          2.3726379554743553,
          0.2418012284403836,
          0.39518062563898193,
          1.2988627201903986,
          1.3569757145188095,
          0.11736813155163899,
          0.9631376506301621,
          -0.0020096461517841446,
          3.4074793965759125,
          3.8776416876999305,
          2.8184872544185526,
          0.05331054275111079,
          0.7208349707474356,
          1.8672486906082584,
          4.486624800668916,
          2.8422162711685526,
          1.869719068484239,
          0.2368961685157727,
          -0.28129991580813407,
          1.6018950525508322,
          3.3546990288895002,
          1.499375040614901,
          3.4073001834901753,
          3.367520705492395,
          1.281729014343749,
          3.8131710108457155,
          3.107222860416117,
          3.80717867185308,
          2.575738688031323,
          0.8611019765855896,
          4.815072170302482,
          4.80700832503217,
          4.226664094207907,
          2.2336644268376835,
          -0.5267157294317405,
          4.2729044329722345,
          0.01513578393965115,
          1.3808737084390061,
          0.21307821543870406,
          1.7342844864454865,
          -0.45137909795251513,
          1.255666741984394,
          4.801761767329717,
          1.499898509645254,
          2.535894074059771,
          1.4179511448721287,
          0.316299720662122,
          0.10397474087486155,
          2.4726642861686168,
          0.2395198767945247,
          3.3091557159110274,
          2.740560350547152,
          1.9082569382676988,
          1.6774671911381374,
          0.4660480879120143,
          -0.5158328640750208,
          -0.34470847448906694,
          0.04868120649614946,
          0.33822511917827747,
          0.30595912687903853,
          0.14039202131784936,
          -0.08305202964513958,
          0.019158258919027,
          -0.006881793786040651,
          -0.24865534889707389,
          0.2033849465253234,
          0.15184266969710064,
          0.4273324569136228,
          -0.3702459777366617,
          -0.20625796978492184,
          -0.30034619799110474,
          0.16780991036501253,
          0.01331199163558,
          0.27383035061105876,
          -0.39815646961256745,
          0.0061115090163988235,
          0.1200005496713143,
          -0.43776262112348585,
          0.04439570281114705,
          0.22228119490786666,
          -0.9898699441032632,
          0.19397548405516976,
          -0.3405413640096089,
          0.31102567848961066,
          0.11169638118013142,
          0.33999006641481433,
          -0.20504164151564658,
          0.1144620459539979,
          -0.34925602017691976,
          0.259223246292142,
          -0.0902300829025751,
          -0.1575422471286944,
          0.4930642916650892,
          0.14751187375097344,
          0.10750494789355425,
          0.1723147798466694,
          -0.10998981973034275,
          0.3084123517102677,
          -0.5505676748644706,
          0.22721882222943968,
          -0.5658959516579251,
          0.14936920195172554,
          0.10856425889365288,
          -0.13301054571994622,
          0.04816257470707692,
          -0.13503404981277095,
          0.03787371912454306,
          -0.4844419384736557,
          -0.043539881297539496,
          0.18407971195014045,
          -0.32112999138302195,
          -0.9355194781541207,
          -0.3513062791028303,
          -0.006262666820919423,
          0.3192310891635425,
          -0.4222811417321046,
          -0.16422498400274155,
          0.09915954283193486,
          0.26515856313520514,
          -0.4791848912854074,
          -0.5051720606339103,
          0.3532124094913602,
          -0.3163585901965533,
          0.16070803909967876,
          0.09739792811397942,
          0.23578484988419643,
          0.04922355059912738,
          -0.06032605237165469,
          0.2543454119475943,
          0.4530246062288927,
          -0.09335070617613508,
          0.3372853588263737,
          -0.20110582817098654,
          -0.04656407324865864,
          -0.42736806714141795,
          -0.3312178054005868,
          -0.1476616386926293,
          -0.492414962462918,
          -0.30850249658926215,
          -0.3644219822132591,
          0.033530844568857736,
          0.2537919394286205,
          -0.048986219322966165,
          -0.449461354038175,
          -0.4115643543541402,
          -0.017609361093912743,
          -0.9159307949427126,
          -0.7188214613677937,
          -0.05799026312513783,
          0.5775320528047604,
          0.3695632012568869,
          0.2003674491523005,
          -1.0117843514463278,
          0.18920875730417377,
          -0.06960632849212739,
          0.1386790455011865,
          -0.15890822673872732,
          0.09801092207627674,
          -0.5489652631727782,
          -0.45238255265729443,
          -0.8308639759680128,
          0.030437155564395173,
          -0.12430662227422999,
          -0.3529493169989472,
          0.01911377925610392,
          -0.2845837201719023,
          0.025270972927743735,
          0.26648366176544824,
          -0.11546467094644487,
          -0.2582265254365014,
          -0.7279383193726746,
          0.03886466379925149,
          -0.4509631797994753,
          0.11418360109894206,
          -0.5231241879780962,
          0.011694940305652208,
          -0.07254309252239999,
          -0.5636408771921066,
          0.04871442170719011,
          -0.49290444160196234,
          -0.6166643261312458,
          -0.42806201982069847,
          -0.21011905648574428,
          -0.011169047549298539,
          -0.056478728652748174,
          -0.34382182076559964,
          0.3183410686930115,
          -0.4205614363954711,
          -0.10340367549321554,
          -0.05391037640683379,
          0.24456416713112306,
          -0.12705464247669318,
          -0.41625852271609104,
          -0.3039674358490442,
          0.21366579724693166,
          0.3741216482992643,
          0.4942014012411215,
          0.22217193604288954,
          -0.0031349274969575645,
          -0.012590017753081979
        ]
      ]
    }
  ]
}
