{
  "layers": [
    {
      "activation": 1,
      "biases": [
        -2.0324664933785717,
        -3.6647984727676666,
        -2.046143866615639,
        -2.2264065835583717,
        -4.585800543962299,
        -1.9473179020477493,
        -2.1309454153009684,
        3.2703431385268567,
        -2.259591553704438,
        2.1100676096630524,
        -1.5892305294039955,
        -2.782853960170818,
        -1.58259178592565,
        -1.8271973452926733,
        -1.379416757047812,
        -2.160036855565617,
        -2.0878268742302195,
        0.03150427575388547,
        -1.5171815304454663,
        -2.261618416429965
      ],
      "cols": 20,
      "rows": 2,
      "weights": [
        [
          4.1228222837945285,
          -7.821941832302225,
          -2.508497285004245,
          4.384810956447197,
          -3.330309429853846,
          -2.143345342924486,
          4.161524219353326,
          1.6459115703600067,
          4.480855458479485,
          1.672952813274689,
          2.930617268252908,
          -2.347344607745739,
          3.309664532251096,
          3.4831478399953504,
          2.9992736214604125,
          4.241566354002187,
          -0.2523236867364483,
          1.8705752942969514,
          3.0861834131155,
          4.277974705517677
        ],
        [
          -8.188828325543446,
          7.039612402885407,
          1.047879488975877,
          -7.3974577654362275,
          1.261448189434858,
          -0.6399150056027217,
          -7.529289586206367,
          -10.437035314946712,
          -8.421480515621022,
          -8.049425519058232,
          -6.291563176875077,
          0.2502044412066093,
          -7.349399884299932,
          -6.648665876962805,
          -7.477601611625149,
          -7.412875058973562,
          -4.366595529193584,
          -9.021567798521,
          -6.521149549212152,
          -7.157019775333367
        ]
      ]
    },
    {
      "activation": 1,
      "biases": [
        -9.777618123414735,
        -8.008717139074472,
        -6.683617686445756,
        -5.283271714077636,
        -7.600726353175246,
        -6.357229960529863,
        -5.490811779628624,
        -9.813803306592323,
        -5.365778714395636,
        -8.34506650339812
      ],
      "cols": 10,
      "rows": 20,
      "weights": [
        [
          1.8565388605479338,
          2.3672291160212344,
          4.493631617843232,
          2.196803528647819,
          2.121490762929832,
          3.9384804476899777,
          5.336401381529961,
          0.08293685227694728,
          2.1508760800991573,
          2.4210954129308906
        ],
        [
          2.671163693742039,
          8.513549384262772,
          -0.11627399198539762,
          9.062717527695954,
          -1.5560696113924555,
          -0.2260212851314763,
          -1.8282258324444256,
          3.989933956577892,
          6.13721982458344,
          -0.028660587884695624
        ],
        [
          0.5486610527578757,
          1.076976347806586,
          -0.6027156485488881,
          1.4757912609709378,
          -1.4766580121198802,
          0.0699952136081256,
          -0.8219346840299501,
          0.4528759523734415,
          1.4470464743637368,
          -0.1861359709408562
        ],
        [
          2.3248175694325224,
          2.0455202385952163,
          4.703910044703345,
          1.6573999440522829,
          2.0354038051371353,
          4.232239807071903,
          4.1724067411172125,
          0.5230358107784981,
          1.8681347166442217,
          3.014413582273305
        ],
        [
          1.3275071515935646,
          1.8263748494961596,
          1.1749454163161581,
          2.5845747382108137,
          -0.7158048031536893,
          0.9879290442436133,
          -0.5261115856981115,
          2.3777440526903426,
          2.8645045678204495,
          0.19841640671293131
        ],
        [
          0.26519906947147964,
          0.3994264463024388,
          -0.28784544154044023,
          0.8483459094890765,
          -1.5421439161125445,
          0.3381865689281878,
          -0.11811726037798685,
          0.7121989743697094,
          1.101556548335586,
          -0.4692976429050803
        ],
        [
          2.130201772910353,
          2.020423631700958,
          4.501257226625684,
          2.2896352987533626,
          2.561693755298812,
          3.4470249933795643,
          4.993513590010856,
          0.04733165937757438,
          1.8634465104987388,
          2.265596925359319
        ],
        [
          -1.7663094961493382,
          -1.8039272332717673,
          2.1112032630679414,
          1.6501017110653964,
          -2.345516601385098,
          2.0174856496993385,
          0.5226584719531441,
          -2.233447956111826,
          3.320033450727399,
          -3.2840467209159794
        ],
        [
          2.145766278187267,
          2.2649676340401768,
          4.909177063042988,
          2.517571569805904,
          3.1050947003996243,
          3.7894759100298363,
          5.468820978741406,
          -0.04392848218446722,
          2.179789850150523,
          2.6473310821567044
        ],
        [
          -0.2435218880604105,
          -1.424031330040923,
          4.638396837885044,
          1.0284288536348112,
          0.594896646554733,
          4.204565012009554,
          6.81956556844075,
          -1.0798228186035719,
          2.686456535733594,
          1.117267780130846
        ],
        [
          1.874460510751819,
          1.4139564223587122,
          3.8127535515756485,
          1.7604858937459098,
          0.9919451611482999,
          2.597932359199824,
          3.4046917474905185,
          0.03157771570879194,
          2.1247528923499517,
          1.3521966275576325
        ],
        [
          0.5669055520205275,
          0.8150461538371897,
          -0.05001055287808492,
          1.0775498985917764,
          -1.0926517103055589,
          0.6530308696303857,
          -0.28195610208650784,
          1.1062044042726202,
          1.160114370498929,
          -0.2796190340071804
        ],
        [
          1.7863662692014475,
          1.8938547867521294,
          3.807895869456936,
          1.769315910369081,
          1.5473254777338183,
          3.230302217203202,
          5.493638758781881,
          -0.579280996120021,
          2.122901527833384,
          2.0639669391269226
        ],
        [
          2.127175768644256,
          1.6204301587604977,
          3.8937681142325267,
          1.961214109518576,
          1.6307677284888653,
          3.225416069875009,
          3.6720627614425116,
          0.23116407825582136,
          2.2753268418997923,
          1.6007663125865632
        ],
        [
          1.914882202771631,
          1.9121495883874833,
          3.8636494971241686,
          1.6102067366262636,
          1.002592677818564,
          3.0191081564368787,
          5.4193881048432955,
          -0.49398895031786594,
          2.3846728326134548,
          1.7150422669017722
        ],
        [
          2.1304146333895275,
          2.0241781774630825,
          4.339206958550513,
          1.7185363543183794,
          2.3975498975876457,
          3.643318729837419,
          4.699775927428519,
          0.518151797082564,
          2.2574529313652048,
          2.637532505093281
        ],
        [
          1.1518949259046418,
          0.7328622476422331,
          1.1659369936289279,
          1.8206581677446187,
          -1.1837800915779035,
          0.7477824462949451,
          2.105642522433484,
          0.6083528574239685,
          2.07322730416226,
          -0.2025671383854906
        ],
        [
          1.0185147018466851,
          0.46242707659675264,
          3.869357794406992,
          2.2219378159322827,
          -0.3876033606846024,
          2.121064582929683,
          0.7213239242082917,
          -0.6025867812077592,
          2.923750588351697,
          -1.0914026964021875
        ],
        [
          1.645016093713614,
          1.3122470534571777,
          4.2626919737383755,
          1.7372950405289411,
          1.0664825642117344,
          3.08236141346358,
          3.3068833204742205,
          0.3602887564825574,
          2.5264571109117258,
          1.429628871059916
        ],
        [
          2.1015341003239616,
          2.215993824507481,
          4.424972305873115,
          1.804417616385049,
          2.279548537372038,
          3.6692273569963696,
          3.845695989485011,
          0.7970841046236862,
          1.9632254926485373,
          2.474966246517092
        ]
      ]
    },
    {
      "activation": 0,
      "biases": [
        0.06758041091907785,
        0.06788924254859958,
        0.06737622130504456,
        0.06747138356220665,
        0.06764990174246335,
        0.0671383667532575,
        0.06752462381453339,
        0.06752913724287925,
        0.06746727267782,
        0.06698081688643757,
        0.06768741667536658,
        0.06737064489978001,
        0.06688455828138319,
        0.06786224009412153,
        0.06756534004565752,
        0.06738091596582277,
        0.06751432099035086,
        0.0674024422383288,
        0.0672890312055934,
        0.06773927604576714,
        0.06766937344236217,
        0.06757479720494464,
        0.0669431819555655,
        0.06763999770692054,
        0.06704401734107186,
        0.06699755476568416,
        0.06706673958250109,
        0.06700681242287804,
        0.06742614091721968,
        0.06667557212846753,
        0.06719026079093647,
        0.06673342780741995,
        0.06722704909114048,
        0.06747014948984169,
        0.06736997776328019,
        0.06767452497947427,
        0.0681556138827683,
        0.06676500196305611,
        0.06749970257116857,
        0.06696495000980605,
        0.06684942821074379,
        0.06675755363777165,
        0.06753592682045487,
        0.06753810853663948,
        0.06753060907771706,
        0.06756682445151732,
        0.06750542999242341,
        0.06711298879481828,
        0.06663173093691457,
        0.06731114019750147,
        0.0675011883575703,
        0.06746281618559426,
        0.06770118361907052,
        0.06737542588963814,
        0.06705256662254629,
        0.06748707706822896,
        0.06737101098249947,
        0.06779880489837116,
        0.0673512204918027,
        0.06770057578607047,
        0.06863879543831874,
        0.0683226175552873,
        0.0688204809455562,
        0.0695801303856744,
        0.07157639524523106,
        0.07358582487843959,
        0.0787832888746703,
        0.08528774069311958,
        0.09504199049033155,
        0.11230136794717276,
        0.14103383524656862,
        0.1862917058927333,
        2.9604242812590202,
        2.9597227458374546,
        2.9593473856972685,
        2.960367626170997,
        2.9597621076967155,
        2.9601108313243705,
        2.960608041166016,
        2.9597484579958953,
        2.959876588199328,
        2.959918278403341,
        2.9598325702852826,
        2.9595853659281808,
        2.9597249527492826,
        2.9603328065378776,
        2.9600696998896288,
        2.960218699829816,
        2.960170032281786,
        2.960220369194167,
        2.960647131213661,
        2.960241294932951,
        2.959392742098274,
        2.959595343740998,
        2.959608075435098,
        2.9600127666227176,
        2.9598048970604536,
        2.959882217994943,
        2.9596705582842326,
        2.9596639614631894,
        2.960135095131248,
        2.959926256599284,
        2.9606156836818895,
        2.9602999143189512,
        2.960012308774968,
        2.9598980991637007,
        2.9602078092549178,
        2.960413681500634,
        2.9598685306206534,
        2.959767160725172,
        2.960116456151591,
        2.9604495064674516,
        2.9600922655810513,
        2.960008956897529,
        2.960386587463202,
        2.9596663648111,
        2.960655666934662,
        2.9601310882418517,
        2.9605592877275404,
        2.9601264497628126,
        2.960208803690414,
        2.9599895503956333,
        2.960181506854204,
        2.959504732928153,
        2.9603119809800416,
        2.960638801236029,
        2.9600675045069207,
        2.9599986641054064,
        2.9599810935264528,
        2.9593218658654425,
        2.95987046501105,
        2.9598250889723263,
        2.959769568656855,
        2.959103641601449,
        2.9589538024538067,
        2.958143998119134,
        2.9580674599727237,
        2.9555134400877803,
        2.9533276533806774,
        2.949784016814205,
        2.9430561802519413,
        2.931916194779158,
        2.91583272774597,
        2.887934037752585,
        2.8882126836089563,
        2.8878718136881076,
        2.8886744885206714,
        2.8889135211277686,
        2.8886338802170246,
        2.888366164750177,
        2.8881072030795387,
        2.888026475575684,
        2.888200921808502,
        2.889246106584334,
        2.8884566849685833,
        2.8883242472346993,
        2.888481169896308,
        2.887964448259198,
        2.888638472742632,
        2.888976081450926,
        2.8887739527512823,
        2.8881904393893625,
        2.8882553543917435,
        2.8882787280250195,
        2.888143297140598,
        2.8879717301495806,
        2.888352977034132,
        2.8881315419853983,
        2.8882109878899014,
        2.888111876466235,
        2.8882669262061684,
        2.888196176802381,
        2.8887813040348007,
        2.888208723216166,
        2.8875464946087464,
        2.8883444838846275,
        2.887894874646517,
        2.8881729001169343,
        2.8878625580701884,
        2.888606387503861,
        2.888149863161009,
        2.8878848495083083,
        2.8886701416786376,
        2.888418601333203,
        2.888577602788982,
        2.8881673330720186,
        2.887713579068327,
        2.888462084602391,
        2.8880178426425975,
        2.8880312365055603,
        2.888434341509687,
        2.8879687189780268,
        2.8883174526509303,
        2.8885547778861067,
        2.888187416850366,
        2.889009365299603,
        2.8892254557412285,
        2.889886147280285,
        2.890000066124326,
        2.890920595072061,
        2.893222595943628,
        2.896294883798922,
        2.9012040299697723,
        2.9107337219293123,
        2.9229935108995084,
        2.945266154746849,
        2.9800230957884235,
        3.037159575093564,
        3.128561544135168,
        3.276703177666614,
        3.516354896874576,
        3.904421578881088,
        4.532227008908709,
        5.5492673007010795,
        7.193303898585368,
        9.854460533605906,
        2.000824266955345,
        2.0003701530374256
      ],
      "cols": 218,
      "rows": 10,
      "weights": [
        [
          -1.960433304976366,
          -1.9344645641413643,
          -1.9542736300832442,
          -1.820059327838647,
          -1.9386953058871415,
          -1.9826719552211245,
          -1.9602272637268559,
          -1.9525916317295307,
          -2.017424896641715,
          -1.8556363532158089,
          -1.8794392443348726,
          -1.8613609113674385,
          -1.9796838214500492,
          -1.8339147302352787,
          -1.854240408361247,
          -1.8654776164240374,
          -1.9194735494648483,
          -1.8487938147635234,
          -2.002058487079428,
          -1.7826176050778204,
          -1.82814684522064,
          -1.96590789595672,
          -1.8588525115906902,
          -1.7961945579854164,
          -1.821154172878602,
          -1.862083365498182,
          -1.8204347633996787,
          -1.7855691891459247,
          -1.9907732016837392,
          -1.7717803091703408,
          -1.7452331671418027,
          -1.9310769970121044,
          -1.9078916084392268,
          -1.781577397402079,
          -1.7918693205700338,
          -1.8056472993333548,
          -1.9260030340023904,
          -1.8676159179278615,
          -2.0154529630853233,
          -1.906796155255662,
          -1.8385996980741495,
          -1.799249677571784,
          -1.9056131147190942,
          -1.8051668075976774,
          -2.0031185682829067,
          -1.9425829018655287,
          -1.8845484012132923,
          -1.8964987379510538,
          -1.97487612146468,
          -1.9481430474832613,
          -1.8446562105780089,
          -1.9313471656749261,
          -1.9013330331324827,
          -1.9240316903997012,
          -1.9211544571762134,
          -1.8536143951479542,
          -1.9113435762774067,
          -1.9111488846689118,
          -1.7634036360114826,
          -1.8301694204772407,
          -1.899767368837633,
          -1.9275817187081035,
          -1.8328009885181682,
          -1.7963498100717294,
          -1.60778854729736,
          -1.7818803566100077,
          -1.5511607640695364,
          -1.3307940043945996,
          -1.054077902044737,
          -0.32896972361480603,
          0.5617994164547145,
          2.1611329003321273,
          7.643247821391944,
          7.742443027498157,
          7.765429497118863,
          7.661336285698109,
          7.682124118142205,
          7.71846199174648,
          7.8409002348203325,
          7.776732442115943,
          7.7958612551504025,
          7.849240365337461,
          7.670758336847776,
          7.799810839316101,
          7.686087264318246,
          7.76313482840925,
          7.726278073075216,
          7.67518965880635,
          7.671827797366264,
          7.647326354702933,
          7.626605393245592,
          7.65768143715167,
          7.859924129096163,
          7.744449813983143,
          7.852781822243579,
          7.647194223059263,
          7.77625769132588,
          7.749697419944051,
          7.786750711215267,
          7.782112943758467,
          7.707762587070494,
          7.667846995570612,
          7.677820169665094,
          7.659106114714005,
          7.715707245444535,
          7.716475784532764,
          7.8148141755857745,
          7.762813877128583,
          7.802936947254694,
          7.818540287331921,
          7.745675600042473,
          7.869947404007747,
          7.695329205194325,
          7.6712809441531435,
          7.557586195825461,
          7.5833171803282,
          7.898985704826152,
          7.653001208660866,
          7.6995115434135055,
          7.756329483972776,
          7.603910276929348,
          7.793607234025925,
          7.6894742096616655,
          7.789338559226725,
          7.702918636320064,
          7.634103296607035,
          7.789845221365924,
          7.662030281486568,
          7.812198252606808,
          7.724813732263771,
          7.877208871326933,
          7.710887775013041,
          7.646181318189651,
          7.75807876704217,
          7.623807929816863,
          7.607403052816712,
          7.511202162571086,
          7.460496760717156,
          7.4231333452329125,
          6.983013446049086,
          6.497199773388873,
          5.902596576976224,
          4.752773636093346,
          2.9638058147409354,
          2.9635585854949924,
          3.035265834151468,
          2.9922934154849083,
          2.9451879332784436,
          2.8888145367376694,
          2.873421607415632,
          2.8891726141947527,
          2.795115080075759,
          2.8051059882805234,
          2.856443721501109,
          2.8210277333992084,
          2.9186964583463504,
          2.75190838759164,
          2.9300484895020693,
          3.00206418093277,
          2.778176049526627,
          2.85369571725751,
          2.9176052515342583,
          2.861937249049287,
          2.8665423871116285,
          2.9881706906692114,
          2.952457512148462,
          2.9194997002877088,
          2.9242951258000414,
          2.8707528514673264,
          2.9518813563412847,
          2.789312183460701,
          3.043420693038842,
          2.8129635621296347,
          2.8032867257253398,
          3.0068576548985715,
          2.775242416982171,
          2.8995114200837304,
          3.0342167991601503,
          3.0451675584593443,
          2.787160890552623,
          2.869667075432613,
          2.8793427004428076,
          2.7770949236424363,
          3.0247249600663393,
          2.9861512681926246,
          2.814678604590591,
          2.7436822076008442,
          2.9894921328517197,
          2.9488262953559543,
          2.888023715819764,
          2.948813828949438,
          2.8338228875850398,
          2.8808972809631106,
          2.8849866339221033,
          2.936871956211634,
          2.807269635928527,
          2.87062541734969,
          2.7832313676592113,
          2.9831016666139942,
          2.931206469222169,
          2.8867168089474093,
          2.901291001261699,
          2.969860697015076,
          2.95077804218124,
          2.8820101929825745,
          2.990911642846516,
          3.1711479763774184,
          3.140961983621416,
          3.3956376252656275,
          3.656787963857999,
          4.0205352397778,
          4.747352866231044,
          6.172366782383982,
          8.000381270453047,
          11.33733543665595,
          16.51151571060191,
          -0.15856829967205446,
          -0.4223855135062513
        ],
        [
          0.38392136880982186,
          0.513877119641498,
          0.46290534434531566,
          0.4399769321520903,
          0.5362599767755768,
          0.47684265060727876,
          0.40965619280818183,
          0.4332546549229795,
          0.43124451244863743,
          0.36000611442688807,
          0.4751746620132934,
          0.46931680534006087,
          0.4107491350582024,
          0.4996486423267817,
          0.4274641590578507,
          0.37559780801170345,
          0.4776275233399469,
          0.3980759365273459,
          0.45448588234892173,
          0.43037639007641704,
          0.43874631470288145,
          0.4463095425474428,
          0.32755710053707343,
          0.5294999000601031,
          0.31755022724953735,
          0.4296991587556391,
          0.3520611754198517,
          0.521828140508039,
          0.48622054999281655,
          0.335363469785026,
          0.49067285586607784,
          0.3371919518340547,
          0.42057342657183316,
          0.38942440311466925,
          0.43160629521960253,
          0.5515431897960374,
          0.47266984561026304,
          0.4438454938929629,
          0.3852263352698651,
          0.3815314784454354,
          0.3983101060071642,
          0.38502413628303794,
          0.46902262559879665,
          0.4313657398785153,
          0.49544973479407756,
          0.5051227820626926,
          0.5334171533350458,
          0.4770136624496418,
          0.37032283678719347,
          0.43260762269135034,
          0.47882973772795573,
          0.47889863676386757,
          0.5184165713252789,
          0.41343529705440485,
          0.39688129354627655,
          0.4360432828917969,
          0.48760920751765857,
          0.48208847414324923,
          0.38192243463215764,
          0.3492181832552895,
          0.5741927348662007,
          0.5524655692700352,
          0.45041523465881556,
          0.4506099116176348,
          0.4943573020238526,
          0.656959867067461,
          0.8152384388684583,
          0.9796921311493061,
          1.138260276546204,
          1.590304270858663,
          2.4063269596308334,
          3.590268805052511,
          7.216021180002284,
          7.174373337772101,
          7.122702443553943,
          7.286721885467864,
          7.187522464755181,
          7.243867615748771,
          7.269312024791961,
          7.143075056349717,
          7.162448689056376,
          7.252822361874471,
          7.218799068022665,
          7.105712596880472,
          7.142123484823594,
          7.196249607181602,
          7.241405422703056,
          7.310563748852998,
          7.193255903324816,
          7.314552718215038,
          7.277733278052477,
          7.240110455137316,
          7.195215877519747,
          7.102643459241973,
          7.1705818842604,
          7.2755712188490405,
          7.137442242929871,
          7.2085519569199565,
          7.142604828104286,
          7.216009909327926,
          7.281875535338904,
          7.224175975104766,
          7.280546963319087,
          7.216845302601871,
          7.280502228500185,
          7.187477177139051,
          7.278659751398819,
          7.3337856674867865,
          7.267096999283711,
          7.2010971538963995,
          7.310388713041414,
          7.296107383802508,
          7.2611623995926315,
          7.251048784534349,
          7.281837558715258,
          7.170560850634483,
          7.205465637225986,
          7.283794496384473,
          7.301622302577329,
          7.286618801241526,
          7.204321926035913,
          7.227128528896577,
          7.222462295666194,
          7.18703712922893,
          7.173840064697827,
          7.3413491434475775,
          7.225504620821388,
          7.259544488266386,
          7.246483695758941,
          7.081321184909362,
          7.213056651230373,
          7.256684851764785,
          7.241310917150057,
          7.128868203187474,
          7.071797348519155,
          7.003142392037717,
          7.148167884623821,
          6.843013750821364,
          6.674592226647406,
          6.4875476587971805,
          6.016920905543565,
          5.067140077841013,
          4.074455254074625,
          1.9470225059434907,
          1.9294085176478035,
          1.936591575738325,
          2.009828913366442,
          2.0071689517892115,
          1.894837837395715,
          1.9539961866217137,
          1.9774455440095733,
          1.9964073472131154,
          1.9848298536979692,
          2.0503488446272944,
          1.879687972643054,
          1.9546780302742899,
          1.9431894592271015,
          1.9016092435959808,
          2.024137338311936,
          2.03520786241752,
          1.964672011932092,
          1.952649851415917,
          1.980791448012512,
          2.0567404791892714,
          1.9140552963843254,
          1.935727769467793,
          2.0151663656239664,
          1.893600768296512,
          1.8872683637793248,
          1.9252908319161506,
          1.917439316428387,
          1.8502858007686203,
          1.9956191174324664,
          1.9468267129466008,
          1.816652362692685,
          2.085739748359484,
          1.9967750603930332,
          1.9601346846122183,
          1.9212367361182674,
          2.0212865543414598,
          1.979460936122512,
          1.9833443773519408,
          2.01999743863164,
          1.8551857827626588,
          1.9103267536896715,
          1.968336337543777,
          1.9023343460692639,
          1.8679769643485324,
          1.9379372843948222,
          1.9832585326013428,
          1.940507805641131,
          1.9869725501750002,
          1.8653156899594194,
          1.9839602847293876,
          1.8312359900683985,
          1.9916404786925916,
          1.9154440826081642,
          2.0010992225112925,
          1.862305921794842,
          1.8305200628049978,
          1.8966023261919234,
          1.9272377679548118,
          1.92377422217535,
          2.1466830126145937,
          2.0160633501368928,
          2.1693981738001695,
          2.1292228058523546,
          2.4687669689778438,
          2.711581919933891,
          3.0881683941581892,
          3.765981764296532,
          4.75032521227572,
          6.409160326457994,
          9.412988234352538,
          13.815681451715168,
          21.288797720204307,
          -0.6715939524399264,
          -0.8566292570655493
        ],
        [
          0.4783430181162269,
          0.2867837155339332,
          0.38414564957768976,
          0.2957666809119109,
          0.2669910040326806,
          0.26902750902721656,
          0.43679768231001154,
          0.3669780885406765,
          0.30756302670572705,
          0.3384157640242939,
          0.24992086463333296,
          0.24913490246975228,
          0.13825771923972463,
          0.2124264589367318,
          0.22535673516695132,
          0.3597634156564131,
          0.3700031921502227,
          0.34989593102008665,
          0.3441666004075931,
          0.4570804290393233,
          0.40177373227814867,
          0.3950642951245,
          0.3214030884935655,
          0.34900022020334304,
          0.31405215590493746,
          0.21865191112309854,
          0.17638781724022737,
          0.21366883344288753,
          0.18029882965472388,
          0.13649305330269615,
          0.20107651369109322,
          0.20008228803922562,
          0.3374848125651666,
          0.21184920728404544,
          0.3132153931208381,
          0.2947105629614087,
          0.3963997857067477,
          0.2351556008994624,
          0.33845449851909803,
          0.27593066856976123,
          0.1881671418520132,
          0.13389710057045315,
          0.23544758329166196,
          0.3405723601559726,
          0.3082586911273489,
          0.2401918134300297,
          0.25952350782348854,
          0.27067384915458725,
          0.18254874370846375,
          0.18431573947399324,
          0.3040534067190585,
          0.37534527050041977,
          0.4395615746651877,
          0.3518166473284075,
          0.26540468851910076,
          0.3217502400758554,
          0.27639095999523067,
          0.40398301629085476,
          0.1871306223708427,
          0.37698896556966477,
          0.3586366181561267,
          0.3673138350291984,
          0.33646625949486175,
          0.2887112439259274,
          0.508326916281449,
          0.4519270752607593,
          0.7243296891376817,
          1.0095885712912933,
          1.144841623066435,
          1.682840366835362,
          2.9015353063339124,
          4.279999508276036,
          1.4247422712700506,
          1.3933972881682835,
          1.2904811463748167,
          1.4336360250931326,
          1.2067060551362265,
          1.2844051616431407,
          1.423940101218327,
          1.3778305636929202,
          1.3728627018437654,
          1.3169039206968622,
          1.342458751210869,
          1.4156465294809328,
          1.3575314560584446,
          1.4914529627802553,
          1.4309827097921002,
          1.3638019022041505,
          1.4842102464778821,
          1.3309780416289883,
          1.452236439121961,
          1.3798900818446027,
          1.2959412377062165,
          1.4470692227425008,
          1.3632514012820254,
          1.2824432205466119,
          1.4989892582240079,
          1.348606321784628,
          1.3154180306964367,
          1.385725598971935,
          1.4106988559900817,
          1.294666898229033,
          1.5604086064689435,
          1.3868872370406407,
          1.3245643945015797,
          1.2845984709097176,
          1.3746088843533977,
          1.4063029998817558,
          1.4067236369826572,
          1.227420053905043,
          1.3308905721621358,
          1.391701192530328,
          1.3783020386531883,
          1.2806774026849208,
          1.449264561143582,
          1.3724378129091142,
          1.4784410607774068,
          1.4058095591673014,
          1.5107093537100331,
          1.3700528909207919,
          1.451834267951859,
          1.4167444512947187,
          1.5053938528737798,
          1.3080418919077557,
          1.5064743412239356,
          1.4758504120454785,
          1.4385705727401006,
          1.3318699345079523,
          1.3957006871783924,
          1.2879316296563106,
          1.378816457194456,
          1.400514477192589,
          1.4450117483555347,
          1.4020306757013745,
          1.4533555829681934,
          1.3653089804394412,
          1.6049209406778466,
          1.6877830931473297,
          1.8211547674045676,
          2.1757732333905695,
          2.643161442072265,
          3.4428616514646375,
          4.747731701483076,
          7.0219561935678705,
          7.111969864835619,
          6.871084424394762,
          6.959212577784866,
          7.098757800852324,
          7.084923037243771,
          7.025258823408135,
          6.941328007220012,
          6.9583758993673905,
          6.944162021654874,
          7.106535132182519,
          6.989363874399538,
          7.080547253993072,
          7.12323087975755,
          7.01276187393056,
          7.06457704323379,
          7.093857855884438,
          7.082342738320444,
          7.042772634916221,
          6.900800582066536,
          6.907240738694475,
          7.011944677204762,
          6.850513838489181,
          6.893245858735297,
          6.935034489162758,
          7.011562410240799,
          6.879033621154168,
          6.927024036886463,
          6.924418227753451,
          7.0705963233083216,
          6.974668865813663,
          6.920690619722085,
          7.107781139451664,
          6.9784701966506555,
          6.930134269758693,
          6.952518190522486,
          7.041715715637367,
          7.003939709183841,
          6.938908417962742,
          7.103955413365819,
          7.01692092236133,
          7.029215558065281,
          6.983785473058903,
          6.876144315452703,
          7.097624176644381,
          6.96806389083247,
          6.883427244078171,
          7.100315881249888,
          6.857514247071493,
          7.140198631105875,
          7.1193910023335905,
          6.974874586939389,
          7.080456526900898,
          7.0526067350716835,
          7.213617018047999,
          6.966334490026786,
          6.951483621561134,
          7.030276706647979,
          6.995664351410987,
          6.9000870903739155,
          7.142297455895472,
          6.989209849613421,
          7.045444836131384,
          7.0446634491126305,
          6.955432479699849,
          6.939924617412802,
          6.656041843492035,
          6.3431415897572405,
          6.093376910799666,
          5.417676747541354,
          4.595881330997555,
          3.181855866712532,
          0.7689019823040362,
          0.244951327585774,
          0.09215697861926331
        ],
        [
          2.8571072547563494,
          2.6656323465721896,
          2.7830953442510635,
          2.7023100624418035,
          2.793139878971453,
          2.794806679556428,
          2.725088323555515,
          2.772258911468297,
          2.907119299629375,
          2.8514572631184265,
          2.7055603900739347,
          2.8753916302809985,
          2.9143105890639207,
          2.7802918733150315,
          2.7908253604770765,
          2.8880847639351175,
          2.757347799000933,
          2.830006367358106,
          2.707689875303445,
          2.7289514377717343,
          2.6810540865729524,
          2.7950070490144188,
          2.9134698047548135,
          2.6724510620874495,
          2.923105569192349,
          2.7947790515626374,
          2.8300557716659274,
          2.6885906941201525,
          2.7083695403617853,
          2.8369493996086543,
          2.711822160872748,
          2.786515512582443,
          2.775242368586693,
          2.8422424733779112,
          2.915306382196355,
          2.7403909793134917,
          2.782162666641785,
          2.7838996408051204,
          2.8311932520118943,
          2.7969938320441465,
          2.8180127534518946,
          2.813406291431341,
          2.7091855524831434,
          2.8670535479904267,
          2.797417041067291,
          2.818980452062326,
          2.8217805365689466,
          2.788630165967022,
          2.798873948898103,
          2.8320098548750186,
          2.782780410492538,
          2.7390021504771997,
          2.764888901698503,
          2.82437982443721,
          2.8895933082618157,
          2.8709178757860223,
          2.8310387747814434,
          2.836313455280914,
          2.8444449345480884,
          2.892216251519921,
          2.7311572972507228,
          2.681955455179379,
          2.9208800689962398,
          2.913316118786679,
          2.7666491076757906,
          2.9623169904661153,
          2.9034260578455866,
          2.9816844096164004,
          3.195029009962458,
          3.319598580774531,
          3.877790224156791,
          4.450621100239366,
          1.6045749077146487,
          1.5255769607752052,
          1.6064148124626723,
          1.5507067477715053,
          1.481508611886734,
          1.531401939064308,
          1.5003589128660435,
          1.5568225675738718,
          1.5640492370549963,
          1.5517557916156535,
          1.5075454989098318,
          1.6351279646194699,
          1.5793538126206292,
          1.6369054403615986,
          1.5954494775543593,
          1.599001238494512,
          1.6788350733515387,
          1.5209067595033425,
          1.5498173449714339,
          1.6145085554424197,
          1.5935708096006513,
          1.6569346401944123,
          1.5639125597841264,
          1.5638751492723737,
          1.5697277490882826,
          1.4727175436286477,
          1.5631792861299274,
          1.5830670501507327,
          1.5979720806043862,
          1.5334196932462674,
          1.5791534182366238,
          1.6104735977231832,
          1.4820409211529597,
          1.5298474154509778,
          1.5988357465489431,
          1.534328990429275,
          1.638986175365484,
          1.5101633094638818,
          1.487857259002086,
          1.4764597421958408,
          1.5704669772198687,
          1.5673733435303066,
          1.583839688825065,
          1.584908146377904,
          1.6438033807726182,
          1.5648098945829978,
          1.4812849993222161,
          1.537405846973239,
          1.572221134447196,
          1.6494406599695404,
          1.538315800202573,
          1.6182735793224818,
          1.5524665418167678,
          1.516548351146425,
          1.5347374119094535,
          1.6661989742055987,
          1.5535387268822098,
          1.6053329770130411,
          1.5482475768118713,
          1.5459010709805954,
          1.6141009183648505,
          1.5210018585576528,
          1.6100658289845686,
          1.592387337578926,
          1.5824278627107187,
          1.7817707158107836,
          1.7027014728596,
          1.837192096318924,
          1.9415460685672674,
          2.2837123522342515,
          2.374252382333267,
          3.1023819151723613,
          3.0802667630764446,
          3.0134998014884533,
          3.08977186674098,
          3.042501436000617,
          3.1538521529354453,
          2.942241939248131,
          3.0497767979600092,
          2.956967046377017,
          3.0694286543675773,
          2.9713361926531663,
          2.961292891466375,
          3.1121481198868337,
          2.9394763763583525,
          3.0427104418820266,
          2.9920690894199597,
          2.988328396885934,
          3.004441896116101,
          2.9930645415660195,
          2.919320192894603,
          2.9189500864308164,
          3.1412715311246564,
          2.9684608426390167,
          3.0078202478301894,
          3.1073969201200553,
          3.13676690393788,
          3.026444854530896,
          2.9982488394788356,
          3.1661819083351217,
          3.000722292277919,
          3.0249154548545034,
          3.0871357607005043,
          2.894026870981632,
          2.897807600263064,
          3.0302878822232273,
          3.0121617171731887,
          2.979365004875567,
          3.0699653013194093,
          3.065532886293732,
          2.99873284960985,
          3.105707313570842,
          3.0496784119806266,
          3.036837154377962,
          3.01886419139509,
          3.1085608883641958,
          3.074669147811096,
          3.028097916266756,
          3.0670894559579445,
          2.9650155425740863,
          3.0417568462695934,
          3.0638582731994037,
          3.115139093558177,
          3.0449427384819936,
          3.093001513254631,
          3.098389296680033,
          3.11971119643614,
          3.1209528570507716,
          3.0535221738779317,
          3.0151640678023552,
          3.0646092585566134,
          2.9984024468735506,
          3.0295383591210614,
          3.147372242302247,
          3.2048491099387,
          3.1101394012120833,
          3.2290298531669994,
          3.44076314134153,
          3.609599771049246,
          4.073320524220747,
          4.822440404336212,
          5.815046396240781,
          7.633836346586385,
          10.383309605876395,
          -0.40119943379085965,
          -0.38761110033035284
        ],
        [
          -1.8896719510425695,
          -2.0524250563052564,
          -1.8683959078491204,
          -1.8971249832475396,
          -1.8047285982679746,
          -1.8871131111804642,
          -1.8460479193288502,
          -1.8499428511177887,
          -1.8328316952091588,
          -1.9704099038602416,
          -1.841325875843263,
          -1.9419199295131897,
          -1.8831339846625026,
          -2.006738016911227,
          -1.971675516398028,
          -1.7653570802173544,
          -1.9087545750322894,
          -1.8257663229307075,
          -1.9201594497701155,
          -1.8944591385584773,
          -2.007472343252786,
          -1.8938681079776016,
          -1.8584799867486401,
          -1.9362256275522653,
          -1.8529522917171641,
          -1.9104881954201456,
          -1.7877266183131586,
          -1.9668604734386765,
          -1.8971621150255837,
          -1.8036438044953729,
          -1.9757130293647625,
          -1.7886015501667916,
          -1.8977178639632126,
          -1.9009881996546443,
          -1.8154813437079982,
          -1.9996011100978193,
          -1.8883348884642213,
          -1.8940506188654813,
          -1.833268779148261,
          -1.9199442947073848,
          -1.9092042225114998,
          -1.8321998691514043,
          -2.021719315645829,
          -2.023134040866814,
          -1.7729998429751095,
          -1.820253280923104,
          -1.975396174597575,
          -1.9350265178475623,
          -1.81673531609629,
          -1.851597799753525,
          -1.8681491878209344,
          -1.8073968214667753,
          -1.8907206159249985,
          -1.8216179641591848,
          -1.8652933645802807,
          -2.004711972135052,
          -1.8765691041026948,
          -1.8493967091107302,
          -1.9786120907349232,
          -1.8855047393369768,
          -1.9855682587643217,
          -1.8773802914514224,
          -1.836972480192543,
          -1.7917310008988903,
          -1.9137460617681725,
          -1.657740241356391,
          -1.5491664983564615,
          -1.5470628274847589,
          -1.224506515963687,
          -0.7806151427006706,
          -0.25993828081614684,
          0.8440895823116548,
          6.722266321299246,
          6.610735967530412,
          6.780292343894434,
          6.5870831207501634,
          6.80723945755786,
          6.66296423231325,
          6.57830737997402,
          6.641140677226223,
          6.639167935161215,
          6.485428692227027,
          6.789091712735178,
          6.749946639439481,
          6.64563642613145,
          6.551184244662523,
          6.634679825749618,
          6.508785907694258,
          6.683882024647952,
          6.764042999658481,
          6.630841028901213,
          6.687862795493164,
          6.607777163438527,
          6.776024321260355,
          6.5471096641182,
          6.7681774845409395,
          6.783127989031268,
          6.6625578873975675,
          6.745965631432206,
          6.679950444104781,
          6.603896326709675,
          6.781491648406998,
          6.775408412264825,
          6.722383681496199,
          6.6942747099809345,
          6.618838026899871,
          6.655619683736525,
          6.617188626216276,
          6.646199926669956,
          6.590420587293828,
          6.73097738396264,
          6.58253023904127,
          6.568119933125467,
          6.760385194026032,
          6.647297439347632,
          6.7161594420231285,
          6.571806064785907,
          6.718840029188852,
          6.76184898330229,
          6.643207719872078,
          6.662194971460682,
          6.69445023723757,
          6.562559229401419,
          6.700438373187588,
          6.690188616189522,
          6.530202336786196,
          6.62134091717566,
          6.594600443565975,
          6.4872473054807935,
          6.769791821712357,
          6.628189475487543,
          6.629783506033932,
          6.577448511269698,
          6.593282686827754,
          6.625457055324406,
          6.573649481087578,
          6.371923245890887,
          6.256364027256881,
          6.179088616697501,
          5.954955000588439,
          5.485827158961571,
          4.5654966859166395,
          3.352914207832097,
          1.2783006022738226,
          1.12203145018392,
          1.2301620470518506,
          1.169774851958627,
          1.2102079118013511,
          1.21172864329365,
          1.224641665164857,
          1.224242619085734,
          1.302716118176082,
          1.220309825493812,
          1.188802188913329,
          1.3266005839873942,
          1.1343741918357704,
          1.363798690914056,
          1.2291732724026363,
          1.1459315953715155,
          1.2238555291824984,
          1.2287888442669959,
          1.320069924463202,
          1.3526381978640762,
          1.2930616350221564,
          1.1628926568255893,
          1.311218756455942,
          1.2681744338346188,
          1.2499003550203929,
          1.3567605693422713,
          1.343197089340796,
          1.2655902389742808,
          1.2949774552812188,
          1.2263523125320488,
          1.3262425929247768,
          1.1105429370753643,
          1.310658804604251,
          1.2750305525091166,
          1.1460151500601228,
          1.1540176075735333,
          1.3423758316855305,
          1.1600009917580245,
          1.1709455887439932,
          1.1770425231100434,
          1.1421379247766956,
          1.2098374597022865,
          1.2822012427486376,
          1.3091431721652511,
          1.346081659452663,
          1.2271415665871637,
          1.1942137806831297,
          1.1465189811983256,
          1.2983741790814787,
          1.2593084127826184,
          1.1731026963805646,
          1.1847412611403583,
          1.3653284675263238,
          1.3788232614617575,
          1.321595301212279,
          1.166731111913637,
          1.310521002173867,
          1.351110922599682,
          1.3566949528763261,
          1.2466022268453947,
          1.2169371393827075,
          1.3991332047389042,
          1.3195309607155832,
          1.316512011356945,
          1.465838844661191,
          1.5794501322346821,
          1.9979017761529152,
          2.3505750226684556,
          3.18623006977824,
          4.160566139462319,
          6.147055214770658,
          9.049881311319421,
          13.943406495669407,
          -0.046270488881116206,
          -0.3314758822335057
        ],
        [
          0.01787535645283372,
          0.2493235024246975,
          0.05635963577097299,
          0.13924911089843336,
          0.21936355050013648,
          0.11646946940592912,
          0.021188192408154654,
          0.0675052169823756,
          0.18147660479458536,
          -0.019683521140256878,
          0.2588946940859155,
          0.1641128532215367,
          0.1887640664501896,
          0.3241835005604255,
          0.2731939589053951,
          0.10932912228241846,
          0.05533817560866415,
          0.08762767717564725,
          0.038920306109868304,
          0.01272974729704595,
          0.07305920974913778,
          0.056474897331620304,
          -0.0035393979451898354,
          0.08953279774019011,
          0.06610658333012516,
          0.11703537799449411,
          0.20086487288425828,
          0.030448007191820763,
          0.2390270812666853,
          0.13070419682536868,
          0.16246385077830644,
          0.11535093373653806,
          0.06982734781710989,
          0.2503943428672945,
          0.12228949448745671,
          0.1273872388035067,
          0.22459086644410148,
          0.030320454031876443,
          0.17690550886770431,
          0.07898895483509495,
          0.1141658049247614,
          0.17568761674497274,
          0.20063530538631333,
          0.10964116709041644,
          0.1453988748519954,
          0.23529785721302224,
          0.18178965168119054,
          0.06490978426788703,
          0.07160871222983009,
          0.23572320721931414,
          0.14609854534347608,
          0.062495179956603725,
          0.037760559616001964,
          0.05012281336129469,
          0.10667642192429892,
          0.13432675468001232,
          0.1517281106806992,
          0.09555389918295089,
          0.17045832092712615,
          0.06507150970757532,
          0.22580186716079861,
          0.0583563157656716,
          0.18116091344983637,
          0.2684200046476925,
          0.20839080533253806,
          0.3089051134006588,
          0.5735749623884705,
          0.6759089761960292,
          1.0843635205612314,
          1.670597733514623,
          2.513179508274907,
          4.150312707820015,
          1.9979039207246678,
          1.7938203538968065,
          1.873799569307337,
          1.9016586869232628,
          2.0401621489778536,
          2.082670534588592,
          1.9914690633382517,
          1.8644501343218,
          1.8889200330296319,
          1.890449737168906,
          1.9260998685405735,
          1.8077806439177513,
          1.8977015747572539,
          1.888102665884115,
          1.8534190151123522,
          1.9641887957478843,
          1.8540848824440401,
          1.9632563390425075,
          1.981633462366597,
          2.0102767536995274,
          1.8110586513947358,
          1.7562301910029723,
          1.7914415691311398,
          2.021695052661596,
          1.747773904189845,
          1.8826859318569373,
          1.8885594183207155,
          1.7590631202076437,
          1.8899250117153537,
          1.9571475488410268,
          1.8518614615425755,
          2.0036825900369495,
          1.9202456044067278,
          1.9645353561497718,
          1.9636299875271488,
          1.908562972325191,
          1.8178754117142764,
          1.9852706434371672,
          1.9349192112308526,
          1.989189755773129,
          1.9157029819127034,
          2.043003578896468,
          1.920337971334197,
          1.8352363007512478,
          1.999331667341171,
          1.8816446918777028,
          1.890196622657281,
          1.8841213786652438,
          1.9121649267186587,
          1.8396826876608534,
          1.808206390768246,
          1.8536189153543987,
          1.8426481473228937,
          1.9403829126416123,
          1.8604950150877495,
          1.9632276116909546,
          1.8797902489632687,
          1.9211168001446768,
          1.8783482392478839,
          1.874426312260725,
          1.8980449345325485,
          1.873554822011355,
          1.952335269454678,
          2.1044114459998817,
          2.107197393162904,
          2.046630780930809,
          2.344066496822836,
          2.742142925007292,
          3.101181318979811,
          3.6873016150736007,
          4.988108283021098,
          6.5955951036077805,
          6.591104004922719,
          6.7836199359536185,
          6.870026879358553,
          6.795099939285269,
          6.752463037440433,
          6.707281422267601,
          6.744163871992348,
          6.6869914283996685,
          6.743703157986638,
          6.83890129557956,
          6.812523948611061,
          6.635588413204239,
          6.639446717737979,
          6.578941650373239,
          6.688931713676771,
          6.797154095876499,
          6.764259824764492,
          6.657417481630312,
          6.814858983856497,
          6.795025855736475,
          6.687117754869006,
          6.816728171030114,
          6.818847331399034,
          6.808873248875054,
          6.71887299561839,
          6.788306696797915,
          6.82278954822472,
          6.841208374622129,
          6.819259893759649,
          6.767801605006328,
          6.646911189101014,
          6.572978100115367,
          6.591364428532712,
          6.761365093600925,
          6.62802357745304,
          6.730009241702435,
          6.682256465917452,
          6.660740375272293,
          6.6689978061321975,
          6.779229413174249,
          6.775427980375819,
          6.71932149593112,
          6.694764766092508,
          6.71501078591565,
          6.677438668526875,
          6.766184510064615,
          6.651233524972664,
          6.74234918854111,
          6.593773047239926,
          6.637275621544795,
          6.711174530629191,
          6.685500115958477,
          6.752976495103974,
          6.625281508489972,
          6.722504350834178,
          6.692608425934105,
          6.68392241045677,
          6.674952540733144,
          6.7198394272220145,
          6.713854324773712,
          6.612901936323955,
          6.690884667648719,
          6.559686325949059,
          6.648568256205729,
          6.419222702826799,
          6.491713714073549,
          6.3959998282918304,
          6.025299761961509,
          5.696750339415998,
          5.097742919871749,
          3.850257951754133,
          2.2010663511245623,
          0.15011332373258848,
          0.12327051777402342
        ],
        [
          0.0522928504017082,
          0.04827231231626434,
          0.14537444982273443,
          0.10118674711435095,
          0.16703575530278028,
          0.21788067228603,
          0.05997240050186937,
          0.12354964073019119,
          0.12095593391217445,
          0.20777967767532773,
          0.058492145944330685,
          0.2164982465403493,
          0.26751026323609267,
          0.08222955984231019,
          0.06311690775481857,
          0.08621721899731404,
          0.16400251169605695,
          0.11389440716444711,
          0.166543445165697,
          0.06767309000345209,
          0.0507319229951658,
          0.1268359679093066,
          0.20497025961374585,
          0.16139348981222826,
          0.1392092901803569,
          0.2277862897682062,
          0.1348320746542606,
          0.35530811241890814,
          0.15908943285774418,
          0.2324865801336021,
          0.2193088523228775,
          0.1654526047717111,
          0.1408553095646798,
          0.08677045367887315,
          0.17740403635095078,
          0.22435928119145063,
          -0.02549929882558999,
          0.30502555788783,
          0.0254162593954304,
          0.16810790907802053,
          0.24378978827923323,
          0.2240855715584546,
          0.12763014631525232,
          0.14409468377362356,
          0.16721222162133365,
          0.16218720994759528,
          0.22151658548592962,
          0.2661534597708459,
          0.26051540251295924,
          0.1609957309837425,
          0.15050207250849915,
          0.14647062432774544,
          0.15078519604944746,
          0.16024602139909366,
          0.20401614331658735,
          0.14759373182417349,
          0.20523136074373988,
          0.135830783532591,
          0.20210027740762432,
          0.11841547108862778,
          0.12113516346747244,
          0.268149930574897,
          0.2289114392588528,
          0.25787737905588304,
          0.19133341243238883,
          0.5492270016133328,
          0.42547900682018674,
          0.6960883350816311,
          1.1600176906554374,
          1.7455804028115762,
          2.6627862682572894,
          4.2222920624296485,
          1.351226812671697,
          1.5195591330899576,
          1.5308200998400618,
          1.478095056938685,
          1.454856245789419,
          1.4017533998739378,
          1.362878470620641,
          1.450309222628645,
          1.4501073024752236,
          1.5767474871123828,
          1.4685546812046968,
          1.467774542094679,
          1.446056674014984,
          1.390142207672518,
          1.5076978731161637,
          1.5238641201723384,
          1.4449087484933758,
          1.530609040759941,
          1.3719333867882715,
          1.4082752079175207,
          1.6443209564580896,
          1.4946168130351172,
          1.5638915189168276,
          1.5041622469466256,
          1.445363795995736,
          1.4842483384607574,
          1.4908504289645153,
          1.6205781110999662,
          1.5270368591097268,
          1.5008201291103578,
          1.4063236847881493,
          1.3869816759299831,
          1.5360359497972627,
          1.4713862580999835,
          1.4874002598340763,
          1.5308827536125003,
          1.606032337653239,
          1.5116922467005238,
          1.5419512919769598,
          1.4102807240588116,
          1.5038987669389294,
          1.4660754979430017,
          1.451852369872101,
          1.5190284279867823,
          1.30351017256851,
          1.5285657942642834,
          1.3966472053182488,
          1.5533662179369243,
          1.3868059053542274,
          1.5455277385758581,
          1.4402078314054148,
          1.593302040201233,
          1.3702636419369494,
          1.4329004926414277,
          1.460298564069118,
          1.549472921753183,
          1.5187630765073816,
          1.4739025610529526,
          1.5303103310448067,
          1.5727216338793522,
          1.5569250123503453,
          1.553187645096423,
          1.5118319189595446,
          1.5448936772001762,
          1.685627264117862,
          1.9080081180855348,
          1.9944846322371919,
          2.2532021869797054,
          2.873519969791011,
          3.7390745819632816,
          5.054493876981704,
          7.304416250212929,
          7.196361624758422,
          7.224547939682804,
          7.142561164033642,
          7.057581656523795,
          7.062451991024345,
          7.132198119741815,
          7.242795166009913,
          7.2615210122794815,
          7.2545268980153015,
          7.014553677103918,
          7.009101928630606,
          7.217475682099735,
          7.092622486439629,
          7.268042143626883,
          7.1909767597523935,
          7.062665094566075,
          7.0532302610945115,
          7.183372079509924,
          7.164193229803747,
          7.241199871296802,
          7.211963051143123,
          7.193621848241582,
          7.232252970937688,
          7.13539091643769,
          7.155560089191125,
          7.207439425289975,
          7.107781028239178,
          7.101922596515711,
          7.03463847893115,
          7.149352092175067,
          7.237578661443342,
          7.277009050359542,
          7.314363404824774,
          7.214658548394749,
          7.284494171472151,
          7.165630116113191,
          7.250790949673371,
          7.338729942377062,
          7.171070628480414,
          7.050680419007893,
          7.066252730356731,
          7.211525701515999,
          7.281366897070733,
          7.045399265177799,
          7.25900882131988,
          7.27430020730897,
          7.152361244801459,
          7.30259051445174,
          7.09389325205351,
          7.181373018852919,
          7.142661688168085,
          7.169676265727942,
          7.083973033538724,
          7.122137436866396,
          7.158444604192781,
          7.169850281412919,
          7.119225312473352,
          7.157356399315621,
          7.1985250147076245,
          7.0819560854475885,
          7.166205404413728,
          7.095720449348494,
          7.0318972619183056,
          6.985914974647461,
          7.002030456527273,
          6.836934765180356,
          6.627169596800094,
          6.225080597621641,
          5.632938559304576,
          4.653885890581392,
          3.127918772166061,
          0.6353615657587517,
          0.16306129198852407,
          0.19106916603971497
        ],
        [
          0.3799176313073882,
          0.42609554713751524,
          0.2996192538791414,
          0.5719047215668936,
          0.3699893085069103,
          0.4881126826075085,
          0.3823005191243604,
          0.6091265435691837,
          0.559020058092407,
          0.5697243605580928,
          0.4330992232960807,
          0.5461679352526319,
          0.4037705473696451,
          0.5591035654725437,
          0.6410563605495133,
          0.6428904846637589,
          0.5189677221938003,
          0.6643637233625601,
          0.5011759718891482,
          0.40936541516950425,
          0.3614241442393576,
          0.6654594504026426,
          0.4056528016683435,
          0.49820408290751655,
          0.5862957951444572,
          0.5037467005271962,
          0.5278104946955755,
          0.5283058089251867,
          0.6227930784873671,
          0.4219084138534352,
          0.5262744515141374,
          0.3980711169091148,
          0.5808993727410356,
          0.496402009978324,
          0.4458869315660228,
          0.6285091801935473,
          0.39817025321487903,
          0.47348657283866713,
          0.5616164337616764,
          0.46557515591794224,
          0.5340531295596979,
          0.6283450068324665,
          0.5309741042951145,
          0.5829990387436266,
          0.556317178334141,
          0.4568099139929554,
          0.49374695072738883,
          0.6386678021201011,
          0.5829989452486553,
          0.3897001617890599,
          0.3917809899873748,
          0.6614938196328575,
          0.5635782165161445,
          0.38228121075323757,
          0.6174474020776947,
          0.5694931340839283,
          0.4378082254483603,
          0.5898091339574798,
          0.4773441156112643,
          0.4213488219946022,
          0.461351269050719,
          0.5312440863455161,
          0.5715793278574042,
          0.602422571251057,
          0.445430991601725,
          0.6071397444633652,
          0.6374918215095075,
          0.8772160488790041,
          1.056230308392957,
          1.4042562934232081,
          1.726385928078657,
          2.684729692235572,
          2.454848723006173,
          2.615814095589636,
          2.6212144194557663,
          2.717707087363501,
          2.6739729524511584,
          2.472531198201246,
          2.503373032266478,
          2.545643238056807,
          2.4971779706528596,
          2.536186104128324,
          2.4619917898974726,
          2.465865535098177,
          2.6560260039019563,
          2.4901861449127347,
          2.6711624283697715,
          2.4685959782164537,
          2.4372659885089516,
          2.611125020904677,
          2.7079602727054013,
          2.4992778330038585,
          2.584207073450182,
          2.66374108417479,
          2.5653651649187066,
          2.4817270942147704,
          2.4907361352857,
          2.670123664843378,
          2.5539148614248064,
          2.7379405514589803,
          2.672732501061299,
          2.5565463069070735,
          2.571782825494888,
          2.596283740417103,
          2.734152166275977,
          2.6326634312519013,
          2.659025361143744,
          2.4479986203119055,
          2.593444281060001,
          2.630497221179184,
          2.539501259854524,
          2.438889775722107,
          2.381878005161295,
          2.6487002846963343,
          2.520118080603851,
          2.5325181663076077,
          2.5353112942176628,
          2.6566998472361885,
          2.4938019313461486,
          2.5987830636322147,
          2.436739460295167,
          2.690599818446044,
          2.631841087034943,
          2.4360867818457237,
          2.569163042912054,
          2.537966231867617,
          2.494518227399957,
          2.5604343880524536,
          2.583694993069848,
          2.5089053295775106,
          2.5722743936278847,
          2.675495425192786,
          2.6363577988354674,
          2.496825005768126,
          2.7088895390647862,
          2.535989462159498,
          2.590387942815008,
          2.5175166116065566,
          2.767509586293128,
          2.835362138015154,
          2.7862470271120507,
          3.0409933653579486,
          2.9669804088612683,
          3.2905761104705857,
          3.516607958468971,
          3.412850925672395,
          3.255992018891038,
          3.4596964959808645,
          3.448358331097024,
          3.2369423699611706,
          3.433882801897932,
          3.3770731054197007,
          3.4399821468429086,
          3.4170436531318917,
          3.5271599698443543,
          3.478666018425177,
          3.5011582228943796,
          3.30161264289255,
          3.2775748024837306,
          3.463239860189656,
          3.428777737548534,
          3.2626679936540453,
          3.468620614087551,
          3.3244136812369165,
          3.5156304769341857,
          3.4328722463845383,
          3.469572866085773,
          3.2269591472996426,
          3.4041397745492445,
          3.386288233647402,
          3.5137392566916597,
          3.5315855060135752,
          3.362350465434197,
          3.2990037984775706,
          3.2610742190092084,
          3.4576617226082105,
          3.5609614208053095,
          3.441941213832811,
          3.4056783812921867,
          3.3672492690651548,
          3.268802151822441,
          3.2819197703020535,
          3.4259657306930227,
          3.3722822918041007,
          3.255865335639171,
          3.3059346661175457,
          3.5644571142087846,
          3.294562448435163,
          3.4908593938918933,
          3.2965947007091176,
          3.549429973062937,
          3.481188681056384,
          3.265739346994429,
          3.4153413749542048,
          3.5099876433660238,
          3.382017430322324,
          3.545333211934889,
          3.456180999969235,
          3.2818421935786746,
          3.2583633132610936,
          3.324719699517699,
          3.415431306782257,
          3.512871021290495,
          3.4023928170049658,
          3.4530610980950103,
          3.402157230109017,
          3.4301149101330823,
          3.479539556733475,
          3.657189573589202,
          3.4923830321699048,
          3.7728931909705867,
          3.912993123239633,
          4.348145228886287,
          4.821262162562123,
          5.866223773287516,
          7.32243971497219,
          -0.0005043368216317262,
          0.12439856905391208
        ],
        [
          2.4099208979537585,
          2.541477734767944,
          2.437308497396342,
          2.5577880745038586,
          2.3611051853581118,
          2.409989081826613,
          2.555757341961668,
          2.474558914731628,
          2.305306858181055,
          2.437360660309258,
          2.52396460352236,
          2.3131873178594486,
          2.3151369032200875,
          2.407180506420395,
          2.455465064713676,
          2.3765719808524004,
          2.456133897254017,
          2.4310277940885103,
          2.539459172409573,
          2.532543275234523,
          2.5865982063855175,
          2.434242336827751,
          2.3870359940108474,
          2.5195520462701295,
          2.3822729870870156,
          2.4501737378558754,
          2.471169936100432,
          2.5063666000373215,
          2.510559097069365,
          2.4777214917205335,
          2.503062421921176,
          2.5404805851026095,
          2.4821871484467044,
          2.4232980387247864,
          2.2950957400003915,
          2.413720295626039,
          2.4283213221864717,
          2.4525197796808618,
          2.440933225605404,
          2.4887376446854046,
          2.4474541013657323,
          2.464266812576585,
          2.524389587360353,
          2.355692885195337,
          2.3898806723713877,
          2.3545326481578073,
          2.326785863667819,
          2.4169929567035684,
          2.495975631367311,
          2.400580184406381,
          2.423559624419986,
          2.4782479193402436,
          2.4120446473118435,
          2.4276396798030286,
          2.358973006832625,
          2.3499196502880064,
          2.359316429922482,
          2.358923091967607,
          2.4395672303863103,
          2.414361949749689,
          2.43800536898981,
          2.5394201343207383,
          2.3542269675204284,
          2.414842310308298,
          2.6465082538670504,
          2.39328255632991,
          2.5474704021204073,
          2.6569218175527727,
          2.8175085353847438,
          3.1883623587973133,
          3.263652372639359,
          3.920628218017063,
          0.8706105580659711,
          1.0067643052705337,
          0.9486106204090747,
          0.8776558886062511,
          1.0510825053465005,
          0.9401134834061633,
          0.9568724163393563,
          0.9939864390131339,
          0.9682778750941372,
          0.9065229998501952,
          0.9924083798611715,
          0.9270230606934824,
          0.9657613215834772,
          0.8463251308638018,
          0.8601037013006013,
          0.7973461760949457,
          0.7962146488196464,
          0.8924712604215411,
          0.88606287313491,
          0.837532750299784,
          0.9031480779305547,
          0.9010597219842567,
          0.9615926192735165,
          0.8720297544802408,
          0.9826883351370787,
          1.0442245746539687,
          0.9863209925600231,
          0.8977435238422193,
          0.8223031116508115,
          0.954270878310828,
          0.847170931168154,
          0.8619132807999819,
          0.970569511346615,
          0.9896965943864424,
          0.8237597015510557,
          0.8594297157786696,
          0.7835332391297797,
          1.0031894460322237,
          0.9384373070123163,
          0.9649396609688266,
          0.8762974876182575,
          0.887682062067843,
          0.840740163297475,
          0.9352588945668496,
          0.8288111406912573,
          0.8629212270939802,
          0.9539507655529184,
          0.8954580954945239,
          0.9222022892990399,
          0.8036395807231654,
          0.9489221822049181,
          0.8793144156027092,
          0.9724048895567642,
          0.8749622090031167,
          0.9515508802764884,
          0.755336517450937,
          0.9094245353197213,
          0.9857707298337715,
          0.9447108935515323,
          0.9102349496451358,
          0.8369770252593953,
          1.0525265765423588,
          0.9871554933540304,
          1.0697945343854323,
          0.9583795494992003,
          0.9688127392778053,
          1.2136373664231577,
          1.2056917080919425,
          1.4818653906546129,
          1.8677035505744413,
          2.6159758207072534,
          3.533073305042287,
          3.574727707767772,
          3.6542058784717746,
          3.494376400344272,
          3.555530129774529,
          3.510308346870355,
          3.7301585040387546,
          3.573003332165662,
          3.675268543864145,
          3.5416164907978267,
          3.6088500335324567,
          3.767749924054459,
          3.5126782794389886,
          3.741660518636318,
          3.6474476110102643,
          3.6063573397714266,
          3.6004777804356043,
          3.6405168648321005,
          3.6669201648720073,
          3.73544774272893,
          3.6718651284376036,
          3.5102955931196878,
          3.7119346171245935,
          3.5934828895167126,
          3.572119929128688,
          3.5393493652059047,
          3.647140808697607,
          3.6889968594715503,
          3.5326714081083077,
          3.619232401319691,
          3.631251538545754,
          3.664150806279409,
          3.6783863250018047,
          3.749394524146623,
          3.6122041164835674,
          3.669074274807928,
          3.6247445499970734,
          3.546420238771932,
          3.549054857639157,
          3.6009186343200517,
          3.605794528818641,
          3.630322323198465,
          3.5978340321619657,
          3.676402732117996,
          3.5917528502108276,
          3.5749823007172066,
          3.596452959149172,
          3.5817252200327943,
          3.6729366627427624,
          3.680008446907645,
          3.5501359973848268,
          3.6157189636457807,
          3.5687088769700823,
          3.5730575364139114,
          3.4955524057368996,
          3.591306614394695,
          3.622608278234652,
          3.659525796433521,
          3.6953070104930803,
          3.65696534808405,
          3.5850793262182834,
          3.7154840846693475,
          3.52666176513333,
          3.6374584116933684,
          3.7092692748322578,
          3.742088192583,
          3.7860497457349815,
          4.017307880620352,
          4.246230997412848,
          4.560503492877567,
          5.075149822523235,
          6.028337208515565,
          7.518063384999838,
          -0.20943435045727085,
          -0.06847937104976225
        ],
        [
          -1.9177757940285907,
          -1.8871695384647218,
          -2.0147095870911045,
          -2.087361426997351,
          -2.168874449798775,
          -1.9831836263337914,
          -1.9705340736827532,
          -2.003898014425786,
          -1.971692954912187,
          -1.917114883723994,
          -2.11971116237115,
          -2.052517719771276,
          -1.9396185832142185,
          -2.033946863629417,
          -1.9778889469198029,
          -2.1329234921997084,
          -2.0205295602287636,
          -2.1041740265995115,
          -1.8971587218888262,
          -2.1208024692828076,
          -1.9648313537666728,
          -1.9625367155013282,
          -2.001341623664219,
          -2.1574093534012695,
          -2.0360762304433004,
          -2.0333652178240547,
          -2.1250907857316643,
          -2.1315455909974887,
          -1.9638473643061127,
          -2.1417881675213555,
          -2.1354358265517996,
          -1.992982378392787,
          -1.9886168683982646,
          -2.089684899246281,
          -2.215714979382433,
          -2.1152813518706046,
          -2.0332471411775312,
          -2.0566735294836698,
          -1.9177481635691138,
          -1.9313596577177061,
          -2.0297570437838695,
          -2.132478131552264,
          -1.907294414931611,
          -1.9884221473632497,
          -2.0957337405688574,
          -2.121701304741223,
          -2.052970741595785,
          -2.020471384762894,
          -1.9552404190661483,
          -2.013851994081159,
          -2.140082227831816,
          -2.107997329644053,
          -2.0966945088566646,
          -2.0450110850387193,
          -1.994638352139345,
          -1.9570371560777566,
          -2.0697337625806953,
          -2.085398096270667,
          -1.9946057971253124,
          -1.9766317481544575,
          -1.9833304259355569,
          -1.989637688492695,
          -1.980092577442154,
          -1.9421144217979305,
          -1.8406253170254423,
          -1.7975720111223532,
          -1.783106567649603,
          -1.3626748289197537,
          -0.8262898153461975,
          -0.32437909060705783,
          0.8384839625450127,
          2.4774647098124833,
          8.217158588067328,
          8.28176333047661,
          8.130250850330757,
          8.27093844090615,
          8.137215437070752,
          8.182421837806983,
          8.12356136229697,
          8.244045805822642,
          8.20658668695568,
          8.218405945902221,
          8.132627753020737,
          8.139733380212315,
          8.328150349906766,
          8.284328339803928,
          8.198102090539935,
          8.305228479661931,
          8.240779883852872,
          8.083875516556972,
          8.270685086353467,
          8.211794892294716,
          8.137829139134746,
          8.169524039216597,
          8.233989563518145,
          8.113044505350842,
          8.106984975588679,
          8.195006147996303,
          8.128850484094094,
          8.124285558655115,
          8.206591215434818,
          8.134434366916464,
          8.068915869656252,
          8.19960594341769,
          8.124262801529392,
          8.285411906533346,
          8.050677709415512,
          8.09453530400626,
          8.078956823756434,
          8.200615671945014,
          8.027025135304994,
          8.066608839290808,
          8.278807571651937,
          8.12065640636108,
          8.315044583507937,
          8.331573282824554,
          8.117372953257496,
          8.148694742617419,
          8.051893786685028,
          8.121538094122055,
          8.332285467102425,
          8.07799721120469,
          8.332434972166482,
          8.119308625521102,
          8.236653399048857,
          8.301263793862622,
          8.16576822207201,
          8.265904432928533,
          8.24504563558399,
          8.19881797152115,
          8.049441499946754,
          8.147214054598644,
          8.232391858614447,
          8.166478597040804,
          8.213312998937557,
          8.18887062064375,
          8.080106011559591,
          8.09941311347266,
          7.701454405551847,
          7.41802647412375,
          7.022527052390985,
          6.518052670059692,
          5.12803546902668,
          3.3677746107688993,
          3.5445804790176023,
          3.3653898879292172,
          3.3857571950097944,
          3.4013198767302044,
          3.5542122194023977,
          3.524674030892637,
          3.472214087058995,
          3.4808653221675856,
          3.5503695570722296,
          3.4772661702862475,
          3.5464103908981492,
          3.5477294202445027,
          3.5184258378086355,
          3.50354428471747,
          3.3986045713977355,
          3.5335672281647312,
          3.521525655546313,
          3.380190669729803,
          3.384024797997463,
          3.3633841702326217,
          3.486377489305992,
          3.373613405226939,
          3.3654490950334526,
          3.4874735803592953,
          3.437134427150835,
          3.3454237496452772,
          3.596769145059183,
          3.3589476288481768,
          3.534071462569312,
          3.489678796243109,
          3.624107560218258,
          3.4121235730719923,
          3.4116562443193654,
          3.425062509532256,
          3.447687336647705,
          3.421391772962206,
          3.5515907522214576,
          3.527767583665475,
          3.595788189082592,
          3.533418640692683,
          3.456470657436626,
          3.499586661259567,
          3.6118584576151003,
          3.351956855393758,
          3.446298326003992,
          3.5004805240543155,
          3.525589237228771,
          3.4553007755816325,
          3.559663174369406,
          3.5211123790063326,
          3.6040277544040142,
          3.4037158258281046,
          3.398932426698112,
          3.4618510497101633,
          3.558574221284518,
          3.5087188472465147,
          3.4720935763909795,
          3.4534626447795898,
          3.53594261136581,
          3.441970253077206,
          3.570278086146229,
          3.5590568645529594,
          3.716335365293875,
          3.7577981180072446,
          3.9219042366330257,
          4.115931186949584,
          4.767433521377383,
          5.507144098204694,
          6.765955470108645,
          8.579821323374153,
          11.87715926335852,
          16.91569876364929,
          -0.0725132651563547,
          -0.3411723159790292
        ]
      ]
    }
  ]
}
