{
  "layers": [
    {
      "activation": 1,
      "biases": [
        63.41839856638062,
        224.9547226217482,
        5790.140783087859,
        -982.752140278593,
        -59.6894108258594,
        -173.70712907555577,
        -176.2206934927495,
        3372.85476507113,
        59.76038111069603,
        274.82832102892445,
        -161.6335430588115,
        479.12970428877406,
        1473.5863131218061,
        -201.23667539409772,
        4461.109346521256,
        8336.292318723963,
        258.63689792649603,
        116.78812610910198,
        138.9618955969669,
        148.1218033951598,
        347.0156775174953,
        1098.7413132040992,
        267.5144872742337,
        124.93546963628619,
        -14.258141931853139,
        1708.0212258510826,
        10655.301865398284,
        975.8543344151195,
        -168.21291319343217,
        2368.961293259591,
        -1040.4964619617117,
        -776.6717591683907,
        22.90226138055136,
        -30.562956685314383,
        2792.076066801895,
        11549.886978188564,
        49.86018832842108,
        11292.877799042444,
        -78.82763461161002,
        1376.9445144979213,
        6365.8504374078575,
        760.6475231075971,
        9469.191959192372,
        31.924676738159782,
        1803.7633769346326,
        -2141.577737394529,
        82.8897700625702,
        86.7175890317353,
        -37.43568825650396,
        -176.8318463223034,
        2560.467916090666,
        -40.045056618989,
        -205.9892037293717,
        278.72466401966875,
        138.3208823498289,
        -848.8307103549389,
        153.33364158797252,
        345.1877447643865,
        4486.219141087139,
        -36.14630943121421,
        152.539083503732,
        5816.596577274426,
        -14.20131341319348,
        176.58997314733932,
        -14.32356032337585,
        156.77432850092453,
        16.481712681534162,
        284.9927708305329,
        69.77412044924124,
        13.239970584294696,
        156.51410335174185,
        4264.7639960315755,
        -715.5508499459836,
        -52.4011593928805,
        1859.012534105834,
        -14.228050834555496,
        -95.4045829888696,
        -14.288942203741808,
        9214.73320299393,
        1024.812373276151,
        7610.730523340284,
        -751.912995779816,
        176.06790915283548,
        10163.610453583171,
        115.09212549695096,
        11233.281308192367,
        -47.31091847898211,
        509.712414696199,
        36.849057952451005,
        823.141193598632,
        20.484198025598953,
        11898.512179797906,
        -298.36056497213775,
        -872.2120122198081,
        -15.429819711291294,
        2547.8777908973,
        -14.263447645595846,
        16.018217862427555,
        16.756927056714087,
        23.895994045819013,
        2265.748807893014,
        747.8974921699595,
        3122.867283315538,
        47.82839508151686,
        811.9004278868825,
        284.9199852254736,
        6282.490988080952,
        2792.596602447982,
        10533.44765914218,
        54.08505594511883,
        6050.441092975062,
        4221.0512088001715,
        9748.71348032047,
        -103.48829835741863,
        2969.6904085320016,
        -14.109551804025537,
        5036.072968111478,
        38.207409277959655,
        384.6515130386727,
        11372.030090548331,
        -271.1976899732288,
        105.80104337957593,
        37.946266651540135,
        3968.8447446517935,
        297.8832466478141,
        -14.235115186313458,
        46.708372132490254,
        4258.394909578278,
        -49.906845810798416,
        11213.71273479085,
        81.37949664589553,
        11630.82206129508,
        2994.030389641103,
        9304.003278820861,
        92.61488090891362,
        24.262742795105055,
        472.92178285455736,
        -14.377484918189358,
        37.92341922852242,
        -74.94745903882388,
        114.04024326938533,
        168.23602115855937,
        10243.117700707786,
        1568.831112380387,
        897.744233622998,
        -2827.8117334847716,
        6013.6535833034,
        3262.36112496627,
        -14.799272352786767,
        28.268444951571677,
        810.7242872267824,
        -169.69396189042578,
        86.64902481787836,
        3817.3096247351727,
        9862.897024299504,
        169.69537582530947,
        -235.32699465536786,
        3401.190858855388,
        58.85465152934435,
        -270.65712261574777,
        224.26882989848764,
        269.34048195278416,
        105.08033788597785,
        3588.6797324053778,
        45.30570057115138,
        -207.3197076986745,
        88.84000533426283,
        -1072.817381424924,
        621.1913594241764,
        -1746.5674667984606,
        -152.76928988820342,
        7208.436235739402,
        974.3764235706282,
        1745.679878449701,
        154.1354143971624,
        9057.614149050734,
        5793.276730782709,
        281.3923073052872,
        846.8289523644884,
        -225.32028303540838
      ],
      "cols": 180,
      "rows": 2,
      "weights": [
        [
          -8.148414944950076,
          14.70602184514162,
          1807.606277317239,
          -1029.1055161123804,
          -9.713338881559768,
          -23.335446079562924,
          -14.004228556655843,
          815.8036970375925,
          3.992392177025226,
          -44.33104802847164,
          -144.52036955638005,
          -13.318808648580413,
          215.35012814252033,
          -167.56298651731313,
          945.7621173672,
          2858.5662531531566,
          18.590320172776043,
          2.6411405915872592,
          7.372871453494097,
          10.597027930531794,
          27.72785437030678,
          113.15693509103086,
          -25.72726081297109,
          -12.601268133545087,
          -5.261607374225644,
          302.1204235996837,
          3959.4887249417957,
          130.48153657553718,
          -82.69919753325189,
          442.55835913840446,
          -1090.9710690935565,
          -1327.375177033293,
          -2.0099512307944822,
          -1.3065013012970996,
          646.9946449806254,
          4336.584981528191,
          -0.6914911929053689,
          4151.562859299257,
          5.23636856525966,
          213.83601281191415,
          1713.7711569304017,
          67.76484036144491,
          3262.6339570413993,
          3.215445966981599,
          278.6166765826689,
          -1580.4124737657507,
          1.1238613133023883,
          5.012851772894839,
          -3.684921692375838,
          0.32604829684056424,
          447.92107623280293,
          -26.438411427483413,
          -21.119292223663003,
          20.52758061522598,
          8.046505956955015,
          -902.0105132359422,
          8.68935964113132,
          24.374232891671834,
          1037.1160892385503,
          -6.946475365090467,
          5.3650772349512135,
          1483.3832691732055,
          -5.547932812018369,
          8.728022640892934,
          -5.595636855119283,
          5.44803765534623,
          -179.8908933107833,
          21.652855421398414,
          -0.05999761977619622,
          6.158062765444115,
          10.490087808427209,
          811.3923822690795,
          -1693.2322339943116,
          -2.0648022439336526,
          253.16783148548174,
          -5.112691093150194,
          -11.819450587688564,
          -5.468053577486888,
          2983.5911825189173,
          114.82576002952199,
          2494.4554930478075,
          -1084.8575784270233,
          6.451478659730088,
          3695.9311411468325,
          118.58144786862356,
          4173.022742065791,
          0.15945938019050365,
          50.7496035332737,
          -8.275606785345467,
          74.74321333875378,
          2.9612403273542687,
          4443.167455173243,
          -313.6698645914448,
          -230.7309945180271,
          -6.438889980691522,
          498.49420509708955,
          -5.485419280834557,
          3.2651055700659093,
          -0.9574584524002631,
          3.1581313375483417,
          466.01427211676497,
          103.9834582130917,
          679.9280994405065,
          3.640456732601873,
          84.79826937581515,
          -26.405959378979567,
          1809.1947611859987,
          583.6334941971469,
          3927.6459446273257,
          -0.9190580097790373,
          1745.3148383328714,
          970.2546690978176,
          3271.6426221542897,
          -209.07225289576536,
          638.1445244607972,
          -5.287525367849205,
          1282.2441708652607,
          15.134036284149431,
          28.440865200509727,
          4242.26935978479,
          -257.2509043682761,
          6.624879967629312,
          3.3609247234408146,
          839.741392773884,
          22.167016277351735,
          -5.486066326247148,
          -0.7714201181174427,
          919.0202293011097,
          1.2432263852088434,
          4149.633309055745,
          -174.6688727389542,
          4356.401394019229,
          511.27465673641234,
          3362.3525412047707,
          -21.796918852942007,
          -5.134902420618196,
          483.3659990577187,
          -5.157974070413247,
          3.53515257372065,
          -2.177304603633052,
          5.753331180759574,
          -357.0648079151635,
          3832.7714872878178,
          297.7865029969882,
          88.24616443944805,
          -2533.3498075885873,
          1925.3042313965334,
          579.1983830683644,
          -5.747088811561158,
          3.1243078756027036,
          80.40475447907784,
          -120.05866624297512,
          0.44457690864708077,
          941.2720455935348,
          3633.714184028339,
          46.424543088923755,
          -250.30635027094417,
          720.5649236241031,
          -8.336241145131197,
          -2.7855524021279416,
          18.009307120175016,
          20.700316241355974,
          -9.37628570570633,
          737.8966565659075,
          -0.5967474926198153,
          -27.986133720113074,
          1.2102614055302583,
          -372.81587523730093,
          55.58278771523718,
          -1250.0786302913007,
          -52.66384594990606,
          2168.460624702706,
          99.16049900456007,
          262.37141778754943,
          11.044907775484988,
          3330.436860096612,
          1691.649841675372,
          12.215105867570243,
          85.62985847377209,
          -159.76016924155323
        ],
        [
          -4.706171438140633,
          30.789297951161746,
          2984.272515237025,
          -304.1441845058198,
          -4.49657777426863,
          -4.34006161601927,
          5.959064981198231,
          1453.2424269473001,
          5.6527007717822455,
          1.4311474012402616,
          7.579514482042238,
          -12.2994070132939,
          423.3573582986261,
          66.79729630319878,
          2126.1120391514073,
          4818.645550751491,
          34.38024226725473,
          7.407720957867388,
          13.8709979198693,
          16.239359218811742,
          52.57526766126774,
          221.9086252078454,
          -1.022225990022882,
          -5.643893944015985,
          -7.232694905379207,
          452.0263766207467,
          6702.071488573134,
          232.90021608461674,
          28.899131238021727,
          829.2439353889009,
          -252.8442981646636,
          516.603115989027,
          -2.7563501040315947,
          5.039442112822215,
          1046.875162254106,
          7326.945579712859,
          -0.6371200109537454,
          7182.398933221486,
          7.78065399276884,
          472.8996095189299,
          3181.8595218167748,
          139.21009460192002,
          5706.762405193425,
          4.504707855394594,
          522.9022737466603,
          5.901719789759873,
          2.144505830118899,
          8.231737885390435,
          5.173604517106966,
          6.280216975937265,
          940.7134418659691,
          24.665725618084544,
          6.2776916275268,
          42.96466408551391,
          15.805020102675904,
          -352.50750870179394,
          16.660573423515498,
          42.675814250474104,
          2105.7079589390028,
          -4.57857220907846,
          16.16475298407294,
          2831.858363047802,
          -7.030785784658333,
          18.73075542497635,
          -7.539008969643193,
          10.5240091550244,
          35.97428208068686,
          35.95467130325393,
          1.50304040417508,
          8.41922302520736,
          14.016698361414877,
          1982.9131056348945,
          972.8560830870568,
          5.237424504975768,
          583.8367597506821,
          -6.925963471273861,
          5.302044435703871,
          -7.16611007153138,
          5395.121086245161,
          277.7704770243716,
          4333.801028639201,
          304.67309323136465,
          16.520501884174138,
          6249.150140432341,
          130.55531846447232,
          7150.3277944234405,
          5.977529455620237,
          104.51475313876634,
          -3.9318370582646183,
          178.0612938240638,
          4.36401457373407,
          7533.6744776120195,
          -254.39338783699938,
          -1.2691552823682937,
          -9.120253958971034,
          1031.1457809503288,
          -7.096625769582979,
          4.35561532658933,
          -1.2168379187190563,
          4.188417770688113,
          873.4636079745221,
          158.4515397881478,
          1232.0011961295052,
          5.396606340127041,
          193.47621479872544,
          6.168249442871509,
          3039.5352742155314,
          1161.4700590209995,
          6665.097418084903,
          0.4046808560611437,
          2996.3775741528707,
          2085.533599186845,
          5875.54043926288,
          23.704862960419554,
          1270.8766336221674,
          -6.914332739230236,
          2444.6657367411817,
          14.894330015390615,
          51.37422785207709,
          7246.070834975447,
          50.473799489594924,
          12.959274295408694,
          4.743835956600017,
          1724.0904678759432,
          43.599840157879285,
          -7.360450382177712,
          -0.8953437119544732,
          1999.0076641255218,
          5.095037138464536,
          7098.587007387287,
          340.18605112291584,
          7342.045577416466,
          1143.622700680847,
          5629.443040347176,
          -4.089312889374829,
          -3.919759544907344,
          491.92303438598566,
          -7.811096246610401,
          4.674855296640123,
          5.281819814722001,
          9.88595138997355,
          369.8015120411121,
          6371.856778363682,
          399.1489368745958,
          188.86196228348317,
          21.568006225267084,
          3027.306563321728,
          1188.1713006730322,
          -8.422876000051701,
          4.367326132711314,
          160.89647383403613,
          16.30804245603368,
          5.262159725876717,
          1837.4129785730354,
          6022.059664918504,
          304.131829813688,
          -201.11714497428582,
          1410.0417101553207,
          -4.938015951884771,
          6.881982549679272,
          22.42894470946348,
          32.84183464673059,
          -4.9940868729700405,
          1340.470291384329,
          -1.3119762629872187,
          7.097018470584957,
          3.7179481627200137,
          -1.4484611153180618,
          117.50766334037853,
          20.355525578393035,
          10.489923471944273,
          3964.1244511945806,
          197.50799958898745,
          567.6742474699112,
          16.984076154904148,
          5582.6565419568105,
          3018.1056648023327,
          35.96407240174157,
          190.3402928773733,
          18.89200289569247
        ]
      ]
    },
    {
      "activation": 0,
      "biases": [
        -0.016874992384399646,
        0.00849835753542801,
        0.015084916609573503,
        111.16393020633316,
        0.014392482347551838,
        0.014828831093544612,
        -0.007789961105109242,
        111.16201820994841,
        0.005528122017522692,
        -0.011439675272471972,
        0.022379964854961954,
        111.17512220373843,
        0.004015726089412945,
        0.013960272630199905,
        0.0004416015071329272,
        134.9103921774406,
        -0.003784833770985885,
        0.004364287495288411,
        0.010638011682730344,
        134.896034304915,
        -0.0038424299006937757,
        -0.003960751239455296,
        -0.003436049629382391,
        134.9100033684774,
        0.0027726125527046167,
        0.00308892443596616,
        0.010473940715542366,
        117.60589161418872,
        -0.008063607151955917,
        -0.0017939844129648422,
        0.001692152499172139,
        117.60470446997488,
        0.0291505081753073,
        0.0007930248592582552,
        0.0006854645087432034,
        117.5944363483357,
        -0.00022591523835308996,
        -0.007737393807097061,
        0.0070446976533118655,
        103.50123718261717,
        0.00578353349468223,
        0.007234015073765158,
        0.005628060941871805,
        103.50370877133736,
        -0.001344484933249836,
        -0.0032241878375672143,
        -0.006074660515492907,
        103.47621155445948,
        -0.007080765164281263,
        -0.014721016428224579,
        -0.003477615049281437,
        130.8758799911383,
        -0.0067456909317916884,
        0.013848847125619198,
        -0.0008369791356397543,
        130.87865480593652,
        -0.005723593515108048,
        0.015530830958543327,
        -0.0010156029352231563,
        130.88975338078419,
        -0.00812626529693181,
        -0.0019564752862799126,
        -0.0015153589524193427,
        101.23786208692445,
        -0.005521768283426625,
        0.011385771274373168,
        -0.016608885231767928,
        101.25401150008867,
        -0.000877973829356712,
        -0.009017180609232223,
        -0.0011958711639714148,
        101.23824871505305,
        0.0042125705314550845,
        0.018897929914992437,
        -0.0012148376742941245,
        -0.006448327195578984,
        0.0036173566415396772,
        0.0010818385903597866,
        -0.010103289634272586,
        -0.008391714678395931,
        0.01880356776368234,
        0.002696994871639537,
        0.0022376120906395045,
        0.0013744014548672052,
        -0.008546889855139284,
        0.0012486212892183037,
        0.0027932011541195296,
        0.002292941478235042,
        0.008091571150907055,
        -0.012846335427375295,
        0.022856468203272095,
        -0.004652413482168191,
        -0.020931920527122855,
        -0.011729039500520165,
        0.003984718707350679,
        0.00765486255336658,
        -0.024479398335700068,
        0.004401401498200621,
        0.01196687812550033,
        0.0003018286704176421,
        -0.012823068477485492,
        -0.000787342702399195,
        -0.0005903363574570325,
        -0.0037067023601490504,
        0.01271363923253262,
        0.00942606496513157,
        0.027856102869455116,
        -0.002801953652163947,
        0.008941583178834015,
        -0.006510880846425797,
        -0.01671024813422267,
        0.004218972268513541,
        -0.01270229933663331,
        0.02295644796893159,
        -0.003795702151303428,
        -0.009095789516940025,
        -0.00983455253188027,
        0.005785585385691792,
        0.02282782939993852,
        0.011007279875628353,
        0.002485356422297393,
        0.004923762169343093,
        -0.004765785214774745,
        -0.008347120245344694,
        -0.004463812688107516,
        0.001475066932529887,
        -0.012241949901495432,
        -0.002302740668875787,
        0.0050082587612309435,
        0.003074486138157712,
        0.00719907359749337,
        0.013460346882801552,
        0.005295270524815064,
        -0.002084593576304447,
        0.01098208742979358,
        0.0028508054483585223,
        -0.007585156192572969,
        0.0017523688989190826,
        -0.0008792072800021259,
        0.019073408239831943,
        -0.002126964971821894,
        -0.001983381969203206,
        0.0034107557207379052,
        -0.012988948370264696,
        -0.0022686578527582615,
        0.001987587006206603,
        0.003059467811401825,
        -0.015090156343651719,
        0.005872024445023734,
        -0.001135974332011143,
        0.0023550439353811287,
        -0.00037989927238256063,
        -0.0009166903905403867,
        -0.00649299948904422,
        -0.002203727605690189,
        -0.005598512436272725,
        0.0024830376103220594,
        0.0010118227920425384,
        -0.010453471005368127,
        -0.003079234951192707,
        -0.012976802467285243,
        -0.002776560861390693,
        0.016106688512462747,
        -0.014656916740827752,
        -0.014390879975882951,
        -0.007654896673387692,
        0.0024998356104393655,
        -0.0008102478501139892,
        0.0012755840258351163,
        -0.0007340085481623363,
        0.024135290649580362,
        0.004256248268555625,
        -0.007272330138108656,
        -0.007380696699483542,
        -0.01072312613178138,
        0.00813715165180866,
        0.019223625191778036,
        0.0074432899250634395,
        -0.02004990837681098,
        0.0008121880135099754,
        0.0028875577456833955,
        0.01094130221360617,
        -0.001573192308823317,
        -0.014090897161682124,
        -0.006396206054819014,
        -0.01611356480957904,
        -0.005074496189347029,
        -0.006894552165175591,
        0.017965396254431835,
        0.005861465489059779,
        -0.004311272524990998,
        -0.006719805356709901,
        -0.01680791294928627,
        0.0022651620723401107,
        0.01191160903447207,
        0.004292968487151216,
        0.004487187844597152,
        0.013797855272778325,
        0.006341832011510434,
        0.02248169324743491,
        0.005600986793649895,
        -0.004990174130476173,
        -0.009676529209015029,
        -0.0016060842896848172,
        -0.02495120831408395,
        -0.011709017546631735,
        0.009070176715987574,
        0.009747272449526794,
        -0.0034967591577857596,
        -0.00425700252127753,
        -0.0021212146927832554,
        0.003998110460861001,
        -0.002731674337280504,
        -0.0032750539147184325,
        -0.006127144787541355,
        0.014358966986822357,
        0.010530517627002765,
        0.03430197036825344
      ],
      "cols": 218,
      "rows": 180,
      "weights": [
        [
          0.09133481244428707,
          -0.09433491336827067,
          -0.08666616090245809,
          26.770406594132265,
          -0.08204436700451223,
          0.0015609519582066161,
          -0.04218943387538765,
          26.587749710605262,
          -0.0877613782644038,
          0.07351139007845457,
          -0.052876147015244734,
          26.642761591174544,
          0.06747998495548958,
          0.08205660193177979,
          0.0014764642400735277,
          42.41999029244024,
          -0.07430235109429893,
          -0.09565897059840738,
          -0.017176488669730802,
          42.347129736080234,
          -0.11162497255302954,
          -0.016810398964706975,
          0.11168700129650203,
          42.31187658101385,
          -0.034427800042765355,
          -0.10394496411345369,
          0.009157241176672931,
          31.824129154216028,
          0.050997214126448635,
          -0.003168799383566894,
          0.08819869203155559,
          31.78764446936481,
          0.018307536528403157,
          -0.07878886893864243,
          0.051809272284349964,
          31.70068506852277,
          0.021464936632698477,
          0.09582803526273287,
          -0.06279501747820176,
          20.72534866764398,
          0.12004003453739812,
          -0.009638650915951232,
          0.08456597357278088,
          20.72307495947055,
          0.0668727356811299,
          0.07231064091004806,
          0.0907778461085807,
          20.561942147429313,
          -0.10998018124368787,
          0.012023531282872457,
          0.04754160149402315,
          43.04015032539988,
          -0.08953954358525926,
          -0.10711622330534581,
          -0.0410588864261718,
          43.0225755000315,
          0.06217666361514369,
          0.08385306546792769,
          -0.05609587998662848,
          43.13889762103615,
          0.05013942143641794,
          0.04394423875095649,
          0.03370094067825176,
          22.976798634286222,
          -0.02207378317490389,
          0.06158979912401474,
          0.08203010177370672,
          23.07444636391078,
          0.04967611086090369,
          0.08861235789844149,
          0.09179763228739603,
          23.160735321476928,
          0.005745027963958108,
          -0.018625110840995933,
          -0.007303329082994298,
          0.01700753387473768,
          -0.019747268303619756,
          0.0359586062070673,
          0.009663951895796411,
          -0.056207160599576554,
          0.009037408289388935,
          -0.001098982676381717,
          0.08058551397210546,
          -0.005935563310505105,
          0.045620754952657425,
          -0.035918960943899444,
          0.006229475616028531,
          0.09694581015704307,
          -0.09642480403503646,
          -0.02865230432519194,
          0.1194081508960735,
          -0.06535983787403243,
          0.061987159849372496,
          -0.007677320285775899,
          0.03661061556846932,
          -0.009858740156202027,
          0.04475722045470726,
          -0.018293704758813534,
          0.11277780133198506,
          -0.00012378634563664175,
          -0.08532202216021594,
          -0.07551733008970425,
          0.05623490244732792,
          0.04839546067950141,
          0.06639035382600092,
          0.07659672353940762,
          0.08662487039904192,
          0.0784047067484794,
          0.03138994554512531,
          -0.04012071008533483,
          0.09270359607590027,
          0.1121893612233434,
          -0.1230542232581998,
          -0.046645614256035174,
          0.05273596024202424,
          -0.038850466145448834,
          0.10196679059122163,
          0.12073438539569031,
          -0.046892105734271515,
          0.008049280029969205,
          0.06712260658812787,
          -0.09752587120124201,
          0.006936931998679669,
          0.02863285535616637,
          0.048172756556076175,
          0.025522839346142603,
          0.01758024224547957,
          -0.08039256390702691,
          0.028420211523581738,
          -0.04432436656060295,
          0.11443948296848876,
          -0.053827705987515094,
          -0.08636729930260433,
          -0.10982877606803222,
          -0.024808478794966178,
          0.019886094920752034,
          -0.10383824580868793,
          0.017992185956782755,
          0.024506050249441795,
          -0.09473188603521104,
          0.11790223935744755,
          -0.1247454579068856,
          -0.08763215714103331,
          -0.10442863700711823,
          -0.11112865470777779,
          0.04954771412431429,
          0.1110861450983361,
          -0.07210917918179664,
          -0.07275489044875157,
          -0.08124499161373278,
          -0.08120317034015545,
          0.11597838726896319,
          -0.0918452552308938,
          -0.055726002612391475,
          0.046919941206072006,
          -0.05361493253183294,
          -0.07002187827806305,
          0.03284071082671048,
          -0.02664308027798548,
          0.08307305119106813,
          -0.11493270257668092,
          -0.08533615361537417,
          -0.107608550735605,
          -0.10516808432826763,
          -0.04483343290788194,
          0.07215197832921323,
          -0.08882472944774718,
          -0.10282343631261971,
          0.032851644408475836,
          0.030699195797178662,
          0.08069317852423762,
          -0.057314794048603374,
          0.047802924947825294,
          -0.03461898541616585,
          0.06900831081045197,
          0.11784372162978135,
          0.05914868998903394,
          0.06026332524442912,
          -0.08111341174647052,
          0.11592315492802367,
          0.1179992632384534,
          0.0024707413618213067,
          0.07047266804476453,
          0.0878199575243274,
          0.11487056131329071,
          -0.10055903288717868,
          -0.11644569997885917,
          -0.015875062550138045,
          -0.08078142031245207,
          0.0065736978531933535,
          -0.09094760891590763,
          0.11631191948876186,
          0.05463814296813288,
          0.11536363134980548,
          -0.011582819216531273,
          0.04577958794775473,
          -0.10301695284887546,
          0.042422940070908535,
          0.04023167690781313,
          0.10510483767085183,
          -0.06343806305346766,
          -0.02346650258419521,
          0.06709935092783208,
          0.11245142863006857,
          0.022621019075866333,
          0.04352917588350111,
          -0.11512632861248075,
          -0.10002066088680407,
          -0.08023777277748531,
          0.05056131615621036,
          -0.011966231141232702,
          -0.11902368390909022,
          0.10077114974584772,
          -0.03287163810387934,
          -0.04226270540944097,
          0.09907834043543805,
          -0.07075385117468311,
          -0.00849169599243659
        ],
        [
          0.05144999929710191,
          0.09083526976272165,
          -0.11681537086135739,
          13.535940209117863,
          -0.058884045580574924,
          -0.03466460988727747,
          0.11089285983412553,
          13.726466068599047,
          -0.09516545471200194,
          -0.12631499361874982,
          0.07035998984174718,
          13.759852678652313,
          -0.08047856502145519,
          -0.04638862595636478,
          -0.07269545362076453,
          28.370711808263557,
          0.034436060845543605,
          -0.06213355269121923,
          0.09079586035279114,
          28.273815154897175,
          -0.08836301027640368,
          -0.025862091332864486,
          -0.1234192747871992,
          28.422399087913288,
          -0.048286635736180625,
          -0.049580652063124835,
          0.0438157898228125,
          18.70729603461108,
          -0.11914899975594176,
          0.05110079215878386,
          0.0915846229861215,
          18.577264573819043,
          0.021230740705932147,
          -0.11480334610260573,
          0.10761797138440868,
          18.709420685610297,
          -0.0054985831682012945,
          -0.07375477748318258,
          -0.01782012670128014,
          7.503575167320367,
          0.0962379534585333,
          -0.10358598517244132,
          -0.007566060540099096,
          7.533660312337168,
          -0.02127733089274567,
          0.10997974831065578,
          0.012447246837954264,
          7.620363786972716,
          -0.1183432593264005,
          0.09113990143249316,
          0.060266896223610374,
          29.881344410956167,
          -0.11571857961121348,
          -0.05830472943320034,
          0.04724668067523819,
          29.810362250727746,
          0.10226077332995519,
          0.00043137250815404425,
          0.027605549144564572,
          29.8037637558643,
          0.013437139168664318,
          0.0374173905006259,
          -0.12354363054901199,
          10.985505083964581,
          -0.1192962889697333,
          -0.029400727033941757,
          -0.020940802185211518,
          10.846354052361358,
          -0.06105570027400328,
          0.059732355884811336,
          0.045323873316512185,
          11.023601157180794,
          -0.07961461031921578,
          0.08772107280430114,
          -0.05885322846811864,
          0.060228389895049465,
          0.08529306705652516,
          0.05963109499403195,
          0.11878593524928528,
          0.005223047378503247,
          0.01631572103173672,
          -0.09543794379373235,
          0.0940695341997128,
          -0.09078289649409263,
          -0.11480225328023057,
          -0.09112712778152338,
          -0.09241859465138846,
          0.018021770970711525,
          0.1273463622074001,
          -0.10845744634954857,
          -0.07515556640757509,
          0.08767163761416437,
          0.06239228593133183,
          0.03488562139547312,
          -0.10381274850054131,
          -0.08412571612029014,
          0.02810306933831495,
          0.08655134743098403,
          -0.08720201722776011,
          0.05251230725129669,
          -0.07710745432830425,
          -0.07693526445420797,
          -0.057338516753720904,
          0.05241138471563909,
          -0.0299762104345907,
          0.10603783285851567,
          -0.05331451227748679,
          0.003615507911214983,
          0.05930404197055828,
          -0.027209983615268434,
          0.06844082901437233,
          0.08907776514585536,
          -0.012744749551757474,
          0.10314607123914195,
          -0.05884162198744764,
          0.09731897686906302,
          0.08134099947469928,
          -0.10189962500782257,
          0.04647107733959031,
          0.10733989872547019,
          -0.020069242891117965,
          -0.06310924117394899,
          0.05468942226196865,
          -0.032382114194990805,
          -0.048287321572738684,
          0.002432534297373422,
          -0.07284681944495186,
          0.02177541620011917,
          -0.029361509437878647,
          -0.07244269389032927,
          0.005809229990635794,
          -0.006929088172428832,
          -0.09653662263056347,
          0.03164458688569557,
          -0.04945844731224631,
          -0.020410414080854665,
          0.06168229005005465,
          0.08976765572803608,
          0.03894639724405371,
          -0.041391822967797386,
          0.036574716478373535,
          -0.07944287898643013,
          -0.07044295288388372,
          -0.019050596633756085,
          -0.012864053120263216,
          -0.015322335931960925,
          -0.0020046106021752302,
          0.02140330343132183,
          0.08621701731168281,
          -0.08762986163450248,
          -0.0768864280281496,
          -0.05891077699724328,
          0.03688956798129337,
          -0.05841717036083413,
          0.10122145420212542,
          0.10642155682208862,
          -0.010978268437028581,
          0.03300338592078666,
          0.0011081528286847838,
          -0.033779940847765554,
          0.1092902065433838,
          0.041741392953705374,
          -0.08285316003934783,
          0.015556342704849761,
          0.02494668354034563,
          -0.0032625019215648168,
          0.09333910789657791,
          -0.1035866508601953,
          -0.024343047177003828,
          0.10383820676880971,
          0.11945451675714103,
          0.10091041636352481,
          0.03436049903359941,
          -0.0840143247594373,
          0.10588408993531741,
          -0.010883359282094626,
          -0.022961128721183995,
          -0.05069719612724992,
          0.06943217886075284,
          0.05188753101091766,
          0.08806034243569255,
          -0.058497813547505564,
          -0.06027078875680199,
          0.05548187254494155,
          0.044150261984215386,
          -0.05897270933964178,
          0.08813822435189254,
          0.07483750079617989,
          0.03999689590231469,
          -0.03553567179140794,
          0.11566110469526386,
          -0.10495627774782039,
          0.04880073913128698,
          -0.059562884746781314,
          -0.060019104527619216,
          0.08297416581475843,
          0.09247845948683922,
          -0.005072372508097317,
          -0.039869973671606065,
          0.043735552868459995,
          0.08151439441549098,
          -0.05828011870746694,
          0.07780332901149876,
          0.0972585792337905,
          -0.12469543512034212,
          -0.010153963288050618,
          0.101740050322482,
          0.096184778871173,
          0.06411606734054542,
          0.09109657990139088,
          -0.0656076006022332,
          0.01338378640742805,
          0.08710382339767482,
          0.0693414641047883,
          -0.03426073397185635,
          0.12138151492073838,
          0.10819459120795978,
          -0.02158595533281812
        ],
        [
          0.08305856632199857,
          0.030093765540384173,
          -0.06835129937482932,
          54.47907972645566,
          0.047796641275112316,
          -0.09846925124469064,
          -0.12585196990745073,
          54.501402758965725,
          -0.10577228473184336,
          0.059147971860715076,
          -0.10191272621112943,
          54.42444746638929,
          -0.09237983980004123,
          0.05419210889003553,
          0.00047237144220602486,
          72.56103060355173,
          -0.08294345325690583,
          -0.041627609748818094,
          0.039891038844282245,
          72.57470788674578,
          -0.01793214121965819,
          -0.12366585850602384,
          0.08714991027099515,
          72.64474688609937,
          0.11252177396843516,
          0.05489355264740301,
          -0.027937220425547655,
          59.967744916469805,
          -0.07447879520685519,
          0.03223232336146262,
          -0.08993091741840242,
          59.993976622470264,
          -0.10204291615423959,
          0.11672129376942991,
          -0.005239540994231491,
          59.98571945755106,
          0.11098720500764173,
          0.04430300542009664,
          -0.06583733240795753,
          47.24787722161763,
          -0.10393239650342928,
          -0.09989574466793927,
          0.06918207431150157,
          47.44527768186961,
          0.10920592377306618,
          -0.06624904872433289,
          -0.058830476785232226,
          47.3540274434311,
          0.004414967011510968,
          -0.04700602973710969,
          0.013944030058193599,
          71.907014179119,
          -0.0757045181639463,
          0.03842114570340122,
          0.09110481728258976,
          71.87047978171397,
          0.06414533745727577,
          0.015680654189573963,
          -0.005964584026334694,
          71.81174729567343,
          0.10552831931107451,
          0.11596141416193313,
          0.09630787208416836,
          48.61696697477149,
          0.05209087075972354,
          -0.03398569291978467,
          -0.009282217892297195,
          48.65204320442991,
          -0.03579604677042911,
          0.06799867166260207,
          0.08516203510050434,
          48.59882639433724,
          0.015552292791938777,
          -0.11001931127049078,
          0.02904943718735199,
          -0.08592636688870427,
          -0.01177646453776906,
          -0.013775151997185741,
          -0.047771557082441504,
          -0.07333165220457438,
          0.08438751943637661,
          -0.09150105938696376,
          -0.017322567093173778,
          0.07382444356124519,
          0.08648729336596582,
          -0.10739377365482884,
          0.07453870204854421,
          0.08330103346279696,
          0.02291558267079899,
          -0.01841212630294538,
          0.07201047736931489,
          -0.12172440486781032,
          -0.08760428827565633,
          0.038006568276362264,
          0.024982094413160287,
          0.021544504564564183,
          -0.06133692493381044,
          0.10552142308679065,
          -3.623572648937205e-05,
          -0.112306051562248,
          -0.0792226068876881,
          -0.03762721632591389,
          -0.04653549531994206,
          -0.06130656474465525,
          -0.03052691145917493,
          0.046669811970773925,
          -0.09828311235320358,
          0.10689573363168943,
          0.01857302189409111,
          -0.1210928279707826,
          -0.03819387240507187,
          -0.008167373732855018,
          -0.006194451399979942,
          7.591491637259253e-05,
          0.09725418245912927,
          0.10568437694287544,
          -0.03156534085086919,
          -0.08162534341956718,
          0.09060138501993983,
          -0.024796205727726974,
          0.04685557907868894,
          -0.03881710116297638,
          -0.09012398877309305,
          0.11271610430615776,
          0.07676156309422301,
          -0.06854291411699606,
          0.09993950883866441,
          0.09117247140387215,
          0.0465336953340891,
          0.04017896455922646,
          0.05316300268911019,
          -0.11029187199620179,
          -0.1061038652295165,
          0.04597802305270664,
          0.03818764634809651,
          -0.11001646502416734,
          -0.0275919120193686,
          -0.011956530488564628,
          -0.10938542683320816,
          -0.09883502017186124,
          0.05351471617109061,
          0.07911275274118373,
          0.07258249127008298,
          0.1053423446992625,
          -0.096033413422604,
          -0.06552583621520924,
          -0.05369547916158199,
          0.010978193976324798,
          0.02635365411802629,
          0.12049656594361058,
          0.0323544045711686,
          -0.03974487188209567,
          0.011708166395875451,
          -0.12427210004218665,
          0.08877415523933246,
          -0.10883208297777319,
          0.032891654783440326,
          -0.028703818121809666,
          0.08204938386670046,
          0.03070111491278489,
          0.10718075633467593,
          0.08545820009774946,
          -0.09794781236224026,
          0.08650691380572686,
          0.01004647809494647,
          -0.09821637958214277,
          -0.0659973718324919,
          -0.06225039054746411,
          -0.05378462810030106,
          -0.0744748391451845,
          0.11716336736872704,
          0.08243329734954781,
          -0.007427856227263083,
          -0.11337211502211587,
          -0.06515403914775521,
          0.0002474287074356442,
          0.025583886476897275,
          -0.05914320042896692,
          0.04325756332358796,
          -0.018038773764074218,
          0.047100096989856406,
          -0.07251026712333825,
          -0.04877420423923795,
          0.08448248960620587,
          -0.01144146588681778,
          0.1077599452439721,
          -0.06198146737915245,
          0.03122311558613549,
          -0.01458185813244435,
          0.019110589178025633,
          0.06284626052108308,
          -0.062216700876984075,
          0.014933020779010766,
          -0.12164926203271603,
          -0.09190345888657551,
          -0.04792238374241543,
          -0.05345547100030688,
          -0.09679840478513566,
          0.06884025546517825,
          -0.06358307410101788,
          -0.02087020759346471,
          0.0899465255758401,
          -0.039524379527097794,
          0.07972654655207514,
          0.09675983659312343,
          -0.023209230067982093,
          -0.09619544194467766,
          0.10734884077350625,
          0.04813430058022314,
          -0.07092650811868156,
          -0.002986359103307102,
          -0.07232394329238546,
          0.03883932576331396,
          -0.06480894960491469,
          0.04608061181106206,
          -0.0074502792493484895,
          -0.08755598159026358,
          0.11977525351434967
        ],
        [
          0.007824745433927152,
          0.0505055587549659,
          0.07481756807247768,
          25.372374630780044,
          -0.04532519361525003,
          0.08020521577248714,
          0.0014057718207765586,
          25.383626560516316,
          -0.014107164174335638,
          0.04257241874132395,
          0.0656951005819493,
          25.184492893854504,
          0.04994845599381729,
          0.06925800022422791,
          0.02498224308175925,
          29.09985350449716,
          0.04322869649367034,
          0.039136103477617395,
          0.050088576940460525,
          29.168245635551774,
          0.018672105112698473,
          -0.05632938420887615,
          -0.056300688002629516,
          29.049693946846325,
          0.09791073203728469,
          -0.028028455282631273,
          -0.060639888833373054,
          26.1333513224893,
          -0.040189453382731236,
          -0.029026942328684593,
          -0.08659636092102509,
          26.239781995023403,
          -0.10919538709114422,
          -0.11547531095390874,
          0.05845405082855187,
          26.20416724262959,
          -0.0682947759988771,
          -0.09313291248446989,
          -0.01405737416749253,
          26.54698045844963,
          0.048902614103774784,
          -0.1019324613571134,
          0.09245381585760662,
          26.487502048188468,
          0.053835157068516194,
          -0.052402394707939656,
          0.07274321546665284,
          26.48792138118671,
          -0.0885294569911443,
          0.0768911768265982,
          -0.06248502216516249,
          28.227722155785717,
          0.10031786091586829,
          0.12779328837536072,
          0.06945761889592447,
          28.12281226743599,
          -0.04522476060655381,
          0.014570383128323655,
          -0.039660487786399884,
          28.04905609185695,
          -0.017529702872682754,
          0.0031451649136998126,
          -0.07525764419561067,
          23.595752557558534,
          -0.0185538525239495,
          0.12391971333202648,
          0.08309652679334557,
          23.577955216861326,
          -0.03522330095137128,
          -0.03970894382997016,
          0.07999542140862335,
          23.5781557816491,
          0.05812808246212981,
          0.05549432426841409,
          0.1061281676857392,
          -0.11833213111954335,
          0.0544854853394564,
          0.11110767515463145,
          -0.061521260168197915,
          0.06745119284362677,
          -0.10556136827729838,
          -0.101151735229057,
          -0.09216633643604734,
          -0.02198216102628497,
          -0.05645271508565918,
          0.08597053846952626,
          0.0979049833946869,
          -0.06347197350407338,
          -0.043291145743017345,
          0.08993778776988512,
          0.016469355331332643,
          0.06189701033927155,
          0.046893718305729956,
          0.11363525558283177,
          -0.09553621304712302,
          0.001260303308885408,
          0.09695250503680108,
          -0.06619835358755236,
          -0.0958284006219019,
          -0.02764847836627171,
          -0.11478069315291556,
          0.009312130193009709,
          -0.10959098532294842,
          0.10076509794938304,
          -0.05698595892974163,
          0.017318556671041326,
          -0.11197109864026145,
          0.09861300178609404,
          0.0028150092440191515,
          -0.0232484483399508,
          -0.12218067110369793,
          -0.012503952964355962,
          -0.0006884940677706628,
          0.002731336429056524,
          -0.03704607720448145,
          -0.08968855633625411,
          -0.09759791231441024,
          0.06561189603940543,
          -0.10009547029646944,
          0.10802134725852176,
          0.03613440746576379,
          0.09704026571757399,
          -0.004874154573607797,
          -0.09000317615149443,
          0.059142268443415066,
          -0.08120458999715847,
          0.09921529257753312,
          0.041948347704391736,
          -0.01632885029199434,
          0.07556465802733081,
          -0.0017430109713517969,
          -0.09552625120163778,
          -0.043381338475950625,
          0.0439179275282213,
          0.12499556388194985,
          -0.052274245206280455,
          -0.07949451644670773,
          -0.032908648086038675,
          0.10091647203515053,
          -0.05808387454481215,
          0.0973983083031149,
          0.045414948100391664,
          -0.034439822402181665,
          -0.1073896388120062,
          0.09384551648150528,
          0.08006252615432,
          -0.009564992785517498,
          0.029760513915165942,
          0.017837277852347913,
          -0.10000008118401445,
          0.0096891557738376,
          -0.10562025960706152,
          -0.1163529179098129,
          0.09310160960349644,
          -0.026727635543010272,
          0.06320982084277074,
          0.07957475442407538,
          -0.09968220027797238,
          0.006444764563341218,
          -0.018320063460469077,
          -0.04662668447238181,
          0.055929457251544155,
          0.03734794649133226,
          -0.09010343177748427,
          0.009353556607552828,
          0.11327455355696726,
          -0.08724834855019765,
          -0.11906574034858006,
          0.10551253069634431,
          0.08722560447929711,
          -0.0007563334757206162,
          0.005998950290067632,
          0.09549427685844508,
          0.02151138612835516,
          0.1030146435188477,
          -0.019456398345830857,
          -0.07674843181639543,
          0.01849039244866356,
          0.0037472469748648807,
          0.09491095916191064,
          0.042490869401129866,
          -0.08631768534127261,
          -0.0980152467486972,
          0.06634600035615068,
          0.03836298302955972,
          -0.11799999099031466,
          0.05564905909297558,
          0.02010067551963637,
          0.11333933821265248,
          0.061889950274663465,
          -0.11667540893950182,
          0.012430611654925221,
          0.01395063822295322,
          -0.08611370711047647,
          -0.018342876117594387,
          -0.0332473207381898,
          -0.0593981734885677,
          0.019550079281899137,
          -0.07869899228819106,
          -0.048581306126314436,
          0.03903974207166535,
          0.10525695920827084,
          0.1046814584520727,
          -0.03789538968353925,
          -0.03836895954496503,
          0.1094741062454212,
          -0.02927932153282507,
          0.06720649197167737,
          -0.04387294146176463,
          0.035017686211472374,
          0.10160292549542031,
          -0.06321128132970581,
          -0.10741728031906615,
          0.013903545081448556,
          -0.021959186138924683,
          -0.020214624261025122,
          -0.09102649361571824,
          0.1177360634764283
        ],
        [
          0.03186121093449715,
          0.06558464999650293,
          0.12286037700900287,
          44.83619893370243,
          0.07174147378529215,
          0.01989866126967459,
          0.0848771670142333,
          44.791473311360456,
          -0.10594490642397195,
          -0.045191078956996374,
          0.11076807257515715,
          44.92446139543233,
          -0.05738159578762207,
          -0.06038618302120199,
          0.010694813191029471,
          48.94575384229324,
          0.02766220764483898,
          -0.09977295529084301,
          -0.03312711892246864,
          48.86511053781273,
          -0.04005504392556641,
          0.034713660955906785,
          -0.11289869441547694,
          48.953555082565195,
          0.013705156531821513,
          0.08989463383102772,
          -0.03991513517483234,
          45.59393470624281,
          0.08382048259412796,
          -0.09410690349439137,
          0.027930859389604643,
          45.58614744022441,
          -0.06615922590544916,
          0.06311401661689722,
          -0.12115656382907142,
          45.484334654651605,
          -0.06248067162280452,
          -0.07413013245651287,
          0.029542024440483403,
          44.39060875632664,
          -0.10516330125547056,
          -0.10118740259693139,
          -0.061814292179344456,
          44.2010667784774,
          0.08860413471442825,
          0.0976389854616942,
          -0.07180588227696882,
          44.16782593117167,
          -0.07438755834068424,
          0.08544541693837777,
          0.08345195490135292,
          46.35835116077117,
          0.10427740596620154,
          0.05742803226383892,
          0.11017661205807282,
          46.24623905866503,
          -0.06228109713169895,
          0.11698383220987447,
          0.04054287881225356,
          46.291385720173984,
          -0.03052358179527424,
          -0.07417282381262955,
          -0.04633708713556442,
          41.498488804944955,
          0.11458404821876592,
          -0.10090424036558449,
          -0.0012207316841895124,
          41.63208882832501,
          0.06006348280749047,
          -0.02327817322162356,
          -0.052753448390950336,
          41.650319645608164,
          0.018545258012345623,
          -0.06919144389460567,
          0.11179001653704447,
          -0.021476912381991654,
          0.0964923324439518,
          0.07049324230279663,
          -0.04353437364747723,
          0.0644301655997661,
          0.07555493151397713,
          0.026202218762625597,
          -0.00512243267660994,
          -0.044084397620056455,
          -0.053064192918423146,
          0.010501913089358564,
          0.017034647579821996,
          -0.010827795856026395,
          -0.0592200450624761,
          0.09881129132321519,
          -0.012341640122171187,
          0.11108746794126224,
          -0.04826079519219335,
          0.011267506081477242,
          0.022478319216720073,
          0.020359966321436437,
          -0.11185828430850528,
          0.10492038334063891,
          -0.10494501767465116,
          -0.042964448851593506,
          0.10976026222086123,
          -0.03311238889227837,
          0.11991289888574069,
          -0.034099804596614144,
          -0.011114403229380836,
          -0.035632216807779296,
          -0.03642366852138547,
          0.07621743477464177,
          -0.09590082996223132,
          -0.06754007867443627,
          0.024172954507402644,
          0.10199261717581067,
          -0.06912387610422178,
          0.10086592319062897,
          0.0785363222849346,
          0.06759736779916589,
          0.06054692338047027,
          0.0586637847609889,
          -0.04104749902036325,
          0.028734553355277016,
          -0.03286857820829465,
          0.03747925012926107,
          0.08495837208617363,
          0.09261105680322013,
          0.07673016162680335,
          -0.0034684862273058584,
          0.08694620391468637,
          0.031175663675696075,
          -0.05078200581708643,
          0.08143142755033497,
          -0.08227469577770546,
          -0.07659033912926212,
          -0.09576168519072922,
          -0.1046315344926573,
          0.09329369956462721,
          0.06692107784653711,
          -0.10195666161473167,
          -0.11230359958353402,
          -0.037996608904477785,
          -0.02489845131339054,
          -0.0040535288024437415,
          0.001287599247571062,
          0.0735487309708237,
          0.06293406095337033,
          0.032886939356262156,
          -0.010168629707157009,
          -0.10521101517775848,
          -0.022841796255987454,
          0.03929053730726747,
          0.12150417054641922,
          0.07872216098143019,
          -0.11397501566414868,
          -0.006077154540677747,
          0.04886748879119822,
          -0.09849200875436867,
          -0.10822785397232214,
          -0.013460217331890553,
          0.05546834291467416,
          0.08013815619506674,
          0.10292059487005852,
          0.036187209749710854,
          0.07406634617986214,
          0.046314430174348914,
          0.10341813962445694,
          0.11082215051837745,
          0.014405578650822155,
          -0.09343530950643508,
          -0.06691202918781784,
          0.029880471093164076,
          0.09797768606936402,
          -0.08684120881359483,
          -0.024706933408252918,
          -0.005225934471679351,
          0.00624046994716586,
          -0.049169463472249646,
          -0.0034660449063357718,
          -0.06331231592479486,
          0.0016841232781642478,
          -0.12209133670743319,
          0.10034998055976083,
          0.04967000902838977,
          -0.0362996078519593,
          0.09042523220423374,
          -0.11361991520949341,
          -0.018161081381228683,
          -0.08502951801575005,
          -0.08919987356810087,
          0.10267067470208882,
          0.10965538730206781,
          0.016109907243983587,
          0.097520978742063,
          0.08279398323486466,
          -0.0669276436717728,
          0.08414765850813387,
          0.02705992239924269,
          -0.10856222256956542,
          0.05692127384418587,
          -0.08973998907150967,
          -0.03658337892713903,
          0.05951527290071688,
          0.031518947214640686,
          0.08676309134178117,
          -0.06947801922295235,
          -0.04900545337045781,
          0.013748321302908005,
          -0.06877099948792469,
          -0.007186538197018531,
          -0.06443210189268872,
          0.0683823797575312,
          0.057290736443255615,
          -0.02054351895724477,
          -0.04544465323494175,
          -0.10624631013649008,
          -0.08662725538705024,
          -0.07422353101811624,
          0.020087511492203485,
          -0.07020069298943174,
          0.0637613527955459
        ],
        [
          -0.07308448386706945,
          -0.11289465388044874,
          -0.11423373615780007,
          44.8572594414313,
          0.026036103728608966,
          0.032689788177905216,
          -0.055343272678555454,
          44.88839111248959,
          -0.04613706768504137,
          0.017587149807777907,
          0.10785660382699985,
          44.82567780082417,
          0.010766981090832822,
          0.05682263431182891,
          0.038463315657428436,
          48.989230795171146,
          -0.10742294438496082,
          -0.019123771161491603,
          0.10960311642454132,
          48.82134596130613,
          -0.036756531074412443,
          -0.0665383351770737,
          -0.01464164239707185,
          48.85035794281576,
          0.03534325870739491,
          -0.043337468983763575,
          -0.07170933967686371,
          45.4844577737232,
          0.11830612130478083,
          0.07395661633501285,
          0.04485089891414565,
          45.53025880270435,
          -0.10168744782248648,
          0.07359039398145971,
          0.07952147277840198,
          45.414326047596354,
          -0.054701981220442245,
          -0.006179117183922811,
          0.08178297517890445,
          44.47845754013646,
          0.11891210984191712,
          0.05583400598234888,
          0.09140957219872169,
          44.591022649261674,
          0.031005529137279293,
          -0.055252975213024795,
          0.10523720797535363,
          44.52067219710097,
          -0.12144518313191266,
          -0.0202500605995921,
          -0.006365229464318915,
          46.19429492979838,
          -0.0029883363786266082,
          0.04060110895488195,
          0.025181041762619705,
          46.29553525989966,
          -0.09022041791494657,
          -0.045904281026510556,
          0.05986345175593072,
          46.35556581698224,
          -0.072328332106101,
          -0.03033423732338136,
          -0.003932167050524069,
          41.7644789087921,
          -0.011823641636650891,
          -0.05734466893969699,
          -0.06379776918996088,
          41.64956252921846,
          0.06116254108548122,
          0.04297225324978981,
          -0.054546821596818805,
          41.70309022510059,
          -0.06453243113876236,
          0.10601469010723219,
          0.0133265909526822,
          -0.0487375782788238,
          0.06648087527945658,
          0.11924865762252589,
          -0.11085315261731282,
          -0.06541473104863527,
          0.11103395581232674,
          0.04964964777289344,
          -0.06405844127459333,
          -0.07405904963445958,
          0.1097329754252892,
          0.12141097839972372,
          -0.10591568050215039,
          0.03541808561077786,
          -0.06710287880657906,
          -0.11520817426411287,
          -0.06442264696856365,
          0.059300618071325834,
          -0.03410620619805595,
          -0.07063426269814588,
          -0.05304437293021846,
          -0.10263929929210736,
          0.05648709832922574,
          0.017050042411632195,
          -0.020378777948509758,
          -0.036910650723342146,
          0.11561005279957404,
          0.10034695470713687,
          0.05122704146228252,
          -0.00788764448068702,
          0.07192829395036603,
          -0.03856430657125996,
          0.023064582380711948,
          0.019699415188838183,
          0.08476547811218992,
          0.06726080283168814,
          0.02645398871493741,
          0.1183984682336751,
          0.08777629638244665,
          -0.07327100339890744,
          -0.10200071966966034,
          -0.09948098381267817,
          -0.06267140889897446,
          -0.1206065320498711,
          0.06231964943999144,
          -0.07701884292090314,
          -0.07155486562973445,
          0.0864983832538789,
          -0.047361111045306034,
          -0.03528469816289226,
          -0.039750482283587234,
          0.06784399630303867,
          -0.08495123026388263,
          0.11205778053736448,
          -0.0623610367071704,
          -0.0713977325855587,
          -0.004710601449396505,
          0.06656540935578162,
          0.001577525586625518,
          0.05869048080065075,
          0.05945019390740684,
          -0.012970324438093773,
          0.00436407142548503,
          0.0036932252158181837,
          0.0466283874652016,
          -0.03254192341189834,
          -0.04912487610209705,
          0.07568391681803846,
          0.07421943790952264,
          -0.11362938262362066,
          -0.10731724344247444,
          0.001517366113618575,
          -0.03773374538874042,
          0.06897596303367746,
          -0.04774213947068867,
          0.005615431142326116,
          0.0019263549106460676,
          0.08343957661495499,
          -0.04114061431391171,
          0.03111709874267867,
          -0.08263141537523379,
          0.11402051791838572,
          0.041514714623945854,
          -0.08873400357946615,
          -0.10098974100171462,
          0.09615644711774689,
          -0.0709602660207989,
          0.11674447004723154,
          -0.08083706650342853,
          -0.01128880465110419,
          0.05433420886899119,
          -0.04912883395726491,
          -0.03253788534116729,
          0.01843451173258227,
          0.05813909528100814,
          -0.07342178821955206,
          0.01796647786657828,
          -0.10039957095251327,
          0.10569755050130746,
          -0.08430440032976086,
          0.002491053251746707,
          -0.08364376794065298,
          0.048143735887822225,
          0.11009509215182668,
          -0.0906783945670368,
          -0.009527968238301751,
          0.0773601325959748,
          -0.12116515270318001,
          0.00913447087074835,
          -0.09769822707406002,
          -0.07431905246879593,
          0.05194712340318461,
          -0.05387916885306602,
          -0.07521114365291069,
          0.007040430398877442,
          -0.11402532210281252,
          -0.06556875889219693,
          0.0582659090818373,
          -0.0763037535941251,
          -0.12009049295998032,
          -0.05116693707223854,
          0.06690144019433338,
          0.10635020120420019,
          -0.08178239087219298,
          -0.0667618051619487,
          -0.013318294250192604,
          0.02871582618075551,
          -0.11695957939276645,
          -0.09919626088022501,
          0.01611527100381114,
          0.011427183809968525,
          -0.10003565295553146,
          0.07781090938145191,
          0.04336282555870447,
          -0.10366291653241119,
          -0.04979071137937621,
          -0.012307072228467676,
          0.025589094936846937,
          0.04413252297621576,
          -0.06439250852153948,
          0.020880374959692784,
          0.03581757424198772,
          0.007745060363172309,
          -0.0919882983705068
        ],
        [
          0.00739773153927815,
          0.018017706695661984,
          -0.08379027098532149,
          65.83141709442918,
          -0.08576855547231071,
          0.07450311806460425,
          0.01325185652457011,
          65.77993384748798,
          0.07084426197636633,
          -0.0745239013653666,
          0.14107592120792292,
          65.79837456230888,
          0.036940888783867934,
          0.06446568632822322,
          -0.0821298527367991,
          81.77492076432999,
          0.007770413727807549,
          0.09592480024398975,
          0.025535824295965293,
          81.56006862701635,
          -0.11784583752600332,
          0.0493298223528113,
          0.0019334480736150068,
          81.60214711083256,
          0.06378927185437383,
          0.00947088735022671,
          0.11664367935481938,
          70.28814555544994,
          0.11488123481796851,
          -0.09930676128066651,
          0.05429277526836754,
          70.2339917985102,
          -0.05648495460140393,
          0.03495678484422419,
          -0.028302192762277724,
          70.19248490450688,
          0.10691842769482297,
          0.007080208274323526,
          -0.021671613062105594,
          59.147568206272,
          0.06821953438695307,
          0.07389191473233163,
          -0.046736112411374035,
          59.030711156109604,
          0.11975180924699606,
          0.06021536371162539,
          0.10664188489596547,
          59.18231582587793,
          0.030830683754294718,
          -0.024524725667053097,
          0.05269341273941462,
          79.3466866814738,
          -0.07148248649275714,
          -0.06557909286314569,
          -0.015372957120456648,
          79.41651114330914,
          -0.08739394704862229,
          0.08551943453254725,
          -0.11370601444503034,
          79.3904721240855,
          -0.11323739028304176,
          -0.013595741106606479,
          -0.02711129905391014,
          59.44968379090312,
          -0.011365358684498887,
          -0.0851562164093785,
          -0.016005941111195653,
          59.58678439637161,
          0.007049176021265022,
          -0.025437809351508276,
          0.07832665540008199,
          59.635331075514046,
          0.059425793554798496,
          -0.09696523188947496,
          0.06473059761961211,
          0.032376434873502044,
          -0.06499906610304625,
          0.1000473478459983,
          0.0011993184121156786,
          0.1079416332176815,
          0.11569300678358797,
          0.06773051380200697,
          -0.015749256516778023,
          0.12223002576332027,
          -0.12298656674514039,
          -0.10430490657478475,
          -0.0479217991671922,
          0.04311219746105802,
          -0.01328984614331971,
          -0.12057330801958603,
          -0.04284419452417288,
          -0.022534558275534602,
          -0.11653011596964982,
          0.007945858922058872,
          0.011213655286364985,
          -0.030915032758172683,
          -0.008366908866048337,
          -0.07100548662114574,
          -0.0037295264954984348,
          0.07019706788975383,
          -0.044006943580706434,
          -0.05286058010462646,
          -0.05861120062800025,
          -0.05224579196205473,
          -0.04099055311690472,
          -0.08942500194670164,
          0.10182415655724095,
          -0.04623763717999472,
          -0.013266483355384303,
          -0.117467984752179,
          0.060337153002933866,
          -0.11264119198898447,
          0.024709748866062937,
          -0.035512890396270674,
          0.019360849702095423,
          0.060162185816368015,
          -0.02735926488396699,
          0.11208868211558487,
          -0.02926489684505239,
          0.018240425449029596,
          0.014777921353564052,
          -0.059298548058197585,
          -0.010153441882607838,
          0.005380510276007483,
          0.010773515925743172,
          0.010664075402738636,
          0.05894896428572671,
          0.06665577058827685,
          -0.12010029463191207,
          0.0432758531439319,
          0.016086151037334084,
          0.046342824719025996,
          0.002056731386380375,
          -0.05231236318116154,
          0.08075377687844269,
          0.042318419925402743,
          -0.014458379359162091,
          -0.07284116591640256,
          0.08597103541024063,
          -0.08949433631080775,
          -0.013370522719820867,
          -0.08219772973972127,
          -0.0821654833536588,
          0.02596220233136223,
          0.09534378316225851,
          -0.023947804355178133,
          0.059154720834268835,
          -0.02510150422180755,
          -0.014242766897542971,
          -0.05252916582493368,
          0.012838733710266644,
          -0.05379564835592396,
          -0.11813373316620397,
          -0.0682141913169061,
          0.08369838171458764,
          -0.09114892801899205,
          0.007749365789399974,
          0.10567392233283256,
          0.06071640653009005,
          -0.08106813081707585,
          0.10233425909694652,
          0.02792273164202428,
          0.0372805131350876,
          -0.07972488756769525,
          0.002615983126288794,
          0.005362404629044358,
          0.0726558628619914,
          0.09910977860745135,
          0.09034905864792042,
          -0.10738165312646179,
          0.020229150509885118,
          -0.05436751585324159,
          -0.05439001215104739,
          -0.032065420889712266,
          0.024884331154807385,
          0.04175046951181796,
          0.015492774994444567,
          0.05780368449470666,
          -0.10816310242488092,
          0.01812173198215339,
          -0.018601235690172038,
          0.09688103824695449,
          0.030012218483869837,
          0.10676764390621951,
          0.06107067076463691,
          -0.03392994942008586,
          0.06918156701594509,
          -0.06704594735883504,
          0.025593133049956942,
          0.11670784508047415,
          0.057538846767276206,
          0.1116676757894176,
          -0.09046261967572874,
          0.047710719653729756,
          -0.10317019304850436,
          0.05122098287695034,
          -0.09357065487430717,
          0.0939335326716042,
          -0.07430050544272722,
          0.017247847335560316,
          0.07770846716468434,
          0.10651214328522528,
          0.08872049577495933,
          0.01005183280037435,
          0.06765374784979483,
          -0.07182079722735256,
          0.018983366396710163,
          -0.1148718700536131,
          -0.0069107339058006615,
          0.07004250225984711,
          -0.1093533960051553,
          0.08330242360485329,
          -0.04221943743673346,
          0.08277741111553458,
          -0.07374765455437642,
          0.0833720743883239,
          -0.04527192564619382,
          0.008087710725667215
        ],
        [
          0.0873744992337037,
          -0.04430669228729395,
          -0.0539548939514004,
          60.35592571849937,
          0.01609949358854758,
          -0.03659233593077507,
          0.022983839953561794,
          60.12492721549708,
          0.004525521986590284,
          0.08617638665649163,
          -0.08002578629755416,
          60.14300708406993,
          -0.11372376175655115,
          -0.05965908724971999,
          0.0031575241293043776,
          79.02871294489267,
          -0.119879471630614,
          0.040120843473074784,
          -0.054044932691198644,
          78.95333007769537,
          -0.07922855935977445,
          0.10979117456755093,
          -0.033161402150458874,
          78.94015424818258,
          0.10219074141673908,
          -0.10404638034019723,
          0.07901273341794324,
          65.95250602174542,
          -0.08027029543035633,
          -0.05995758664930955,
          0.11320404123914554,
          65.74654814047611,
          0.07625258769673926,
          0.036390130932995486,
          0.041973241537128135,
          65.88415799725836,
          -0.06450580813058354,
          -0.015712541315000272,
          -0.009858390949971867,
          53.093987415009806,
          0.07667847828546114,
          0.0758193440684318,
          -0.09425721366982703,
          52.88094877405041,
          -0.06889928096562137,
          -0.0792513654892014,
          0.024284539222328882,
          53.100841468584385,
          0.07643517301084349,
          0.02754540739250788,
          0.05440268418470394,
          77.8623720064216,
          0.1167901100355905,
          -0.09700905324396517,
          -0.03894143505202607,
          77.9700036913314,
          0.007875289899626086,
          0.13349590625912003,
          -0.10694312371908331,
          77.86104287726737,
          -0.011650517356285294,
          -0.11111617835510547,
          -0.10434877019042571,
          53.86710519887847,
          0.0009587168826587849,
          -0.08536458724348843,
          0.10703975931238417,
          53.97351329814062,
          -0.022332811292478504,
          -0.09034956407478051,
          0.1152851500915615,
          53.992116202273294,
          -0.11352051575660273,
          -0.07373652112770002,
          -0.10647468483444511,
          -0.059981770784205975,
          0.027241850655842784,
          0.07847468936614316,
          -0.05730367062980482,
          0.08392178382995669,
          -0.06241968274845566,
          -0.03362222988834229,
          -0.10860365076544004,
          0.026053723966634357,
          0.11678942109675078,
          -0.005860170461091799,
          0.0660310152658096,
          0.029470741969680858,
          -0.00584593610860967,
          0.02551844944944111,
          0.06586982416434319,
          -0.04322152088239576,
          0.08950503292539895,
          0.09533427603413747,
          -0.0999761486744607,
          -0.0700613058817091,
          -0.05352713205265176,
          0.021597047856825584,
          -0.042298042215417705,
          0.022184224027099304,
          0.09905560580510235,
          -0.031067929168830992,
          -0.08971396826504384,
          -0.11219463892102688,
          -0.007081919078443185,
          0.08021662906106931,
          0.08051136038253498,
          0.054193891457371204,
          -0.10085745366044972,
          0.10497540359594407,
          0.09635058004451155,
          -0.07172685974016771,
          -0.06413858906402121,
          -0.04982458765713258,
          -0.11946923284949014,
          0.013464188894304705,
          0.11302569757290658,
          0.05676021173589952,
          0.11727548655138698,
          -0.09353140984994249,
          -0.09012324222798335,
          -0.08177713001302625,
          -0.037331403970352076,
          -0.1272584695638589,
          0.11178862677574751,
          -0.0653736988130587,
          0.09628636407525203,
          0.018771768704384885,
          -0.09544043227424719,
          -0.05476682423513601,
          0.10140712024723685,
          -0.11227848129569117,
          -0.010505551319965141,
          -0.11768814109923077,
          -0.042155251579835205,
          -0.04251461613144215,
          -0.0010307938895572227,
          -0.007348141542274734,
          0.09024844580274392,
          0.049725805117001275,
          0.11323763847229754,
          0.1064115427665232,
          0.08845121661184249,
          0.013077320156612374,
          0.10382423745741387,
          0.0993589043965436,
          0.12373535624705345,
          0.05660379981052739,
          -0.08179656288598182,
          0.07285432571471781,
          -0.0892970590198627,
          0.1072992028330842,
          -0.016991076521868816,
          0.07986395697103534,
          -0.0738090743802835,
          0.053322395943017284,
          0.014142296023585936,
          -0.008117543539419469,
          0.05506384555832747,
          0.11229618604583647,
          -0.028210499912116282,
          -0.06671595905310194,
          0.09674353144479082,
          -0.05361813580028001,
          -0.05479407047755967,
          0.0038028956193074913,
          0.0326339628175014,
          0.09895382914031284,
          0.11717870979844795,
          9.407555064157431e-05,
          0.11799103841151902,
          -0.060733335413591195,
          0.02391750518589264,
          0.10117049917559985,
          -0.08762126219926335,
          -0.09771296075227048,
          -0.08679660332557257,
          -0.033208300625938894,
          -0.06294442887846373,
          -0.0077619257435058734,
          -0.07399623023767843,
          0.07248437206922584,
          -0.04339154953952587,
          0.049439294764941966,
          -0.07882688069007127,
          0.009815735605616157,
          -0.11286833748883893,
          0.012235787536886011,
          -0.06349264860697476,
          0.09756501739786727,
          0.008485127133106844,
          0.04310598059220107,
          0.021475323927277197,
          -0.12051948979627689,
          -0.08918169187606326,
          0.05511116609136292,
          0.03080905814434797,
          -0.01898909299510469,
          -0.06797235719473191,
          0.09243606268799726,
          -0.01871879994424141,
          -0.1174517195782461,
          0.027399225955603283,
          -0.01644047118808519,
          -0.02934940583526323,
          0.029005524458497304,
          0.029793560383953407,
          0.11275235823669458,
          0.08976250742489508,
          -0.12408803445905403,
          0.08458038579112948,
          -0.08439737106472021,
          -0.0028758203143283995,
          0.10262128008797371,
          0.00583689401013108,
          -0.0033792001564662503,
          0.07330162039919585,
          0.053984080310011805
        ],
        [
          -0.02759684802818924,
          0.0822073454984739,
          0.10877844787702855,
          67.77369589879746,
          -0.08419564005995554,
          -0.03237656184885991,
          -0.005467934573341945,
          67.70326244077077,
          0.022051356284735237,
          -0.06622251424243594,
          0.09639291372462341,
          67.81356537705392,
          -0.06845920695977926,
          0.05727652573408198,
          -0.03164852935582466,
          87.2562464393306,
          -0.0022363410847639703,
          -0.08792482535039405,
          -0.08885913193498597,
          87.32220121473097,
          0.10547223531930978,
          -0.11089633432496958,
          -0.09370200930990556,
          87.24718811551514,
          0.0971196441860677,
          0.03203379404784074,
          0.08020391287472986,
          73.43488324839225,
          -0.064602406292378,
          0.00462339306033774,
          0.06947834349526569,
          73.42562831042542,
          0.1176481317053442,
          0.09107221454876388,
          -0.0053186669639343626,
          73.58652799554969,
          0.0930335143531804,
          0.06981442276193271,
          -0.11227209189066922,
          60.59337470996768,
          -0.03123649877243646,
          -0.06386887864691781,
          -0.07417622467564278,
          60.617794221824994,
          0.10323769081093268,
          0.020265884948463108,
          0.04529703067063725,
          60.61775691387154,
          -0.02705362259838956,
          -0.052878852189268556,
          -0.11542497255077483,
          85.81761296370232,
          0.041193556744173576,
          -0.011888293305560916,
          -0.037703187973132525,
          85.84580717160823,
          0.0199775191407345,
          0.057451110699033005,
          0.10565853544551203,
          85.71752726192175,
          -0.019008073691020755,
          0.07671819272138447,
          0.039942501742894834,
          60.988999204711185,
          0.11524045383287539,
          -0.06079728796438361,
          -0.047846105058669874,
          61.04786004542161,
          -0.06707144493619362,
          0.026396210310889498,
          -0.11410768465863168,
          60.874617778037674,
          -0.02395172398387123,
          0.03206818309849783,
          -0.03832554093847556,
          -0.08468017217852629,
          -0.011865999815755158,
          -0.08133943417992845,
          -0.12586969120956745,
          -0.032174359335612364,
          -0.04065454180883735,
          0.040897559536521674,
          0.08647622126446008,
          -0.07196613417345157,
          -0.09496886859170738,
          0.11658029363077539,
          0.0005488567090901539,
          0.01578361389612029,
          -0.0387643208080894,
          0.00785574886756032,
          0.09577683951402619,
          -0.061664478443937805,
          -0.0018103736259984062,
          0.10345949668697837,
          0.04547366132507693,
          0.0656349577792157,
          0.051298468024127256,
          0.0878610813568017,
          0.0691776410410063,
          -0.05045855737611401,
          0.021200877357325485,
          -0.044738299182001125,
          0.010408761097570501,
          0.11327601716356583,
          0.05574446950621253,
          0.07333694146588646,
          -0.08334910475420292,
          0.0886410059912672,
          0.11994904343839995,
          0.09512082468825442,
          0.04302604926430098,
          0.02815930911004951,
          -0.11735127494842452,
          -0.002556797191439102,
          0.11736878876828999,
          -0.0015285474894531068,
          0.06609250952983768,
          -0.10695683655731403,
          -0.020739487122544725,
          0.10197535786063512,
          -0.06541911754575092,
          -0.05807931811711809,
          0.0628305869613889,
          0.07092290028029137,
          -0.11195350003316534,
          -0.027628185679344473,
          -0.08758083178667488,
          -0.06125506896048685,
          -0.08138125298212255,
          -0.10771845613754401,
          -0.039645424688345775,
          0.11041490292934474,
          -0.06713324524975157,
          -0.11431976531291359,
          0.08162305229621375,
          -0.09728651763241856,
          -0.05968898982615891,
          0.03660061631545138,
          0.052808025514776875,
          0.05618775942534373,
          0.09220420521002268,
          -0.09621386928099185,
          0.09389665157175844,
          -0.044274256355520125,
          -0.0988179065847235,
          0.12474370584467682,
          0.10482343367556665,
          -0.047502350176839896,
          0.06667907276946063,
          0.120419889648437,
          0.0772314281036929,
          0.10005329331404222,
          -0.08120183751056778,
          0.08319531752852709,
          -0.011214571149844562,
          -0.11904744013231802,
          0.05637956083603296,
          0.09971266366055606,
          0.05176132046443793,
          -0.095327235937321,
          -0.10422010034192106,
          0.09523328556917524,
          0.023932150618783947,
          -0.007041880401771999,
          0.07156884510425536,
          0.014122440840799206,
          -0.06205605064692022,
          -0.07258831119980712,
          -0.1060426506870513,
          -0.10562701396956946,
          -0.06268016881162931,
          -0.0662927508186797,
          -0.07209847598266221,
          -0.08350834315869458,
          0.10487798656846017,
          -0.05441830062255129,
          0.011123617416567743,
          0.046765483069562616,
          -0.029914295565692542,
          -0.02170072095378164,
          0.1227499654331502,
          -0.0297329695558237,
          -0.06448308199081904,
          0.028334100242887045,
          0.09045013759727275,
          0.0008322197860679084,
          -0.12456468728988056,
          0.07546619741176666,
          -0.01873716519019292,
          -0.01935651846109228,
          0.084048910367413,
          0.10697190634029531,
          0.09291256367243071,
          -0.08089235381338838,
          0.01234363251697849,
          0.055803753721299414,
          0.04322102674118173,
          0.056374679613030006,
          0.03132815501438898,
          0.1328105956793991,
          0.053045305076091,
          0.04952946953766786,
          0.061264051704074146,
          0.09751487097235675,
          0.07612236252628918,
          0.006123725276255706,
          -0.08054565337573126,
          -0.020237211980427817,
          -0.02407320300037035,
          -0.07250159679964145,
          -0.09720067618909722,
          0.11037829502674885,
          -0.05556879576036161,
          -0.023491691798298298,
          -0.10646674422601221,
          -0.1073405337878612,
          0.013670664137667644,
          0.053666092513461085
        ],
        [
          0.04733173144326448,
          0.09074804263913953,
          0.021475534714545934,
          26.52961400417613,
          -0.11438513039404821,
          0.02793024242530932,
          0.10668001783062328,
          26.53992539495977,
          0.09506726937137816,
          -0.053214621298278635,
          0.05858466690494578,
          26.577516204061435,
          0.014038061808093683,
          -0.06581732340923831,
          -0.10369290569934948,
          41.80499436231931,
          0.042001000463104614,
          0.08742927023883867,
          0.07992149325809457,
          41.752839383535644,
          0.023914498190971384,
          -0.024461609568061374,
          0.09019465497467095,
          41.7142952025941,
          -0.10315282926813123,
          -0.10538075125338417,
          0.03083689730106089,
          31.25231817339796,
          -0.09322419983640857,
          -0.032605045606712534,
          -0.10083589570061,
          31.17207915967282,
          -0.013357059364310383,
          0.10707476495986093,
          -0.007793635348082959,
          31.24823640495333,
          -0.1180242833971028,
          0.1040414539927895,
          0.021015014537970538,
          23.950438673947684,
          0.04512867496722994,
          0.11299925168135098,
          -0.10081558808788864,
          23.803485466256312,
          -0.0320196929008339,
          -0.03473689204271953,
          -0.06507729351839689,
          23.911652686336282,
          -0.09479911761873362,
          0.06467353163490458,
          -0.059938947574722415,
          42.26573538487011,
          0.03445472006213853,
          -0.02139664510680025,
          0.1000793688224232,
          42.23507432802415,
          -0.012464804197618093,
          0.06724111213184236,
          -0.07714335037460947,
          42.22321850284301,
          0.027947138669892582,
          -0.11782915186070363,
          -0.09472377214654902,
          24.137560131237336,
          -0.09404560753665787,
          0.11470058388167727,
          -0.07310775011386014,
          23.94007225401691,
          -0.11110466802895393,
          0.08491141154713194,
          0.12191083266710354,
          24.026568105154077,
          -0.011089785700046451,
          0.05689094812926223,
          0.04754057447693629,
          0.0001673762618986824,
          0.04275531745122532,
          -0.10691944580893566,
          -0.03308191291959476,
          -0.07187762613444619,
          0.038398229359523424,
          0.11910815255566301,
          0.004618503800022969,
          0.07625714772198347,
          -0.1106133698940706,
          0.012884752063779727,
          -0.043795355304277105,
          -0.05968971326987301,
          0.0037770467362082515,
          0.08053875564336205,
          -0.06506209242266897,
          -0.07564043031120357,
          -0.020614474717062996,
          0.06961509132041413,
          0.10434254438229248,
          0.02050996449367951,
          -0.04009230992167362,
          -0.029774207749408976,
          0.08154300844443417,
          0.12383435892884416,
          -0.02121290918950282,
          0.11263287261620633,
          -0.09220551436088532,
          0.03606800577767661,
          0.08037616681063818,
          -0.09165714196129394,
          -0.03140170124906431,
          0.041848171634026765,
          0.06506788186475802,
          -0.055118372454999426,
          0.049895913431197356,
          0.10409639137492438,
          0.036175440524000166,
          -0.09538007048846057,
          -0.03942051464084779,
          0.11672129691754352,
          -0.03320238855275495,
          -0.0816574289554787,
          -0.07146832858622526,
          0.083989844425007,
          -0.05950372298035123,
          -0.018913507709464972,
          0.03780385079012352,
          -0.05549367709843592,
          0.106419457533622,
          -0.07822090628285225,
          0.0917686585436054,
          0.021812523394782284,
          0.042743816641145994,
          0.018354460860271572,
          0.07441119904615746,
          0.11068272080283577,
          0.00791440412712476,
          -0.009232993470853726,
          -0.057375960191679044,
          -0.07089021210468378,
          0.05883997946813914,
          -0.11836366807647111,
          -0.017691068467776613,
          -0.05074109307017493,
          -0.046632349219081014,
          0.07165278599050935,
          -0.10769060705431271,
          -0.04529433642456969,
          -0.04182201999343241,
          -0.025227664235938287,
          0.06875595400068006,
          0.0564431923491701,
          0.015967856469464404,
          0.09417890966650867,
          -0.1170737054914007,
          0.10598693094840418,
          0.03263927573619494,
          -0.0949604483677487,
          0.06075284314496487,
          0.003177753387719779,
          0.09281926396338008,
          -0.03643876255847147,
          0.08390415942018194,
          -0.005343724155209843,
          -0.0078731610956715,
          -0.01916146822936821,
          -0.09994018348839827,
          -0.10513692682314846,
          -0.10643686102539097,
          -0.11200316343370245,
          0.049417296757051685,
          0.09438241321498361,
          -0.12128715809498021,
          0.03952866800014771,
          -0.024017848879897694,
          -0.11518538009130677,
          -0.061892203020148764,
          0.11350728932745206,
          0.05490058918207679,
          0.02272444546963946,
          0.03713439998074568,
          -0.05474414206537437,
          -0.00848207286037317,
          -0.017404230126491515,
          -0.1169377144756565,
          -0.05475786651146451,
          0.08569973277589453,
          0.010543070571977554,
          -0.053551576737461346,
          -0.09216291127048301,
          0.08461253534366424,
          -0.03893199837969964,
          0.10507424452093533,
          0.10446652802833273,
          -0.010910584884086819,
          -0.012124955229293062,
          -0.022611776741712063,
          0.10958382214051579,
          0.028335882854400002,
          -0.014470007779607006,
          -0.02354267897615856,
          -0.0563540065591533,
          0.07485826181823509,
          0.11826839027602445,
          -0.0943951533383789,
          -0.029600994760487474,
          0.005284586537467476,
          -0.019729057848834386,
          0.005055316530920484,
          0.01349848890872059,
          0.11052390503028446,
          0.10053033784332957,
          -0.08975261503412027,
          -0.03753726751849906,
          -0.03323527662400875,
          0.008008933281586242,
          0.07849597271493415,
          -0.11870442407018676,
          -0.0789412663191843,
          -0.03647693430922056,
          -0.04331784069573028,
          -0.10844937964506904
        ],
        [
          0.0918240501262014,
          -0.06614737404375616,
          0.10179231784047967,
          66.67166892716688,
          -0.08523904710130294,
          -0.00043356934209573636,
          0.08845275070187811,
          66.52685114226348,
          -0.0797942600816416,
          0.016166050896177096,
          -0.09664794184436257,
          66.53216148224186,
          0.052519041453209736,
          0.016310690811053238,
          0.02814760027860835,
          83.80681439135192,
          0.0918293313649042,
          0.09897242056574863,
          0.0320445053317186,
          83.88356203826942,
          -0.01887173891671485,
          0.10068615475751179,
          -0.1154661164119273,
          83.95661694466912,
          0.06547444580551774,
          -0.044671517297429846,
          -0.061482353196936915,
          71.82536365415382,
          0.1170202231916074,
          -0.03943050158852796,
          -0.013215565259938493,
          71.68714533389527,
          -0.06325801709338998,
          -0.10832424009633874,
          0.027227227966539508,
          71.76001457850025,
          0.09582262161751809,
          0.021013787960754985,
          -0.028734575599820882,
          57.260314770290364,
          0.07996391179285911,
          0.03508376015032586,
          -0.07013276950223821,
          57.383828390493164,
          -0.08221617806037881,
          0.0940834645540447,
          0.052976194210668376,
          57.35405123567689,
          0.021443963528711796,
          -0.007224270988594384,
          0.0415012937345504,
          82.07502426795394,
          0.08801842438059712,
          -0.0829245372210993,
          -0.059360827181316814,
          82.04019689097375,
          -0.05056620462607644,
          0.05581580734150031,
          -0.06819869430598484,
          82.10092897521491,
          0.0753894989999214,
          -0.01587551520538227,
          -0.08035256075254925,
          59.35494060275975,
          -0.11494700246209757,
          -0.07259490748292982,
          0.07497519331836276,
          59.431646073124526,
          -0.09396928153655773,
          0.05897662796650566,
          0.09479297674604623,
          59.46722404083119,
          -0.09519262609858391,
          0.00964844537690242,
          -0.01468255776695953,
          0.02909334978299077,
          -0.08274907363205257,
          0.11848529736349966,
          -0.04972356225939967,
          0.043583441675772966,
          0.0059783726883331275,
          0.07005386403440587,
          0.022801654349689168,
          -0.06063567823368045,
          -0.11682893019742112,
          -0.055778706371579556,
          -0.10697980974518119,
          -0.09116145280326966,
          0.049458721892774,
          -0.06741066013216604,
          0.007178238183840513,
          -0.08861819065264573,
          0.01954526534100623,
          0.09255615641168544,
          0.10958538079963243,
          0.008594166311893851,
          0.020640330721509618,
          -0.08029651446376754,
          -0.10309340824380453,
          0.05822100317098787,
          -0.053975172083685234,
          -0.0498572524849459,
          -0.1121003835897793,
          -0.013253381095325633,
          0.08524300899924299,
          0.10702619990616215,
          -0.053176109517818794,
          0.055893528953209176,
          -0.013373938056397453,
          0.10227544167962128,
          -0.01414932515124211,
          -0.09199000034973358,
          0.10181522659930056,
          0.02973387626478855,
          0.002083969173055102,
          -0.00866252445224668,
          0.05375295892766619,
          -0.02893878904947672,
          0.04726438606690358,
          -0.07115819397202505,
          0.040031573621729634,
          -0.029574173719213167,
          -0.07192459810265121,
          0.09282544639239568,
          0.10589331564107742,
          0.0200164430754385,
          0.02679921174739634,
          -0.11242172378187988,
          0.011266938681583015,
          0.02475825039622969,
          0.11934088177714432,
          -0.11258369495761393,
          0.09031922656316513,
          -0.12353522452189321,
          -0.005270878411355716,
          -0.0252065405908252,
          0.11408058108357147,
          0.0546328502015972,
          -0.10534279415480115,
          -0.04623555667644697,
          0.026163739588142717,
          -0.03578065024553646,
          -0.057278621542902794,
          -0.11535987602290153,
          -0.0253416359779973,
          -0.05433446114923874,
          0.08612543053724497,
          0.007659484499647112,
          -0.08640960859920667,
          0.046478728191090266,
          -0.10758332051928238,
          0.11645349203542169,
          -0.01482868189673665,
          -0.06325488526196905,
          -0.09339451931581215,
          0.08386619644290433,
          0.10476531008930703,
          -0.05733257682416464,
          0.032299582328778186,
          -0.07112047889694534,
          -0.07440059141899613,
          0.06470114871818101,
          0.0052087325679097685,
          -0.05847863509977817,
          -0.08134629674500858,
          -0.042732659800050976,
          -0.09284197123982892,
          0.04279019909479486,
          -0.04644788985756419,
          0.09600203435681143,
          -0.026641843098977498,
          -0.010243015752281577,
          0.08519928499316878,
          0.11198617218400182,
          0.08668488569889923,
          -0.09150614684362918,
          0.03217055559494137,
          0.09934265663131674,
          -0.01570400075348941,
          -0.09783735310222808,
          0.023563123161342084,
          -0.02394451990362521,
          -0.05203561219795917,
          -0.1047592790623202,
          0.09189752920721228,
          0.05716156364879124,
          -0.06828141293818071,
          -0.059084095403955816,
          -0.014717648840615901,
          0.03612116761645468,
          -0.002444089003076498,
          0.10003473891394586,
          0.02850613611195494,
          0.018928059137371864,
          0.0006230724393295499,
          0.01912099163504079,
          -0.03485051464173653,
          8.791500715175557e-06,
          0.05839723494491322,
          -0.09038800410073958,
          -0.08759251013175051,
          0.11382230510405646,
          0.05732081482982818,
          0.01381909480149511,
          -0.13267358086847666,
          0.03560794684780255,
          -0.012585270457685526,
          -0.020759763755781042,
          0.07159002998194464,
          0.09213687137740667,
          -0.027430368387407568,
          0.09027163180601248,
          0.039383938153818084,
          -0.08832818398663717,
          0.007890487100777121,
          0.07712327500721991,
          0.07900951521726408,
          -0.0810559602574634
        ],
        [
          0.011204403298745844,
          -0.003107803321218926,
          0.03317794358115082,
          3.3474655788767693,
          0.04005375278691351,
          -0.05817346514711246,
          0.037370949621074276,
          3.3646324114673547,
          -0.0034140274450554435,
          -0.10868058167574218,
          -0.03775181306659152,
          3.262151529997835,
          -0.11679313103293716,
          0.023034138324413287,
          0.010580755885800416,
          17.104270397959738,
          -0.08001003208292305,
          0.11948345042945231,
          0.009275034304210807,
          17.01356756200326,
          -0.09481168554657181,
          -0.003561244505287719,
          -0.0580787962182675,
          16.99508909237009,
          0.04738850640944086,
          0.07903052220824591,
          0.12036047966408853,
          7.7088731620535,
          -0.09475758944411758,
          -0.08339785895470128,
          -0.033670102455721225,
          7.86561570810161,
          -0.058078442822285255,
          0.1084459298709072,
          0.01236915264438088,
          7.897690575121492,
          0.0568259070797826,
          -0.042325535549415504,
          0.12159722466019761,
          1.2790022976688777,
          0.06409545733731417,
          0.10428761136236736,
          0.07601383914749471,
          1.2577949935078534,
          -0.02233731895617744,
          0.08340731232714312,
          -0.007219794182402688,
          1.3177855855192064,
          -0.07645938400709902,
          -0.11514617689790058,
          0.015378391774250745,
          18.873773967322805,
          0.10881710979222015,
          -0.04913175674522475,
          -0.032467253684159474,
