{
  "layers": [
    {
      "activation": 1,
      "biases": [
        66.0849648824059,
        -15.457905408021261,
        -61.5054753919433,
        216.3890949522872,
        -77.23930306733746,
        41.21027631601911,
        -13.831227208561458,
        25.40264073384916,
        190.1219420702461,
        -183.6359655919076,
        -11.623716305851735,
        -29.282821790717378,
        -37.33019378478942,
        -47.98368609108632,
        13.236076069305613,
        28.839099967353963,
        96.07297799034757,
        99.15866309899423,
        19.938167586232453,
        88.76865573709227,
        -24.17732546764979,
        -112.46867951625906,
        -34.037399273937176,
        1044.60614757762,
        41.19032348851421,
        57.25564712408079,
        -943.7399449381371,
        22.337191627491237,
        13.568641346671889,
        -94.67447358845271,
        74.18799486384218,
        22.881035391616432,
        -25.396941455339505,
        -27.76747491364852,
        45.55048734314548,
        -12.50102920928671,
        16.600992641493484,
        -2684.7316180660246,
        13.786963000120203,
        110.67060790969037,
        -305.8250130976241,
        49.41265952494769,
        -177.54111767374772,
        -97.50392913822725,
        -32.55962743581702,
        -14.91043870077228,
        -260.01176067869085,
        92.60921562143925,
        93.53563308618719,
        -47.65401873896535,
        -108.45997329912925,
        -64.3845164193358,
        -49.596018552996654,
        13.486550660465209,
        -14.163353416112125,
        13.258999648401542,
        13.556486277291272,
        -15.370805536876633,
        -35.560800069638205,
        5259.784866546018
      ],
      "cols": 60,
      "rows": 2,
      "weights": [
        [
          98.13398386387783,
          80.68199453298735,
          -18.55954927531362,
          262.98261833762433,
          11.05635998321503,
          47.58683045437452,
          -14.964536180380735,
          -40.957537496741665,
          235.39193334153916,
          -94.44912243216012,
          -4.887486162113764,
          -29.530922248926256,
          -24.68295601260309,
          209.74667523350809,
          6.598134857813161,
          88.78395468807065,
          154.79301535507116,
          5.875482746996177,
          6.745305685035458,
          83.59111562194857,
          -6.824535864954905,
          -40.786751545915706,
          -8.65758611460497,
          -20.174786049187823,
          72.48904278304906,
          64.10593200001541,
          -18.74130590775484,
          7.909042051123806,
          6.632859060835154,
          8.072905169162413,
          119.7065980885467,
          35.803582634650084,
          -26.4168366005286,
          -5.6863558172913145,
          56.31625908497085,
          -8.156873906333496,
          6.374425363451118,
          12.229274140468524,
          6.61063787766653,
          166.17729377535576,
          10.10572010769113,
          210.90282024521267,
          -96.05380901331958,
          -18.427781133167958,
          -20.894406688014545,
          -52.766641180637556,
          -430.324215446023,
          124.80040569640711,
          191.51086255679948,
          17.181137497475635,
          -5.234523805776105,
          -44.37185932141747,
          -23.872470592043985,
          6.535800525251495,
          -37.88515043357144,
          6.730905272094324,
          6.577331969535088,
          -16.412986156061145,
          -26.195746960730492,
          5929.942022341464
        ],
        [
          118.32689560030087,
          100.40030623938642,
          98.74858881431543,
          303.8590658264765,
          120.95214229918898,
          104.9483491860437,
          47.042729531484824,
          119.27557547468395,
          255.7111249862199,
          8.502385534121096,
          35.028727765197445,
          76.92258847383331,
          -19.46357624698879,
          212.2510345717867,
          8.270731023430951,
          106.97606228597787,
          182.61672622094935,
          7.135766567907285,
          8.568896669550611,
          140.58132344046746,
          107.56684691065128,
          9.797410094648288,
          62.378165948770494,
          57.98304799856038,
          77.23745535532683,
          95.08978002082416,
          -727.4853567652948,
          66.0503095306644,
          8.455092758654695,
          24.791560919486148,
          158.3666436959953,
          74.95137868669411,
          96.60394382101073,
          56.89282257674288,
          125.38200729351415,
          39.14586853692884,
          8.250475477494327,
          -2615.7434291722057,
          8.229644177349774,
          199.73755937865727,
          -229.88614071134737,
          215.13950361397167,
          8.246809366641655,
          13.469411092615786,
          71.56696441893993,
          129.7296672910493,
          96.86472574955764,
          151.739613411815,
          201.75362668902312,
          85.43536750655376,
          16.095289713955907,
          82.59290785714298,
          -9.480093313301284,
          8.300918460262832,
          71.45020228924996,
          8.335986169425125,
          8.259723150219369,
          51.476438884950106,
          124.17788775180634,
          5307.202964234953
        ]
      ]
    },
    {
      "activation": 0,
      "biases": [
        -0.021243636024750087,
        0.36137851147630723,
        0.03917154976296644,
        322.35625599142145,
        0.015171854597218296,
        0.37174861745385523,
        0.024351654722437197,
        322.35457114415624,
        -0.011758764305524918,
        0.3651493154749898,
        0.06638336325154334,
        322.32228353050664,
        0.007601651448031486,
        0.9236786962989743,
        0.04049694689031666,
        321.9670389924872,
        0.01788441517272062,
        0.9105804842758514,
        0.03223127782350685,
        321.97380823735216,
        0.012450779928868647,
        0.9167384280776392,
        0.017453644024530077,
        321.9782166946041,
        0.010979180885596724,
        0.5164589223044966,
        0.09137220400079572,
        322.16216373393144,
        0.005614077331253042,
        0.5211854275204559,
        0.07053545870365509,
        322.1807850677451,
        0.006309117631700901,
        0.5232729684428237,
        0.09863381156055445,
        322.187238599303,
        -0.002545060250528684,
        0.19054543050675893,
        -0.0030266416366327388,
        321.97745533499835,
        0.01405417234722732,
        0.2171010040497387,
        -0.005356484085129767,
        321.9289268352778,
        -0.00116926677072704,
        0.19767841478492107,
        0.020277786028466808,
        321.95850970461754,
        0.016595014801147202,
        0.6849095046376757,
        0.17574544164434897,
        321.97682446560964,
        0.013269590086577663,
        0.710761468306601,
        0.1690674305176979,
        322.01164367179246,
        -0.004744599888558975,
        0.6660100982876905,
        0.16733942417711462,
        321.99837701086955,
        -0.025743473429756344,
        0.3963036764491001,
        0.16262588387985666,
        322.36300876700193,
        -0.006673709269627837,
        0.37781130892229575,
        0.14463580233354537,
        322.3717926624126,
        0.028913322561181547,
        0.41670733386925013,
        0.16992799548419096,
        322.3739835382931,
        0.0227620840742948,
        -0.0170093573746134,
        3.6420533702138482,
        36.16888776575891,
        -0.01206837780704821,
        0.0003681533824528698,
        3.603611183709013,
        36.15158768497882,
        0.022853634115590982,
        0.0074818939391239824,
        3.6174112700915475,
        36.202083930251895,
        0.013409407134690132,
        -0.022151689563511566,
        3.6343499291415924,
        36.173545123576204,
        -0.022636695560611646,
        -0.00998270836883768,
        3.6021648641928308,
        36.16675193250034,
        -0.02698440288532635,
        0.010115886720967516,
        3.6026517330780217,
        36.17100906456633,
        -0.01640441917261499,
        0.002544339060986796,
        3.6209210579607394,
        36.14672597934783,
        0.002067421672674487,
        0.0004446320305363614,
        3.6161875061680293,
        36.16668823131574,
        -0.005472305199436811,
        0.00232168572541069,
        3.594083973164541,
        36.15725688846078,
        0.0025293405418950906,
        -0.02153600778549353,
        3.6098466397337328,
        36.145294187770794,
        0.0034416433702816186,
        -0.011391085272248264,
        3.632571285049651,
        36.15440144753088,
        0.0061376694950635875,
        -0.019804919623445983,
        3.64086370512501,
        36.20010780843763,
        -0.007567052616689031,
        -0.02136366979443164,
        3.6350977041779,
        36.189131135572325,
        0.03393412249662494,
        0.011440888635175924,
        3.6180216487226837,
        36.16667794863896,
        0.01333507601999356,
        -0.0036801204918468122,
        3.62718751061388,
        36.18224999879558,
        -0.006767309220116021,
        0.018583008015710792,
        3.6369922582698044,
        36.159352496474156,
        -0.018392544473226705,
        0.01394118224606054,
        3.629501680924177,
        36.16609822186744,
        0.025180417681625197,
        0.018134224494233662,
        3.612408299663766,
        36.185958242000005,
        0.0027225203161058854,
        0.007363289580090492,
        3.6241194458628367,
        36.14599730985677,
        -0.01797735030254717,
        -0.0007175797131058971,
        3.62760404074032,
        36.148392737919174,
        -0.014452669514545529,
        -0.004483328090415037,
        3.629560533658676,
        36.16925990747517,
        0.041088374228013834,
        0.0005807090982593957,
        3.6047683610932055,
        36.16578955632308,
        -0.029633355515521403,
        0.007842232112329794,
        3.6255589433795716,
        36.164268015069624,
        0.014154972104308036,
        0.0028208100656878657,
        3.6151082170994333,
        36.128107499175734,
        -0.002533575366366177,
        0.010926052387055685,
        3.6284467617648373,
        36.168979929299745,
        -0.01913341483782205,
        -0.00640408095381981,
        3.6268267241051872,
        36.15897798120711,
        -0.004382316524985952,
        -0.011087976968429473,
        3.639923139756797,
        36.157876366294026,
        0.019193555360266592,
        -0.010884174891452282,
        3.623540221760256,
        36.17386748622766,
        0.0033899076029551335,
        -0.00034735447863368317,
        3.5921113298891485,
        36.156573159659516,
        0.004045716299041249,
        0.01893746206376132,
        3.608554741371378,
        36.16150147563862,
        0.02794762522013861,
        -0.022569222501047027,
        3.6354437271904527,
        36.181014500380364,
        -0.01644085472947689,
        0.01539949478257877,
        3.6130133111905995,
        36.179520243930895,
        -0.013240201925390405,
        -0.0007224255412911702,
        3.6199469580786254,
        36.15652610172852,
        -0.004733160194499974,
        -0.0046192587012186615,
        3.6061962258048323,
        36.16972155220029,
        0.04028660913357873,
        0.0018515736385947856,
        3.6038528247846946,
        36.15104042649646,
        0.006208157228048779,
        0.005224397930388328,
        3.5986516196807945,
        36.152663901730584,
        0.03150719430898046,
        0.028982050508171986
      ],
      "cols": 218,
      "rows": 60,
      "weights": [
        [
          0.12218756027393138,
          0.3974338405029678,
          -0.025944103731382537,
          318.79018309158363,
          0.039510976736304514,
          0.4756105354099307,
          0.1474324138736396,
          318.91330180930703,
          0.030841157937461474,
          0.4415437458619127,
          -0.03520230600946348,
          318.73851326228566,
          0.010510001589219792,
          0.86423023343782,
          0.15593121814595443,
          318.3786623174854,
          -0.07616778545886074,
          0.9733333511068085,
          -0.0003925734824951057,
          318.39116818442835,
          -0.07068339520668414,
          0.7704060567926669,
          -0.02682212180698619,
          318.45953577078825,
          -0.12883612035636416,
          0.4409479006512472,
          0.13329511856539666,
          318.7853999345848,
          -0.10129541345067618,
          0.4412248360587687,
          0.08289287465545309,
          318.7254446849453,
          -0.07736463031870765,
          0.6355021944093205,
          0.04051895422885007,
          318.7496455590567,
          0.02632304725374429,
          0.2401445924820154,
          0.12232508104923949,
          318.53265857841257,
          0.09116714507105708,
          0.08308037615250721,
          -0.07632555127872764,
          318.51932217272383,
          0.011544631585679702,
          0.21707266200629322,
          0.10612880039525012,
          318.5569377030343,
          0.0508633944572646,
          0.5771362141293045,
          0.19631809493093647,
          318.5342796464318,
          -0.11516419659182044,
          0.8038375439829013,
          0.2560860103204561,
          318.65795388117806,
          -0.05134242351620751,
          0.6421094187320916,
          0.09859330580835825,
          318.5035994241808,
          -0.07561336755724599,
          0.39024048168023195,
          0.04772441586594844,
          318.77394166278157,
          0.10175397588552174,
          0.27645204126693296,
          0.18196874190460408,
          318.8077059085635,
          0.03275646401628822,
          0.4355626380015393,
          0.1595193874820825,
          318.79773898200614,
          0.10110762271938574,
          -0.11947312126492758,
          3.6947890728769694,
          35.88041140390751,
          0.09016933881357929,
          -0.10715341348963292,
          3.671698077310678,
          35.901369122628395,
          0.04014526855870031,
          -0.1021937812151595,
          3.571888059961833,
          35.98119589963509,
          -0.0650946460271484,
          0.014172540678136806,
          3.7155291895407405,
          35.76505261356784,
          0.10601968630208862,
          -0.11264106306076044,
          3.479268037551437,
          35.94759704751978,
          -0.03400842451564735,
          0.02385915905834905,
          3.713000693346839,
          35.867065434121315,
          -0.13766775724584043,
          -0.12515301923310815,
          3.479008389748037,
          35.94514679082619,
          -0.10167547740499243,
          0.0866499366815775,
          3.6598215260739035,
          35.90186360439991,
          -0.07327487415314779,
          -0.0035529428280692537,
          3.6127690529573906,
          35.99424781893515,
          -0.01935616360039718,
          -0.15282742419179157,
          3.68099489864077,
          35.97015481375671,
          -0.03861970085368827,
          -0.11723614583807986,
          3.4712006801616098,
          35.73606933675599,
          -0.0799959418936335,
          0.05120814744528539,
          3.50351519504637,
          35.79231056279329,
          0.03697930442160709,
          -0.036946688211356105,
          3.6201023748182175,
          35.86863618271474,
          -0.10131478778319823,
          -0.027335699173141843,
          3.4982957228737592,
          35.91234865444508,
          0.019187934260426184,
          0.08258810003714427,
          3.5380544100933817,
          35.99725538394217,
          0.09792497881639776,
          -0.10918105571669122,
          3.5002690515467445,
          35.90689310045932,
          -0.003442234036617328,
          -0.10667198280799235,
          3.475441487407941,
          35.95211429988292,
          0.04757673594416788,
          0.1252389379675007,
          3.471696552386199,
          36.002225092046835,
          -0.025444651802592085,
          0.15163710906499336,
          3.5577653326772625,
          35.850560109117865,
          0.10704710060973102,
          0.05269294717543515,
          3.734361139901112,
          35.77378577412872,
          -0.016751429407337523,
          -0.08965250714486009,
          3.6555061611889723,
          35.83643847041353,
          0.022914926984338814,
          0.07602858670114254,
          3.460490296271143,
          35.90643394743688,
          0.09874276587153084,
          0.07924246669549642,
          3.7158015897889562,
          35.78923730888058,
          0.12032567223165182,
          -0.019543924642492168,
          3.7264110984566963,
          35.95541841054743,
          -0.13175377425740523,
          -0.05860514363712818,
          3.5634831874029724,
          35.76179645842097,
          0.030092162679499764,
          0.030973984725154297,
          3.4592601792652786,
          35.93976201126532,
          0.04455006950678475,
          -0.009368544587001827,
          3.506843668348685,
          35.819509653914764,
          -0.1121034349473338,
          0.08615540640038369,
          3.4948182125927834,
          35.77392187420893,
          -0.012782678489922903,
          -0.01421784702900151,
          3.620968546772344,
          35.910339421591104,
          -0.10280136319924703,
          -0.0448233765659973,
          3.635461052949017,
          35.76928186005825,
          -0.0673751094069429,
          0.05451382176305787,
          3.5443113066782495,
          35.84901531144913,
          0.11336749043472914,
          0.027158604226759597,
          3.6378859694857675,
          35.9574766081649,
          0.05040671860800926,
          -0.04497307634089859,
          3.44510387830812,
          35.74545138074342,
          -0.13104640275156546,
          -0.004712445928619775,
          3.6120512844098855,
          35.782035454597725,
          0.08008551572890281,
          -0.011438963338481836,
          3.5543883757931085,
          35.98039630279019,
          0.01631997809931123,
          -0.1259023128296203,
          3.5958256346987447,
          35.756016601844856,
          0.009685616477922005,
          0.06530414100222771
        ],
        [
          -0.014736675069127275,
          -4.494978782955243,
          -0.7217602115005783,
          299.9754767503655,
          0.0582054042093065,
          -4.557753279964765,
          -0.7205199796561581,
          299.9561855296501,
          0.06688157918935542,
          -4.415753636379879,
          -0.6382252424533088,
          299.90989398073765,
          0.04229799978761622,
          -11.952314240264442,
          -0.696098301479501,
          305.4147916023201,
          0.06451774445680379,
          -12.072866937898656,
          -0.740785924007208,
          305.5062058370065,
          0.10349960104205562,
          -11.881351845279099,
          -0.7639012273350363,
          305.53154520374954,
          0.09335809533354754,
          -6.5179759049177655,
          -1.3444067138967297,
          302.6788415954418,
          0.04273451251680465,
          -6.395213575300617,
          -1.3583993728020272,
          302.82634093900197,
          0.07005877186616018,
          -6.457012519440192,
          -1.2862094481504591,
          302.7630120015441,
          -0.002549752393387232,
          -2.373918046266436,
          -0.24985310625264268,
          305.55086105177725,
          0.06021513446813816,
          -2.2646293233537147,
          -0.18486774485296495,
          305.62328660428415,
          0.06854414368382385,
          -2.396147202166595,
          -0.10692725713273285,
          305.6741071727163,
          0.04872937058927048,
          -8.749529456350178,
          -2.3829780783495864,
          304.4677425020768,
          -0.03733383987015834,
          -8.640440793332946,
          -2.45585544075766,
          304.5739316986322,
          -0.09447492498543404,
          -8.58686983015883,
          -2.517381929355536,
          304.6558156247043,
          0.003986270979100585,
          -4.951163995392798,
          -2.3259008495834173,
          300.3884885247856,
          0.03110063602340227,
          -4.9094866303555,
          -2.294164622951585,
          300.35694480558516,
          0.09094621389888698,
          -4.915566900870908,
          -2.351968701511831,
          300.4261853163417,
          0.05128109278085324,
          -0.11485031432795931,
          1.0406813059148157,
          11.063259902016169,
          0.030248475557042166,
          0.03704242744022644,
          1.0832094046452716,
          11.140316945378697,
          -0.040304539875846486,
          -0.13592607723938963,
          1.1059970237734547,
          11.111064094213837,
          -0.03769054535481703,
          -0.028640641365473955,
          1.0810578727847329,
          11.018356104621697,
          -0.025717547744723145,
          0.01490517617316981,
          1.0812731988918443,
          10.944628811033686,
          -0.0157192965013959,
          0.01757113532696583,
          1.242822771511676,
          11.081763219578567,
          0.0813972456283835,
          -0.06683293441954519,
          1.0129055481570242,
          11.025983198215034,
          -0.034704079541044396,
          -0.057976898851646794,
          1.1630794641663549,
          11.223393719352842,
          0.15232731398669042,
          0.05989296621737136,
          1.2234503789616258,
          11.114362475519101,
          -0.15864370723933735,
          0.02601872469329991,
          1.1374618911240897,
          11.101907860405912,
          -0.07124321636556075,
          0.09777826812485525,
          1.0536964903055968,
          11.087946653035205,
          -0.01385790553700028,
          -0.003317569995691106,
          1.2163120317738905,
          11.197582940314451,
          0.10321093473961966,
          0.043416400840081026,
          1.1404291686332995,
          11.09051728190901,
          0.04967145920022816,
          -0.10480706354632398,
          1.0470094954754852,
          11.015541549361922,
          -0.06234180652009453,
          0.07011232781720823,
          1.1659944407606808,
          11.07140839458588,
          -0.103886178220666,
          0.06159498513057132,
          1.085196690314079,
          11.129886370519861,
          -0.09646578883354763,
          -0.04302262743965288,
          1.140017204942105,
          11.144110971536826,
          0.04960607131771834,
          0.08654270573160644,
          1.2375806833960956,
          11.09728825806874,
          -0.018284654892381548,
          -0.07222202255679996,
          1.1020943799826481,
          10.985058659471163,
          0.0062918938938627674,
          -0.052475299830097966,
          1.155822751458196,
          11.100319421183402,
          -0.026503922129751445,
          0.08975681023216749,
          1.1116822580258816,
          11.07679336819996,
          0.06311774269664727,
          0.04451649093951613,
          1.2320901837152884,
          11.214484705201631,
          -0.006263786860261926,
          0.03811404589197796,
          1.0008717733968373,
          11.03618376393996,
          -0.01784697901845973,
          -0.024688820648001947,
          1.1172231414051492,
          11.212164991416996,
          0.14575959355175358,
          0.01630104843756207,
          1.2051143037137697,
          11.092166358157742,
          0.12855197692710632,
          -0.062457297636327964,
          1.1253781538343819,
          11.122703835648746,
          0.0198146319809928,
          -0.02030665734593025,
          1.0999295400119813,
          11.228033183742644,
          -0.14341882533186712,
          -0.0928263830191494,
          1.2519541090929038,
          10.97863597790789,
          -0.03278055539302641,
          -0.061160281543931876,
          1.2269398472554482,
          11.016045249599072,
          0.005398582830574777,
          -0.008301559842077848,
          1.155698632399995,
          11.031265366336369,
          0.029866410931855228,
          -0.04514579895175108,
          1.088170577521429,
          11.068418710696367,
          0.04926974129352375,
          0.011442707736277534,
          1.0836969447935827,
          11.111508089853107,
          0.025757566388919014,
          0.015060838139858907,
          1.1287501055463856,
          11.093448193695192,
          -0.08991991611271269,
          0.039611684374321963,
          1.0818511934135013,
          11.172386460372683,
          0.02392707539903873,
          0.06399478906079202,
          1.0153850417492043,
          11.005722413034189,
          -0.05967750656431285,
          0.06656672524346714,
          1.0673203378725171,
          11.050924081753667,
          0.09285458086456125,
          -0.06802190205939154
        ],
        [
          -0.07793125584680062,
          -0.240862358631793,
          0.8298322118533132,
          587.3186995330007,
          0.1404470636959167,
          -0.1691372541796596,
          0.704874225525424,
          587.3012132941552,
          0.12154996993673178,
          -0.27731693894670406,
          0.8312898198480736,
          587.4040484181309,
          0.004445369477069826,
          -0.4326147325152894,
          0.7913633499932095,
          587.1371352006237,
          0.04193207381492854,
          -0.38353667100409955,
          0.9175397541947209,
          587.274809773955,
          0.1203480672765028,
          -0.4131699107781914,
          0.97335256647016,
          587.3940757988113,
          -0.07521025243834818,
          -0.38182143289526344,
          -0.06706698041348581,
          587.2877784204607,
          -0.09666841761381101,
          -0.4970167475842189,
          0.07358735843326787,
          587.0445836151781,
          0.05388696607360386,
          -0.30438805654064743,
          0.09932209073960323,
          587.2532924621628,
          -0.012837486660905305,
          0.25740151829550045,
          0.6104900562406618,
          587.5111769067204,
          -0.10558650061785757,
          0.335940311324253,
          0.5048383322770927,
          587.5069234378054,
          -0.018789695160106562,
          0.25989922248103814,
          0.48394110960167297,
          587.6755569860954,
          0.10035585819458394,
          -0.196924046858574,
          0.4966973268837636,
          587.7320535664504,
          0.08252713091053032,
          -0.20687212625599516,
          0.41405167729650416,
          587.6777674418215,
          -0.017166923132852258,
          -0.34951052986277825,
          0.3216950998375499,
          587.4970053936022,
          0.15970361608346134,
          -0.012549251317821112,
          0.9325423147306096,
          586.6776691273607,
          0.008250320067502629,
          0.035116439669423544,
          1.1212168359679313,
          586.7567246372137,
          0.07074350717372095,
          0.015731284543754238,
          0.8492125968392557,
          586.6275186735974,
          -0.006563911867884231,
          -0.06266103848584682,
          -0.38212711383159687,
          -2.225697336879389,
          0.12983018137458652,
          -0.05287959904371298,
          -0.2974065255350127,
          -2.250016050910009,
          -0.06387246040637697,
          0.10116531705113042,
          -0.17673654157016555,
          -2.063210513238865,
          0.1430053371284062,
          0.13025437253053593,
          -0.10133368841262252,
          -2.1367256286377487,
          -0.01296577198666563,
          0.029214270075050237,
          -0.19548123189223074,
          -2.1229668344085306,
          0.04219019262622448,
          0.057118486299264574,
          -0.32911015626217954,
          -2.2999014970208864,
          -0.0050338587064402114,
          -0.027604103568169207,
          -0.2345858590254321,
          -2.1252905733438388,
          0.05823096761370102,
          0.010769569669491127,
          -0.25648298703838507,
          -2.1644407641122054,
          -0.09068770051303589,
          0.00710541419314932,
          -0.3082003356420616,
          -2.170862630597953,
          -0.11057956883636434,
          -0.13251818631173357,
          -0.2729222821101606,
          -2.0865842725315176,
          -0.1135835252896807,
          -0.02625535129651233,
          -0.3331300726462836,
          -2.2959688627509127,
          -0.0008099806474210941,
          -0.135116190908455,
          -0.22048468386068734,
          -2.033505864879953,
          0.1515685696815665,
          -0.024331964689986888,
          -0.32080655461219787,
          -2.311603988414909,
          -0.09165588623476628,
          -0.14963363286535494,
          -0.24325504857599875,
          -2.1406270280102158,
          0.001582168329513588,
          -0.10097163822468483,
          -0.30497351773878517,
          -2.1046065195271058,
          -0.08646878481434586,
          0.03907918149534899,
          -0.13420389436583888,
          -2.285252092327798,
          0.005854212205491764,
          -0.10235905158620733,
          -0.1415568184525519,
          -2.1641693445905488,
          0.04740110381752354,
          0.012485180395757042,
          -0.10349398892198954,
          -2.271379495978081,
          -0.08338712724243273,
          -0.06274078234451452,
          -0.29983477257667834,
          -2.259352001284183,
          0.09457300302759755,
          0.05352739458701774,
          -0.20498523537949748,
          -2.20130548836485,
          0.004342380886246017,
          -0.05299921743629649,
          -0.10992023094716144,
          -2.112876172990541,
          0.06382075070953341,
          0.06088209512884429,
          -0.2406071642098979,
          -2.1601214944660376,
          0.05270620597621795,
          0.008370707948245026,
          -0.31731271240911046,
          -2.1806949882462683,
          -0.05269525806930168,
          -0.1133586640659442,
          -0.25949136659639943,
          -2.339555122758904,
          -0.02650649930027077,
          0.024352627450044094,
          -0.24059709370217944,
          -2.1253355594037404,
          -0.10089730484089517,
          0.05978748047562486,
          -0.1431055269434883,
          -2.1182883097401284,
          -0.05087520487640722,
          0.09614166156401217,
          -0.24613688797783065,
          -2.05597418679081,
          -0.07849905684895915,
          -0.14537338747567857,
          -0.13249308712909777,
          -2.275723133146967,
          0.008655797224181512,
          -0.056240671546961,
          -0.0929252725184556,
          -2.0726875565008407,
          0.03859791087230474,
          -0.11366172930313176,
          -0.2647872456239087,
          -2.1297266974239863,
          -0.15034488149651976,
          -0.017292051528007515,
          -0.2051383107137289,
          -2.2098175329972674,
          0.008099400401691229,
          -0.06629818562542741,
          -0.1367771944713032,
          -2.0390087474893344,
          0.13587759139652866,
          -0.11744218915167076,
          -0.25378696416068924,
          -2.117442314946863,
          -0.0010375142500803037,
          0.005955651503395475,
          -0.2851600894301402,
          -2.212289329776526,
          0.12856649798984723,
          -0.10978872680475599,
          -0.06665844449497782,
          -2.3228762703572574,
          -0.06348094014547163,
          -0.031314783788702505,
          -0.2990009522118425,
          -2.1326110810348466,
          0.039432521162348855,
          0.11342959611867574
        ],
        [
          -0.017140412129732906,
          0.3528789237190353,
          0.13191453771284983,
          318.80241963164127,
          0.021099276808960638,
          0.2723027972929399,
          0.039579200589417995,
          318.8054891807529,
          0.08045075835063023,
          0.41681695727484025,
          0.18738987744192936,
          318.8923798647255,
          0.11476367169667198,
          0.8587831105743762,
          0.07762086708314263,
          318.37101380631924,
          -0.007683625865849698,
          0.884282146175927,
          0.06532888445370542,
          318.5765018906858,
          -0.11783733342187304,
          0.7946239211443138,
          -0.027529631883950564,
          318.3818821465679,
          -0.11243198101114875,
          0.6076647363490975,
          0.2292281008299214,
          318.56047002943865,
          0.031140521471676494,
          0.5129958630824425,
          0.2134778915636668,
          318.75568711247536,
          0.08894367123492146,
          0.3812512727104482,
          0.18758691565486546,
          318.55385617573927,
          0.08149372087084233,
          0.10663661463865443,
          -0.030600176259659734,
          318.550033577734,
          0.09638223582666783,
          0.13764889997563654,
          0.06039125034343427,
          318.5719255854741,
          -0.1140080060896892,
          0.170825325540382,
          0.09087727047851955,
          318.5698485615149,
          -0.0853507146083301,
          0.627649953733627,
          0.10324274419135804,
          318.6195934324068,
          0.1147740713283611,
          0.6249645580928833,
          0.10543488278133596,
          318.5946761604074,
          0.08185764729816485,
          0.7654299990783234,
          0.288261343692102,
          318.6384499068941,
          -0.08578857078762014,
          0.24947801051634597,
          0.1168624904386777,
          318.8889739477189,
          -0.08525587663043163,
          0.26086288680007497,
          0.26832304902269694,
          319.0259347191582,
          -0.07096247144885248,
          0.3725357859497051,
          0.17443632697097705,
          318.916323315268,
          -0.1066903004228635,
          0.008009878593728504,
          3.5397431270779096,
          35.82147312574442,
          -0.04416739256019844,
          0.025153219301946035,
          3.5590000012054697,
          35.86056448535003,
          0.03522094368620437,
          0.11146128490495051,
          3.461705858188581,
          35.85467432404993,
          0.05841406926721613,
          0.06798035765005493,
          3.617467500957659,
          35.824233248550634,
          0.09485834166374228,
          -0.10015692189585373,
          3.6926262182993597,
          35.97553910608833,
          0.08308069638270983,
          -0.007439593531286325,
          3.4886283096448074,
          35.81171221547525,
          0.08161271908531402,
          -0.11265175836061607,
          3.6340044672813665,
          35.94640977533618,
          -0.047729852555300704,
          0.13130125073142887,
          3.4700985752569746,
          35.854920712477785,
          -0.09171386164902169,
          -0.07450693515708688,
          3.70607355897443,
          36.01553522142483,
          0.016223468774167943,
          0.07228329538894337,
          3.5835207049841697,
          35.74569070150584,
          -0.13922561687084806,
          0.07768072666600173,
          3.60891215523882,
          35.88320528032858,
          -0.13006409266205574,
          -0.1320211246546738,
          3.7579064142943963,
          35.91202628046519,
          -0.13459548954306477,
          0.015109615743136691,
          3.652955300990629,
          35.764414478190034,
          -0.06452849084746277,
          0.14505142662780357,
          3.5925767482168003,
          35.95958654374978,
          -0.05908423279965956,
          -0.01116207824919351,
          3.7339375250802926,
          35.91998437221011,
          -0.066432256277048,
          -0.09188192248552686,
          3.7329658722694163,
          36.027580124885525,
          0.08191874887212867,
          0.04819061983132183,
          3.61149139691357,
          35.74770734917633,
          -0.09926305391104176,
          0.007426200868876602,
          3.499762322290394,
          35.935611805675194,
          0.04262210256241185,
          -0.10675315182201969,
          3.4812117204554163,
          35.778890417450995,
          -0.004084471801571323,
          0.061905212638285335,
          3.6762201011571447,
          35.820942669475066,
          -0.13299731379969454,
          -0.10278455664253286,
          3.6338690621942646,
          35.955276993085455,
          0.0749104361172051,
          0.09238654028245882,
          3.6772154997873487,
          35.991209717649525,
          0.06537284380950203,
          -0.09607048586682236,
          3.7194033803651285,
          36.01212802732015,
          0.10922060313417378,
          -0.04162776166622055,
          3.6360465141958325,
          35.987196752326035,
          -0.029962625310964375,
          0.06398075754050833,
          3.714176902074153,
          35.99469413044362,
          0.1226467555025499,
          0.1090358323293958,
          3.6589675286711802,
          35.986990495258716,
          -0.02426663222470581,
          0.0824734650406048,
          3.485469810631886,
          35.87330685125946,
          0.1269834927787448,
          -0.12493165016232927,
          3.650375745775993,
          35.995135422079514,
          0.032354006632604515,
          0.10708553741722553,
          3.4998830965841887,
          36.005616432859874,
          -0.08933989921848526,
          -0.028657058950961153,
          3.55857441791373,
          35.93534410893035,
          -0.07000820054169145,
          0.06165455407272169,
          3.5450954571050963,
          35.80777781536744,
          -0.07973879565792014,
          -0.10755060103862406,
          3.6021085851094576,
          35.77279333964659,
          0.10520221711116046,
          0.04017571577233807,
          3.511289935693497,
          35.856615969422926,
          -0.061776421642892286,
          0.11631618600141518,
          3.6450481908563,
          35.81110779319993,
          -0.006655669481018518,
          0.08308153176531052,
          3.533900907632353,
          36.006919468813344,
          0.03113202368403528,
          0.08884511448382348,
          3.6455578045084707,
          35.7524031425281,
          0.007724914610920128,
          -0.002718996601304556
        ],
        [
          0.07850875667096965,
          -0.22825244380901205,
          0.6639374073141981,
          593.8920170204011,
          -0.022437263782948347,
          -0.2780052863085357,
          0.7695366319029621,
          593.9014941387532,
          -0.04312063067882317,
          -0.3231011393009865,
          0.8740886529065821,
          593.9212011605364,
          -0.1103850950659716,
          -0.3391156820664009,
          0.9278740752206934,
          594.0289645012801,
          -0.12691006658957815,
          -0.31712765860440056,
          0.7914158569775301,
          593.978314019372,
          -0.020366216776693223,
          -0.500917127712875,
          0.9175429262016751,
          594.0209781131764,
          -0.011195388197576412,
          -0.5140885730972249,
          0.14831102300169952,
          594.0171387718976,
          -0.050962490665909445,
          -0.2689546747212716,
          0.06880341440367033,
          593.9725556970427,
          0.0815870701712689,
          -0.5085242220062836,
          0.04986031479132767,
          593.8426191867502,
          -0.09144757046295557,
          0.39705864493249854,
          0.5838266776324565,
          594.2100279052146,
          0.015962624358111424,
          0.27973033633620736,
          0.6300839498193056,
          594.22981787807,
          -0.02658393636242641,
          0.42771151363454346,
          0.5649556965923384,
          594.2272263882717,
          -0.01282236932776922,
          -0.24436481159279377,
          0.44683364679165527,
          594.2859642946441,
          -0.04678996761930362,
          -0.354384698763305,
          0.4199068438131687,
          594.4821234988754,
          0.03972354181609205,
          -0.19935631483622174,
          0.29535235791904224,
          594.4002991135778,
          0.006349805645072166,
          0.010183534972579206,
          1.0419736343390464,
          593.4485933251202,
          -0.04540221189559088,
          -0.11769748902716484,
          0.8966505108343504,
          593.2669570603307,
          0.011258271612143461,
          -0.12287685060437274,
          1.1052724097533249,
          593.3185699439958,
          0.02394796937186073,
          -0.024860803340264123,
          -0.17754549797914657,
          -2.6455925089788677,
          -0.047666622184666704,
          0.0030704897885343793,
          -0.16561283490312959,
          -2.6327010290889996,
          0.05789208921080536,
          -0.005801606028616109,
          -0.26854184344969906,
          -2.6362074923234706,
          -0.13211604521724307,
          -0.06294603448722783,
          -0.3739667552378428,
          -2.6202685336195626,
          -0.044068278502819545,
          0.04595950204501054,
          -0.43198366682172346,
          -2.61485539152732,
          -0.08495328597881657,
          -0.11453205774315667,
          -0.2601328416683143,
          -2.693889011486672,
          -0.10972552458920348,
          -0.07281970519187324,
          -0.3254909804297477,
          -2.8200798109156295,
          -0.05004154168608396,
          0.050928113465523166,
          -0.1371748588102809,
          -2.870668301502275,
          0.0974875057947344,
          0.014777325382166648,
          -0.2904691624764922,
          -2.7410558794787128,
          0.11952089638758821,
          -0.036808717451589396,
          -0.2184466488714575,
          -2.7614349587608196,
          0.015335164519851669,
          -0.027227339134700212,
          -0.2734099327826671,
          -2.616197931091184,
          0.03845214097990521,
          0.06387460727757568,
          -0.17789817465757407,
          -2.803962925164162,
          0.003421642631211333,
          -0.10961939463377218,
          -0.21677088344334958,
          -2.735379699797938,
          0.12540099139603308,
          0.12176831375724609,
          -0.13930516272429075,
          -2.7004033127426315,
          -0.03589892301595427,
          -0.06218673448934216,
          -0.27625533445738404,
          -2.73973210725363,
          0.07800087083406167,
          -0.06936278560620494,
          -0.14952963442296605,
          -2.6336210313866424,
          -0.0229811595163391,
          0.09089779915277107,
          -0.35168898794177417,
          -2.724011810464747,
          -0.10589662122702498,
          0.07275734645253419,
          -0.3922140423703213,
          -2.7783678478756557,
          0.08343713712026943,
          0.04986306182858294,
          -0.22680414069530536,
          -2.850790557750918,
          0.04989132839204865,
          -0.11357735257323302,
          -0.37437762203661445,
          -2.6119498596636257,
          -0.06961471088906403,
          0.018459336838321124,
          -0.2489196638174559,
          -2.7597914025713655,
          0.15211769874964115,
          -0.006263613591509089,
          -0.3797629902418737,
          -2.840744736377898,
          -0.042004769113873686,
          -0.04233469999938776,
          -0.33643412357701813,
          -2.7184067314924905,
          -0.0950024375010036,
          0.11803019365203524,
          -0.1851912494145737,
          -2.6650679110963678,
          -0.022768964660687747,
          0.0031312288075576638,
          -0.3505457950077539,
          -2.876294090749856,
          0.1264143149178895,
          0.07901393407380382,
          -0.36256242302325714,
          -2.6387024654246445,
          -0.04637122571457859,
          -0.02136653556761781,
          -0.19596195315877027,
          -2.681299291614307,
          0.036303861326224894,
          -0.015533830248187134,
          -0.15641832649329515,
          -2.669273686498029,
          0.043485920088428456,
          0.06671306870512164,
          -0.38880197854776827,
          -2.8484115448385396,
          0.07384387669635963,
          0.03654628071015878,
          -0.35236690948190286,
          -2.848639207261142,
          -0.07930008706731008,
          -0.1186266172140878,
          -0.21064981982369188,
          -2.696265353119398,
          0.050460659213211634,
          0.08595655097619877,
          -0.18310452029678545,
          -2.841554599666563,
          -0.01639283093143243,
          -0.05994937998183653,
          -0.19199975053301777,
          -2.680202210236507,
          0.00829035946295175,
          0.021286537950458626,
          -0.17106367727087662,
          -2.7188231317422025,
          -0.006718772796533619,
          -0.047844435493769204,
          -0.3460656009906771,
          -2.6712678658172546,
          -0.09943356897388941,
          -0.06446781463452485,
          -0.3386520693788554,
          -2.630181047007695,
          0.00874316718894974,
          0.10346849512862759
        ],
        [
          -0.006506430649546761,
          0.500524241601922,
          -0.08481389952333765,
          319.41208883147686,
          -0.02880765473437377,
          0.3561390030072633,
          0.11414005461634635,
          319.25020058160914,
          -0.12706304423218198,
          0.49152096243033805,
          -0.06914892365946652,
          319.2258604508768,
          0.12053273336174364,
          0.8932330237354458,
          0.06046920376995027,
          319.0441638140606,
          0.010401371251056106,
          0.9513197904827776,
          0.01756255915383732,
          318.8489723858187,
          0.10890270330932848,
          0.9581645901199283,
          0.01441883455503231,
          318.8381024920132,
          0.025962375659317447,
          0.3961847693717343,
          0.17367349277137395,
          319.1205469783382,
          -0.10591121202668234,
          0.4261703435757429,
          0.20573925337713944,
          319.29449020976585,
          0.15061129219781327,
          0.50484543693947,
          0.2430131223785682,
          319.0714577965497,
          0.07312696477410266,
          0.28501948606112004,
          0.14053203468846012,
          318.8667739326296,
          0.02754144872167934,
          0.23686597386836727,
          -0.14054658889025587,
          318.9633613149888,
          -0.11401110086262833,
          0.11277234090448908,
          -0.08647994231049892,
          319.00418436771514,
          -0.1261768781992383,
          0.8085793836770138,
          0.20784474801211064,
          319.0203088443709,
          0.05153003243477446,
          0.7070779353927716,
          0.14663906018071304,
          318.96464496275655,
          -0.1169998294257188,
          0.6090083279992625,
          0.07926280644394587,
          318.8790584127965,
          0.013056736983154647,
          0.3499573012700744,
          0.22163126280323414,
          319.4191091480941,
          -0.09763987421736822,
          0.302461129100133,
          0.03642524318700149,
          319.2066917296741,
          -0.08995185506347225,
          0.2872748704883516,
          0.09578798414042082,
          319.32697880314794,
          -0.11921734549461939,
          0.12814044951433698,
          3.715864898377962,
          35.81423799774876,
          -0.0011226370591296256,
          -0.14574515581176986,
          3.622312834758127,
          35.78079205323377,
          -0.0437940415217559,
          -0.02504421085280259,
          3.574306064558959,
          35.79380954750969,
          -0.030039997786357686,
          0.021354834353938847,
          3.4703793258609856,
          35.69629263805359,
          -0.0826791507057769,
          -0.03432127450691463,
          3.5645901748981634,
          35.87262858481006,
          -0.06612847681676617,
          0.008802352703067102,
          3.5045538453503413,
          35.725785220160915,
          0.1264608716237556,
          -0.03093705516274202,
          3.4534885593652627,
          35.674920768070194,
          0.04807068127876917,
          0.052950737391284516,
          3.607362289102407,
          35.86548736273225,
          0.057138263118270936,
          -0.050202358724542415,
          3.50537029627792,
          35.7302925342683,
          0.07372071410017059,
          -0.16199131289251245,
          3.467112524687562,
          35.74152010939186,
          0.11375935280968869,
          0.09744896671178256,
          3.5659919280492356,
          35.92534707320357,
          0.034998585254258724,
          0.04890370662131484,
          3.6479824086143156,
          35.87209067562223,
          0.07573250926817197,
          -0.0362588534901611,
          3.4554477491921505,
          35.95930538459831,
          0.1018805081010102,
          0.03425236405372075,
          3.6760979376014657,
          35.74452188775924,
          0.030430594692607994,
          -0.08332310032399727,
          3.532827806816829,
          35.76083803968164,
          -0.023949451235815607,
          0.05860525998305606,
          3.599806471057843,
          35.81219967634655,
          0.12524916739547962,
          0.047090779748465615,
          3.4706732260050672,
          35.94105719477161,
          -0.0839802707311853,
          0.011414526663601831,
          3.6232005824424522,
          35.90593210582408,
          0.052677820637783965,
          0.08941455613107709,
          3.6121142543549176,
          35.73544510458365,
          -0.12704007656709324,
          0.12521192840004242,
          3.5575191319279496,
          35.89621352625121,
          -0.07210477220127562,
          -0.14293299708251414,
          3.734929671537044,
          35.92401966262454,
          -0.034266856926477955,
          -0.07366966396385885,
          3.6534718736101595,
          35.757475332093264,
          0.07970816419596131,
          -0.047220161711473564,
          3.474620352503715,
          35.827677888173504,
          0.10698309425792271,
          -0.020398820728929505,
          3.550047251051734,
          35.92081352861961,
          0.055066760819009776,
          0.05944773419116289,
          3.602504041176751,
          35.71042108603433,
          0.04027570693066062,
          0.09639245055198614,
          3.6816051141670876,
          35.78363718209034,
          0.04965167994551993,
          -0.04065923510567243,
          3.5386946569237794,
          35.6842346471429,
          0.09271620012334547,
          0.024910906472193566,
          3.6991655606621943,
          35.958184450544266,
          -0.029904666151384027,
          0.0010556367454886905,
          3.702080980287819,
          35.93863359643758,
          -0.13684496117025455,
          -0.003341690038039842,
          3.624673482804713,
          35.67420694480787,
          0.15106039873348415,
          0.012012140566487929,
          3.5915866141654385,
          35.92536886385249,
          0.11525421222082649,
          0.06724374973561065,
          3.715607297399726,
          35.92476646795604,
          -0.0322473531110013,
          0.05665960811943137,
          3.576012807286624,
          35.788821202858145,
          0.08852796877463655,
          -0.0699139218468539,
          3.6010953369417686,
          35.79783331309049,
          0.10981405615076505,
          -0.04178036009779168,
          3.5411224478867767,
          35.89293539435719,
          -0.07601397968071369,
          -0.0028294034806369984,
          3.580823170977818,
          35.820163977244256,
          0.11201657169548035,
          0.012290793022645932
        ],
        [
          -0.14371574456703382,
          -0.3312990361011038,
          0.7266616464850351,
          588.0858920408103,
          0.08768190855708557,
          -0.1515195802556389,
          0.6553211675130538,
          588.3129824096937,
          -0.05942591544394733,
          -0.15737132790980482,
          0.8848436321619199,
          588.2417357838489,
          -0.14225137891871464,
          -0.5181396559851152,
          0.8493100384769194,
          588.3021897878276,
          0.07017046997561174,
          -0.4499107428250125,
          0.8865060090646947,
          588.3030632523884,
          0.10488916197379002,
          -0.4045389742179558,
          0.9233606055597433,
          588.07433952885,
          -0.012036793231352191,
          -0.44958395502671084,
          0.14615507548912748,
          588.0831603878601,
          -0.06522909023693818,
          -0.37432998312444543,
          0.0026001798320968877,
          588.191735411319,
          0.14659541610798832,
          -0.3874093225128658,
          0.08110676161759527,
          588.1773435909643,
          -0.06753760413563559,
          0.24953761585054504,
          0.6071139531297065,
          588.6041781652349,
          0.09476625007365523,
          0.3087353032247585,
          0.5936685990554978,
          588.3919312736215,
          0.08599176140541935,
          0.15382475573244433,
          0.6607574492766097,
          588.5665324302308,
          -0.00019538787302747206,
          -0.2408180573935715,
          0.4029587248739272,
          588.5989579355474,
          0.08726482380570356,
          -0.4336105973469666,
          0.3610020394847389,
          588.467728612001,
          0.0017394577002412487,
          -0.4473080802876536,
          0.34540157750947914,
          588.6851070321385,
          -0.03241512622122207,
          -0.09951852210010123,
          0.929825229486856,
          587.6545552446537,
          0.12487080274921336,
          -0.08156729624920957,
          1.038555210322418,
          587.4962844289694,
          0.07570629219764823,
          -0.22820178206844294,
          1.1050738106837383,
          587.6690097031037,
          -0.021455067586819025,
          0.048873805008858295,
          -0.16079846135349285,
          -2.246762006461186,
          0.0008111720841791122,
          -0.03581431983250263,
          -0.1522869287792726,
          -2.3872836992607103,
          0.004389893528641919,
          0.013288588009786243,
          -0.22826807567545362,
          -2.2726784487683087,
          -0.05071571607352934,
          -0.05199212930508132,
          -0.29609767227934597,
          -2.3534409072993028,
          -0.025013874732829875,
          0.10418934824898704,
          -0.2670724356481409,
          -2.39704965087046,
          -0.11355017266093985,
          -0.09894764900676517,
          -0.33192428822301295,
          -2.3679923258774886,
          0.12285228570074001,
          -0.01131495794513093,
          -0.0704693941647875,
          -2.3091673195872136,
          -0.12973449035469609,
          -0.04841794610250005,
          -0.18752001059280768,
          -2.484783108311535,
          -0.03210341711127841,
          0.02846196164922792,
          -0.21236388093269432,
          -2.4118939023231922,
          0.14538001598955735,
          0.07325931739058887,
          -0.16169285346696116,
          -2.346556365894832,
          -0.06615005393813377,
          0.09253352691369984,
          -0.23789293262464584,
          -2.277167086364465,
          0.11403543810093267,
          0.13199990040745832,
          -0.14495772072759286,
          -2.3317170922833093,
          -0.10092883698080755,
          0.06394795694636969,
          -0.08253624212186511,
          -2.2871020580041304,
          0.12857415463401042,
          -0.13225684550621708,
          -0.2309212825762438,
          -2.4190579730922255,
          -0.08027575183357324,
          -0.04533659981002113,
          -0.33323819342453087,
          -2.4294625010917668,
          -0.09833065596181813,
          -0.14023116205365072,
          -0.11537002273067078,
          -2.2545049771421293,
          0.0322482669346551,
          0.01169472335042121,
          -0.29784705854635724,
          -2.4748339576161156,
          0.07209351054885872,
          -0.025429465393620718,
          -0.37821447091435234,
          -2.3849685053707925,
          0.10430615242958988,
          0.03732790080488811,
          -0.21066515363564467,
          -2.316918836364443,
          -0.11598654077931275,
          -0.039866432477961296,
          -0.2367295192190335,
          -2.4595389415313478,
          -0.10414450189922575,
          -0.0244121409289004,
          -0.26287789812346013,
          -2.317617401311176,
          -0.09831213619520865,
          0.1571741607114039,
          -0.3563551694649954,
          -2.487246486697613,
          -0.038335947460847015,
          0.11953524949854716,
          -0.294356282775606,
          -2.249976559787468,
          -0.04105632432531705,
          -0.1454226811571591,
          -0.20540331973393253,
          -2.26486153751214,
          -0.1464006749428549,
          -0.034457970094952745,
          -0.12680874782521637,
          -2.3618447093384605,
          0.12645722690062738,
          0.016726052532284805,
          -0.15730611681515513,
          -2.4941860022563405,
          0.04078763616972732,
          -0.07965330672450062,
          -0.3690331345140927,
          -2.333190072423148,
          -0.05821436453849612,
          0.13482021664482954,
          -0.3627537873279642,
          -2.3282549200273337,
          0.09576765640190227,
          -0.0512300803949797,
          -0.2596894897838367,
          -2.37449786838203,
          -0.11791411890015034,
          0.08480567944065806,
          -0.11812471342986935,
          -2.3639176179830095,
          0.047355636911080655,
          0.09790409647039482,
          -0.3617846404113146,
          -2.2720901068470765,
          0.039433972830958265,
          -0.03595835777151264,
          -0.3376039850419412,
          -2.4271886382148042,
          -0.04703826220507006,
          0.09273632212126841,
          -0.30510695844185265,
          -2.4622096387272325,
          0.11418926970478871,
          -0.11892209225659763,
          -0.21025145276994778,
          -2.363237789053817,
          -0.02241175913934063,
          0.09937380616406545,
          -0.20228305123544246,
          -2.2599470195694513,
          -0.07039692920305307,
          -0.13369056231329918,
          -0.3697450102409161,
          -2.278575837029982,
          0.0864759599001106,
          -0.06917244886496117
        ],
        [
          0.07502640450807747,
          4.4896625764320035,
          1.550779102170481,
          617.3527453941783,
          0.10214534291882028,
          4.457955226625358,
          1.53396817996703,
          617.3894286665827,
          -0.0593031997650623,
          4.416710513127442,
          1.6509367023580663,
          617.3397435960597,
          0.10440205304943273,
          12.395958749685777,
          1.6217597142123268,
          611.4748101700803,
          0.09874227651470595,
          12.311114972527045,
          1.6479706870608926,
          611.5174095658965,
          -0.0240537963110766,
          12.34332159195906,
          1.4829283069696324,
          611.438463040112,
          0.03905632274807329,
          6.589037638541297,
          1.4200970626331513,
          614.0989610408764,
          -0.06904970225009864,
          6.601752378490428,
          1.4337210322238365,
          614.2619530280303,
          0.15057380152391475,
          6.429140550232889,
          1.4318215004830175,
          614.1459381972156,
          -0.005574888312673391,
          2.8159840887409806,
          0.661922073017743,
          611.6358527845987,
          0.051037626310747986,
          2.787110798804095,
          0.551312496836978,
          611.6058292173867,
          -0.021179494556921075,
          2.86214252652993,
          0.6764627432462652,
          611.6717160286314,
          -0.06453745930309736,
          8.851564471961204,
          3.166494862984787,
          612.6240650316568,
          -0.08877817930082858,
          8.905657688424144,
          3.0650336360841552,
          612.6778855448533,
          -0.034492477316852316,
          9.059931291181549,
          2.920190415481971,
          612.7188642300317,
          0.022709213159425392,
          5.10607002597321,
          3.4174669326118408,
          616.2758046502511,
          0.08783570456336784,
          5.147709026803069,
          3.3892460945437333,
          616.3986375229503,
          0.03109037853950351,
          5.201261566373197,
          3.3227555758569522,
          616.2994533461144,
          0.06968617358308131,
          -0.15495190298620296,
          2.286015090409791,
          22.167197537544002,
          0.02116750396080764,
          -0.06343896718532555,
          2.252370435609954,
          22.272963837572203,
          -0.07463409401659563,
          -0.07549343866530235,
          2.148494559630109,
          22.12255887937426,
          -0.058720495662691614,
          0.02474114908237043,
          2.3012662656565452,
          22.219726193443893,
          -0.07573722591290775,
          -0.10781596252439175,
          2.1815585932649273,
          22.064300907100197,
          0.07239828568657092,
          0.001830748494413374,
          2.2121615003186603,
          22.125551177393803,
          -0.07283376020620974,
          0.05540912206301619,
          2.2102967104042643,
          22.065270658188933,
          0.022036207271608623,
          -0.019194012836668793,
          2.1954517616711144,
          22.24183010982443,
          0.1507514957510196,
          0.05712870080999278,
          2.3300725692202953,
          22.10684123570155,
          -0.06262701780110916,
          0.09107415277118466,
          2.1957154038506417,
          22.132768843626156,
          -0.12477590893145263,
          -0.03554596082597917,
          2.152509362314776,
          22.269507782538714,
          -0.043382353927343034,
          0.026178019483867762,
          2.281893003523529,
          22.22247688924237,
          0.08794918785246196,
          -0.007063673490900093,
          2.175157030918337,
          22.2419313233698,
          0.0044110424517361845,
          -0.04402566321015372,
          2.1060788442574156,
          22.076367106539262,
          0.016413331545848488,
          -0.036157714919242204,
          2.1827243176114908,
          22.16387049579733,
          -0.040855696216231495,
          0.10128524777637674,
          2.120483672295968,
          22.067254341835795,
          -0.058694663903729676,
          0.010870589800219198,
          2.2596471114072916,
          22.188113211130812,
          0.0019180038894249282,
          -0.039789971533728964,
          2.284062003159736,
          22.106031599927455,
          -0.00486693841247221,
          -0.04887693533617051,
          2.258865539146599,
          22.171383667938127,
          0.02112813498054805,
          -0.09915858637622534,
          2.325144166462536,
          22.110651070059667,
          -0.019184058386804127,
          0.12077123139086819,
          2.2077534764481705,
          22.09927800919038,
          0.042906015107760626,
          0.030831834464377376,
          2.3769097166120012,
          22.218519058214234,
          -0.029286098452410776,
          0.0491345394221551,
          2.054279224710141,
          22.05415780444385,
          -0.0802784701020953,
          0.06524948100000647,
          2.2650905960134224,
          22.200144249795102,
          0.08384494927292957,
          -0.0444176917105792,
          2.1619184610964135,
          22.199087203834683,
          0.0852489785527062,
          -0.0527804022061289,
          2.304983499465451,
          22.147382527532475,
          -0.0242649730061437,
          0.007106945571536254,
          2.1721450236345703,
          22.220575513055348,
          -0.05247474066006955,
          -0.0631149674147447,
          2.292236711439641,
          22.183060585103842,
          -0.07138381436534184,
          -0.09245833768966798,
          2.2701058230085254,
          22.114405639820813,
          -0.07473141968415681,
          -0.10080810163541178,
          2.15370342430691,
          22.24334971008712,
          -0.04979159198960176,
          -0.12782458088230353,
          2.138941987773251,
          22.159050054686723,
          0.10850189050230306,
          -0.028220616967058854,
          2.0690332820399178,
          22.045990247184942,
          -0.03713687463023166,
          -0.07609304987867183,
          2.2999732911493065,
          22.117581700082404,
          -0.019525208666303508,
          0.12217518438137358,
          2.142434456183114,
          22.106103808201855,
          -0.0348356295306702,
          0.0015018474590552365,
          2.222924342243275,
          22.049230976644722,
          0.01496027923945529,
          -0.1000857096327542,
          2.2283665140200393,
          22.065768333660365,
          0.07227775833901744,
          -0.07710977203076376
        ],
        [
          -0.02813473395497383,
          0.30020532663082,
          0.07521389781112583,
          319.098433758255,
          -0.11415483065880144,
          0.30831889687478375,
          0.15513393921643265,
          319.04775496301016,
          -0.15759000101726997,
          0.24950717742723064,
          0.022807102442559964,
          318.9588073697071,
          -0.06352962571018804,
          1.037493775710243,
          -0.016955372970402935,
          318.65299775525824,
          -0.029325379430833385,
          1.0093028301690328,
          0.0032013962270030743,
          318.844886854288,
          0.031854831864658026,
          1.0230086902772682,
          0.1108752327391061,
          318.8027715597182,
          -0.12506755997188176,
          0.42481897952929115,
          0.11721445089129119,
          319.0227685389558,
          0.13737246008124368,
          0.44845684981122635,
          -7.295377667194534e-05,
          318.78110014555,
          -0.0998015848727878,
          0.6662911349614601,
          0.13781861093014736,
          318.9733762927916,
          0.08362942161874747,
          0.3072749481989795,
          0.06721152136010923,
          318.80580685707366,
          0.07213462870814208,
          0.27183557065663316,
          0.12236826536984627,
          318.7201541613857,
          -0.00541012421103245,
          0.250953599644263,
          -0.08672369838563655,
          318.62614495399845,
          0.14046780841401948,
          0.8274656900551639,
          0.22708974675730617,
          318.63637764291394,
          0.14559926206531373,
          0.7918409348107178,
          0.24040535630993917,
          318.61312438055086,
          0.07960095018505857,
          0.6018170101484343,
          0.15461520459433456,
          318.8593112219913,
          0.08624780502789886,
          0.3762724811262247,
          0.024892603584438084,
          319.194481818485,
          0.06823985249988235,
          0.4511074036291215,
          0.045382867356634445,
          319.252619498548,
          0.13031975664503895,
          0.5310663411231987,
          0.047036098200852215,
          319.2410697332612,
          -0.037228580621688,
          -0.09500482846362106,
          3.4897768233121607,
          35.96675848812014,
          0.09026296557033849,
          -0.0038803002487187497,
          3.558391974244221,
          35.97188199946185,
          0.027035771417644145,
          -0.12124544714663053,
          3.491614525461778,
          35.812339526801416,
          -0.039161038290591615,
          -0.13362373895260785,
          3.606208408947661,
          35.896550872307856,
          0.0855868118619957,
          0.1353749623224238,
          3.4674527481454547,
          35.8469831123344,
          -0.08824966969182287,
          0.1491755748465623,
          3.6253255791686287,
          35.97848868014579,
          0.11318544327949105,
          -0.03346801157980581,
          3.686743209919027,
          35.82257118068209,
          0.004971523461494465,
          0.04246747806135763,
          3.4573244798529315,
          35.986831871452,
          -0.055095579212065406,
          0.10187801907999557,
          3.67605471698788,
          35.95315625234254,
          -0.00457251094373968,
          0.0349212733788626,
          3.67159944069133,
          35.972738698732634,
          -0.08200775971838634,
          0.00034049989702386715,
          3.5568297831193334,
          36.014936778541646,
          -0.04166841954207652,
          -0.0876707783898898,
          3.572888517632955,
          35.84280886069925,
          -0.014136847628387112,
          0.06724742947882972,
          3.667551050385552,
          35.96408330694871,
          -0.10398249968038939,
          0.06879630835049716,
          3.7383300776892674,
          35.98710582751716,
          0.08493011699934391,
          -0.04358269147611255,
          3.716737375884524,
          35.814903688591436,
          -0.0856471660871873,
          -0.033082480287025255,
          3.4805031142118366,
          35.96807832436853,
          -0.027832446385002773,
          -0.09380086218279426,
          3.5010740637941717,
          35.791891353991254,
          -0.10352405811364977,
          -0.0460091444649399,
          3.7254078989938333,
          36.060058335661644,
          0.00718258159577733,
          0.14633408220370778,
          3.479329361251902,
          35.964250335364525,
          -0.06670691479541892,
          -0.06735754947989857,
          3.4895076143886845,
          35.877398778843066,
          0.0031058343474089935,
          0.027361636091243674,
          3.7271095226855193,
          35.92826025742107,
          0.18418092102765415,
          0.027466124244514695,
          3.584275304788087,
          35.82796448721516,
          -0.12930177466297643,
          -0.11413558945145726,
          3.6513165887670436,
          35.970216381344855,
          0.14020981915115055,
          0.13065335556174146,
          3.587558506655832,
          35.81435156618014,
          0.10205841886700125,
          -0.08671533139039864,
          3.635752187512979,
          35.8384946428215,
          0.12736177254843103,
          0.03784366139566163,
          3.539181656057524,
          36.03701351829134,
          0.13183820223530407,
          -0.13312519288039626,
          3.618584780492937,
          36.01075697352487,
          -0.08979776697929243,
          0.08202549134036928,
          3.6233724270318395,
          36.0460532267989,
          -0.030370216754296783,
          0.02631379191422121,
          3.60582453738226,
          35.760801508278284,
          0.07143512297998852,
          0.15875767539084384,
          3.4993485182429187,
          35.930078990972966,
          0.131405664705794,
          -0.013765333727387486,
          3.5483150688020113,
          35.850084260713935,
          0.01389944448560913,
          -0.09670710795969786,
          3.561808755836957,
          35.77439550986421,
          -0.04437287833521643,
          0.04149967386238815,
          3.706783427143433,
          35.97745970641048,
          0.030851612526788166,
          -0.05884515197353327,
          3.612864765303001,
          36.01700776943564,
          -0.08937809727691615,
          -0.08908895328180874,
          3.683065820638532,
          36.00214147643671,
          0.01596234010492133,
          0.06357565121068477,
          3.705579582473657,
          35.834622034068694,
          0.16618988569435925,
          -0.09415672555300326
        ],
        [
          0.11640977928542384,
          0.03259971555182929,
          0.19745269058585652,
          233.91836438838115,
          0.0589042333018981,
          -0.047562142063499596,
          0.012686720249320023,
          234.0366913240998,
          0.039366080799495065,
          -0.0033156271828922905,
          0.04396377850487463,
          233.85843609755116,
          0.03006413701238862,
          0.1606334869541465,
          0.05676262134394178,
          233.99026150206143,
          -0.12179387795714727,
          0.04104869415691026,
          0.15611625771398147,
          233.9672004496935,
          -0.03588503523326955,
          0.23793451430354903,
          0.04593863353148973,
          233.93867137128265,
          -0.13834629525945738,
          0.14774300626752349,
          0.05562184357245084,
          233.808205611393,
          -0.06644595902622659,
          0.11678377394977947,
          0.06961586497959364,
          233.9773935409078,
          -0.12048849205668624,
          0.07178286080233152,
          0.04707458442164248,
          233.9538196205363,
          -0.1093201887536238,
          -0.008584696965706002,
          0.01849559047857555,
          234.06381208557434,
          0.07739732616468259,
          -0.04263685805742945,
          -0.09689417749738559,
          233.88688767539963,
          0.12380985170260242,
          0.20127435934205717,
          0.006043578562087312,
          233.84248827111824,
          0.010185025682687658,
          0.2253421181693853,
          0.07878860962691078,
          234.06635864557992,
          0.09270303106575344,
          0.2575655777871544,
          0.14196412612934917,
          234.00556299737158,
          -0.05363818301992726,
          0.17064362367826943,
          -0.05869447718662899,
          234.00525575647978,
          -0.11386724833714841,
          -0.008575087371238863,
          0.018566090041602125,
          234.0758690348108,
          0.048455350461868135,
          0.009811731875763861,
          -0.007737892926371653,
          234.0401849638334,
          0.09014355123557462,
          0.09056228022870821,
          -0.016167764750445054,
          234.06794111619936,
          -0.1339898521363378,
          -0.05476744665133147,
          1.5109489649703367,
          16.143396588540522,
          0.07913374527706886,
          0.061463395607211764,
          1.6048315558012491,
          15.947340564993773,
          0.016634832888399072,
          0.12523915757445545,
          1.5291741752072017,
          16.04834226082585,
          0.14248193814586477,
          0.09382023746482455,
          1.6880624434433693,
          15.949559309471823,
          -0.13773866796612572,
          0.11093173423606154,
          1.5149887569886977,
          16.105650913326496,
          0.011069884026632825,
          0.024088370042810635,
          1.5914941795140538,
          16.01831416374922,
          -0.0597644992608587,
          0.06024077636964036,
          1.5355187264672157,
          16.127260153207043,
          0.08624831582684168,
          -0.09277454539364162,
          1.5089560156353488,
          15.95679297319393,
          0.14558166569513306,
          -0.0156413456015542,
          1.7222297993378175,
          16.054206993007448,
          0.03163574362113482,
          -0.05562258268328568,
          1.6875466583683736,
          15.932813419682992,
          -0.0496572302216191,
          -0.02843383273068678,
          1.613428331077472,
          15.904585030218147,
          -0.06363416404119795,
          -0.12601320492778653,
          1.6904908724747445,
          15.968383145035732,
          -0.09989348236687363,
          -0.13367140694404125,
          1.6199626865275345,
          16.14465754911495,
          -0.0906644182980662,
          0.02855120608201899,
          1.5368570855834642,
          16.069835102735468,
          -0.08890444736606697,
          -0.12821413438237872,
          1.652904704000364,
          16.037377249545642,
          0.015306245921676835,
          0.13876885333107328,
          1.6525806417164903,
          16.026384040353324,
          0.13061495670499798,
          0.02872006081264818,
          1.7178621282928617,
          15.93174119779024,
          -0.004281226992018812,
          0.022008501401562713,
          1.5353151328415924,
          16.087375402798255,
          0.03778122676073024,
          0.13505329265478622,
          1.5438680674422116,
          16.012047637249076,
          -0.13522105143145438,
          -0.02095955381440527,
          1.6824042597508313,
          15.958846782675712,
          0.00746517996949863,
          0.14069668680107617,
          1.4717445471639699,
          15.924038821586779,
          -0.07917709773707819,
          0.054383547732311646,
          1.5478535245148017,
          16.107222926531882,
          -0.14832583599511046,
          -0.05335570882498749,
          1.7085985148802363,
          15.931696622583642,
          -0.10255606530949392,
          0.07117342909588892,
          1.472341011864738,
          15.871280732690545,
          -0.14245099741456063,
          -0.12964819108908732,
          1.6576475736522942,
          16.039250741088395,
          0.08311589987646995,
          -0.027185624013759697,
          1.6651408435307837,
          16.013883542647406,
          0.024055751868316492,
          0.04624765899044724,
          1.6035236998180662,
          15.944315415364542,
          -0.06310042322398998,
          0.004623258175176481,
          1.4807093105898674,
          16.175224946970076,
          0.07098105850182367,
          -0.1262264467959695,
          1.5923550927766912,
          15.997956857683162,
          -0.1467843834039564,
          0.0020068894370164716,
          1.5218980050104949,
          16.125950288007,
          0.12293152302828168,
          0.12943024671383066,
          1.5907783906867043,
          16.089375156962966,
          0.12253329443686067,
          0.01622969776489097,
          1.457709291847047,
          16.134959550478868,
          0.03505013854287087,
          -0.08625535114575533,
          1.5159774867309586,
          15.920095437213917,
          0.1131358930019818,
          0.012211574399770296,
          1.5690874065084746,
          15.9533054721168,
          0.054670597439840145,
          -0.12259715477356632,
          1.4922309014291433,
          15.920431227832982,
          -0.13534091835392237,
          0.024320774438361937,
          1.4690354138786779,
          16.1513708084446,
          0.018949407927613102,
          -0.08757740050174449
        ],
        [
          0.00818959408312076,
          -0.1950860227522891,
          0.655819827605412,
          578.8363127287887,
          -0.09330852100196763,
          -0.0824740418088215,
          0.852869673375276,
          578.7320468973523,
          -0.12227790326621386,
          -0.2920992783376181,
          0.7039055426987738,
          578.6258191780381,
          -0.09194456401365218,
          -0.21432780561136733,
          0.7573034341082061,
          578.6706914853587,
          -0.07949941977747979,
          -0.08637013335458861,
          0.7949842947389542,
          578.6049133724973,
          0.049200530019339064,
          -0.2911524629264942,
          0.7034499660367477,
          578.5585214026316,
          0.01579950727147539,
          -0.24368623528600092,
          0.14620226402774475,
          578.5073520031375,
          0.11205892234454341,
          -0.1375199772879506,
          0.13002376966388154,
          578.6493444519876,
          -0.13345917563238147,
          -0.16331972007168669,
          -0.032942668055385545,
          578.5707992555325,
          -0.05792119931484686,
          0.27237515586329997,
          0.5523227996732242,
          578.8452413175263,
          -0.10938846861001338,
          0.37570294606248544,
          0.3781611640760833,
          578.8826451785188,
          0.09433139919628553,
          0.4461735787172079,
          0.37449263297525337,
          578.8624168397249,
          -0.09521183667866415,
          -0.08658596772496639,
          0.5396159133840125,
          578.9942685782758,
          0.02028950454581481,
          -0.05934457147256768,
          0.5856073976247458,
          578.8796490252885,
          0.10591038758763842,
          -0.12298604790618436,
          0.5018454013052981,
          579.019134406841,
          -0.030780803288977362,
          0.14644854506785845,
          0.9558971594333852,
          578.2807113431472,
          0.010571215919102176,
          0.001734486440141813,
          0.9682210543827152,
          578.2061129069683,
          0.09184483095659061,
          -0.09643765383672283,
          0.911949879239965,
          578.272133306251,
          0.12800887339189226,
          0.12322148401599223,
          0.25047156643490587,
          3.1771520496841816,
          -0.0867869260565314,
          0.035220618739155767,
          0.33322792808017876,
          3.0150064206528944,
          -0.034436100691759244,
          0.0514834218141517,
          0.2470565546923535,
          3.1134745904532086,
          0.12206428989604348,
          -0.01166258843830158,
          0.1840457711153527,
          2.964674380560538,
          -0.09328442118816545,
          0.09075689489193763,
          0.3766355258978809,
          3.078506547050084,
          0.010976982344652605,
          0.03858617721209346,
          0.43290593049532244,
          2.9470643228952196,
          0.09358684908122361,
          0.1161337325226669,
          0.3170237070824621,
          2.9730519965695175,
          0.015458769593452937,
          0.12138907352861485,
          0.43124177807321085,
          3.1053326385467144,
          -0.0832226471744101,
          -0.1126773178000666,
          0.1688169622989716,
          3.1774135793064713,
          0.1035196371015742,
          -0.1283499477509588,
          0.30105608849343746,
          3.023682440911903,
          -0.11312081149149118,
          -0.12145121367896376,
          0.40048310592083936,
          3.019884707405274,
          0.022103755443260032,
          -0.016944992240341707,
          0.26651214287189584,
          2.96064333653164,
          -0.09951003917464558,
          0.10394519155062139,
          0.39508308962302324,
          3.118696338402971,
          0.048586615137858516,
          -0.11275171534085084,
          0.23356781680367528,
          3.1347897009296015,
          -0.08858956635484393,
          0.14390992863231342,
          0.4665157641254936,
          3.0474223255272768,
          0.0868637986662659,
          0.14747073499207852,
          0.1865007059492917,
          3.069964388482186,
          -0.03892455895065155,
          -0.1069872712739507,
          0.40621836682851387,
          3.140433820131449,
          0.13714672687737195,
          0.09720203226180714,
          0.3113185787255638,
          2.9832178875720907,
          0.11353087286163423,
          -0.11006435068696008,
          0.3756685813682017,
          3.0005189434476787,
          0.06191282088579978,
          -0.08840190614352782,
          0.17455519021132948,
          3.1001537729393958,
          0.09189018400060087,
          -0.0504640895707351,
          0.17984527716608067,
          2.9322877607896944,
          -0.048698214088131256,
          -0.09904822405004025,
          0.2736053147182084,
          3.179876034727268,
          -0.11060220853385183,
          0.025902530246613136,
          0.35972720871783254,
          2.9490668771882045,
          0.1591376595746254,
          -0.12346228989949666,
          0.22079252507147035,
          3.1345229366569747,
          -0.13965963264869458,
          -0.06986633599606394,
          0.3122299795300286,
          3.0477728901195182,
          0.15666498428775902,
          -0.04648086593287796,
          0.4148025236729789,
          3.060813090215425,
          -0.0006037871009397145,
          0.03964604524387472,
          0.15930270033508523,
          3.1804467436074417,
          0.0717680033151154,
          -0.09184128957627404,
          0.3242891519733762,
          3.122741326223743,
          -0.0005218398674826452,
          0.11874061759518734,
          0.32926225242884877,
          2.9474713008120728,
          0.0826605356566746,
          0.13489325095828636,
          0.44644509248529585,
          3.1294434347980893,
          0.029256350272840456,
          -0.09917986558654092,
          0.26987589932669204,
          3.0463392504821396,
          -0.14926448468475115,
          -0.09047078976022262,
          0.38835565152261253,
          3.0237528387377988,
          0.021031610654625936,
          -0.029579768806551686,
          0.37801366149970295,
          3.118884066307709,
          -0.1264258639493519,
          0.10138508477127528,
          0.2517933294890741,
          3.190372802871203,
          0.07050234430762675,
          0.02829218824793442,
          0.1877643853928679,
          2.920924529885792,
          0.01946022018391243,
          0.013855971124670536,
          0.19506616490080464,
          3.0215112803634168,
          -0.10950060760977551,
          -0.08144973405866036
        ],
        [
          -0.05071829241296523,
          -0.29518040688184466,
          0.6437328474916703,
          588.7623792221808,
          -0.011278096810079907,
          -0.3655409498105547,
          0.7655241982110548,
          588.7654899130978,
          0.08253199996995791,
          -0.19790771440893098,
          0.7057888802742937,
          588.7157398428473,
          -0.023101786384568286,
          -0.2951262591258677,
          1.0112338089975492,
          588.7967814708788,
          -0.040731046175837955,
          -0.48706855742129734,
          0.7387453395257423,
          588.6347986176006,
          -0.13232232591707008,
          -0.47172314097406004,
          0.7667827158172791,
          588.7035825537886,
          -0.09286346991394294,
          -0.3807304362225469,
          0.0635248657012386,
          588.583634926834,
          0.010765443377694096,
          -0.3097459067328431,
          0.046864224002627915,
          588.6700048343066,
          -0.02615911958258834,
          -0.45989415748785606,
          0.09919841705433227,
          588.7048244508818,
          0.00723070107408249,
          0.33733444033005566,
          0.5584629805592877,
          589.0029209522608,
          0.0010736983158077472,
          0.16859519913157484,
          0.42376418263988963,
          588.9410250205401,
          -0.0790596638320985,
          0.37472319161181417,
          0.6716967512976777,
          589.0854926754971,
          -0.02309946141333892,
          -0.2841345123653094,
          0.48050813434091555,
          589.1193380776468,
          0.0328792364744875,
          -0.3411936466111719,
          0.5164166497042916,
          589.102068513903,
          -0.11539141015966055,
          -0.38163610233677553,
          0.4882282525511634,
          589.1652232411079,
          -0.04087328470138502,
          -0.05876069731290116,
          1.07333271110603,
          588.1760738500594,
          0.06738856110054398,
          0.057297501171574484,
          0.9150539010288853,
          588.0741406862574,
          -0.12212002454493841,
          -0.06343210088792275,
          0.9187838669969508,
          588.1357246425632,
          -0.13892405742728678,
          -0.10094399125729347,
          -0.35204607947728866,
          -2.4440368773007424,
          0.10718936598802867,
          0.05679891628424666,
          -0.2008833166116893,
          -2.6105889817577728,
          0.14000820610391743,
          -0.04303290943702185,
          -0.28293898396633643,
          -2.5993726058125968,
          -0.12271304416573725,
          -0.0014434078497203363,
          -0.1750804320143426,
          -2.394233925925833,
          -0.07619103388224983,
          -0.11328513131787642,
          -0.38556337508169214,
          -2.5303474068809084,
          0.06905085832415846,
          0.14520667749131935,
          -0.309659324972935,
          -2.551986420966186,
          0.05377414253994106,
          0.11258590924261813,
          -0.297347288948589,
          -2.5330590509637743,
          0.017337143135968364,
          -0.11851405862188695,
          -0.3224906804238519,
          -2.422699885969401,
          0.014002821943732889,
          -0.045469943080581936,
          -0.4009880873611372,
          -2.5565034021864426,
          -0.036394854273244695,
          0.05141399977209346,
          -0.33982668527011034,
          -2.5197286661738567,
          -0.007966150994364008,
          0.011653762547781549,
          -0.2757781854952446,
          -2.435870264974063,
          -0.13830796494986353,
          0.09584892734341026,
          -0.31589730437707836,
          -2.4012275082811634,
          0.1311122286453037,
          0.019157513059537588,
          -0.30203495499951,
          -2.5987587633739877,
          -0.0714299637693672,
          -0.017963441197342667,
          -0.23289643679816005,
          -2.5125454997682146,
          0.05467500821450497,
          -0.0799850307691745,
          -0.16326588057907845,
          -2.3208361609258827,
          -0.12651886119283037,
          -0.06709727498945552,
          -0.11304929831993833,
          -2.3636471293591126,
          0.14096555036038155,
          -0.010790421559945659,
          -0.2960289826081852,
          -2.5711585557144936,
          0.12520484080174582,
          -0.09528711482953084,
          -0.3869398006216759,
          -2.5192894982526335,
          -0.04647345809419292,
          0.12567433188530783,
          -0.29644577432396263,
          -2.3721301812954447,
          -0.13788913237993902,
          0.04369149494038581,
          -0.24334892859280643,
          -2.425111800132719,
          0.09918356127564779,
          0.12311446066161376,
          -0.22167419411575345,
          -2.6039194237572763,
          -0.057366616748096795,
          -0.04621332862108374,
          -0.29056548352318257,
          -2.395019148951823,
          -0.10729468580342554,
          -0.1151478861323865,
          -0.33453324248597427,
          -2.3721254035052683,
          0.06677505625003906,
          -0.0689492196736983,
          -0.13296500141394915,
          -2.4155715594267098,
          0.03330654754379302,
          0.05119867218512929,
          -0.39058085338462306,
          -2.431995580476544,
          -0.0983173121601386,
          -0.0718068227346774,
          -0.23086621553013278,
          -2.4066587078190325,
          -0.0783298517083921,
          -0.09802264566828744,
          -0.11777338052488441,
          -2.507884110482773,
          -0.017683953936139255,
          -0.09252227823783457,
          -0.20196962763929172,
          -2.570634575588114,
          0.1652243616466605,
          0.0857671578629813,
          -0.08796443194173738,
          -2.503096892073509,
          -0.04213031451817864,
          -0.02678229488094283,
          -0.33604462447948213,
          -2.368075620478756,
          -0.09339958347191023,
          0.0426078925543315,
          -0.13551312629410006,
          -2.355781870264859,
          -0.027141571669914644,
          0.06714944139108169,
          -0.30937212819072063,
          -2.374840135396513,
          -0.12180963561848443,
          0.057712935931402816,
          -0.20670227212906173,
          -2.4808254541813994,
          -0.006005831383592111,
          -0.06067591144511475,
          -0.14040529381496136,
          -2.4914701958970302,
          -0.09902981191117725,
          -0.15201152458815548,
          -0.3374513722703918,
          -2.419101342711504,
          0.04966118875316372,
          0.1443355520609437,
          -0.14892291314169814,
          -2.5961924720506855,
          0.06820357296262901,
          -0.08248861192579032
        ],
        [
          -0.1296520230121899,
          0.15647654733799468,
          -0.02819557697974887,
          338.5191216353957,
          0.12292185412515265,
          0.07197295936210066,
          0.1967313724114443,
          338.54920057721705,
          -0.09845722588503765,
          0.06729544525448111,
          0.20537909410074315,
          338.43779575155855,
          -0.0011344879555778968,
          0.40319383083836297,
          0.04760984639005191,
          338.36190484499156,
          -0.05076190081585203,
          0.45747456834815275,
          0.06805499270530001,
          338.32238547220703,
          -0.00916620736983911,
          0.3672807200309021,
          0.2028538919911015,
          338.367365180031,
          -0.09119085311405437,
          0.12285418976101914,
          -0.076848004836675,
          338.4652013886363,
          -0.0012048214120499495,
          0.17957929685423632,
          0.03466816812572568,
          338.3695210588482,
          -0.04146824275934295,
          0.2712797538134991,
          0.06392288197044386,
          338.3583679208023,
          -0.059820573393969824,
          0.13549942213332694,
          0.14931568850383542,
          338.3437538666514,
          -0.12016204545839781,
          0.20873905955071675,
          0.12840833889965206,
          338.42235949188506,
          -0.08890783840807114,
          0.1494704108514467,
          0.1617126119722249,
          338.305269254703,
          -0.01768599346620295,
          0.2448430720477555,
          0.2507275150675859,
          338.3643713046947,
          0.1298003661184383,
          0.2996617200961692,
          0.22661348767687506,
          338.49673993470026,
          0.11764804398722516,
          0.2352151761949153,
          0.21547229200664533,
          338.51618181788393,
          -0.0748623877191066,
          0.31438209818084034,
          0.3085497834525874,
          338.5254995605006,
          -0.0975958026026602,
          0.25577649204299646,
          0.14970736943170276,
          338.47762355934606,
          0.1060244026685389,
          0.055128532822216296,
          0.10573159333902829,
          338.4881822505022,
          0.05548955363452753,
          -0.08480800573833491,
          2.6183865392145558,
          27.108874280897233,
          -0.12174437267233629,
          -0.091088631968881,
          2.5982582186678775,
          27.279850664548302,
          -0.03853693048860269,
          -0.13351274786271472,
          2.748770504579663,
          27.143589930223715,
          -0.060022769145523,
          0.0026543266361125344,
          2.7089033832713914,
          27.139622848992406,
          0.011676671846880786,
          -0.035841372669474285,
          2.703349385871189,
          27.285708193514463,
          -0.10686324957810875,
          -0.07818755631418446,
          2.7589308917397717,
          27.102643348728552,
          -0.13033411352530416,
          -0.1170364474797305,
          2.5962137925470126,
          27.168825586783672,
          0.07033540544563982,
          0.09394821977690364,
          2.8589664063405364,
          27.25874578648716,
          0.052414173323413804,
          -0.028964457961659886,
          2.811958976133162,
          27.186746299116347,
          -0.03063608939920621,
          0.011695080427571431,
          2.6315744322768837,
          27.1494968214017,
          -0.0296638994814855,
          -0.11502690727554955,
          2.85216750834117,
          27.168837049672565,
          -0.09831208359559129,
          -0.05570329226844936,
          2.7439806791915684,
          27.297136904664903,
          -0.05604039732568971,
          -0.10728154478678079,
          2.6057794207804625,
          27.10527690647006,
          -0.08892892892708447,
          -0.1317204971528743,
          2.847157472112501,
          27.08875490625652,
          -0.06661481198781703,
          -0.07949177979832919,
          2.6911768013939925,
          27.314412802576364,
          -0.12731924906875358,
          -0.04298862475045203,
          2.662489467120937,
          27.04888366906203,
          -0.0161798513772278,
          0.08444971239257643,
          2.85095041170109,
          27.089739465593592,
          0.14336953301892438,
          -0.08883372480446633,
          2.6663211947866734,
          27.319670518011453,
          0.01576280340351095,
          -0.07412854978736595,
          2.5963473586986323,
          27.24088782966497,
          0.0918554127343154,
          0.11873361040041923,
          2.808045931778097,
          27.17830627758597,
          -0.06451216681057632,
          0.006703287445173733,
          2.7169231834442895,
          27.09434738865092,
          0.10206442684856107,
          0.08797662711507107,
          2.5988293285701594,
          27.114429850524864,
          0.10851499781999605,
          -0.12080608990099218,
          2.622500668230217,
          27.187534421792222,
          -0.04033632850833057,
          -0.1166166458854794,
          2.649806840089751,
          27.280610057590494,
          -0.030335156377460513,
          0.13805204994658107,
          2.5947070578805054,
          27.18237563841663,
          -0.06832627321558313,
          -0.02693199957127379,
          2.773964614210363,
          27.06234529050917,
          0.003976218036766445,
          0.06882097402721755,
          2.6272780531950017,
          27.13883766589017,
          -0.05414172358789253,
          0.053130276445813834,
          2.5858183375591093,
          27.27611564213336,
          0.13787357075413756,
          -0.1101438292183829,
          2.5660338097502136,
          27.15837758632061,
          0.08434211886098562,
          0.08377731431144085,
          2.634074108792284,
          27.290908244433904,
          0.011497636793645493,
          -0.04328118597235033,
          2.7415674691125522,
          27.271734927445095,
          0.074656078240008,
          -0.03221529261118929,
          2.6846526491393843,
          27.18094309408506,
          0.0015654031724340988,
          0.0421878557609266,
          2.738666306392904,
          27.09759249497183,
          -0.10773814609862557,
          -0.03003680284386035,
          2.6738330316501746,
          27.12967529874043,
          -0.08395333067895228,
          -0.13259053201304777,
          2.6967030874542988,
          27.27357649023794,
          -0.0805127661791839,
          0.09730747758666503,
          2.7047553482512594,
          27.27022394671879,
          0.054066353502783264,
          0.1067271140524916
        ],
        [
          0.08976259796920634,
          -4.361329708666842,
          -0.7274511234445704,
          299.38313458012607,
          0.04393873319800348,
          -4.330261325742614,
          -0.7455001603845575,
          299.4391087830831,
          -0.1261852539675507,
          -4.513507419188517,
          -0.7108277080858595,
          299.4357140242837,
          0.062103754179726044,
          -11.908023400028515,
          -0.6821307918805419,
          305.065888790435,
          0.03422439193375364,
          -11.872312499746164,
          -0.6112320496859205,
          305.01707488575806,
          -0.12755300499171568,
          -12.031623218026393,
          -0.7531597529962908,
          304.9127865123795,
          -0.054302345068816274,
