{
  "layers": [
    {
      "activation": 2,
      "biases": [
        -5.881988661218116e-15,
        0.0,
        16.05006110962313,
        -0.020407146603606135,
        -1.0565653999494053,
        1.1122124365535319e-14,
        -11.93434294771015,
        -4.2676112505631624e-17,
        -18.768968466980343,
        6.393709633998893,
        0.811555670696886,
        0.0,
        0.9808977740596643,
        3.4936028319622348,
        9.796239165668593,
        4.531862361403256,
        17.56654548065392,
        22.988055906356337,
        -5.3792172270371595e-15,
        0.0,
        0.0,
        -0.040281950943027514,
        1.370681644260928,
        -2.5409046098514377e-17,
        5.464879868137523,
        0.0,
        -2.073577350265268,
        4.4986063009280255e-18,
        20.371796896560586,
        1.3356217882689463,
        4.079472921078787,
        2.1770496437647275,
        -3.500091592180433e-18,
        -13.6846716662568,
        2.519013844229648,
        -0.8478698494738568,
        0.0,
        -0.024671000906080213,
        0.0,
        12.573947660413651
      ],
      "cols": 40,
      "rows": 2,
      "weights": [
        [
          -4.863766450251909,
          -0.24958647474147022,
          -5.529098188838885,
          -0.20504970014922827,
          -0.3062232351358151,
          -8.889960927844388,
          11.934343659052468,
          -8.743424124174076,
          18.76896958569814,
          1.346925867768584,
          2.6796113385632054,
          -0.2476570942404068,
          -3.9884353603132947,
          10.030300832880004,
          6.990249274773594,
          -4.531862631523318,
          -8.923473621253253,
          -22.988057276551324,
          -20.16532866391873,
          -0.1402053369569901,
          -0.35158723282287196,
          -0.10708746874226652,
          -1.37068172595994,
          -17.198403035623656,
          9.13707595289306,
          -0.347686458747621,
          -7.823136593118566,
          -14.347831494471894,
          -20.37179811081438,
          -1.3346919461190505,
          -12.75394326427846,
          0.8765186546611781,
          -4.398032348467958,
          13.6846724819202,
          1.046812237864615,
          0.847045115555098,
          -0.006940734592297135,
          -0.10259017612115878,
          -0.05619610006173877,
          -8.399607506493782
        ],
        [
          4.296270336243898,
          -0.15015952348676062,
          -10.18990839828803,
          -0.010652656549788506,
          6.042568529270755,
          8.889960397961426,
          12.813960612448867,
          8.743423603025386,
          20.39090574911302,
          -0.15081947828145545,
          -0.06191736137751247,
          -0.2280061209071054,
          2.8229695252326943,
          1.1567972424720847,
          -4.721060796916777,
          -2.672753530091098,
          -8.5333216464774,
          -22.0127382292347,
          20.16532746197147,
          -0.20057349661028803,
          -0.03005102775088177,
          0.007451367723698199,
          -1.3621647770858256,
          17.198402010518947,
          -3.6387394182556023,
          -0.23555944861389813,
          9.371984748049075,
          14.347830639274491,
          -18.70458734380952,
          27.592303929445503,
          8.083570117251542,
          -1.867479909243387,
          4.3980320863248,
          13.513668967603843,
          1.5469897451927104,
          3.85194467849075,
          -0.23986860589590875,
          0.016164798872862766,
          -0.33260016059396963,
          -5.09490405320265
        ]
      ]
    },
    {
      "activation": 0,
      "biases": [
        -0.08386161811135713,
        0.003737196570349164,
        0.0002597617825488141,
        -0.20639106003842725,
        0.0018148919890099153,
        0.005554805328470338,
        1.1621532122758687,
        -0.0017626593821101612,
        -0.0009411881558922938,
        -2.1016109949898865,
        -0.00023969193003060694,
        -0.007097974040443111,
        -1.9586133153752276,
        0.009628623961351933,
        0.004673557737658208,
        2.996214426941008,
        0.0034724894140490763,
        0.008371272066684506,
        1.226651334292321,
        -0.0024619305910349117,
        -0.009742744778870506,
        1.037719093120847,
        -0.0006151410055960913,
        0.00021194454069875152,
        1.3108900575730618,
        -0.003047482584977274,
        -0.004255721995544667,
        1.1174828797300627,
        0.006901800038897154,
        0.0034826703844032096,
        2.8566545047915666,
        0.0024705884285767285,
        0.008768142739339404,
        1.0170694153170579,
        -0.005018802516371297,
        0.0073060959356490655,
        -0.8174141892963078,
        -0.002043147814792899,
        0.006139846859484963,
        0.2861154120703393,
        -0.0009304753306846951,
        0.004333297295672352,
        -1.0414195583250043,
        0.007785276204481832,
        -0.0013143431202231192,
        1.560919778092201,
        0.0012256729387281743,
        0.00021928011470627258,
        2.026212003906331,
        0.009035735253763371,
        -0.002896596613588722,
        -1.3704046364876123,
        0.010407856896008589,
        0.004449970045310823,
        -0.00017094092972810653,
        0.005485650319925622,
        0.0037612077676810766,
        0.006629937794938397,
        -0.00174710780474241,
        0.0020247414008162114,
        0.0005886500990009039,
        0.002442431184137962,
        -0.0008057038817387765,
        -0.005317970289771349,
        -0.0054838712761357804,
        0.002235087195489355,
        0.0062162854332540735,
        0.003078178511692063,
        0.003533510822222249,
        0.008040746252534241,
        -0.008970220397564229,
        -0.005754447775814549,
        0.006020699123632532,
        0.0031769740581108225,
        -0.007265505670321285,
        0.0016988162198699522,
        0.0012421010451141702,
        0.001434888205873862,
        0.00406470241119518,
        0.0054345610242258965,
        -0.0027253809502591772,
        0.010014142924868874,
        -0.0015083828020202505,
        0.007320875131569187,
        0.0038261158593781036,
        0.007624957673659921,
        0.0071468319635522295,
        0.0074323814174416915,
        0.008178980484087552,
        0.0031323727234250816,
        0.003364794317797604,
        -0.003843845022779462,
        0.0011731425343869534,
        0.0040305079013327,
        -0.0025732034411837432,
        -0.00651696747338166,
        0.009263445232232635,
        0.0043605237054841735,
        0.003289343973845367,
        0.005780129990504166,
        0.0032320823447936345,
        -0.00311672949476302,
        0.006486561026694776,
        0.007832217054425576,
        0.009871063433097418,
        0.0030646204259670968,
        0.008134655861642753,
        0.00825489708914956,
        -0.003247078490174114,
        -0.0009157825339593993,
        0.004759911117941324,
        0.005669565094173477,
        -0.004908608321295213,
        -0.00025786126797402,
        0.00325976534550135,
        0.007597692909678802,
        -0.0013034777287623596,
        0.003943055366242577,
        0.008335468399972281,
        0.0018120290816268586,
        -0.0008694914888411593,
        0.0038155721247767585,
        0.005862855814865834,
        -0.011822849368559147,
        0.003735669362542171,
        0.015989740666005475,
        -0.0009546268800122183,
        -0.00743518065645707,
        -0.0020711265733969375,
        0.007943308275747282,
        -0.0005021747671317071,
        -0.0012561321615327046,
        0.0006317405558997311,
        0.0026137964513018954,
        -0.0004194372500046527,
        0.007106113434389624,
        0.006199837296364119,
        0.0008791662366789008,
        0.00973192678157477,
        0.004652792737668384,
        0.0031052010666769016,
        0.008093334211246247,
        -0.002615835139856245,
        0.000749818672975413,
        0.00047765880418624857,
        0.006303834584230116,
        0.00382898151279795,
        -0.0022179672810926526,
        0.005791293810434363,
        -0.005290718575630132,
        -0.0034116009772704636,
        0.012146357525902393,
        0.006053808670589195,
        -0.0029161069904868175,
        -0.011969556783397294,
        -0.0032630846478852167,
        -0.004567123878609549,
        0.003279815147294159,
        0.006524750085675784,
        0.005588075762320119,
        0.01305834741326786,
        0.00674550741226212,
        -0.003085976340036325,
        0.003367155326219287,
        -0.0038491601298899767,
        0.0025101193892529726,
        0.007201357893012392,
        0.003279838441038904,
        0.008878036944439754,
        0.00011025004809332996,
        0.007042166470637385,
        -0.004596911179564562,
        -0.0024551748910219867,
        0.0064621365360949925,
        0.006473632597073324,
        0.012258558907733023,
        -0.0010973657349375528,
        -0.0006133769604519011,
        0.001490625337051763,
        0.008512204064303133,
        0.008367971363826185,
        -0.0019229138645429236,
        -0.0003148496516972382,
        -0.0019165227048096175,
        0.0031836046330539413,
        1.7177740956659166e-05,
        0.0021898783739707274,
        -7.615971376349761e-05,
        0.007109160456578662,
        0.0061806940023841185,
        0.002581607224359298,
        -0.0006401668077475118,
        0.004377921127100588,
        -0.005680535577183079,
        0.013244812077978056,
        0.0014194034162427446,
        0.0013371731676528598,
        0.00027271696680286454,
        -0.003804359578483581,
        0.0005973656984460267,
        0.0012539496829886742,
        0.0018748379758859136,
        0.00027535686879839205,
        -0.000704021051831614,
        0.013458400331857875,
        -0.001468636000307309,
        0.0038154314020190103,
        -0.0008087604160703202,
        0.005383176568047451,
        0.0024304711662134614,
        0.0013940864133555931,
        0.005234372956770406,
        -0.01659175065839939,
        0.005547493552047581,
        -0.001971290208577553,
        0.0077185440801236255,
        3.151117441115661e-05,
        0.042704605674822295
      ],
      "cols": 218,
      "rows": 40,
      "weights": [
        [
          -2.2031922948034577,
          -0.10006063236095722,
          -0.06340563188488424,
          -1.4526369506123067,
          -0.043464786798001975,
          -0.12143994871464181,
          2.4014515359120314,
          -0.00979492907046095,
          -0.00030866109028450893,
          -1.3516829561643338,
          0.13105763488861408,
          -0.07501046497360256,
          -2.736387631893485,
          0.08585913542172696,
          0.12202218736990236,
          -0.8606951122211651,
          -0.0038175953182224558,
          -0.0991818423847746,
          -1.474487269157441,
          0.12913493045321572,
          -0.02220734473586208,
          -0.3020627739662825,
          -0.003307072045626518,
          0.056843159342493156,
          0.580393171205732,
          -0.11385698687107448,
          -0.1377774100074089,
          -0.08977117101487844,
          -0.056041680904323224,
          0.09608975277365575,
          1.9531018471363681,
          0.017236888555533066,
          -0.0949475285160395,
          -2.1100514299326827,
          0.136546248008963,
          -0.002425213847284083,
          -2.9022714673212335,
          -0.14333399290710847,
          0.10943742506080646,
          0.6253323930663798,
          0.08154771134013698,
          0.06498085934038737,
          -2.0444078472349134,
          -0.04478753542252117,
          0.10596655676085592,
          -0.9459036609692406,
          0.10169140955122077,
          -0.0862702830712511,
          1.7809705268688623,
          0.13829059462733134,
          0.1085362615272921,
          -2.6297945799138884,
          -0.021648457208608432,
          -0.11227283651924178,
          0.09130562317510733,
          0.08470304798899181,
          0.049207179408327535,
          -0.007687007590156582,
          0.09324228567003524,
          -0.03909290811721769,
          -0.0031129788575201198,
          0.006283666650870591,
          0.0315480566505103,
          -0.06699356400202493,
          -0.06596047913571469,
          0.10809328393563547,
          -0.15359791118344432,
          0.048693454427192785,
          -0.08571744721667135,
          -0.09607277827479262,
          0.10730665140558052,
          -0.11309333330473967,
          -0.15020408382978342,
          0.14407268887732827,
          0.1388641016838692,
          -0.037622142165225636,
          0.0047331059677693695,
          0.13720056463071,
          -0.058452542520494984,
          0.01865150759962959,
          0.10315032720156946,
          -0.0889775975711264,
          0.08132100294862664,
          -0.10230809819158393,
          -0.025616703898133388,
          0.04674537096395408,
          -0.003594028967580806,
          0.09684889753217872,
          -0.05173141832117167,
          -0.01911864791283502,
          0.0948846819361616,
          -0.026435062491416802,
          0.12415625787201118,
          -0.1165016888704433,
          -0.13426356032397116,
          0.06752907881112129,
          0.13964885107061456,
          -0.06940041579425922,
          0.1326313502512083,
          -0.030733261365083368,
          0.09406144892991805,
          -0.15123752924563016,
          -0.09209541206761013,
          0.027557577887154443,
          -0.13062960368723303,
          0.0018928891932194012,
          0.08754056811770447,
          0.044200676182485465,
          -0.07791798668183773,
          -0.09943745023251506,
          -0.10229287893280314,
          0.09896987736608233,
          -0.07129127146982694,
          -0.02827943575066564,
          -0.12030868068261825,
          0.08234365016753645,
          0.10018833386331837,
          -0.12339047891464351,
          0.049052911420184725,
          -0.05341934105183975,
          0.03528872133650075,
          0.006317077837019831,
          -0.09351331171421884,
          -0.017036488122742104,
          0.08907202161111505,
          0.14638603228940117,
          0.08422714517584629,
          0.12387961195084958,
          0.0489483311376885,
          -0.0946471165121341,
          -0.010615339768316894,
          -0.14900191181992062,
          -0.016205411902574286,
          -0.02906289909865254,
          0.09583462739112535,
          0.13901723969907293,
          0.0757293289911288,
          -0.1292267746345319,
          -0.13027078178572862,
          0.13309463865519916,
          -0.04289390153680841,
          -0.13574825904955845,
          -0.07629158752258779,
          0.14268032813943202,
          0.019837013519067546,
          -0.0522050439020784,
          -0.0490609686637205,
          0.12807347688686024,
          0.030852133144663448,
          -0.01616922098626853,
          0.05540775591070565,
          -0.04112884849005152,
          -0.12247091083396719,
          -0.16576100202882663,
          -0.07132122693537467,
          -0.0025895674404887528,
          0.09205141971626478,
          -0.09538101691788725,
          0.06598443262447835,
          -0.012086147877458927,
          -0.025998656809056806,
          0.15188429391837316,
          -0.11400217802091613,
          -0.06290830464313346,
          -0.12561944256033455,
          -0.0708916130620937,
          0.05870440683491816,
          -0.13815327422332027,
          -0.09306488492668946,
          -0.08273778033579665,
          -0.1106922890378307,
          0.02307347275074893,
          0.0682799187118558,
          -0.05033040518714148,
          -0.09753990380734912,
          -0.12238441218236144,
          -0.0433443387854073,
          0.0692941591992259,
          -0.055511166768149885,
          0.05127866499557761,
          0.03196580507136367,
          -0.021315435368245064,
          -0.04902519283324656,
          -0.02558877267340856,
          0.127291500196384,
          -0.07218960949562964,
          -0.007366694970819779,
          0.023353994455381003,
          -0.06087152298062655,
          -0.01760072013585904,
          -0.07915484674579587,
          -0.07804794532627302,
          0.05155550881764812,
          -0.03635331624223564,
          0.1156303645374166,
          0.07353911214742034,
          0.05007353649386244,
          -0.01327175367461745,
          0.058224543949371585,
          -0.02638622422986615,
          -0.060347816797707336,
          0.12275171014705744,
          0.07715058135316281,
          -0.09704345506953839,
          -0.11833979297655753,
          -0.09077171608995309,
          -0.015250597821792215,
          -0.14545706575419948,
          0.0945150733434647,
          -0.005418707696717414,
          0.027130003719781106,
          0.022668942919912127,
          0.04735725078892604,
          0.03635400184176673,
          -0.02563784918444209,
          -0.14435900874052215,
          -0.011128898090583936,
          0.006708082752350805
        ],
        [
          -0.09239249626499256,
          0.015388913943703042,
          -0.05124879442810688,
          0.020451068787594825,
          0.09797692934917097,
          -0.034265134158418815,
          -0.11880268525497105,
          0.02668400131715361,
          -0.12576458652716796,
          0.13644240753647338,
          0.10302184032585643,
          0.04500416369562103,
          -0.056046077228273906,
          -0.09724634535209978,
          0.1472424128220054,
          -0.11711819445247613,
          -0.050550243115054475,
          0.06801475694589867,
          0.022519904503870154,
          -0.004908721792627616,
          -0.08189262905657753,
          -0.08824923258384408,
          -0.1262842436894134,
          0.09872259473529875,
          -0.04854272358189975,
          0.09679748087317656,
          -0.05510607598394125,
          0.034645928864244994,
          -0.019927060536383257,
          0.09697389625535427,
          -0.12328662232955508,
          -0.003263556392399094,
          -0.04461179875171823,
          0.12475993349208125,
          0.06340551572397829,
          0.02683376890688293,
          -0.010572384292660433,
          0.04714277150097292,
          -0.12779944267577298,
          0.018806313414584122,
          -0.02081670938737952,
          -0.07021538381788382,
          -0.1427249634431894,
          -0.0625452350191991,
          0.1111760334274623,
          0.13176313644944582,
          0.048849028542225954,
          -0.10032184717093168,
          0.05033248003149207,
          0.0971946271008646,
          0.052144162356348514,
          -0.018694440037556284,
          0.10344976032476146,
          0.10726594741043016,
          0.006750864580754255,
          -0.059802896860803215,
          -0.07102998845636996,
          -0.054061282747090864,
          0.009406175988939757,
          0.03334845305232133,
          0.14359266852372607,
          -0.08034361368968765,
          0.1450313358659675,
          -0.00981164916355577,
          -0.08150996160433838,
          -0.11848777810256686,
          -0.02789429088438627,
          0.09790096012548327,
          -0.12260220836298322,
          -0.009569286577304362,
          -0.09895950610413605,
          -0.10820386258625733,
          -0.10985274521626488,
          -0.14988736475831863,
          0.07520069058515272,
          -0.014671147877506696,
          0.10921323299371674,
          0.13080693820684433,
          0.1249570077412757,
          -0.06647440313768778,
          0.04478949364037512,
          -0.09043564783008476,
          0.13437511094903748,
          -0.04566188072896949,
          0.003167816244252943,
          0.04767147851923489,
          0.025849367552102345,
          -0.0023431515233559687,
          -0.1259458865875939,
          -0.12870911241586344,
          -0.055784669467159854,
          0.1353188960330436,
          -0.1111437871373002,
          0.07680414725552828,
          -0.09108430463956534,
          0.09669229547040824,
          0.10564995458749635,
          -0.02311190867499094,
          0.061074873297349244,
          0.13007254423743322,
          0.14154834425441573,
          0.014760700974842307,
          0.11692852824612258,
          -0.1047223248883283,
          -0.12587670205743667,
          0.0835668335302612,
          0.005352419104859157,
          0.06554248810729582,
          -0.0067319432520065794,
          0.1343464615931735,
          -0.08124247302738397,
          0.10650960512574784,
          0.11255490269566915,
          0.06100670779915876,
          0.01080927549389646,
          0.1467856369623611,
          0.02829684231327139,
          0.02738390428556868,
          -0.10012125765202183,
          0.07217007346730119,
          -0.08836304162451993,
          0.0348537075649141,
          0.025753214820281856,
          -0.09347831835629176,
          -0.11081885342047045,
          -0.03446176230595371,
          -0.13264817047038022,
          0.07353448242335608,
          -0.14593137245188292,
          -0.11784294759834274,
          0.13510330394915268,
          -0.07802234763538055,
          -0.047785903381876924,
          0.10220363264598166,
          0.04926365596149897,
          -0.08143347001137212,
          -0.11688245749135069,
          0.11062849128984692,
          0.1355433915448036,
          0.07409110750889715,
          0.004009650695117699,
          0.1287828917505066,
          0.09624819736260735,
          0.1263527744768329,
          -0.08588469083387379,
          0.0329642747342896,
          0.029634916216723282,
          -0.006705532925962117,
          -0.002135249828724041,
          0.03663639157759409,
          -0.015037243952624811,
          -0.05856407851723825,
          -0.06020736747839441,
          -0.14185990557336045,
          -0.06741789238286645,
          0.11040899081004076,
          -0.06157131854468476,
          -0.12946945328256537,
          0.12781327850241167,
          -0.1522045143495563,
          -0.04428928727742395,
          0.0589296841787841,
          0.07108499516281866,
          -0.12959293567059346,
          -0.08218854315742663,
          -0.11283717611272588,
          0.09352747688444178,
          0.06427778649380186,
          0.0493289538256212,
          -0.13086430920948114,
          0.12187688967212826,
          -0.04224392309841882,
          -0.033201807180031497,
          -0.07231473212073691,
          -0.03821673447258434,
          -0.007176960405919872,
          0.12255541512519884,
          -0.14206999786716373,
          0.07998145540973454,
          0.10808269109288154,
          0.029630676759691037,
          -0.11629745928927322,
          0.11811883456098178,
          -0.040761810198182154,
          0.0676392387662923,
          -0.12474775495938253,
          0.06642446290194966,
          0.055417749644946716,
          0.012792317382122114,
          -0.13671319408434052,
          0.12054833061572551,
          0.144010598316698,
          -0.10574944903404086,
          -0.08436607343909518,
          -0.08949550967330389,
          0.018145678044113437,
          -0.06729188180138343,
          0.1354842101448874,
          0.024456883732769576,
          -0.042903285637602304,
          -0.029301503727854405,
          0.003196226145357896,
          0.09514731206149787,
          0.05522225699017471,
          -0.03683773468307053,
          0.1496671882377931,
          0.028999615046135123,
          0.06314724629727096,
          0.0652911290665637,
          0.006826312287315588,
          -0.13116199138405202,
          0.06645011694294561,
          0.09326581163134783,
          0.027212654507803666,
          -0.11343809393754177,
          0.14349809610809977,
          -0.13384543830034465,
          -0.12471148097200183
        ],
        [
          -0.42947624519848226,
          0.02985503192170887,
          -0.031253015642456076,
          -4.711821363093477,
          0.028803256082182174,
          -0.08009885744522875,
          3.1092275465894104,
          0.06771185035800648,
          -0.10125887196010226,
          -4.216299880692786,
          0.031185068045889892,
          -0.07734039594200255,
          -9.840730149203782,
          0.11744023882770076,
          -0.04320360407200381,
          3.471032907408724,
          0.09144258742908941,
          0.03766060832501644,
          6.678106048092304,
          -0.13439284842629262,
          0.0021638805274997877,
          -0.15726794930138235,
          -0.03657242761587208,
          0.023460131595652692,
          6.594833622986976,
          0.008010594954360168,
          0.09545294642800667,
          4.934371126244443,
          0.0274418796545995,
          -0.06724085176603709,
          3.3510436726161865,
          0.0503580209337857,
          -0.09306590375342476,
          1.5421612114933778,
          -0.06838268472007852,
          -0.07141747385840676,
          -6.616072723205861,
          -0.039797885949684995,
          -0.11059344373590375,
          6.20456824063224,
          -0.06523117930761053,
          -0.08483154660623471,
          3.0119783049348277,
          0.13132756054348446,
          0.09573921280426258,
          3.0102064486323057,
          -0.053613893658239736,
          -0.09369327301892592,
          1.9381808446166755,
          -0.016921216583732836,
          0.0931704470671126,
          -6.123736540939359,
          -0.008667154616827625,
          0.003717464071529087,
          0.004370926439172395,
          -0.09812138511296123,
          -0.041662660990826335,
          -0.04192426767778307,
          0.06261934255562814,
          -0.10981160850769836,
          -0.07190611178933176,
          -0.13096471469200174,
          -0.01326254087680302,
          0.06992002980523654,
          0.07238298254985928,
          -0.11682022815100503,
          0.01628229037391117,
          -0.028332449938994593,
          -0.014376847402843031,
          -0.07728136105311195,
          -0.09726237498528521,
          0.058851741762759424,
          -0.09169363228539516,
          0.08499077281035601,
          -0.04172485885276846,
          -0.1392738611159123,
          0.07397788545437839,
          0.03920951143753966,
          -0.009428074043440276,
          -0.048606064507864796,
          0.012191950736177648,
          -0.0693893430823927,
          -0.04340344624153611,
          -0.02562406791769326,
          -0.10655092814575325,
          0.00023587209517882078,
          0.16757378030139883,
          -0.027709647607579536,
          -0.04360470255504728,
          0.12117950659042996,
          0.05034997969725132,
          -0.0912138243306517,
          0.15953797769521724,
          0.10751844667619216,
          -0.0849452481816046,
          0.010449242195651716,
          -0.00040829341355534524,
          0.0810957216758988,
          -0.10675540107724528,
          -0.03709845506375291,
          0.026183318031298777,
          0.06354603141757803,
          0.10878649513024964,
          0.0668411435144485,
          -0.1486908942190991,
          -0.013913054454855302,
          0.045359117689699906,
          -0.051719212047910024,
          -0.01677612392864529,
          0.003041507405908855,
          0.016399737853253316,
          0.07150483792796183,
          0.06425309846976059,
          -0.05412269102655767,
          -0.07453475126487563,
          -0.07183557157298426,
          0.04445981564783625,
          0.0009306288701747202,
          -0.05089441796023551,
          -0.002007084831154867,
          -0.06959989486334114,
          -0.10139677397401328,
          0.021810014379380505,
          -0.08796512613982461,
          0.05710823677490401,
          0.034623650847962775,
          0.1167841392256674,
          0.02002984266831271,
          0.09619186458800451,
          0.08522768948112858,
          -0.04255848119586421,
          -0.15602710577128928,
          -0.08440163585191908,
          -0.011049699194980679,
          -0.06957604399422895,
          -0.09209855380099619,
          0.06848084948933948,
          0.08226703893245996,
          0.04333848232570349,
          -0.004413970590376544,
          -0.03159373959786016,
          -0.08397155039873663,
          -0.06462582429541286,
          -0.13493457222207225,
          0.05263564117032151,
          -0.12665893917079055,
          0.06396990111507365,
          0.14829424267412566,
          0.12157686880310871,
          -0.05845041022292617,
          0.0954891079381294,
          0.016187086314826373,
          0.08319811398471837,
          -0.09931230931854619,
          -0.07448630317676526,
          0.06654526392486738,
          0.01391381996431532,
          -0.13485619015819847,
          0.055219494522737604,
          -0.08130222308320195,
          0.1930212653282351,
          0.07719502128114664,
          0.03977896332587626,
          -0.07647486773166266,
          -0.02382258395272259,
          0.011553355012924425,
          -0.004833945562304192,
          0.017231604374721828,
          0.17988214798036253,
          -0.11272355419115934,
          0.03865255611188524,
          0.013269933335676923,
          0.11905848847998583,
          -0.01774698475647269,
          0.03172527290265245,
          -0.08726958755320256,
          0.09602042834292375,
          0.038117902540642006,
          0.13729616342258613,
          0.04603421993559962,
          0.010899466613825244,
          0.09680038978373012,
          0.014294837772430584,
          -0.07729008311586333,
          0.054473230849880414,
          -0.11384013869803927,
          0.06824540605139573,
          -0.06020093700507547,
          -0.007403964093002688,
          0.1273850943392676,
          -0.07503124305401593,
          -0.07342125667789759,
          -0.13119290367486072,
          -0.05842334445992374,
          0.1423074532016957,
          -0.03101749482221084,
          -0.05201098188559243,
          -0.07280538918494128,
          -0.08702947861876734,
          -0.0022742565032038012,
          0.10616031353813973,
          0.10205572564020708,
          0.0825122568929841,
          -0.029468093247530622,
          0.06977922118056991,
          0.08745453791439067,
          0.01899879728142175,
          -0.0958131084194097,
          -0.003713497669598204,
          0.016302829409289614,
          0.0774815661297496,
          -0.06454895406905528,
          0.04716349355088358,
          -0.12174175799291745,
          -0.0199437760535629,
          -0.09583468545256811,
          0.07112383888662513,
          -0.004084928928081974
        ],
        [
          0.04280629601667145,
          -0.00409779737598683,
          0.07626933349073023,
          0.10131008918079394,
          -0.03901338822498159,
          -0.06910622918532289,
          -0.09623936985697926,
          -0.0992322715027672,
          -0.05854658110840314,
          0.08855658417787116,
          -0.09479279343404083,
          0.010670576647141597,
          0.0034887391889938846,
          -0.10976885336393177,
          0.06658991971409761,
          -0.09221901412775836,
          0.14226108647141988,
          -0.009825460428973056,
          0.028360392431936117,
          -0.07488636233601037,
          0.023488129987130766,
          -0.009139421111083668,
          -0.10099789108747302,
          0.036268213788955096,
          -0.0567051415532917,
          0.1106386110292713,
          -0.06650305725381417,
          -0.023382519357227533,
          -0.1225546181205651,
          -0.08816944648367796,
          -0.061981161817301726,
          0.08290377490684836,
          -0.14638312821764884,
          -0.08890346287411062,
          -0.07284866750484638,
          -0.0054189657476995355,
          -0.0437452351891547,
          -0.08855185066942621,
          0.14050306827009756,
          -0.13297145306770733,
          0.015774947761051667,
          -0.011477628869081892,
          0.09878247505695402,
          0.08233142127484892,
          0.010853692018302167,
          0.13138682923587752,
          -0.09746716810873057,
          -0.0063660120154150806,
          -0.08455456918070826,
          0.041914428366216644,
          0.018314191618404457,
          -0.07640582960945137,
          -0.05833566238507651,
          0.10491802084309468,
          -0.07399277364829988,
          0.018707819538227904,
          0.043198502032615035,
          0.12004329731582192,
          0.033983110011814914,
          -0.1321379058536961,
          -0.048079276321145496,
          -0.13295192346616627,
          -0.08248225902328933,
          0.01628293375862456,
          0.07072026122584382,
          0.048510558672205495,
          0.037287226971237424,
          0.1344258495156003,
          -0.11959776994875575,
          -0.03999332514226081,
          -0.07655801391679888,
          -0.02653003091950545,
          -0.1045724648949551,
          -0.02273425129952739,
          -0.0010411777515918026,
          0.033154310267280426,
          -0.12327804572327662,
          -0.0920676133722005,
          0.12629093379804976,
          -0.1354949697084664,
          -0.04512278936031265,
          0.029668457628171472,
          0.0009663331191313668,
          -0.09019772083677441,
          0.09636967364617166,
          0.13319617646428247,
          -0.08011074685810483,
          -0.08511907091683169,
          0.14662229395861207,
          0.13018426771996905,
          -0.1066909992611164,
          0.061898414250202115,
          0.02838407639918578,
          -0.0975523894886906,
          0.008125659329460853,
          0.04925012391752891,
          0.06541726119846282,
          0.022371276380718202,
          -0.03963219412207334,
          -0.1362587189740269,
          -0.14385298695126186,
          0.0374694114131752,
          -0.11915449555944117,
          -0.13361968922420062,
          0.06721960110681088,
          0.0557094227447296,
          -0.11136196477477094,
          -0.06764880003463182,
          0.11115068328837528,
          0.06116640747078539,
          -0.10353568638047682,
          -0.11821586245447578,
          -0.14775718737120516,
          -0.026221799719891258,
          -0.12330157613675147,
          0.012270958115112316,
          -0.08614163313205482,
          -0.08047512078036476,
          0.1141345820305839,
          -0.11668798703045982,
          -0.022675856116832455,
          -0.11268065116361527,
          0.06339433010969989,
          0.11257191226031188,
          -0.07855805166809172,
          0.07024896527126329,
          0.024023043012022755,
          -0.12887022464074216,
          0.015296861489107149,
          0.14338902389489463,
          0.023389830630099664,
          0.14089157208529046,
          0.052217457356462375,
          -0.03467088107717922,
          -0.06595260613814169,
          0.1400534231343557,
          0.04408812122571525,
          0.009195541431902597,
          0.09198999495105092,
          -0.05518142024431428,
          0.06683635827594415,
          -0.05387483312856918,
          -0.13038724843979269,
          -0.1212748816968054,
          -0.01282689070604928,
          0.03443758512246876,
          0.08639279699520043,
          0.14451412355928706,
          0.10340022776929604,
          -0.006419709077499296,
          -0.10631384624489408,
          0.11940195703385104,
          -0.07582412892682372,
          -0.07236626025723092,
          0.10649974633666016,
          0.03522622279578233,
          -0.03990483336140073,
          0.11600754313247845,
          -0.09528673031472326,
          -0.14674907313612195,
          -0.06330334228797642,
          -0.04092384284544387,
          -0.08942685448032496,
          0.0906967522865002,
          0.04553023356098224,
          -0.008523630655524993,
          0.0450884236755235,
          0.14499375665942046,
          -0.04260534106766558,
          -0.0781130451612291,
          0.1160116245383772,
          0.06897422538807997,
          -0.1402220948653055,
          -0.07554194315984429,
          0.09859849635244969,
          -0.12369978905584715,
          -0.15080912752138953,
          0.09326305940702972,
          -0.0014182853439569057,
          0.07788197594185879,
          -0.036514845181120685,
          0.10607218690288303,
          0.05567979817515981,
          -0.14556316881893874,
          0.04944212102506007,
          -0.14547701504506183,
          -0.017279014482951216,
          -0.008123309164375144,
          -0.06067104425430644,
          -0.04848833920048378,
          0.01746442856668166,
          0.1410124253741997,
          0.09254202150303117,
          0.045490334237845875,
          -0.10073288144041802,
          0.1420438528938194,
          -0.019415697685371398,
          0.009589465129978866,
          0.013727887744278952,
          -0.009581550236356004,
          0.012361398794810453,
          0.1054936057463067,
          -0.030297421634426863,
          0.02283886342564181,
          -0.09562713217409904,
          0.012207506364312436,
          -0.11235695625528924,
          -0.08741426320174032,
          -0.050915793199546866,
          0.055504998997317576,
          0.09217970827543086,
          -0.1177235721777801,
          0.009626220644932921,
          -0.13759308198499867,
          -0.09206321584941748,
          -0.020178141978381556,
          0.015037962728991949,
          -0.02079549787172861
        ],
        [
          -1.215746101464622,
          0.05085156078568862,
          -0.06129965211523842,
          1.5698944994836064,
          0.04542116709866965,
          -0.041576971725195776,
          0.6393546061750229,
          -0.07538935686888491,
          -0.08387325174120985,
          -0.03697136368640858,
          0.11333080366571135,
          0.0036347682424000484,
          2.79719862519392,
          0.034094662900380025,
          0.15011052709311318,
          -0.3898551182378451,
          0.1237541355292913,
          -0.14921569817797842,
          -4.162313883749949,
          0.08997939259744447,
          0.09386132363241224,
          0.6639512355872287,
          0.1447869640255462,
          -0.11877037398570107,
          -2.588395437811646,
          -0.08044911230151905,
          0.0820877276967348,
          -2.3241211332682297,
          -0.14552637950412559,
          0.12005513947392651,
          1.3891553038618165,
          0.11930757633606627,
          0.16686620920315298,
          -1.5348912871423506,
          -0.11115056441222244,
          0.10837236780812536,
          1.4202755944026264,
          0.07108810976092748,
          0.14549986513484872,
          -3.126991827138969,
          0.07567421726980988,
          0.1569278184818085,
          -3.931067722394584,
          -0.03238574963705074,
          0.01812437872285169,
          -1.4917675789767624,
          0.016877474188635798,
          0.03458392223974172,
          1.5241668262435308,
          -0.08614534215112057,
          0.0621202204795405,
          1.0392744012191344,
          0.09705324456493528,
          -0.14212093685067553,
          -0.11815251719414703,
          -0.03458614623574623,
          0.14121136188620417,
          0.007920455314825445,
          -0.10354133274789108,
          0.14930155666131678,
          -0.12117783003331176,
          -0.09662505144555153,
          -0.061377055266655114,
          0.07556876859209802,
          0.013798226806828464,
          0.06597852017068088,
          -0.11191416220897171,
          -0.13241446021512263,
          0.16126154548231414,
          0.032868510412097596,
          0.06785760031764901,
          0.010776063745227271,
          0.11890623329501634,
          0.04526359935670788,
          -0.1118930163669912,
          -0.014333207306929866,
          -0.11733753840385874,
          0.16483078700946213,
          0.05134258690930396,
          0.1695040473112035,
          0.09624679131155302,
          -0.07854362095450904,
          0.05423672573773194,
          -0.13828475628562586,
          0.1351549910375375,
          -0.04823445868059158,
          0.13570507839136123,
          0.1266393916982038,
          -0.10942395849030026,
          -0.06806574465264371,
          -0.1103657353476039,
          -0.0265776669237633,
          0.005702502429860527,
          0.10733826500081939,
          -0.08108050459876501,
          -0.025633985633124228,
          -0.03524068751080089,
          -0.04346609910252682,
          0.005803133851805204,
          0.10516027717867239,
          -0.03695742480007643,
          -0.08332779463924903,
          -0.027946606417179366,
          -0.05489209497421805,
          0.06346321989289223,
          -0.03554174586948191,
          0.09434319389404562,
          0.02636390581466813,
          -0.02325840420902373,
          -0.127291262419778,
          -0.11635652141191968,
          -0.08135812660891757,
          -0.08689069590855268,
          -0.01348199913458376,
          0.1254887849242555,
          0.046385623379687636,
          0.021057319668786073,
          0.11181778390126534,
          0.09339218532156515,
          -0.04467153148159712,
          0.11635543745790193,
          -0.08552805803132138,
          0.0957778485389506,
          0.07020707900806199,
          0.02750548337441994,
          0.009746216869750217,
          -0.08280490930435688,
          -0.15099961725484215,
          -0.0041281227360417585,
          0.16055657318319289,
          -0.04802621149605417,
          -0.04635375489304671,
          0.14673174257415184,
          0.11604815355236858,
          -0.14101409375991306,
          -0.07533585807634892,
          0.12158232951713525,
          -0.10021129732623162,
          0.050142272185410945,
          0.029167305686439354,
          -0.0035831255655578683,
          0.03166363854842398,
          -0.049420899903874084,
          0.0269673340901544,
          0.04465464536248264,
          -0.12385656954036149,
          -0.10857040347541096,
          -0.14785613556234348,
          -0.0408950426921125,
          0.05578666752901502,
          0.13220542012553274,
          -0.10274393711697857,
          -0.10879921933004515,
          0.06346421638705312,
          -0.08666934470299868,
          0.03492003780805562,
          0.013093981766062203,
          -0.11845486825007182,
          0.03657256442702595,
          0.08743483768919176,
          -0.13940850172453706,
          -0.04995282476666012,
          0.0030234809653673024,
          -0.047121908843064865,
          -0.02981854074129286,
          0.09514867762940564,
          -0.12638877991305525,
          -0.05808751293985692,
          0.04124109495861937,
          0.1499698988011675,
          -0.0492611828866148,
          -0.061354999846397945,
          -0.0202862610444544,
          0.062230241765036415,
          0.11131823167332164,
          0.13512196152802666,
          0.16495617846300498,
          0.07104163195164948,
          -0.06430868302066496,
          -0.10101087271268469,
          -0.07145198124938869,
          0.04015409796529436,
          0.04822843350793954,
          -0.09559870991942669,
          0.145914600293608,
          0.11300208706305968,
          -0.04278070470186243,
          0.0815240968555312,
          -0.10350010867857531,
          0.004028343398075299,
          0.07695208379508096,
          -0.15519617968142377,
          0.14324954731741135,
          -0.09038138536745867,
          0.0019651911431585773,
          0.09881910615214866,
          -0.003873530560871461,
          0.11849783601771938,
          0.13380824050878196,
          -0.03604280209205192,
          0.05988294630289182,
          0.058217858876131054,
          0.10895105385929651,
          -0.13345539415314106,
          0.1299279620632321,
          -0.07756388525246317,
          0.12656543575167403,
          -0.007587079841265614,
          0.06926567918706496,
          -0.12142757437812784,
          -0.10855209999983921,
          -0.05451461959720821,
          0.13085309739525164,
          -0.04323209334844822,
          -0.07952005708530284,
          0.01506943394169479,
          -0.11297664726214136,
          -0.07582893810679661
        ],
        [
          -3.8822270965864463,
          0.10450449807600927,
          0.09283927442877694,
          -3.566482997936637,
          0.03945158361423212,
          0.056433144557676826,
          1.631733708806113,
          0.006058632480851367,
          0.04441541178828307,
          0.09390916606123169,
          0.07913362818714399,
          0.0015267085569231817,
          -3.296749091866065,
          0.02572758069807626,
          -0.12540814020461466,
          -4.676746108386707,
          -0.11133488213033581,
          0.1428073447018354,
          -1.428786355941225,
          0.12200892419356646,
          0.06975723136967646,
          -2.0177745991184683,
          0.119534410569521,
          0.0959728939329609,
          0.7785037880247889,
          -0.07500099328671563,
          -0.06754526682178864,
          -0.02104431626777333,
          -0.0011852341166622067,
          0.13962787503289836,
          -0.39526000404109407,
          0.1126848042057353,
          0.06065107443453095,
          -4.035592364301511,
          0.0069240925238875746,
          -0.1333420299025482,
          -4.989047599513537,
          0.043958285366804024,
          -0.04212981495511075,
          2.5091658567045236,
          0.01538472412602302,
          -0.0342573654024007,
          0.9073049344598744,
          -0.11605163475925427,
          0.06951227066346931,
          -2.646048640566589,
          -0.06787577399992466,
          -0.07523544236416592,
          0.21881420175580157,
          0.09330616420223524,
          0.1342140761966983,
          -3.1909106909734364,
          0.11354779738617887,
          0.10699513824985687,
          0.08132538162424845,
          -0.10423936150840353,
          0.12443511041856971,
          -0.09776769240723127,
          0.024866210037149946,
          0.05641678800230502,
          0.05368376417304414,
          -0.039597573263643354,
          -0.030402018615031477,
          -0.1294309664346793,
          -0.05151321734576632,
          -0.09228493317781403,
          -0.06322131307996952,
          -0.11660802444826167,
          -0.00926653375774729,
          0.016343568938240707,
          0.021891689800367622,
          -0.07025803673433834,
          0.14840822976498785,
          -0.018102996926597628,
          0.052722693493013485,
          0.07391851807631553,
          0.09489681046450697,
          0.031865295362821414,
          0.06530682895540661,
          -0.03358097800326723,
          0.12267383826789612,
          -0.11387131489425406,
          0.022764751884822326,
          0.002876538517232005,
          -0.06994193117472705,
          0.020836988513838126,
          0.12481636203157559,
          0.12050557640452866,
          0.04889984252183632,
          0.13713418096111063,
          0.08841652323375464,
          -0.007780691772837347,
          0.12192152297285515,
          -0.02286164633047627,
          0.11316143034211268,
          -0.054272160540320004,
          -0.028144949509051498,
          -0.09798614272658217,
          0.07034713375133658,
          0.054811109553326236,
          -0.030525364593003354,
          0.1350081459577189,
          -0.02187308268275178,
          -0.13117091638792797,
          0.13852267839705878,
          0.06323241025104538,
          0.06144014934594676,
          -0.06311142054585445,
          0.1047617337629765,
          0.03265576565372956,
          0.034884876380769786,
          -0.1373808876425089,
          -0.05815580180380496,
          -0.08659880752419673,
          -0.04719925689568095,
          -0.08420144839334244,
          0.043636942754643485,
          0.10494684122222071,
          0.07989573276656498,
          0.12495579877802801,
          0.07102253258435313,
          -0.14421036227737785,
          0.03783815666667943,
          0.05259077637927284,
          0.10393230342327603,
          0.11274036160772774,
          -0.10186575885700863,
          -0.12621073392160917,
          -0.12539605147899874,
          -0.1505337915204311,
          -0.052665225740683025,
          0.01952673785970363,
          -0.13628668722172546,
          0.042256206772040124,
          0.06827771333641432,
          0.08107001443779564,
          -0.06019532647342457,
          -0.007778081944765513,
          0.12055352449867623,
          -0.040378095787692844,
          -0.020999779202466984,
          0.021662170152609347,
          0.0016461870355071032,
          -0.08099408249489538,
          -0.12722794960513228,
          -0.15319853997535168,
          0.04754699521797477,
          -0.10611459673853996,
          0.14655036808587477,
          -0.07171864584060114,
          0.15827853685740212,
          0.09756628645375938,
          -0.019433449121694993,
          0.08881090765834815,
          0.11805775560527919,
          0.10073493565992749,
          0.15672322009386416,
          -0.04161053609533405,
          -0.030438209302707787,
          0.09105060517950181,
          -0.05501746142075461,
          -0.07354565771407659,
          -0.06330219137217344,
          -0.1458327695962969,
          -0.021943527524901116,
          0.13279226783400258,
          0.045892906586004326,
          -0.014522362376383845,
          0.06385990110683293,
          -0.10509802756327137,
          0.12302965918711346,
          0.08627922327538001,
          0.06941817878838495,
          -0.13950624255549493,
          -0.01745326512739259,
          -0.1328116285493962,
          0.039546503218342154,
          0.008025809051708176,
          -0.001988729870512521,
          -0.11674838638428557,
          0.13325445452252227,
          -0.012886065963257563,
          0.021655075423732257,
          0.0441985689398453,
          0.12956463989084935,
          -0.005895364558246091,
          0.12633023840125215,
          -0.07335505114879497,
          -0.15615760282792834,
          0.1110870189290747,
          0.06981129127713771,
          0.08512980384219702,
          0.1025026648499168,
          0.10000511971296007,
          0.08651029082124059,
          -0.03816810573429787,
          0.008562316519359134,
          -0.10032850502087146,
          -0.12259894517543549,
          0.13042762508829595,
          -0.0643593777334764,
          0.1329361850040526,
          -0.029477498269181987,
          -0.0407982552960996,
          0.03717492218163889,
          0.02335262650308395,
          -0.026306200089634395,
          -0.09998172117773386,
          -0.11720353450882946,
          -0.12029535967509845,
          -0.12292167147074033,
          0.11179737733618247,
          0.1412162625958681,
          0.05076366337725301,
          0.03965218150378469,
          0.10294249815868116,
          0.053998992687899004,
          -0.14993041265700913
        ],
        [
          2.302645964955612,
          -0.020342624963481458,
          -0.1427267805800465,
          6.422762952476492,
          0.08210704606206413,
          -0.09660760706082533,
          -3.655238426072147,
          0.06947360733786656,
          0.023122406423224436,
          -0.4988386889899846,
          -0.07724428143921455,
          -0.0486752018584412,
          8.423586247091613,
          0.05070263970031757,
          0.13035574755753365,
          7.184139236810499,
          -0.08661740288808588,
          0.00801380340613521,
          -1.1961111720578284,
          0.09316401280561425,
          -0.07028216034937614,
          4.093336700072016,
          -0.04510055202365827,
          0.11271277510054051,
          -4.2932674561964985,
          -0.027103104214319617,
          -0.132881193274938,
          -1.5701053926102067,
          0.02272197803574725,
          -0.154172631452079,
          3.2900492307156735,
          -0.06594990378817002,
          0.10370835520056489,
          4.204416634842717,
          0.06737559880770455,
          0.048739117124631054,
          8.507547385063189,
          -0.023918013535724238,
          0.0896466926401641,
          -6.929993485804944,
          -0.04895235003621226,
          0.04071402449225074,
          -3.786005486179536,
          0.10424028183914186,
          -0.07152258892932414,
          3.309684512554804,
          -0.06447562763076342,
          -0.034484707717274014,
          2.291280743990249,
          0.001414005981980135,
          0.10120019733484636,
          6.042184381985021,
          0.07690722522714284,
          0.045594520657927545,
          -0.10637371641244157,
          -0.02076508954263122,
          0.10060017950811777,
          -0.06542353242524535,
          -0.07910376314302268,
          0.12288773061403821,
          -0.052627958083145826,
          -0.06720832233871672,
          0.030174393543004677,
          -0.1595443292395455,
          0.12682308497512376,
          0.015392371485003234,
          0.05937979401896421,
          -0.10330805345160485,
          -0.020498171317103252,
          0.017677100203680834,
          -0.06011934333337922,
          0.02952443965623365,
          -0.0471514021282807,
          0.07917337810210645,
          0.09756116426461547,
          -0.11570099869026432,
          0.07510714759420689,
          0.021971424015272512,
          -0.08046825108120487,
          -0.08192559505806717,
          -0.006655174880801622,
          0.08048465793255109,
          0.1133759709851234,
          0.07506201446599695,
          -0.0635875811240627,
          0.09620598398009386,
          -0.04180630742173188,
          0.11207386007833722,
          0.028338545055472092,
          0.08374090392152062,
          -0.11029668119598428,
          0.11001314347901951,
          -0.04400148113615157,
          0.12176601299162396,
          -0.001878909504061803,
          0.11437081632093313,
          -0.1298253975588703,
          -0.05112444030950432,
          0.0891026597798034,
          -0.1353825800116274,
          0.06484115836906612,
          0.0022080381800919737,
          0.09677407800148088,
          0.07801651457784396,
          0.03158938421296101,
          0.05387336709719668,
          0.04422507336224986,
          -0.09557766539231924,
          0.07019589596452737,
          -0.06610886729234504,
          -0.02129316566093071,
          0.01636574428523908,
          -0.06472147261259215,
          0.009285113215210814,
          0.0508649883364182,
          0.13800568799359458,
          -0.10368502003674089,
          -0.16323661487274366,
          -0.07863666021609252,
          0.053213865606436754,
          -0.1408489706293489,
          0.03584644948952473,
          -0.03970226902451023,
          0.009329241148025056,
          0.0920897642935731,
          -0.05501885176979983,
          0.07858071747375564,
          0.11374749719566722,
          -0.03721362865503998,
          0.005538857046115077,
          -0.04349172779058552,
          -0.05387471272157029,
          -0.02758395503414206,
          0.14489614760288339,
          0.08266539010758066,
          -0.08310587093424131,
          -0.004358313008109598,
          0.044097009181689524,
          -0.0691750771910244,
          0.04701236498401591,
          0.12041069522278808,
          -0.06458465361136928,
          0.005919641467797738,
          -0.03903450418387944,
          -0.019756847871888392,
          0.027144424598037068,
          0.09367034528967316,
          -0.022055542252472547,
          -0.06787794948672787,
          -0.08055552023593812,
          -0.1181823190222623,
          0.052891491505696525,
          -0.005536302107346286,
          0.12429974816396343,
          0.07665310277152537,
          0.027951160429831225,
          0.05132841897402075,
          0.12301653328963662,
          -0.000822342838464574,
          -0.045800976371487716,
          0.06610205791078498,
          0.06290398404517462,
          0.08695212043217727,
          -0.04112408827876974,
          0.06894167640521355,
          -0.030351630964062223,
          -0.03223897978569503,
          -0.08660379804642258,
          0.09610136509484442,
          0.05181270744548264,
          0.006733721136454908,
          -0.07486651466634937,
          0.08937449745903189,
          -0.04079213688713218,
          0.04807918722513965,
          -0.12148941908968607,
          -0.061201357141339056,
          -0.14142552044235426,
          -0.10524363443892941,
          -0.032184961973409525,
          0.10426144085086662,
          0.053679107470191535,
          -0.1418598852985112,
          0.14807250403386935,
          -0.04475431493753852,
          -0.04299587193568293,
          0.018421188488794257,
          0.0877174472664246,
          -0.015530015843726406,
          0.059732155444445684,
          0.1262327010082944,
          0.051844745696875597,
          -0.05233984303745938,
          -0.12125455030754585,
          -0.006975806048800134,
          0.12402204728101482,
          -0.014833461110539535,
          -0.05820584429685743,
          -0.07910391395723627,
          0.0028691553096013545,
          0.11501906912500172,
          0.022828358180703206,
          -0.019854755184978534,
          -0.03330759594553577,
          -0.11150427849668004,
          0.06612484707494455,
          0.03390137129065282,
          -0.05787137478235221,
          0.12781070263961508,
          0.03721277811988827,
          0.07248571418751246,
          -0.05492292129463286,
          -0.03682709574943169,
          0.12073109761362996,
          -0.05108839019369519,
          -0.07482009069306476,
          0.04039085696619994,
          0.13133647518160113
        ],
        [
          -4.578916951900477,
          -0.049470086782897306,
          -0.03479909433543184,
          -3.0463063440437246,
          -0.08665034880396466,
          -0.024473068659539632,
          1.1457670665805577,
          -0.1200049605715298,
          0.04315334777235275,
          0.46477226382098025,
          0.09356718104192911,
          -0.12468169747812802,
          -1.6989610087069091,
          -0.023857798055527613,
          0.02795891714934664,
          -5.393298882212553,
          0.0021794781490991713,
          0.14156960518143585,
          -3.0618953891914553,
          0.14828691515662273,
          0.10972930243126733,
          -2.110963601015817,
          -0.1368430800765175,
          0.009439741661805048,
          -0.5333109312613693,
          -0.04190061426113535,
          -0.10246700355008086,
          -0.8158074833483775,
          -0.1407746014976203,
          -0.038845145498557554,
          -0.5741376706666527,
          -0.09488452176615932,
          -0.05644941480747857,
          -4.9204216616202165,
          -0.04408129123715063,
          -0.020336507436287028,
          -4.124658638807815,
          0.14799814858501364,
          0.0777512482669642,
          1.3998057731050237,
          0.007905915749898993,
          0.12059884820513883,
          0.0011966924684904863,
          -0.03249958667417297,
          0.1094338355453821,
          -3.6164637768915333,
          0.0864006017909374,
          0.057490562250040005,
          0.1561516135122545,
          -0.1696790270263084,
          -0.13846159410287467,
          -2.2551162727278857,
          -0.10434849029268493,
          -0.016380137650947924,
          -0.006949267455423621,
          0.09815132991847647,
          0.008885540557048016,
          -0.08933553857738262,
          0.00010399605158398682,
          0.07268089245402531,
          0.013192176850993281,
          0.026792162584028136,
          0.04123983121680486,
          -0.08353283158106126,
          0.07875200903066952,
          0.13387812617793723,
          0.030768867752580906,
          -0.10959402217457741,
          0.11514183097535452,
          -0.050081388661242475,
          -0.021671966689518797,
          -0.027089348520879727,
          -0.05777024217227146,
          -0.015662122403610798,
          -0.01980544957410913,
          0.15936324277150438,
          0.03420957388824537,
          -0.0566777079435048,
          0.012123977533304464,
          -0.06423396310337982,
          -0.09299820997455573,
          0.10044993000693592,
          -0.09161988726830414,
          0.031004169679144156,
          -0.1394901925835399,
          0.04563240140228881,
          0.1515843392209319,
          0.15406791656397836,
          -0.13619353670160864,
          -0.05864509847245892,
          0.08409164719900881,
          0.1352686121205305,
          0.11554243862571426,
          0.061998999881234286,
          0.054288726400065025,
          0.14370139919036617,
          -0.06273262021051572,
          -0.13298219321768703,
          0.008866808348384892,
          0.12007310623766071,
          0.0490686426756245,
          -0.08345200223932986,
          0.14614761655036868,
          0.12078052612930763,
          -0.09778603298842216,
          0.04837902712529748,
          -0.1296557066973424,
          0.12833352296806524,
          -0.0534620995286669,
          0.06132869142547662,
          -0.004516170720469797,
          0.010760504803304847,
          0.09650980844964975,
          -0.03378987390396187,
          -0.09944726221121483,
          -0.019168739498428473,
          -0.09867579375986267,
          -0.12186004410405067,
          0.058962773996442605,
          -0.14990196348630486,
          0.046362916422537724,
          0.07481026040003472,
          -0.11607357495192762,
          0.09639065278570577,
          -0.08000624326505494,
          0.048601778065965454,
          0.15461189148277407,
          0.05890182496533247,
          -0.0619889461122145,
          -0.10156551158205414,
          0.025110224076438568,
          0.14471887668623443,
          0.030928393933034454,
          -0.0035218103941513246,
          0.10723125948685186,
          -0.10026128524562927,
          0.10427903715367412,
          -0.08786288661741654,
          0.03542794432696292,
          -0.026201895369281133,
          -0.03985433846550465,
          0.020971152082438122,
          -0.13321869476883594,
          -0.08166474298014628,
          -0.11670963871353658,
          0.025132692967851727,
          -0.03263724168277043,
          0.11744289146117275,
          -0.12771918811743194,
          -0.10695988858941745,
          -0.12184146023716265,
          0.030188204299526126,
          -0.09744952684702156,
          -0.1422959230750933,
          0.045046316391521554,
          -0.035940667543507644,
          0.004895109022898059,
          0.10950308390541295,
          0.09186130455916142,
          -0.03189827859087505,
          -0.07737942639904075,
          -0.04545385685109819,
          0.12132818256108449,
          -0.10176051887597107,
          0.0972466590032377,
          0.0993250592842348,
          -0.0075378810273690755,
          -0.0960985954369069,
          -0.1425400894172366,
          -0.03569793119628556,
          -0.14956950373702135,
          -0.059507789226841384,
          0.1103501321960357,
          -0.15195669587511046,
          0.0834537329722811,
          0.003898880075871106,
          -0.011596133865381763,
          0.07411259982930211,
          -0.02943738903881953,
          0.03262374635350872,
          -0.023030486507254713,
          -0.09239102507812699,
          -0.09600055644091311,
          -0.12919824869554355,
          -0.12739484835635212,
          -0.010796089655783919,
          -0.047912926459344155,
          -0.07357848742444324,
          -0.034468100620426316,
          0.03355593258071993,
          0.08626789226446857,
          -0.15046925576717693,
          -0.13241786601491326,
          -0.006422634122877455,
          -0.11557942620260632,
          -0.10883234811930574,
          0.12089158065835548,
          -0.10741262603117077,
          0.02919509267219239,
          -0.09701639848308626,
          0.04588261676680314,
          -0.04302959298492534,
          -0.05353556656851558,
          -0.12599735726683992,
          -0.1404672976197316,
          -0.04485140786274561,
          -0.028131491891340118,
          0.07300219283940075,
          -0.12288556564646774,
          0.006405072719539306,
          -0.0004726678243833569,
          0.12323158094105009,
          0.018460766821671717,
          0.09573483302166247,
          -0.06534515444705113,
          -0.13463127261862315,
          -0.1117379792225609,
          0.0656611894389537
        ],
        [
          3.596356454377402,
          0.005556022995120576,
          -0.026865505596999847,
          10.515772952722745,
          0.01667887420307346,
          0.006761309888562749,
          -5.127348665575338,
          -0.06813821707767002,
          -0.027472889006629732,
          -0.9340150406057977,
          0.02948788832690388,
          -0.09523114304497193,
          13.663286920804577,
          0.08125193077137521,
          -0.04509680025814365,
          11.353479181412242,
          -0.020850239883231637,
          -0.15158410200426076,
          -2.766506672398917,
          -0.13828248830183415,
          -0.025242561834157826,
          6.487833059178451,
          0.039051240977895176,
          0.07020743523751251,
          -6.8744421962552344,
          0.07857785507398411,
          0.011323553521300328,
          -2.9674095226610517,
          -0.057285358861598926,
          0.12214260856701134,
          5.422165586861273,
          0.05402383737406793,
          -0.05273076099504386,
          6.132381226190064,
          0.0689963675936698,
          -0.044614258005488475,
          13.634373290381347,
          -0.023223410805604854,
          0.06442413040061465,
          -11.387435584075579,
          0.0003586566593112661,
          -0.042653570630948476,
          -6.728764497237157,
          0.11997560173928132,
          -0.007612141082665717,
          4.6186010603724545,
          0.0524208773844101,
          0.036157681912560406,
          3.9029351760010838,
          -0.007502403677779394,
          -0.1366063109772954,
          9.588278500912901,
          -0.14506222964933674,
          0.07273756547404868,
          0.11015418727350167,
          -0.05180730003307384,
          0.07624198279757814,
          -0.04877160853431732,
          0.12222064514713933,
          0.009946569801544508,
          0.004595018422361582,
          0.07799577415427199,
          -0.09216523440998468,
          0.10662798107638409,
          -0.02748994753136788,
          -0.03649187454432674,
          -0.00999643263261764,
          0.000333121708244612,
          0.017708786721726547,
          -0.002925518085887003,
          -0.01917351273246894,
          -0.08685451216663574,
          0.08050659572475774,
          -0.025145248128900604,
          -0.04296453717033587,
          0.09741374393362527,
          0.021791197324728975,
          -0.11968378989905303,
          -0.016820703329601634,
          -0.02232030501057093,
          0.059203812557961,
          0.025098403044406345,
          -0.17535099083042052,
          -0.10870451232830562,
          -0.0032543526053746955,
          -0.05686631557785102,
          -0.1189864258282424,
          -0.09296347259545452,
          -0.035580001221707486,
          0.11402905026278319,
          0.06185974154230585,
          -0.054066306377160776,
          0.06860958498395327,
          -0.09747205212320295,
          0.0890647204023704,
          -0.040644420762824686,
          0.10979589582714465,
          0.04136962642325743,
          -0.05992603706850648,
          0.04303638243274139,
          0.06783729722950353,
          0.0898778115474563,
          -0.02327345316016343,
          -0.030857311112875433,
          -0.027740200233710325,
          0.08144053018511177,
          -0.055915944500470695,
          0.014520750232036604,
          0.03560831418475011,
          -0.014331535281509683,
          0.10214291399715754,
          -0.019577703516651116,
          0.028961153471789052,
          -0.13460148012556417,
          0.013289676354364007,
          0.04325692108805886,
          -0.09297711116278354,
          0.015280082417840813,
          -0.10368403331081799,
          -0.14492003755692606,
          0.05587764615744248,
          -0.031942642851720694,
          0.09616543664461254,
          -0.04286023192663029,
          -0.028653533048198385,
          0.21822219484069047,
          -0.10258709822393003,
          -0.12769926003429674,
          0.11021783901191871,
          0.06898379323130296,
          0.01287613827768795,
          -0.12239986379570525,
          0.06788257280102836,
          0.15005702225603273,
          -0.019599682477665453,
          0.08205675787657617,
          -0.05798199218399752,
          -0.12122150183289354,
          0.056092962345586646,
          -0.08053644573240369,
          0.07577571993035435,
          0.17640516357551433,
          0.012086811724678464,
          0.12915661232807404,
          -0.062240874879014585,
          0.1317047899663695,
          0.07228968185651372,
          0.07718430019392893,
          0.10808567161080493,
          -0.05882146905898674,
          0.07888921109728811,
          0.07333873558237505,
          -0.08423637829820463,
          0.054136664375110416,
          0.04499329734281196,
          -0.0861895407727714,
          -0.01926034179529434,
          0.05733406441013855,
          0.014253672517510403,
          -0.02395795584109033,
          -0.07268490477893326,
          0.12639529778189929,
          -0.024799377565613394,
          -0.039063978994157735,
          0.0002702705906104902,
          -0.1300295157621831,
          0.06805316579642307,
          -0.02967137941684524,
          0.03620177846346008,
          -0.05185539981295357,
          -0.03435197267682719,
          0.005939905144100419,
          -0.001888963915352041,
          0.03180033485302379,
          0.0225527757557444,
          0.09130163472523702,
          0.08117574757810174,
          -0.06328014722225911,
          -0.00862455629399323,
          0.0759691782163034,
          0.042764196028658275,
          0.02513924749522926,
          -0.01785277376772158,
          -0.12447517304194493,
          -0.09106102900523695,
          0.06550655937487916,
          0.05245239648233064,
          -0.04757339272713347,
          0.043084938335436855,
          -0.07791605615651898,
          -0.06693863939514055,
          -0.12340578918249709,
          0.08445806767300239,
          -0.029745215463628114,
          0.1930116713679371,
          0.03079596689451367,
          0.14213101024338534,
          -0.034294588587680495,
          -0.07940162855020334,
          -0.0032423709971810158,
          0.08357288052434089,
          0.029373685730019396,
          -0.05591803110428605,
          -0.0988521732790391,
          0.05594011565125877,
          0.020128677488871868,
          -0.08356813642512419,
          -0.07570827468621014,
          0.09587327497908149,
          -0.019462008396424552,
          0.10237551438372963,
          -0.042813983921956296,
          -0.08711531129306327,
          0.1008589610662536,
          0.01999362583404194,
          -0.030057965092855195,
          0.0039591245745687195,
          -0.03687575574904498
        ],
        [
          -3.607693782414816,
          0.10213972627747406,
          -0.146131099069295,
          -0.7640142826047209,
          0.1483804681176369,
          0.13580188421672812,
          0.41074789545308266,
          -0.04835802733735605,
          0.11679474865525898,
          -4.685795991001204,
          0.1448455943496425,
          0.08261886273392678,
          -1.868013002068641,
          0.08517360586562449,
          -0.0981327298214499,
          6.451163966538198,
          -0.11362895450494523,
          0.14047802241213325,
          1.6193615455905066,
          -0.04367852357758531,
          -0.004679031518119232,
          2.579684119799799,
          -0.15205406411719755,
          0.09219827970747234,
          0.7052992893758947,
          -0.08544226025311148,
          -0.012059810497950968,
          2.2642298194813937,
          -0.09276548950161684,
          -0.02396798319605207,
          7.473980385104298,
          0.09732718930221174,
          0.14539633061470372,
          0.6904967288649335,
          -0.019825387021620296,
          -0.0873471364282725,
          -1.8915464636702384,
          0.02838636872495185,
          -0.10315224793945262,
          -0.35982385284356216,
          0.11201538941370509,
          0.018102430124376064,
          -1.6275992524439755,
          -0.056405891591649306,
          -0.14057649077045467,
          2.8239957928864876,
          0.14504466174946665,
          -0.03172718280270063,
          5.800297368923392,
          -0.05368520868981763,
          -0.01497978187472627,
          -1.738756539242507,
          0.1593608469628995,
          0.01505323405244625,
          0.13439937986122694,
          0.12494496537549701,
          -0.12209110417600783,
          0.11258657286950381,
          0.08208158982159,
          -0.1401410770632159,
          0.036316674019388276,
          -0.11292625955272759,
          -0.0826906803516229,
          -0.025609730839649753,
          0.0031166843333110513,
          -0.059071881078593014,
          -0.06877183181463013,
          0.14176547661518865,
          0.14524496722499852,
          0.04716457167782218,
          -0.09571607032216156,
          0.08237149214722841,
          0.10770947545323253,
          -0.11673350304630399,
          -0.11774898493324581,
          0.031055175816728394,
          -0.07464638388114665,
          0.14078887949838767,
          -0.019426342788026834,
          -0.02406708157952431,
          -0.17195562031343908,
          -0.08136637960490699,
          0.11246835110528985,
          -0.08831593167373403,
          0.005846262635942519,
          0.12266180243147087,
          -0.10362164529858753,
          -0.09335302854337152,
          0.10561911556668988,
          -0.008880101518240579,
          0.05415551890298705,
          0.08566130444533211,
          -0.029892129086643973,
          0.10712861015265508,
          0.09707182771646963,
          -0.08707934814771577,
          0.10413678933058225,
          -0.0768225500077912,
          0.09336922437002507,
          -0.06745522324881363,
          -0.06933934124077971,
          0.06859160539854128,
          0.08101910378355735,
          0.03835639687219774,
          0.12075095278817884,
          -0.12235469382485716,
          -0.06268374290521375,
          -0.051038628144835785,
          0.06705981994135927,
          -0.07081460229408158,
          0.16593837588597538,
          -0.024870946997481668,
          0.09283338060679013,
          0.005415188192639722,
          -0.032376963422807055,
          0.07203219639603077,
          0.09697406979059342,
          -0.05980428506098583,
          -0.10437071321960649,
          0.08497000919908411,
          0.07905119163579527,
          0.05036843291985151,
          -0.0735047324617652,
          -0.040371693581074244,
          0.11256237711227685,
          0.009858104209732066,
          0.08974606638344332,
          0.09249788671584512,
          -0.02519225906210151,
          -0.06026938586720524,
          0.08710218463190258,
          -0.15584771416573787,
          0.07210947535468509,
          -0.03515358006237223,
          0.09465449860864915,
          0.07335704631405528,
          -0.06135141537228407,
          -0.037030769853471555,
          0.013773443298090299,
          -0.0725429744085474,
          -0.06703255406214667,
          -0.04847059839555912,
          -0.1713466312944425,
          -0.11061197982425777,
          -0.009084761339974712,
          -0.028575792150849846,
          0.0523782889649702,
          -0.1443058619774929,
          -0.11718847973132797,
          0.09475124326896626,
          0.09584607464367932,
          0.06077228055806322,
          -0.04390345281978012,
          0.09504496548208723,
          -0.11605241439933021,
          -0.008776152422271758,
          0.035072724408305424,
          0.011967390951811718,
          0.06010177998460402,
          -5.7663708151952056e-05,
          -0.01319354434829506,
          -0.09252136415172371,
          -0.0001932867447406581,
          -0.12503395392410557,
          0.03369014726301285,
          0.14060942306383997,
          0.025126811798165397,
          0.0006017340064170898,
          -0.0853872001943415,
          -0.05892486414833972,
          -0.09889852021555795,
          -0.12250338514473107,
          -0.1112307561304401,
          0.09255221009883259,
          0.10935807211887194,
          0.09008716441124369,
          0.08181671925323848,
          -0.13380367554825004,
          -0.01774883833662158,
          0.010040325164780735,
          0.05410559057122122,
          0.0037923009752357717,
          -0.020683796043171436,
          0.015881209189141304,
          0.03429064079546217,
          0.010769691015824917,
          -0.08607955461854129,
          -0.08013963508559652,
          -0.10227446376222683,
          0.039424960588064425,
          -0.09134625958192688,
          -0.01810154181911645,
          0.004880837532069685,
          -0.16900046161417834,
          -0.01697733432021845,
          0.06376570251267542,
          -0.059792021601774124,
          -0.11157435042868664,
          -0.10782779486338415,
          0.13183129352332082,
          -0.04208773901479846,
          -0.01307618037172085,
          -0.07735454359863336,
          -0.13284809168158904,
          0.05353800034450937,
          0.05450635963096118,
          0.11799818780075602,
          0.055817051872040814,
          -0.06844986833408742,
          -0.0823021823802862,
          -0.11652724572073654,
          0.033523507868575574,
          0.011574106610151656,
          -0.0624455740131773,
          0.016132472755954058,
          0.041944270175360586,
          0.06922163381698242,
          0.012947286549677476
        ],
        [
          -1.1651979457233654,
          -0.09368304312158025,
          0.08354351627477076,
          -0.4190232040503793,
          -0.05377211852781277,
          0.08940642752631033,
          -1.6326893591570635,
          -0.010850074017740956,
          -0.02549791449570078,
          -0.16470046754554804,
          -0.008390393087050795,
          0.005254772608463872,
          0.6660980291782326,
          0.11868439254910153,
          0.1308696899574191,
          0.30547163852808146,
          -0.1290710457845642,
          0.01084050126127741,
          0.7759441265328119,
          0.07875476908112895,
          0.11800058498511908,
          0.23383925202699818,
          -0.14136436854775067,
          0.04013973147269184,
          -0.6154033443798587,
          0.07203341172466649,
          -0.1330382644091227,
          0.34969841791456957,
          0.11410609384529491,
          -0.15532620956066254,
          0.15696141224077464,
          0.05249172315652834,
          0.10071434902378687,
          -0.19907491426032203,
          -0.02588276228745658,
          -0.03517443743788169,
          -0.02601362834848368,
          0.02823341849268111,
          0.03072314306892862,
          0.08436200639930491,
          0.03796733568822694,
          0.12910761506850402,
          1.4383686758199077,
          -0.08008587223348997,
          -0.022892998649503827,
          0.32875827531273494,
          -0.13340360926413394,
          0.05605942857043251,
          0.460836106406853,
          0.06913890211814323,
          -0.06711290273665417,
          0.49324379405297764,
          0.1444285044113735,
          -0.15246962595084243,
          0.09725817689495941,
          -0.09786158043513066,
          -0.010305288154558327,
          0.1353620423882656,
          0.026149624849695515,
          0.09646401630830838,
          0.12067139173731134,
          0.001686814434058247,
          -0.02231318233493846,
          -0.04671267650607422,
          0.13894753461619413,
          0.08479740158962969,
          -0.010142763470736837,
          -0.02650395351224822,
          0.0030879572263440213,
          -0.14713492190825112,
          -0.022052013605210773,
          0.019323704675296455,
          0.03716377093000507,
          0.11975838334264138,
          0.08083450249004155,
          0.10686244614858659,
          0.03247576262550032,
          0.08801581741360019,
          -0.07136702361506213,
          -0.006111689532122049,
          -0.11238626665119486,
          0.03088839006087889,
          -0.06237405760819758,
          -0.03059643459248759,
          0.04018452812866179,
          0.05160085889238618,
          -0.08868852078296326,
          0.0038057613337528703,
          -0.12175228377597569,
          0.14431385649311,
          -0.0038615705620088057,
          0.11932298185688847,
          -0.1251283372176556,
          -0.14331256468690876,
          0.08320300161128424,
          -0.13183590705177858,
          -0.056173745660455035,
          0.0013639702487993257,
          0.0241823305187262,
          0.09412960249324627,
          0.09131048177182652,
          0.08780597036408273,
          0.09596257771414428,
          -0.04165768521143663,
          -0.025634445775709256,
          0.050396516462545345,
          -0.016187097264466356,
          -0.0141316479226247,
          -0.014169395852499315,
          0.03272530063704195,
          -0.05389663458610559,
          0.12354154038961379,
          -0.0476704797706623,
          -0.10691660116159081,
          0.09025101829276552,
          -0.140293948976722,
          -0.08926407311647284,
          0.04866968189763794,
          0.14092462039668274,
          0.04059278687845826,
          -0.14229308991056747,
          0.03906844261985102,
          -0.10780683076637353,
          0.11641792058101193,
          -0.10833758418096531,
          0.013310380926853885,
          0.013131758189725494,
          -0.14326113879079627,
          0.011013237260330074,
          0.041715540605911886,
          0.024676248283948325,
          0.15595813093874253,
          0.1468538326057472,
          0.12080063987028329,
          -0.07966522527940864,
          -0.03845255863564367,
          -0.1078021726961306,
          -0.021827753698199292,
          0.07588391785325913,
          -0.1119927723115721,
          -0.10315532137678421,
          0.14251848822809923,
          0.12143551501468967,
          -0.00744192273778404,
          0.06319443377123085,
          -0.0287231894887627,
          -0.14514737314146187,
          0.13293686970443744,
          -0.03904208943347964,
          -0.002085672021148021,
          -0.029391263834160755,
          -0.07509921951373158,
          -0.07423671498039185,
          -0.0568776568392909,
          0.0860017309517318,
          -0.030628511511987856,
          0.12107746541606289,
          0.1403563490150594,
          -0.10194048668651284,
          -0.09364625373234818,
          0.018460654455554795,
          0.02202361617823893,
          -0.0393395184977202,
          -0.09572936739200272,
          -0.011604163193561116,
          0.012762058578061966,
          0.04270115469500713,
          0.04261507121459973,
          0.13473359646748284,
          -0.12404355895382259,
          0.09740933482405058,
          -0.022825481433315673,
          -0.10906528353730813,
          -0.11184155731186293,
          0.053357245591725215,
          0.014836917881627422,
          -0.1574046137154348,
          0.1430436907463179,
          -0.09244219406919697,
          -0.0189503782844533,
          -0.12251650933616552,
          0.021240330366770956,
          0.016545000969075158,
          0.06966715636887502,
          0.12575805913042343,
          0.07153701464564116,
          -0.09292243596610343,
          -0.10944226052319726,
          -0.13461970899354253,
          0.0038952158948769773,
          0.09705743062414206,
          -0.11481253182211744,
          -0.03377343100592862,
          -0.0965380564237065,
          -0.04918545955198366,
          -0.03794311036724587,
          0.07885862501349383,
          0.048932482857928665,
          0.12290145729164732,
          -0.13980014140944835,
          -0.04784545106249851,
          0.12798169575242843,
          0.14874299336544297,
          0.08581969483392075,
          0.11065743099278312,
          0.054455510167514556,
          -0.07372766679124028,
          0.010565587836370832,
          -0.031182408821469994,
          -0.03321736802328357,
          -0.14564761265118448,
          -0.010810184746587757,
          0.05591815673917144,
          -0.11133183383931743,
          0.07584491685516856,
          -0.037872262629144976,
          -0.043882565778848116,
          0.0017344310159997651
        ],
        [
          0.08295301554188626,
          0.14332630066889696,
          -0.03467107218204205,
          -0.091773030638129,
          0.08854668141074647,
          0.1050237546861055,
          -0.06528536013841656,
          -0.10092823780101658,
          0.1123999747564655,
          -0.11983983312460197,
          -0.0865498791113489,
          0.08964906252296026,
          0.09895342102753485,
          0.1279227696880559,
          -0.01635680698062295,
          0.10229712268633011,
          0.027733255996675803,
          -0.03398806767515489,
          0.01752482965833309,
          -0.12132577488655158,
          0.06721333993030267,
          -0.14594987920860122,
          -0.0631958698158853,
          0.051634928151311814,
          0.08826639052570694,
          -0.11787460121667245,
          0.09680767005664075,
          -0.016397303524017918,
          0.0390968284253796,
          0.014422160092205406,
          0.11614919958280391,
          0.010890137491277992,
          -0.09512621092750628,
          0.08578576519890097,
          -0.0851230173432076,
          0.146051508012274,
          -0.03991335608725658,
          -0.13486501465026088,
          0.08708424924886389,
          -0.08418112645144399,
          -0.0785936038895831,
          -0.03277862074439032,
          -0.12368165053303133,
          -0.02035769790652442,
          0.027152150425698476,
          0.02021862127586044,
          0.12252701999473145,
          0.11399395833524817,
          0.08149649944642502,
          0.00973126635974297,
          -0.08750845443242106,
          -0.03960727311256994,
          -0.1458137263120232,
          0.1342496603735537,
          0.0910268781050123,
          -0.10831915238334917,
          0.04488606548903656,
          0.03559647179898836,
          0.08070176813268277,
          0.13179740901543635,
          0.03989700044665922,
          0.012463329409331142,
          -0.012544238275081868,
          0.08312048389440896,
          0.11330058200028228,
          -0.013297450888904513,
          0.06782483083313409,
          -0.0015329591867666475,
          0.09756005906539371,
          0.12121698374391277,
          0.027000737898235604,
          0.10251684259531935,
          0.056564656418027735,
          -0.14578700608664058,
          0.04930622039415319,
          0.08273483603996477,
          -0.04922064443300763,
          -0.033124300389783264,
          0.06373892381006097,
          -0.0759517388744958,
          0.12015533479516821,
          0.1258117826909021,
          -0.14772989683714977,
          -0.06260275230795798,
          -0.03812976382239165,
          -0.07171266431657128,
          -0.043286630692839806,
          -0.008456269895916082,
          0.01280802851163027,
          0.014087460285462495,
          -0.011402259355958861,
          -0.12299513487516425,
          0.05923883291291788,
          0.12130232649941523,
          0.11135126176167096,
          -0.0891020055439788,
          -0.10178794060460099,
          0.14611917315511697,
          0.052468389923082316,
          0.033557508845038476,
          -0.07749976986360711,
          -0.06361602401006458,
          0.09709099957428344,
          0.029865061639377747,
          0.03751702522676196,
          0.07972650625192168,
          0.1122108613128178,
          -0.0011924975531446746,
          0.04959562717700223,
          0.08072236038980511,
          -0.03477113430395531,
          0.026853465978153516,
          -0.09468238366206923,
          -0.1486727982393584,
          0.044727584501371424,
          -0.04689628179975,
          -0.07983637096426588,
          0.10552339394178933,
          -0.03497212660678958,
          -0.02562724443197603,
          -0.0006527084379725958,
          -0.09835562989104607,
          0.1481985664686435,
          -0.10671148011620205,
          -0.03688757521700509,
          0.08753874247690271,
          -0.1451473051123874,
          -0.07340853845176745,
          0.06613742098339016,
          0.13496240541715507,
          -0.10050432405350063,
          0.030329843894709663,
          -0.035648820074725855,
          -0.07722807463747892,
          0.151038363992183,
          0.142524530578253,
          0.031116643660129586,
          -0.06725444050755888,
          0.14821215943191451,
          0.14750296814690142,
          -0.11717478928651391,
          0.06691469936859433,
          0.010489594585051134,
          -0.03147101909231356,
          0.07448498615909974,
          0.0054876783778644205,
          0.0461606083238597,
          -0.006077124530204394,
          0.04501873890629019,
          0.10125453481928864,
          0.04653117265886696,
          0.13727592413003334,
          0.05463460390802008,
          -0.1284377110402076,
          -0.11126921697708125,
          0.012025802246892148,
          -0.06536409260753206,
          0.10683273256403372,
          -0.1137602862808494,
          -0.12129065329295174,
          0.056606274677725554,
          0.053082540534853194,
          0.0856477314604644,
          -0.032475900078105045,
          -0.14307596435279096,
          0.08096304750287028,
          -0.021812021698509952,
          0.005711067512060595,
          -0.07001638185846162,
          -0.046364786823647426,
          -0.04876397665466327,
          0.11952569972636568,
          -0.05252118870326561,
          0.014365387726466089,
          0.028247853221377295,
          0.027880826454067156,
          0.1454865136562474,
          -0.09139780077000587,
          0.041378183932932126,
          -0.12345307974555665,
          -0.13163559412444212,
          0.030382634721472714,
          0.08144224036147775,
          -0.06806944068667597,
          0.09407679774768098,
          -0.09153983209628452,
          0.03681853867727429,
          -0.091533697736883,
          -0.052281501732794104,
          0.11427331398328411,
          0.07407726245060996,
          -0.09042915954348309,
          -0.13041321067162603,
          -0.0381852035641667,
          0.13707117056955806,
          -0.07837048375142106,
          -0.13414566784179424,
          -0.09303050145643284,
          -0.12305669733026121,
          0.03924584313866914,
          -0.07177327221921552,
          0.07128693179227963,
          -0.03538201179925167,
          -0.14875890807383677,
          -0.09884136386968959,
          -0.12207582360140246,
          -0.05496314592117685,
          -0.0025459871733534175,
          -0.09626260839195896,
          0.12245133070303066,
          0.05082524824222574,
          -0.09195314762729602,
          -0.09391183472253008,
          -0.11360048289504604,
          -0.1399461979100227,
          0.02637932524569515,
          -0.10112997971370731,
          -0.01861874676914539
        ],
        [
          0.08216975026518095,
          0.017684100257400588,
          0.1266310692135774,
          -1.1079780994309898,
          0.13103771892495256,
          0.10848719469072346,
          1.919201653397429,
          0.08621649873414225,
          -0.05525690203904939,
          -0.28483405225615244,
          -0.10789089607660217,
          0.04308301205204579,
          -2.429374156026189,
          0.07335773563259262,
          -0.10665699394089469,
          -0.9608856535760387,
          0.07978375819583787,
          0.02655701296415493,
          -0.16098620106444986,
          0.09294593470355542,
          -0.061697637031314735,
          -0.44952191582532647,
          -0.13270518115279573,
          0.10703576050574026,
          1.2278419139404728,
          0.1499807142644123,
          -0.1065436801296586,
          0.3335376100690649,
          0.13867589060599805,
          -0.0730433340804855,
          0.09400759412171647,
          0.02341652860201394,
          0.017086938087922325,
          -0.5571825507338478,
          0.0731805524828735,
          0.06644253033661976,
          -1.9461621663014086,
          0.06278693646812974,
          -0.06020564369007085,
          1.2861901246053131,
          0.017245638978233467,
          -0.08359087799730858,
          -0.2860341852196894,
          0.04314627151704353,
          0.0686212259172039,
          -0.47357562945242987,
          -0.015819672081176878,
          -0.10271373051227099,
          -0.12188444167880776,
          0.05942943848779531,
          -0.05506960703369912,
          -1.676306970447029,
          -0.023895433750870165,
          -0.027629671795620574,
          0.022493024660609755,
          0.010177811319261485,
          0.1456211252793876,
          -0.13454872338533957,
          0.021741614141116212,
          -0.08113145590437604,
          -0.12962541752885237,
          -0.055573644647333706,
          -0.07537141448622645,
          0.12095998390231558,
          0.1441950364771852,
          0.06973574294388504,
          -0.15640728466769646,
          -0.14656111363712782,
          0.028633194063421977,
          -0.0898313147949993,
          -0.028038475826992447,
          0.07940103709169927,
          -0.0027507316029135973,
          0.10072125204696669,
          0.020286916232610815,
          0.049107407373938934,
          -0.1068157796830595,
          -0.09468147266922364,
          0.10748362606077402,
          -0.10455725132223143,
          0.054351764890865205,
          -0.02430413703282737,
          0.08113615904692247,
          0.0698145778796632,
          -0.05696441244002945,
          0.06909875800165281,
          -0.09364924847485663,
          0.013716648041667232,
          -0.06085011894225908,
          0.08607990802293686,
          -0.098793939174719,
          0.09218583013930892,
          0.1153519621258684,
          0.12686372114600544,
          0.028816129301385718,
          -0.011953305177735369,
          -0.010228681513323908,
          -0.011810705597339979,
          0.08697207161114562,
          0.06469139523933654,
          0.1051166155307141,
          0.1165451384563305,
          0.07372453214331565,
          -0.08934496699674951,
          0.11444048617458025,
          0.10818880593114315,
          0.13373239904951137,
          0.074958696319593,
          -0.007623553471950323,
          0.061323057733524776,
          -0.02326820783546081,
          -0.06995496713825772,
          0.13855766984219975,
          0.09995631426417698,
          -0.06545175302066583,
          -0.07519376003132473,
          -0.13245385644879062,
          -0.022377597849774375,
          -0.05642329128310847,
          -0.05865780635081553,
          0.008887555942853889,
          0.026772111890863745,
          -0.15614151228559742,
          -0.11694650943631286,
          0.08514608250655606,
          -0.05385661422618974,
          -0.11896294115012848,
          -0.06723547811931364,
          -0.13524669020018137,
          0.04624205928521772,
          -0.11664410028903752,
          0.09430644990564413,
          -0.13258085357656363,
          0.09263480823528922,
          0.003592706411916682,
          -0.03399814616061982,
          -0.10281574463504684,
          -0.03025833082587851,
          0.08390563375764751,
          0.06025387938859544,
          -0.001110517868913365,
          0.10582595980360165,
          0.010266776552711005,
          -0.08042320765502521,
          -0.15514943250056287,
          0.11687429249251241,
          -0.08194835234948221,
          0.04391686011242013,
          -0.06540430027743498,
          -0.10074451820691749,
          0.04108572353714391,
          -0.09839038857049058,
          -0.10426201107013083,
          0.10464544712565511,
          0.15251289063320686,
          -0.08229615740925127,
          0.037541168956415086,
          0.01973882809350327,
          0.052426426756901394,
          0.0697893636346283,
          0.09397475797352536,
          0.04326265782014719,
          -0.09774605736730686,
          0.11627175267470946,
          -0.08507446438057142,
          -0.146417712009166,
          0.009599622569018853,
          -0.09093679396067661,
          -0.08528642091958204,
          0.009791282178155794,
          -0.049282177255532925,
          -0.1459063923243588,
          -0.05531317915963228,
          -0.134745544441746,
          -0.11885016809720837,
          0.12136197791926252,
          0.03237217893109579,
          0.1460413480361469,
          0.05088454287764548,
          0.01762567250488326,
          0.04842242985978259,
          0.07976008585522153,
          -0.025886112051054722,
          0.0030349316462158936,
          0.04029542613193013,
          -0.10658812983975922,
          -0.038952635800438576,
          -0.004567682969731535,
          -0.005009731089464653,
          0.01834824707094676,
          0.008216910337084644,
          -0.04988566153267791,
          -0.1563793181055969,
          -0.07532224937936687,
          0.10023646448152342,
          0.11579407241326167,
          -0.05135298348438598,
          -0.16277247574983672,
          -0.017145430222368842,
          -0.09750714775460341,
          -0.02544963890794735,
          0.10228458965713333,
          0.07746143796820285,
          -0.12911318966289628,
          0.09998700515523315,
          -0.021941029117553683,
          0.07159075463689527,
          -0.09225869640340123,
          0.12872908168064115,
          -0.08508949088149254,
          -0.07220136758965413,
          -0.040140483129694995,
          -0.010962573479593233,
          -0.005101022266148965,
          0.04827690093333817,
