{
  "layers": [
    {
      "activation": 2,
      "biases": [
        -0.17022923067641083,
        1.2086666084504978e-07,
        0.514559128222315,
        -5.975846152186004e-07,
        0.5185758907084949,
        0.0
      ],
      "cols": 6,
      "rows": 2,
      "weights": [
        [
          0.09815779158485922,
          -0.15103272218448377,
          1.8208772614001907,
          1.0601404646836758,
          -0.4887711282039408,
          -0.54702294015998
        ],
        [
          0.0705905827886123,
          1.3758959445207484,
          -0.46737891042628404,
          -0.5942173287408461,
          1.554827674877955,
          -0.08886869318483395
        ]
      ]
    },
    {
      "activation": 2,
      "biases": [
        0.1887467680252123,
        -0.22197218038167557,
        -0.27746370931163833,
        -0.013941593644737125,
        0.4648124124104093,
        0.7253534549732232
      ],
      "cols": 6,
      "rows": 6,
      "weights": [
        [
          -0.45214302501559656,
          -0.6742610395330347,
          -0.35773035213609683,
          0.4560525125640209,
          -0.4009271923349603,
          -0.4508917881557754
        ],
        [
          0.7883310810047877,
          0.4134616160076138,
          1.0177648505929129,
          -0.10798915217673034,
          -0.20692576392404108,
          -0.5242245114913678
        ],
        [
          -1.5164519442522617,
          0.843823507454625,
          0.7063498002065745,
          -0.537680109625689,
          0.08606386656695755,
          0.8776381094424334
        ],
        [
          -0.3937209476179735,
          0.2797445717983603,
          0.9406260550424952,
          0.03506108512343796,
          -0.46626043673887574,
          0.3221644090146526
        ],
        [
          1.1433616913758051,
          0.7312616430034212,
          -0.16583063796088124,
          -0.4553978399591758,
          1.0683338008063874,
          -0.3331385162630691
        ],
        [
          0.6094156658441248,
          -0.44455529975689606,
          0.04529679829329766,
          -0.1476966306763571,
          -0.0798799490203839,
          -0.17260546820727724
        ]
      ]
    },
    {
      "activation": 0,
      "biases": [
        -0.005068547535508518,
        0.05597104179904881,
        0.18670453428811495,
        -0.41923613837600743,
        -0.062272153972284576,
        0.036920952994400486,
        -0.3057959083449913,
        -0.33687093211518737,
        -0.03404507377056451,
        -0.07101310161106567,
        0.003774688931372339,
        -0.6012404095072508,
        0.05300878661065161,
        0.07233387169270192,
        -0.1572722278841545,
        0.10475339122775414,
        -0.07393780306415469,
        -0.08433847169118545,
        -0.07018856810027338,
        -0.6234419219369001,
        -0.13617334332390862,
        0.045743539060221834,
        -0.19312756553250657,
        0.5350453152969844,
        0.003168164990612728,
        0.0012161598942311042,
        0.056046210569038774,
        -0.09138076492538409,
        -0.1656908967105639,
        0.11693899689243575,
        -0.036010809506128796,
        0.18796100908411145,
        -0.0594854629250744,
        -0.09019823738832193,
        -0.08856204999970559,
        -0.007066319954157361,
        0.07344638703391784,
        -0.16701641879680626,
        0.24621677205856868,
        0.23982574240322682,
        -0.025375833534388003,
        -0.10388609026310297,
        0.24956877496669724,
        0.25506292666380226,
        0.16895248148381473,
        0.0638771928902026,
        0.1331526725830028,
        -0.0584291097804479,
        0.06709512443553817,
        -0.04251439882893249,
        -0.09414527236005474,
        0.4247853865419363,
        -0.014751822891426963,
        -0.029098090278471992,
        -0.19466183494692538,
        0.39290977705536356,
        0.024606803224773294,
        -0.1276594676786503,
        -0.10276519192459778,
        0.13879704261553,
        -0.08042217711030533,
        -0.19403339300919958,
        -0.0022246101126075285,
        -0.2870937930648194,
        0.07575704984416262,
        -0.037865745316001696,
        -0.06758781463218218,
        0.011968085744900546,
        0.03844602818663498,
        0.06092363079898838,
        -0.11188361777657006,
        -0.26690540468215385,
        -0.12104193207536038,
        -0.5929077036143366,
        -0.45994277894073216,
        0.1403452715976288,
        0.038891825666091034,
        -0.007073148631684091,
        0.5675864742423975,
        -0.20885231455026507,
        -0.16513862268952895,
        -0.2241988932856369,
        0.5604042511155378,
        0.10200209349683396,
        -0.08525130506518372,
        0.583485624611867,
        0.006564377232822253,
        0.009389081326423602,
        0.07327383902899051,
        0.28112588089396023,
        0.1811916533787719,
        0.1595089432395996,
        -0.15116403314328677,
        0.11292363534256597,
        -0.32046006258470033,
        0.14360163151910108,
        -0.10209965517657507,
        0.7167299659489939,
        0.4881531456392602,
        0.07796966420394442,
        -0.01652879824231256,
        -0.003916876385877265,
        -0.46976977382169266,
        -0.06166760681345736,
        -0.06940102372542051,
        0.10848733006643106,
        0.5894917006397052,
        -0.07041374097242531,
        -0.03469631924187966,
        0.10340890036369443,
        -0.2537103855713984,
        0.020607420358776326,
        0.21306617079349904,
        0.0683570366272234,
        -0.4817907744745034,
        -0.04607781489072448,
        -0.0028035232946212827,
        0.38363508600730306,
        -0.32799076215961925,
        0.09722080856242299,
        -0.005050691359496922,
        0.26303387471245426,
        -0.28484953165858307,
        0.05896582650224904,
        0.023853659617881075,
        0.055154410035289404,
        -0.3681906757113612,
        0.0941409947846268,
        -0.1613091853859321,
        -0.1078168606180426,
        -0.08445009968614274,
        0.22971905486591002,
        0.017521167246260457,
        -0.441130655622256,
        -0.5029986138839728,
        0.033003298281489596,
        0.11362343786367586,
        -0.04036311800912029,
        -0.15256736289209713,
        0.016903011378063014,
        0.05986957694020116,
        -0.6026709212656799,
        0.5016989652202453,
        0.029297664493809026,
        -0.024246037993799985,
        0.2509133114830935,
        0.3840385563346682,
        0.09493015315622393,
        0.007114504751261045,
        -0.2436011046900718,
        0.558389174720485,
        0.1888203421799428,
        -0.20763594603291927,
        0.5009062528526166,
        0.6233819916963723,
        0.12566365515225475,
        0.0811545094670287,
        -0.22037610252411996,
        0.779307807479244,
        -0.0004368654477289147,
        -0.001213076438332152,
        0.49905701857636936,
        -0.010013193153850105,
        0.020779925790334094,
        0.1701843906860635,
        0.5111473189530454,
        -0.5812146227020559,
        -0.018272115056222626,
        0.041122512030067115,
        -0.3841117051733989,
        0.7312470152986807,
        -0.19909909665988984,
        0.03095830907387108,
        -0.13042134211153475,
        0.42684084052458954,
        -0.004944532160986346,
        0.01510417523923809,
        0.2047084955299368,
        -0.4799516237220496,
        -0.025863289718517233,
        0.14256957861446012,
        -0.7180640685712238,
        0.30452359266553514,
        0.23826491170022063,
        -0.02389483311006457,
        -0.5718857986897333,
        -0.02771282787054439,
        -0.026795772459913488,
        -0.11320891502682155,
        0.5098862040923818,
        -0.13568875615902357,
        -0.03456034455218623,
        -0.03122794904466474,
        0.4330348761684509,
        -0.08923215089360634,
        -0.01665575201417377,
        0.05888927176117862,
        -0.013461112589083604,
        0.09028716402183752,
        -0.003532783479184948,
        -0.05656310111794723,
        0.40340315972887475,
        0.3990535966268259,
        -0.1722699748073401,
        -0.1314473422091626,
        0.08224319412405354,
        -0.3269088317778632,
        0.04376898255913817,
        0.07160687388972892,
        0.5426720069852337,
        -0.4332635987371481,
        0.13716155692653637,
        -0.15717043519841234,
        0.11801553756500414,
        0.6510396531874891,
        -0.16827467188273834,
        4.485227267154864,
        3.1595301754601905
      ],
      "cols": 218,
      "rows": 6,
      "weights": [
        [
          -0.0006592086437430487,
          -0.031121647569806444,
          -0.004117152460004289,
          0.33457987733970396,
          -0.027240762089035957,
          -0.023442677428384403,
          0.11598778553360485,
          -0.0648463611127009,
          0.026161881359432673,
          -0.008444185833817177,
          -0.02588564606062691,
          -0.07312916745081688,
          0.02936571844077123,
          0.06572730655821594,
          0.11956637364849709,
          0.03249013099960722,
          -0.046680004620521715,
          0.05670162273230675,
          0.004023444172775142,
          -0.0013372191006603155,
          -0.014296371630013231,
          0.01421107466888189,
          0.07928595376639398,
          -0.3748114533157305,
          0.028703637693792697,
          -0.04067779330956546,
          0.0038450716356383053,
          0.24036906833332253,
          -0.02369718144374899,
          -0.029524703939564245,
          -0.04224459075948448,
          0.1235401711033013,
          -0.051608637125613435,
          -0.014186659373290922,
          -0.04945821485312061,
          -0.03695297049481036,
          -0.006155204417532568,
          -0.015703974545863947,
          -0.049743918865305194,
          0.10921225759491227,
          -0.0057340876118221204,
          0.005743328322159127,
          -0.0869827164659252,
          0.11978166079012656,
          0.047035643266016364,
          -0.012985465594400841,
          -0.05296655396259032,
          -0.0539358918420201,
          0.02536639066221658,
          0.07093676626554817,
          0.0381205065804366,
          -0.12545864084181865,
          -0.024035594920989282,
          0.033317297718437736,
          0.09317090096941189,
          -0.2409994934087074,
          0.004717330030100675,
          0.05212375272478464,
          0.08099548432337729,
          -0.12749558558152987,
          -0.06153893882646519,
          0.02205704715837818,
          -0.08769530513783229,
          0.23125464439483231,
          -0.030352709539672715,
          -0.005381179641491259,
          0.014894098155792606,
          -0.20321180360830735,
          0.05588783690029848,
          -0.028026332875322815,
          -0.012192778846078492,
          0.03713010688325619,
          0.01018656062960329,
          0.35947838051908976,
          -0.06026572281217817,
          -0.019187692075803533,
          -0.06740853099686231,
          -0.1696078789376038,
          0.03398611433375232,
          -0.03617255015033666,
          -0.26385229190072823,
          -0.11935813315661868,
          -0.0746474499386719,
          0.004151042474954818,
          -0.39436377230399544,
          -0.35180701517406654,
          0.18416940036175763,
          -0.06270817430399768,
          0.1678040003746611,
          -0.17117437237260882,
          -0.1719970334116072,
          -0.025542981411129605,
          0.01990077165914927,
          0.15467717087617008,
          -0.17714799643444398,
          0.02711685716704551,
          -0.0392694047314879,
          0.06345504496929619,
          -0.12288196172624102,
          0.008215274949141938,
          0.3909558622732366,
          0.04471344729403162,
          0.08473748588236203,
          0.010512276730739943,
          -0.23995710858463282,
          -0.14672052728249907,
          -0.16713578596419779,
          0.04906011793189248,
          -0.4199684375784088,
          -0.16955658162190218,
          -0.18733169151262424,
          -0.02708081637494581,
          0.3781279612310529,
          -0.0444831114106625,
          -0.12451058059400334,
          0.025996338152268404,
          0.2462367466303711,
          -0.06497025264936886,
          0.28777938322021657,
          0.03249171645512101,
          -0.12865568678825787,
          -0.04885437491808405,
          0.3196698678404016,
          -0.049412991210217375,
          -0.029136362320366226,
          -0.24525546003346224,
          -0.09897294579865595,
          -0.05384736290718525,
          -0.25505365369965666,
          0.28038685558982746,
          -0.13916538578286552,
          0.02488590100427948,
          0.15500038823844814,
          0.3530320641321135,
          0.051147554916259184,
          -0.02896641888768799,
          0.1960734799414696,
          0.06470708668339924,
          0.262393559027032,
          0.030948841966255383,
          0.6764175978458583,
          0.39262355840216123,
          -0.20281671864883957,
          0.01153851142448055,
          -0.047151840423767334,
          -0.0014413905273576958,
          -0.06077181173931926,
          0.035050365001504685,
          0.2138775982802589,
          0.31289094264644085,
          -0.04359044307415396,
          -0.02730286450807151,
          -0.5324364661715163,
          0.144468525886491,
          -0.010872280594931283,
          -0.006757202407877788,
          0.2155287067351045,
          -0.11431143222849546,
          -0.05265888480454207,
          0.01124324997004707,
          -0.15247780970953348,
          -0.3554310551931078,
          -0.06609364299570257,
          0.004618563238908234,
          0.22157074914595215,
          0.02852241969091599,
          -0.01904607631785699,
          -0.03664693864776374,
          0.24383089351132214,
          0.3696015455610085,
          -0.13290681823963454,
          0.05644512880686463,
          0.09296062368279762,
          0.05326422471105437,
          -0.2345880721239074,
          0.028595570665507213,
          0.0017644613310008603,
          -0.03726234680520275,
          0.2607039930128461,
          0.03437129685686303,
          0.03202831338472186,
          -0.007536503070721886,
          -0.05125526595374632,
          -0.05734288362839428,
          -0.08221592985318762,
          0.00366716797234464,
          0.06607721334672964,
          0.028327362752531483,
          -0.08359413000633807,
          -0.11219618747593667,
          0.2785405723172863,
          -0.06205848340277948,
          0.09673280901071253,
          -0.20586411300164723,
          0.013615664395038904,
          0.030876747776063976,
          0.12167263204174392,
          -0.17676172037245075,
          -0.19020032680240254,
          0.019090976790304366,
          -0.1651983838456628,
          -0.2029663701289485,
          0.11252037538742804,
          0.08842087625645845,
          -0.5802572212047546,
          0.1783565504148636,
          -0.03813343009533679,
          -0.009457056973999027,
          0.27128203650722416,
          0.13402597222777837,
          -0.10792307614999797,
          -0.024970544200692706,
          -0.17655175289839223,
          0.17079031103432307,
          -0.18471935464567218,
          0.02906314019040182,
          -0.5495976442844577,
          0.21014573041220336
        ],
        [
          0.047624262071197035,
          -0.06982219083972427,
          0.020143932636416874,
          0.10665483903702722,
          0.0355343323927232,
          -0.014176611333100825,
          0.1617117497386891,
          0.05304640128465577,
          -0.10268220589502619,
          0.11079306801719542,
          0.019399654613740686,
          0.12225136330582194,
          -0.08659304936122765,
          0.05278386236555004,
          -0.01644530072211477,
          -0.04275356793917035,
          0.20325613277541438,
          0.0512691111651984,
          0.04171679087017221,
          0.10904398718540138,
          0.06031472207042109,
          -0.06718077755928091,
          0.1194502222737504,
          -0.17421433690374502,
          -0.1837327135496912,
          -0.09180132458523213,
          0.08958326683332535,
          0.01835196683014758,
          0.1250079673449012,
          -0.08704175102325315,
          -0.0299125692969806,
          0.07136934271634186,
          0.17037412679593408,
          0.11121473267511164,
          0.04761308094586034,
          -0.03457165810902878,
          0.036094866456756226,
          0.10285995848117127,
          -0.15497867420230996,
          0.013210573369970566,
          0.02530004432216376,
          -0.05665577776069143,
          -0.16117477827304005,
          -0.05147431388480464,
          -0.17060361258880957,
          0.025541275310956263,
          -0.09158829086081909,
          -0.019152419553131447,
          -0.22282667067675885,
          0.011025191466931858,
          0.046000657127104085,
          -0.061394921517962095,
          -0.040672853338203155,
          0.039148012050549394,
          0.00730248717055144,
          -0.020178920522208443,
          0.07900177231396784,
          0.13790067726097785,
          -0.025087740784505222,
          -0.07424523024434536,
          0.07503827461682222,
          0.081826609620935,
          -0.07299080649458367,
          0.04659248805584972,
          -0.028021456098602498,
          -0.03375476190265123,
          0.10883084507311716,
          -0.06960632339151858,
          -0.16371468208285084,
          0.08198091016878503,
          0.00046755441685993266,
          -0.02130161947406367,
          -0.10049192287858767,
          0.19471962601875217,
          0.06417143028849161,
          -0.07688844203099934,
          0.1790985204105547,
          -0.044457366455401146,
          0.0359255696507603,
          0.005825472122255395,
          0.0884674817713307,
          0.07140466446233339,
          -0.10964951474557975,
          0.038918972154575265,
          0.24839512982420875,
          -0.18975815924957568,
          0.024779188816287778,
          -0.006777820093697136,
          0.03209854683868623,
          0.09496717816042531,
          0.03890717192056847,
          0.012818769157496931,
          -0.10128133269739782,
          0.08197894645070883,
          -0.1135965175995053,
          -0.07398869964008667,
          0.04617875638237422,
          -0.03168118182012032,
          -0.17362862728037687,
          -0.07236090784904142,
          -0.23197267467218324,
          -0.020577845542627145,
          0.13578566587714025,
          0.0731897933197252,
          0.2824425542269928,
          -0.0905232307891081,
          -0.04107161434594894,
          -0.10554068299680613,
          0.07429190772017431,
          -0.03913641447474536,
          0.040652111082814316,
          -0.08893188341253745,
          -0.14070254584687916,
          -0.024702537225964268,
          0.13646636861019085,
          -0.016561461844402523,
          -0.008031327341321556,
          -0.055154343811239834,
          -0.03846084536252103,
          -0.13973923151992262,
          0.07270784888743555,
          -0.13714249972920295,
          -0.0449378946295734,
          -0.05603925004630337,
          0.1489331444147452,
          -0.10796660960291882,
          0.1150196884596244,
          -0.04337676693956651,
          -0.02424041313198396,
          0.05996824866710996,
          0.08837942370503361,
          0.04172897836445026,
          -0.06966394141389573,
          0.11489456727242017,
          0.007303426933399421,
          0.02987575685229304,
          -0.20957924394774705,
          0.04488125279814485,
          -0.050664216637624195,
          0.012623300036927144,
          -0.29614440543370957,
          0.16859578963004412,
          -0.11240669166847565,
          -0.07193707108466296,
          0.1738076868721907,
          -0.0032589873646412496,
          -0.03342301773594363,
          -0.04355481138905619,
          -0.15983083278476987,
          0.0475919905519826,
          -0.06732365755654769,
          -0.03564524866475053,
          0.2822485655436554,
          -0.13161104587523284,
          -0.1004689246854209,
          -0.04402117592385044,
          -0.20008647559726803,
          -0.06049310759393756,
          -0.10551024857682664,
          0.042555480308813974,
          0.08083047481650059,
          -0.12519382183839053,
          0.03422572963489727,
          0.08719951504165749,
          -0.19864132534914475,
          -0.018635766134309867,
          0.14668380184795646,
          -0.019267445449363662,
          0.05990375856466377,
          0.006275044191713913,
          -0.08741922242431628,
          0.10062970306791426,
          0.13737999260193984,
          -0.021619321180854037,
          -0.09222724396434571,
          0.00516745653710468,
          0.09102637757878397,
          -0.05877818286577571,
          0.18650546640470916,
          -0.0817215616565387,
          0.03578939238508774,
          0.23551182389501182,
          -0.15282339995036676,
          -0.009164317032147064,
          0.03421309417264949,
          0.03669422234804894,
          0.17974426199973773,
          0.04493313977886164,
          -0.01866779304022731,
          -0.0879374383565684,
          0.014865102967446295,
          0.031742022923442435,
          -0.2810539326170195,
          -0.10264730533102692,
          0.049746426792202966,
          0.06253656296427286,
          -0.08536826717194439,
          0.026253859077668883,
          -0.012805559697388955,
          0.031700331711662956,
          0.20254068688018598,
          0.004331610905327909,
          -0.079898098304235,
          0.05332895893686319,
          0.2601944093723228,
          -0.003471392997017385,
          -0.03923122318344467,
          0.06618845044581133,
          -0.04091517784762253,
          -0.22060022632408277,
          0.019988670900863977,
          0.030137822785019287,
          -0.08695180481526646,
          0.10166018356546401,
          -0.10817281001263757,
          0.06986539625430055,
          0.4600938440893862,
          0.43388001028768847
        ],
        [
          -0.02698199881665702,
          0.057824509827055254,
          -0.10614062313466047,
          0.2460877468302395,
          0.09219328465909596,
          0.0745228703196662,
          0.006156456190362134,
          0.10728288483467262,
          -0.07262174628010314,
          -0.08700790887648356,
          -0.11936360879598747,
          0.16939025714215686,
          -0.07414919880429664,
          -0.009750010366133825,
          0.11730657976774839,
          -0.05579186818495871,
          0.08060634361311003,
          -0.06814642693143165,
          -0.010229643281874565,
          0.1565855759118849,
          -0.005375580263821765,
          0.051723445792833056,
          0.06379640764771931,
          -0.1632284721970326,
          -0.02510274637402317,
          0.10290539150455282,
          -0.05972627842451287,
          0.21149037830835385,
          -0.007589305255748028,
          0.06598806037702273,
          -0.026758391281163786,
          -0.045147253554108244,
          0.12796566712264304,
          -0.11707244748291341,
          0.03294609124527846,
          -0.054711667513382745,
          0.028036694486238682,
          -0.006182688548106633,
          -0.004383482705968883,
          -0.050248852545417375,
          0.004952060104017758,
          0.08235384159301266,
          -0.013255282213005712,
          0.015098163570407132,
          -0.0757207703035217,
          -0.024363524323057523,
          -0.02434183442572351,
          0.05797033769142176,
          0.03206867133574292,
          0.10087716034018408,
          -0.0019144404923599572,
          -0.17485612893683786,
          0.13612831077229237,
          0.041431609030125126,
          0.06151829125446917,
          -0.22088908404946117,
          -0.06383135076858792,
          -0.04967503762432651,
          0.05217874505156672,
          -0.04623502525563881,
          0.22839806515066174,
          -0.03397503695564529,
          -0.0011607527721388762,
          0.13730085954919913,
          0.18355614481098478,
          0.014093598842546037,
          0.01149529363637076,
          0.008033319524979252,
          -0.15915132695427622,
          -0.08230429540937008,
          0.08903279804146835,
          0.1104103296932496,
          -0.031041368430964483,
          0.2232424479287161,
          0.15869296457857773,
          0.002553614139732967,
          -0.025592007007150384,
          0.0437563505953016,
          -0.3127199890984016,
          -0.009038551193018357,
          0.1527500447514962,
          -0.013693363070457756,
          -0.22149385462242152,
          -0.04483535498097642,
          -0.020311261754426352,
          -0.23389254863588615,
          0.05634814367570229,
          -0.06712245034874938,
          0.09078955611935317,
          -0.20921698861078653,
          -0.1828280148081542,
          -0.03432932841967793,
          0.0205715529501208,
          -0.05265118780093718,
          0.18934133881591866,
          0.05109177600326833,
          0.14671859905216786,
          -0.29794602020347416,
          -0.1705404037336094,
          -0.0021114417208987876,
          -0.05127819248750789,
          -0.0222286547062837,
          0.11312424138377729,
          -0.009111152012215669,
          -0.0667151432322341,
          -0.03147864955515239,
          -0.37911246339263116,
          0.13284586847278085,
          -0.03715635178263973,
          -0.08530791308304099,
          0.04968255863415186,
          0.03746230848045052,
          -0.06408779667914598,
          -0.011754195265252093,
          0.12058606790473009,
          -0.03380712705104945,
          -0.061287100324118986,
          -0.19170200103276736,
          0.2704030650900812,
          0.07352011862110118,
          -0.13107313590606162,
          -0.06589147283348276,
          0.2329758775455401,
          0.00741684432241546,
          0.02195362819493507,
          -0.029272827599077702,
          0.03721742414761435,
          0.021564726453459807,
          -0.023597090483820953,
          0.06851603439401463,
          -0.05836761921384939,
          -0.08051973323390942,
          0.062278747511240955,
          0.216600972605626,
          0.2091627751435409,
          -0.03466600274869031,
          -0.06957855199814562,
          0.06841070272464758,
          0.20806401885420206,
          -0.050987744945235385,
          -0.042479536638392254,
          0.3036782846736921,
          -0.11377423971723107,
          0.0659289277858092,
          0.167300363577221,
          -0.21765429240227072,
          -0.17427423782579285,
          0.0015179896010257378,
          -0.09705861835203582,
          0.11438673775868012,
          -0.24464714225967193,
          -0.00397992372729906,
          -0.08798036797026294,
          -0.07616640968574487,
          -0.13718927857023644,
          -0.039695273487774525,
          -0.0010239429586633274,
          0.19992898078551977,
          -0.2664594558556712,
          -0.057812457593768365,
          0.1190679979465117,
          -0.21349137070174162,
          -0.11667394333200092,
          -0.05334317439699195,
          -0.03247927057192898,
          -0.1939453691398704,
          0.15896136235131467,
          0.05319235815244174,
          0.09102547401807456,
          0.23845547393515437,
          -0.2080105781490457,
          -0.056335365866974935,
          0.20085499767442416,
          0.10162534589951262,
          -0.14480499468199004,
          0.04838121074783441,
          -0.06947811685541333,
          -0.08515698250910043,
          0.07222777252688366,
          0.05824229569262945,
          0.08246000040884255,
          0.1455421998794206,
          -0.028243574891845834,
          -0.02425138267826477,
          0.0015934007062297728,
          0.21288767144704748,
          -0.11224797344060232,
          -0.034759169496600434,
          0.05580631244929829,
          -0.17115053545775147,
          0.13634875721936723,
          -0.05894678713318803,
          -0.051733437730785974,
          -0.13053174509378662,
          0.012081039217158338,
          -0.07260953445916123,
          -0.025139922348222134,
          -0.03450746752279928,
          -0.06927959446082667,
          0.03098415138459304,
          0.035442302484887014,
          -0.2612815260619046,
          -0.030572646871957754,
          0.014881568554921874,
          -0.056123316132060404,
          0.03207612173982976,
          0.2520952897551537,
          -0.1158453448407683,
          0.06162784569599123,
          -0.1199432491313602,
          0.1413150988117485,
          -0.11838093058094973,
          0.1282487667739231,
          -0.10685625517732524,
          -0.24540801673760113,
          -0.011810461638687235,
          -0.7347825119023734,
          -0.15213505921573509
        ],
        [
          0.15890029912115228,
          -0.01942700491897996,
          0.037866513828337965,
          -0.10701125715387814,
          -0.13495945468257414,
          0.09811080182458119,
          -0.019588447114377468,
          -0.02004075299138977,
          0.11563656060591924,
          0.10950186927765358,
          0.045950347093069895,
          -0.09549143768885068,
          -0.013283100654719762,
          0.07014980527497056,
          0.13050953365750229,
          -0.10079410270843768,
          -0.036209119473026685,
          -0.10438555284370264,
          -0.0683912862975674,
          0.07007987203530947,
          -0.028233653897847225,
          -0.11410394707664692,
          0.09656270750093165,
          -0.1344339450019586,
          -0.1098393631434425,
          0.03222890749622135,
          -0.1195699763486325,
          0.04760885760775122,
          0.1098865199920215,
          0.04273749995028741,
          0.0036291597390654406,
          0.08881248933044397,
          -0.07117221729060497,
          -0.12393805899120183,
          -0.041541721982713456,
          -0.03311413619408003,
          0.11123550764325216,
          -0.10475109007331922,
          0.05265169898346756,
          -0.10105846010552291,
          0.12692625597242024,
          -0.12468810228395104,
          -0.0627331883168571,
          0.020316351586668155,
          0.14095928722936404,
          0.06540162418104796,
          -0.073947162678223,
          0.04472317148270503,
          -0.11591698753267822,
          0.1514660375762359,
          -0.09266657539636354,
          -0.032981148143754614,
          -0.07355172416477519,
          -0.019103544707892932,
          0.13331062142613084,
          -0.1408040558918335,
          -0.08636213838721046,
          -0.0038443798654084274,
          0.054396262299207035,
          -0.15852156557825464,
          -0.027266438055539896,
          0.007607576461514892,
          0.07931633081881273,
          -0.03372643760340166,
          -0.02557315574344803,
          0.1064459687210991,
          -0.008469816585372703,
          -0.06799277942020455,
          -0.13160996114773996,
          -0.03822110009145379,
          -0.14006174075351752,
          -0.09821125772347118,
          0.11103487288365207,
          -0.12054702015086857,
          0.09406564055962978,
          0.1014860874084109,
          -0.02971810142160634,
          0.016695797061770334,
          0.038838089491159127,
          0.06229236632374946,
          0.015710324340035567,
          -0.11551097434213092,
          0.15220975759965186,
          0.006801901084563404,
          0.04419420442395173,
          -0.11810640460927146,
          0.1315956295787652,
          0.07141209820803505,
          0.10745561830118175,
          -0.06765570786060081,
          -0.024022381483882707,
          0.0961497016781396,
          0.10885849189132372,
          0.12272717025313322,
          0.009400762385282004,
          -0.08486475045440818,
          0.12371328000862117,
          0.018387076837803135,
          0.03594989958395476,
          0.16234711224377704,
          -0.12098425424818605,
          0.0779845804486889,
          -0.0318050113043676,
          -0.13628163860577255,
          -0.053985717249271786,
          -0.03694818014262513,
          -0.08497350456353595,
          0.11691231100645792,
          0.11310282231305288,
          0.15538808173505048,
          -0.1094333440392062,
          0.13248131344664418,
          0.10704473961470949,
          -0.05028143956215608,
          0.15043917191445655,
          -0.030220737177289254,
          -0.15647475446651715,
          0.09694520502851108,
          0.1230742319357576,
          0.044161477382409664,
          0.157673281500791,
          -0.00623965805016823,
          -0.14612120084915137,
          -0.12944349017642673,
          0.1444689028544564,
          -0.02283440343809355,
          -0.14428036991036447,
          -0.1335833647747946,
          0.11289551747137733,
          -0.03691090989604167,
          0.14714928736629723,
          0.15445317135451586,
          0.09965286824803675,
          -0.044840552367082884,
          -0.0965419076974985,
          -0.07700581850601983,
          0.07926638970630473,
          -0.14603480328957122,
          0.11052580960289161,
          -0.09044860254830576,
          0.05820351978973402,
          -0.16114661981524436,
          0.06783778466903213,
          0.12431576278252623,
          0.09756420254230595,
          -0.030676603019487988,
          0.14073568982572143,
          -0.14696353679270382,
          -0.06174363404498661,
          -0.0922839830652617,
          0.15174398129490183,
          -0.06004972399836986,
          -0.15109620460797543,
          0.09482197791375953,
          0.09956538442827449,
          0.0013724737480518068,
          -0.027867252623783284,
          0.14192109715916187,
          -0.0424124238213193,
          0.014447191839566123,
          0.08982378106264026,
          -0.07484403310926094,
          -0.10633477380759754,
          0.019700264405077494,
          -0.09949078915404572,
          0.06238799812555372,
          0.11780158862160223,
          0.05134404752428386,
          0.07125892506617647,
          -0.14975065459852502,
          0.13681835284923882,
          -0.13781910143127232,
          0.06225932026765452,
          -0.1402420066811708,
          0.10063162717106025,
          -0.11471640076205857,
          -0.09270080260188374,
          0.002084698913213776,
          0.04257586766759352,
          0.12891345122008194,
          0.15848759448045627,
          -0.09084477845837163,
          -0.05426484919541522,
          0.08994488672631233,
          0.11492587989239883,
          0.020640119314695032,
          -0.11861463471527899,
          -0.10452850749029165,
          0.046526096810415356,
          -0.06828060591164013,
          0.10170095326283855,
          0.14917287514967947,
          -0.09509514919194885,
          -0.09157642537197715,
          0.05008393161994978,
          0.12009011313938582,
          -0.004483703656354156,
          -0.046059302062371306,
          0.15285160871101644,
          0.029658472768569342,
          0.05396153344416552,
          0.0929488357331198,
          0.13960354271288425,
          0.12881151432442448,
          -0.030764016043063478,
          -0.09402748667220641,
          -0.01529517758976358,
          0.013949810219868013,
          0.060091849049095,
          0.14874972667986636,
          0.03142826310514958,
          -0.00873800785496011,
          -0.032063203260350906,
          -0.03421472141070676,
          0.08652019635282444,
          0.02114241320124472,
          -0.09927243955769571,
          -0.09428730691323206
        ],
        [
          -0.025536730752936065,
          0.019408214950416402,
          0.00017758584580115306,
          -0.17433661011694104,
          0.007112211504868799,
          -0.05868841959176668,
          -0.11452371038068207,
          -0.03509283557209173,
          0.08125133429369331,
          -0.04435013454603006,
          0.07042031855798794,
          -0.12195493170764654,
          0.02796180028978511,
          -0.08854493172839294,
          -0.023044907222012995,
          0.0594655750600795,
          -0.0881714200670712,
          0.012757007543979673,
          -0.02133725025065976,
          -0.05944695419059325,
          0.03200806305098105,
          0.028101594540916226,
          -0.14255627420869568,
          0.2163678996315101,
          0.11015948140090434,
          0.03652392104195774,
          -0.08444288572479637,
          -0.1531529917424593,
          0.007748055396411992,
          0.02080553653658088,
          0.07210829467463341,
          -0.10226621870743001,
          -0.0768168943182332,
          -0.015223284997801245,
          -0.059528542755372206,
          0.07336091584873657,
          -0.059548008466151874,
          -0.06809807409047677,
          0.12397491639160174,
          -0.03830104945198341,
          -0.0026369697906423136,
          0.033842035038333294,
          0.13708546083444806,
          -0.001746589873901954,
          0.020513538650679133,
          -0.033815776180327134,
          0.09430378384709054,
          -0.022600026464981236,
          0.10013818069445668,
          -0.079290633285001,
          -0.027669687743242435,
          0.08407600810793656,
          0.028103444518913986,
          -0.07599346173482482,
          0.003838566900026955,
          0.09290194726315822,
          -0.058317563537635377,
          -0.09952093237691752,
          0.022145520201036963,
          0.09935115729369388,
          -0.011688822472642052,
          -0.014918668662978963,
          0.09426873191563043,
          -0.09120761799975068,
          -0.0262928037708284,
          0.048431263172855045,
          -0.12748722051294864,
          0.05021997839734725,
          0.08446841691780087,
          -0.05088693501464586,
          -0.03706724609724965,
          -0.009138747081622905,
          -0.1617010846131262,
          -0.26618965580709225,
          -0.05552329274621875,
          0.044035196344885036,
          0.19810718005395336,
          -0.0112712120520654,
          0.003374207395115025,
          0.059886805549709425,
          0.14414229196316988,
          -0.01545766881453899,
          0.19342406111816834,
          -0.04583844597794317,
          0.062471810345832025,
          0.22423083775781222,
          -0.08052163292928266,
          0.052154316211588364,
          -0.12714114111895025,
          -0.018405732923956006,
          0.08219928826668987,
          -0.03573830862537829,
          -0.08127558353482604,
          -0.0879282485320185,
          0.10242339293541712,
          -0.0032994241473195836,
          0.035388802918201435,
          0.08141807918347865,
          0.1701364727688068,
          0.07480817921282762,
          -0.267188772247251,
          0.009047264344018424,
          -0.14429415885617494,
          -0.07986441541579377,
          0.2984419355428953,
          0.08424242988146857,
          0.17701701503885034,
          0.05340271292752121,
          0.3014039265000169,
          0.06462140364773189,
          0.03896733841582166,
          0.08322486427694993,
          -0.19404308727610112,
          0.0375393012400219,
          -0.11972335681115778,
          0.06533466961276345,
          -0.3084176595348058,
          0.06713259417787483,
          -0.06518253793296153,
          0.07976032752987701,
          0.1005787327468285,
          0.11381334290435755,
          -0.0872111682592731,
          0.039230458604590394,
          -0.010813898433744277,
          0.09553461045126363,
          -0.023810681081684618,
          0.018337766123919592,
          0.06066177751863046,
          -0.07684773910909222,
          -0.09887241046941293,
          -0.057145183311877255,
          -0.15571917476055383,
          -0.18935251723962945,
          -0.006279641844239883,
          -0.023522654466258,
          -0.04734157581317606,
          -0.0688486769168737,
          -0.03763263545550723,
          0.013322268684108685,
          -0.3723678353379489,
          -0.22589902003182058,
          0.041048678907701176,
          0.033702125624260844,
          -0.14327076129219699,
          0.08874857468937228,
          0.06090026561220923,
          0.01751005706187012,
          -0.27149733428297806,
          -0.08864787716314289,
          0.08094770419588346,
          -0.011772359840033587,
          0.2834901755318259,
          0.047563558836604555,
          0.07115042093326968,
          0.060491778923641465,
          -0.09944787643518484,
          -0.0010420498455745398,
          0.16997000663201364,
          -0.009077389829483596,
          0.23773997094759663,
          0.2273977182837118,
          0.005588324133420683,
          -0.07251960249815367,
          0.01151210261490277,
          -0.0038199559366452304,
          -0.08594609968694743,
          -0.01702286823656253,
          -0.04337679357604763,
          -0.11214143479235315,
          0.08237067738428601,
          -0.019501818110502337,
          0.027650614245757942,
          -0.07039662912850224,
          0.11420066160099825,
          -0.04117981315873083,
          0.14159709304747356,
          0.09173466066008039,
          -0.1759362006470857,
          0.0542959362838506,
          0.21138722415444255,
          -0.20682845903190922,
          0.09638964061997099,
          -0.04901716584352418,
          -0.06036188981564677,
          -0.06652136440783288,
          -0.10431760604909238,
          -0.009491802074683918,
          -0.16965018950411634,
          0.09526401344687832,
          -0.1365616809121346,
          0.022149014181288052,
          -0.1750307099142981,
          0.10007057943900752,
          -0.0676764920885116,
          -0.006108433106520883,
          -0.17987329606368138,
          -0.012662200152530547,
          0.0016347356869063552,
          -0.05186115971480594,
          -0.07790406214807873,
          0.11256176043520988,
          -0.027272411551628514,
          -0.03174939207726037,
          0.3235160238844503,
          0.008982852918662791,
          -0.0076100695880532915,
          -0.012372628220801747,
          -0.23959131875407588,
          0.1573390315542344,
          -0.0324478361397261,
          0.01561945442711692,
          0.022017313591061453,
          -0.09187671578844862,
          0.09234764097738912,
          -0.027580410484403343,
          0.5000301056082754,
          0.16162610364569324
        ],
        [
          0.00391594923593158,
          -0.021513768283782896,
          0.006565516192028669,
          -0.08323873367614054,
          0.03368649411832101,
          -0.05925881126926761,
          -0.007159034548102803,
          0.005911338847715593,
          0.00860055917558441,
          0.02176662455874307,
          0.0708685872826137,
          -0.029134778175816802,
          -0.03132419619937534,
          -0.05072388081322921,
          -0.025000367049368716,
          0.02604379897552581,
          0.047196160757984953,
          0.03953855570618872,
          0.005139265139505682,
          0.020359498598470832,
          0.0666143498051045,
          -0.012130713530205022,
          -0.05601308516318601,
          0.08564714207844434,
          -0.011526404838410775,
          -0.01650013691704909,
          -0.027138490385929432,
          -0.11967098974610241,
          0.08360655325597763,
          -0.03031515357628179,
          0.04739852201084551,
          -0.05411767478927436,
          0.04025674370249028,
          0.04750636342892816,
          -0.02443837985688053,
          0.04411414589111217,
          -0.031780940441482095,
          -0.000692785094384615,
          0.02022161465313813,
          -0.030478385386346583,
          0.013354438578231856,
          0.0014425046507654672,
          0.02815442452503046,
          -0.03238017613456904,
          -0.08996368176688586,
          -0.017249258470129314,
          0.030350887263004587,
          -0.029561622120160183,
          -0.04166613822472404,
          -0.06149402278143341,
          0.002323558089799448,
          0.030885281284651456,
          0.008933855267642968,
          -0.04450076810564115,
          0.011524076584364626,
          0.061799276520048095,
          -0.009477076766534542,
          -0.010939575535265521,
          0.008202001006198585,
          0.044474687496139385,
          0.04814779796058839,
          0.03442178401405059,
          0.04307107743383532,
          -0.04873234200598026,
          -0.03135904825964788,
          0.02524124355975722,
          -0.05143826296824649,
          0.0045622411550121835,
          -0.030823048522812205,
          -0.0017675242252981542,
          -0.02925584299224353,
          -0.015405221942463677,
          0.35127748001286146,
          -0.06348247593592396,
          -0.0007878166696233042,
          0.003089326618518181,
          -0.35368078985463397,
          -0.012109400692088825,
          0.05747346183662471,
          0.06377118233299317,
          -0.03965679546287907,
          0.026177851590564197,
          0.019777740398778346,
          -0.016825457162741742,
          -0.12683806808435583,
          0.07754253325947993,
          -0.048360456611406165,
          0.053066415346408484,
          0.04240529885177998,
          0.0059844423785937245,
          0.03178488277226129,
          -0.033938228747965746,
          0.296635832263195,
          -0.05372275536254221,
          0.04211842345597781,
          -0.03170108571187463,
          0.037140461439960346,
          0.018558443312267126,
          0.07213575061508629,
          0.01873454751263245,
          0.4356897523340016,
          0.024937660587483753,
          -0.004135532970330252,
          -0.01116831956081233,
          -0.4127201465752229,
          0.06212174062893319,
          0.13168628609749986,
          -0.014856835101132069,
          -0.3279308051331672,
          0.07881055146049072,
          -0.009764741200957293,
          0.017313056469490738,
          0.07542633087697245,
          -0.02301086502366352,
          -0.027095206871100553,
          0.05310881424069158,
          0.3335026667353346,
          0.0682888119432085,
          -0.0589102090002265,
          0.0007498479448013324,
          -0.14405485200001752,
          0.039853283105655085,
          -0.028513491559990573,
          0.016527428380363404,
          -0.09993339830250822,
          0.06769888346566277,
          0.030818765842869664,
          -0.019526946961263246,
          0.1113298489837974,
          -0.06483950329726883,
          0.042823738727419375,
          -0.03590707719937836,
          0.18801479544212288,
          -0.11371813772655447,
          0.011136316293029538,
          0.0008012423858246366,
          0.05997376463567061,
          -0.06620176619921309,
          -0.06461302703444392,
          0.028655336063184055,
          0.5084232117084501,
          -0.1434235602899599,
          0.0026438276085340084,
          -0.01530572545710656,
          0.07317688440861371,
          0.08548947920207323,
          0.04387119393065142,
          -0.009148583062202934,
          0.3742112997285839,
          -0.022480902548706775,
          0.05096192114702437,
          -0.02699334746720743,
          -0.2584908054287058,
          -0.002072135084909858,
          -0.048811457238302644,
          0.011193915921403553,
          0.1418047429428817,
          -0.065055287177392,
          -0.01457368734854472,
          0.021940560671067692,
          -0.2979437777196974,
          0.05532864701256397,
          0.068373954279674,
          -0.013003420210357932,
          -0.06520004019827691,
          0.011392329978857366,
          -0.041411948347508554,
          -0.01725637733154463,
          -0.03047430245844864,
          -0.037326981908468504,
          -0.038425802793507324,
          0.03986583567176923,
          -0.14146022633079147,
          0.012475886337403645,
          0.016000667001644705,
          -0.039750772620138985,
          -0.2183253289059084,
          0.02461363748359805,
          -0.010484928722948398,
          0.015009655823603243,
          -0.3869167218164871,
          -0.009455724851539758,
          0.020056152089416433,
          -0.04969235779873885,
          0.06787883906743049,
          -0.017357270066658412,
          -0.038259508474471134,
          -1.0565561039864819e-05,
          0.3031394396408812,
          -0.005355612923776172,
          -0.0591760034156748,
          0.028711948997669268,
          0.38195238730818654,
          0.048032309853494756,
          -0.033328797909847135,
          0.01677443278453692,
          0.18194294409682515,
          0.02310722194057134,
          0.026142017854627345,
          -0.04392995232300694,
          0.01952907098837686,
          0.04677487935935046,
          -0.039474353859405176,
          0.015579469763667742,
          -0.3640303940298776,
          -0.07454487568781298,
          -0.07327908335082606,
          0.02871004327727394,
          0.2055952152235035,
          0.08054789617033975,
          0.021451362710176232,
          0.02052424186080518,
          0.18468425907065217,
          -0.033320262264510764,
          0.054092906723676074,
          0.020610766736817724,
          0.7080112212682103,
          0.4090093336912381
        ]
      ]
    }
  ]
}
