{
  "layers": [
    {
      "activation": 2,
      "biases": [
        0.0,
        0.010363272837122335,
        0.0,
        0.0,
        0.5361763995287857,
        0.6057281510280559
      ],
      "cols": 6,
      "rows": 2,
      "weights": [
        [
          -0.036111519176102294,
          -1.6961133880712818,
          -0.36947640586924,
          -0.1870754781198373,
          1.6596704958157418,
          1.0864694961506773
        ],
        [
          -0.7085201436443491,
          1.6857499455391407,
          -0.3878083098922952,
          -0.5053450225942271,
          -0.6189439347030048,
          1.566021238420687
        ]
      ]
    },
    {
      "activation": 2,
      "biases": [
        0.0,
        -0.006110074548304706,
        0.0,
        1.2942609207880873,
        1.7964164009978814,
        -1.1160348209317135
      ],
      "cols": 6,
      "rows": 6,
      "weights": [
        [
          -0.11126548552099944,
          0.0841376361712827,
          -0.3811895090396637,
          0.1583496035735697,
          -0.6641064398754936,
          -0.16928788165937533
        ],
        [
          -0.4486856942056096,
          -0.11231586675890588,
          -0.26464087950614334,
          -1.5210488269999132,
          -1.9053197587663366,
          -0.18302828459423698
        ],
        [
          -0.47374794033828027,
          0.36005565277905593,
          -0.11760819636649383,
          -0.28196528759396394,
          -0.3829802910966885,
          -0.3681048796433834
        ],
        [
          -0.25927710495038875,
          0.035522863118095466,
          0.4296038659255541,
          0.039058920489533425,
          -0.6638301020874697,
          0.445623215946418
        ],
        [
          -0.4783172296770773,
          0.2345894773174761,
          -0.6222748662355945,
          0.4817343767389477,
          -1.6629489375000777,
          0.3629675650723998
        ],
        [
          -0.6877906539656994,
          -0.6958120507391066,
          -0.4643830725967477,
          0.59196982244273,
          1.0963050233480052,
          1.512046326048286
        ]
      ]
    },
    {
      "activation": 0,
      "biases": [
        0.40002096535479387,
        -0.0048801917385590705,
        -0.008695892867229098,
        0.20979270499968938,
        0.06774572334647053,
        -0.0709381768675068,
        -0.001456072695240158,
        0.20365929779043765,
        0.8284878079321456,
        0.008867749282017962,
        -0.00013730321691104828,
        -0.25554670037188676,
        0.039546853801847984,
        -0.2241030142680478,
        0.009158682320003149,
        -0.09244093236583231,
        0.2344250658518231,
        -0.024860320322978396,
        0.005786451388198295,
        0.03399328631265363,
        0.48654241671976367,
        -0.09038151481646844,
        -0.016291528254429692,
        -0.13582026896341343,
        -0.2729214901790239,
        0.003360409719736283,
        -0.0008765665781864865,
        0.25996637178022763,
        -0.7381801708516246,
        0.04468019975280201,
        0.006844228401125254,
        0.157165210654978,
        -0.36494667482340465,
        0.01040264794588325,
        -0.0051219443447180464,
        -0.276107760492075,
        0.7766921944455859,
        0.08071387261468221,
        0.010347659750817254,
        -0.004237094828316379,
        0.24070406064303967,
        0.05414728326403574,
        -0.0007513286013991986,
        0.15988551820370933,
        -0.15337751852140963,
        -0.09947309960342057,
        0.0006207188635111013,
        -0.1840867907450808,
        -0.5380547122294888,
        -0.050958134821979376,
        -0.0007371654664892445,
        -0.12180415885066515,
        -0.037223517799015914,
        0.07008343356158497,
        0.0006408394443889391,
        -0.2135881646710849,
        -0.48349645724457635,
        -0.1891841082062729,
        -0.0003290185553890276,
        -0.1747367940290412,
        0.28496109050715585,
        -0.0260230772065442,
        -0.010221604456144706,
        0.12748310453299128,
        0.38908983634865374,
        0.1008261691609943,
        0.0060868756594018554,
        -0.11057050867194178,
        0.5583883188457652,
        -0.0891696664403113,
        0.01645678736284264,
        -0.2691639012164846,
        0.43157223973475695,
        0.7361634754608658,
        -0.5093986516082974,
        0.18134515126219153,
        -0.25519335472106763,
        0.29652899394213084,
        -0.21521010284424638,
        -0.052891936340743365,
        -1.1402027395191638,
        -0.3156990710154507,
        -0.3693551872857157,
        -0.0456285050628993,
        -0.0358190788085997,
        -0.31916336121568206,
        -1.2709513370616807,
        -0.0525931103933597,
        0.6985968634190934,
        1.0057580706130145,
        0.23368659536009906,
        -0.06465035778447402,
        0.16422931826684087,
        0.6687211950705626,
        0.3817246400899317,
        -0.2517286953397471,
        0.0321378205944634,
        0.10587296052085392,
        -0.5396269580576729,
        0.1583405387489724,
        -0.955014960624184,
        -0.35437549449336775,
        -0.20861248134986854,
        -0.010913362023448048,
        0.11143945688527224,
        -0.7473652585865272,
        -0.5406227261420964,
        -0.04472300046560702,
        -0.15027362053910742,
        0.18167987866581528,
        0.015754121243678768,
        0.13172236244102176,
        -0.8148458168793491,
        0.011996720424535421,
        0.5198741586104243,
        0.21442073104582585,
        0.5489683249912685,
        -0.4814525914703758,
        0.29148166823635047,
        0.17628244556522807,
        1.0230101618338436,
        -0.6488423400040901,
        0.1477332000422948,
        -0.24892848181730381,
        1.0093619223615242,
        -0.037985244056057826,
        0.42263103321281126,
        0.3239938326311444,
        0.7093196923992737,
        -0.5574063324184882,
        0.8688236317147375,
        0.2827947114811249,
        -0.09737304679309385,
        0.623508947768589,
        0.48963514539295777,
        -0.30376607847184967,
        0.6649536030491251,
        0.5352368634894092,
        -0.2640440322392126,
        -0.20326566314953687,
        -0.7477891550040443,
        0.31219230198060705,
        -0.22204827356759974,
        -0.1926873707547555,
        0.0752171275016847,
        -0.9215562516784517,
        0.0897462875031485,
        0.07329277384467596,
        0.5522782443945208,
        -0.33140343353314305,
        -0.13227123149587608,
        -0.19169522913113834,
        0.2622984126672266,
        -0.4529518841095008,
        -0.007937619199265932,
        0.17879889028631107,
        -0.9166338324631085,
        -0.8670494589646826,
        0.09550618634649466,
        -0.0030267573781315336,
        -0.8633173080212924,
        0.46996045733731134,
        -0.14589933209590505,
        0.2369116292444884,
        0.057144436607736646,
        0.5945751173294328,
        -0.3384058172673468,
        0.37154493641262915,
        0.08326728673746563,
        -0.5079155933956183,
        0.9433436160824445,
        0.31968199128287483,
        -0.0993775615616096,
        0.9366188904456604,
        0.1445375514688083,
        -0.0001516620852671506,
        -0.0740373366302285,
        -0.9478713085937615,
        -0.12226146953433774,
        -0.007455701637756397,
        0.6896532881917171,
        0.41839752835509425,
        -0.32932988655661105,
        -0.1311459757324039,
        0.6551996685219131,
        -0.09892010151640791,
        -0.5052231607836205,
        -0.06818708226507512,
        0.2961104544806913,
        0.27828414497895626,
        0.375782472758307,
        -0.11640784292968138,
        -0.13106268730071302,
        0.06089195093962373,
        -0.45056755176524743,
        0.05824778029080391,
        -0.5165960897975514,
        -1.2704867283314012,
        0.15928238901554795,
        -0.0905616245091785,
        -0.04482933827454755,
        -0.6968833331481589,
        -0.5833057691916238,
        0.06314709583944564,
        -0.1529761271371779,
        0.21785653017812015,
        -0.5191958046580132,
        0.05900439214182278,
        -0.2976066032162866,
        1.0359910846805165,
        0.9723794767266335,
        -0.2656588983751097,
        0.3887601303363,
        -0.27711982314443373,
        -0.8340817839777951,
        0.0605165404317088,
        5.4080361199431195,
        4.853372809797692
      ],
      "cols": 218,
      "rows": 6,
      "weights": [
        [
          -0.0020870518711216452,
          0.16041976679286332,
          -0.05158467039518656,
          -0.03620816814822943,
          0.015770880434068796,
          0.15796652836358344,
          -0.05762061588597256,
          -0.1581808837274084,
          -0.1348871660451751,
          0.1466312396389719,
          0.11042225762580812,
          -0.08086576536468873,
          -0.061593724026097134,
          -0.15340862759291557,
          -0.005756134092685741,
          -0.14299319159101156,
          0.13239192078401002,
          -0.027968006778179597,
          -0.07404319407446212,
          0.07219146562087099,
          0.12066921177348644,
          -0.07772186342527809,
          0.06504148116982035,
          -0.10483035635544576,
          -0.1351160708356211,
          0.10791084816414534,
          -0.02236249500955948,
          -0.04728469278863276,
          0.041759427386148885,
          0.07643095352973969,
          -0.0010233518174254295,
          0.0007761199379306943,
          -0.10975581465686331,
          0.11256793619917334,
          0.04719316144859553,
          0.11401399867191835,
          -0.1312062880787774,
          0.06167469120266032,
          0.12094379405699357,
          0.1554839801270266,
          -0.09634256848162646,
          -0.1534839048026281,
          -0.056292997397170155,
          -0.026548905115145616,
          -0.16073774235182578,
          0.0567393551004992,
          0.15584244788619478,
          -0.1598913212958726,
          0.07899975834092161,
          0.1105295589993386,
          0.07606787785769013,
          -0.05372861469470164,
          -0.06030087743838607,
          0.14113409102553454,
          0.0015479804791655011,
          0.040718983642985034,
          -0.04681029115465937,
          0.054464043748478325,
          0.03731857089501456,
          -0.07274842832327352,
          0.011622229119217878,
          0.11865783623284343,
          0.08237779990125023,
          -0.07294860693577748,
          -0.12361606039051651,
          -0.09015543372780618,
          0.058109717236074464,
          -0.017677839824393686,
          -0.06300418678607204,
          -0.0831447351840107,
          -0.0028341945135001837,
          -0.07666241232727246,
          0.0015409002581587938,
          0.08223576884792005,
          0.14634562509962004,
          -0.13815067770296371,
          0.13367815691974289,
          -0.07415676721509691,
          0.07445655378064324,
          -0.02646085741272887,
          -0.09137692602776654,
          0.026022284126678955,
          0.11416105512591997,
          0.004443939941024657,
          0.12785725422247637,
          0.16198287613634027,
          0.12121677558958008,
          -0.10536905873026435,
          0.09881758806742906,
          -0.15184420527396447,
          -0.12282517648997919,
          -0.12946183325765143,
          -0.00970461731224975,
          -0.08247507364179993,
          -0.12098928513619296,
          -0.09233542952315439,
          0.14377994359705687,
          -0.02296852891281661,
          -0.1508147134594948,
          0.11319455031470417,
          0.10795400929870826,
          -0.08882431696873347,
          -0.02881920585156828,
          -0.0025617175024854762,
          0.07003698337471283,
          0.10891476713670852,
          -0.07356754759829026,
          0.16334805663722254,
          0.10561884705562086,
          0.13568314119330807,
          0.03492343627938243,
          0.00037250786287912834,
          0.06019736881720346,
          0.14756595273210907,
          -0.12804086288329708,
          0.04750169224179496,
          -0.08328861970631767,
          0.03849055514855396,
          -0.1249393024976362,
          0.025723344425740747,
          -0.08530865670868823,
          0.08213941086737137,
          0.11829417754115275,
          -0.14017333333995774,
          -0.05796242864118041,
          -0.01857063845424763,
          0.15247103278230512,
          0.03395211610698938,
          -0.01350156465788694,
          0.03924861329042553,
          -0.1090611573478732,
          -0.03897227981406692,
          -0.10875935467754429,
          0.06570253322669516,
          -0.12173689221277972,
          -0.05729141357886158,
          -0.019681969002485214,
          -0.05390784788838024,
          -0.03333285748918995,
          -0.02833970108097127,
          -0.07052409453201619,
          0.05060900066763544,
          -0.04946211887728032,
          -0.058190093466977864,
          0.01896983116420764,
          -0.15962768987409565,
          -0.05529789932124814,
          0.12287382715457497,
          0.002475841224332166,
          -0.04363230139053633,
          0.12004337623686465,
          0.006694518761539445,
          -0.0009116640022654952,
          -0.1017084885954609,
          0.14830331954502246,
          0.054582530563406284,
          -0.10003768721718811,
          -0.11363935985319788,
          0.07975393319092464,
          -0.012113765738550233,
          -0.04457156051264004,
          -0.11864838262652112,
          0.01145189105239355,
          0.15223646210791128,
          -0.05415344578864542,
          -0.06294318006809342,
          0.02144662602576458,
          -0.06638851672765946,
          -0.024113335762943004,
          -0.1441744220025774,
          0.09188323019165624,
          -0.14568312715403525,
          0.13657662450923472,
          0.00427821954218159,
          -0.04525471244344135,
          -0.06652989479899153,
          -0.12522159207216405,
          -0.09987598851069317,
          -0.018474147103192805,
          0.04608543327583475,
          -0.13118267677406353,
          0.09169623757814194,
          0.026847658859492394,
          -0.009739731251530584,
          -0.03230031766327873,
          0.0528050071730817,
          0.09134217531353271,
          -0.047944203082456525,
          -0.01590900502716817,
          -0.035238163542508964,
          0.08308524934707243,
          0.15184295905995507,
          0.053985914751810964,
          -0.11546309894373466,
          0.029222965167658634,
          0.001042410691388445,
          0.14249459959569252,
          -0.1181464748117842,
          0.075155855126869,
          -0.09666394094927451,
          -0.058126620995081646,
          0.15719639112171147,
          -0.02722749333586186,
          -0.15542769594435293,
          -0.13047467235451235,
          0.06457622677106377,
          -0.05904496625001117,
          -0.025523496572092016,
          -0.15307514142514728,
          0.08296676192245069,
          0.0025143470423252164,
          0.06945484778949874,
          0.13365274061670473,
          -0.07625226006744651,
          -0.13542855122488356,
          0.08576172866435515,
          0.09695944746474941,
          -0.01628223773969527
        ],
        [
          -0.05310977118061399,
          -0.016122316092363337,
          0.10523152081551788,
          -0.050095131839129683,
          -0.073549128223869,
          -0.004519349903502525,
          0.1304146157624076,
          0.002443983714522322,
          0.017062365297391642,
          -0.012498765130916677,
          -0.07627254105720296,
          -0.049898106259529694,
          0.12906062866686824,
          0.014678128752136487,
          0.14539757188751573,
          -0.05294595524326204,
          -0.0568145532424696,
          -0.01695435104927435,
          0.0526652082631171,
          -0.078615967261616,
          -0.029629734998122405,
          0.09004130930479853,
          -0.11945606322259662,
          0.1165553986941419,
          0.09778171301033634,
          -0.06036959826502525,
          -0.07524663858846052,
          0.035724550971108396,
          0.06196091952263612,
          0.1445340453147849,
          0.1488482799403404,
          -0.04882555346740141,
          0.14806707645013134,
          -0.01980464183416615,
          0.06254240172311877,
          0.06198148335647692,
          0.01680664353314105,
          -0.07755252280843447,
          0.0026991656724796136,
          -0.1581994555663186,
          0.05630539527954931,
          0.05880140737904521,
          -0.14185308532906274,
          -0.06097159429775159,
          -0.09086362739047595,
          0.11526978901910438,
          -0.025314880437968056,
          0.05988125373634284,
          0.11129408994829797,
          0.09050747204189741,
          -0.06579573872391661,
          0.07791151886719348,
          -0.07296441131384826,
          -0.09690794784980421,
          0.15808791944679554,
          -0.0764546119657054,
          0.15314860043392234,
          -0.15597520361400458,
          0.055004494776247824,
          -0.11710474064784558,
          -0.07931642384934698,
          -0.12015424798349889,
          -0.06883060993559759,
          0.11908849911255795,
          -0.07170346623334822,
          -0.046453809208887906,
          -0.09325910689788003,
          0.10131254132407377,
          -0.009054979275403179,
          -0.055304112464781105,
          0.15541077178545779,
          -0.10674001249842224,
          0.03909046734072288,
          0.1626675428402385,
          0.09708029552108699,
          0.15812984534348515,
          -0.04261467493151747,
          0.10780256410894702,
          0.020808054391006667,
          0.1095387103600597,
          0.045514816031553676,
          0.04787742628717226,
          -0.08505553141273219,
          0.058780128559389015,
          -0.0038023135554059893,
          0.06890890902107093,
          0.008123862167067992,
          -0.09959082346490128,
          -0.02915888872372283,
          0.12177686655927737,
          0.12760965394102325,
          -0.12355696382270348,
          -0.09673876577310474,
          0.07058516077125764,
          -0.1126141790231249,
          -0.02503757193747563,
          -0.14451259230721217,
          -0.11372641458060881,
          0.07612393558894186,
          0.037240063734013874,
          0.010385234779762898,
          0.06740133440094355,
          0.07932354367645189,
          0.15235620517822837,
          0.04427881937721687,
          0.11882884672065291,
          -0.1363156601639858,
          0.10061978657576692,
          0.0425337370180365,
          -0.05950803492422263,
          0.06117737618336613,
          0.041529786940207675,
          -0.03007056162686001,
          -0.014463923691639706,
          -0.13616717802755693,
          0.010790077678285695,
          0.1450436707405608,
          0.11293455375501592,
          -0.05320863058826275,
          -0.06649973524456818,
          -0.09105337737797348,
          -0.14751243683081033,
          -0.012956013412392813,
          -0.12197939452446079,
          -0.04987556340368987,
          0.15308093273364076,
          -0.061145999930875244,
          0.1025413840406731,
          -0.08329934753860073,
          0.08787061948091136,
          0.039406336981105745,
          -0.026109301098289576,
          -0.1254259755213169,
          -0.13826752718549967,
          0.0881007474187033,
          0.09876159068656046,
          0.13257833571083286,
          0.011480247167200298,
          0.15820645930749372,
          -0.04481062950242865,
          -0.04798650019613317,
          -0.13697017347053259,
          0.10032951024045689,
          0.0516831463365532,
          0.0096141405286198,
          -0.0918413096779842,
          -0.11090858061983204,
          0.0354087375983665,
          0.0409558090994004,
          -0.11597779050409181,
          -0.07358830271039035,
          -0.08565452311389955,
          0.06202393731004909,
          -0.1138328991803838,
          -0.0599595532943608,
          -0.12852832907175946,
          0.1445444261842636,
          0.015362850391237725,
          0.020964738684241965,
          0.0012308254167855955,
          0.13690820286186914,
          -0.04828581654548245,
          0.003753353389400994,
          -0.07565332065409301,
          0.13896673251275438,
          0.03430426434035744,
          0.06659755730552186,
          0.06538107646910594,
          -0.04221172415478333,
          0.06105183663977689,
          -0.04655943318522128,
          -0.09158963675044358,
          -0.09976725947617207,
          -0.107867679693188,
          0.11161342126867509,
          -0.019472315487699166,
          0.11225322451624124,
          -0.08372806464767298,
          0.13817652993185678,
          0.10258463117203284,
          0.0863144083846992,
          0.0839239688879511,
          -0.15510332539301808,
          -0.03224546146182442,
          -0.16354584667085198,
          0.11070402640701182,
          0.025082951791897987,
          0.08044744462526877,
          0.043378027803184616,
          -0.11356873215664212,
          0.0375059378489154,
          -0.14272232375077654,
          -0.008718645810587027,
          0.13250319456520795,
          0.16012293291616828,
          -0.15585262748951786,
          -0.14371888306637004,
          -0.12321903967189647,
          -0.009800240793897198,
          -0.10777167827969279,
          0.13648364350169884,
          0.1448564017222749,
          -0.009564489684029733,
          0.12218721762774097,
          -0.12534920949049452,
          -0.08314189237002033,
          0.08621687273059783,
          0.15207426057368015,
          0.055023182007609084,
          0.010049441658881036,
          0.03346889936355109,
          0.08013192776946806,
          -0.14245925620113445,
          -0.0871751330746862,
          0.08315296217036447,
          -0.15000923754705991,
          -0.16287340726382518,
          -0.010330151811776309
        ],
        [
          0.010341016707498717,
          0.05873449922190945,
          0.07927891957685734,
          -0.06446849876433706,
          -0.15496042452627315,
          -0.016880475946339023,
          0.09797689615114949,
          0.1594206560175759,
          0.021725653586347288,
          0.07703487286267484,
          -0.10069518887497764,
          -0.025923145790241627,
          -0.07481100182896795,
          -0.10911579307109094,
          -0.12521037904212468,
          0.13990474007808193,
          -0.06252867992976718,
          0.14987050225239212,
          0.05236082241825047,
          0.11987263546732349,
          -0.12017274151239085,
          0.09232252459297995,
          0.12478829842907617,
          -0.10375315310959042,
          -0.10022387854070153,
          0.08129450185189926,
          0.12062530742225158,
          0.10494342832782431,
          0.15320919082527265,
          0.09125392305886539,
          -0.06598935389269282,
          -0.0037747089950194265,
          -0.10189078992047455,
          0.03469703367205512,
          0.10371286698586964,
          -0.15796604960157223,
          -0.023947838207162796,
          -0.009795174514110102,
          -0.13351989322779242,
          0.017369305068184963,
          0.03348932609033942,
          0.0755317371111301,
          0.12393279202182106,
          0.10924924420923161,
          0.16365381820144412,
          -0.10821286285547317,
          0.05770887728604603,
          -0.10607660847070718,
          -0.15057082331140198,
          0.07121076256662973,
          -0.11892682274718308,
          0.1523786681433455,
          -0.15392562441323554,
          0.04651462672850521,
          0.07175507671507653,
          0.11206245771303423,
          -0.12711418738276556,
          0.08536348265635357,
          0.08955211722955878,
          0.0361880441392985,
          0.139875210171364,
          -0.15317283204379334,
          -0.06297670438336445,
          -0.08374292049972232,
          0.10522718528276659,
          -0.07467605282572572,
          0.16235949112490314,
          0.00621415904789221,
          0.020545388167552203,
          0.11201057963461321,
          -0.07927952652697788,
          0.09868071319407812,
          0.05152724776187244,
          0.13007746282587285,
          -0.09736217837991981,
          0.12177041820470855,
          -0.03111615310057774,
          0.08164018052270405,
          0.13218861718622954,
          0.13098259266408963,
          0.02009757024771014,
          0.10415364858265443,
          -0.0888723112980156,
          0.045223742135257074,
          -0.07789759164205527,
          0.08104065266137175,
          0.04630453358120972,
          0.12661711779272122,
          -0.08278624166528194,
          -0.06504009243989868,
          0.08425676337431298,
          -0.06044013880546809,
          -0.06268260351681258,
          0.09008755149349484,
          -0.10082874122227954,
          0.13566293518056877,
          -0.07130576916099844,
          -0.14082423948326575,
          -0.10675734662398245,
          0.04481033624477498,
          0.090890856532222,
          -0.07367042442433237,
          -0.010848564341775987,
          -0.027138343764429203,
          -0.13321570284434497,
          0.12062149988483048,
          -0.09160798151288872,
          0.14634375349225442,
          -0.0071704918811337955,
          0.16194851730275936,
          0.08098682828810165,
          0.13019417223111834,
          -4.858839962233776e-05,
          0.10892658986049025,
          0.11277554072903591,
          0.009798858436124942,
          0.14156374190093524,
          -0.09124811404931155,
          -0.014680295629955941,
          0.1600260991275967,
          -0.099227101368213,
          -0.07880413749398874,
          -0.07924686248957732,
          -0.05983983129826274,
          0.015423562144367374,
          0.03381348059053392,
          0.12520278119113074,
          0.03732280826652401,
          -0.05134782571555715,
          -0.06197934099034266,
          0.12179253728398795,
          0.1264207494612602,
          -0.04069854716601114,
          -0.15258893185246541,
          -0.1235569269565613,
          0.011686391154736702,
          0.11657867722827533,
          0.16229678000806771,
          0.09748813180926369,
          0.04682619714985718,
          0.03290933510286415,
          0.020320666638296025,
          -0.14442511099801483,
          -0.08691695030298867,
          -0.10448698278425746,
          0.09910318797413106,
          0.09015538937258641,
          0.03448344347387683,
          -0.031474956038880744,
          -0.0156106152699856,
          0.16267862083411988,
          -0.012374386797474265,
          -0.09229054280287712,
          0.023946964058759682,
          0.09786783047635207,
          -0.14565513840067462,
          -0.06617305568423269,
          -0.05093495086832465,
          0.14441253819850655,
          0.06484089634886055,
          -0.08499152313678399,
          -0.09667698016449568,
          -0.08514863709875976,
          0.1594991598789965,
          0.12038459576006116,
          0.132496194113569,
          -0.14703490887281181,
          0.023624850203520894,
          -0.13982414694862969,
          -0.07659339316655503,
          0.11514936578625506,
          0.07119465323856886,
          0.09105836882097389,
          0.12700065265283655,
          -0.024927520786502757,
          0.055596377179176454,
          -0.06950139897369269,
          -0.02505188413456655,
          -0.05335088808202296,
          0.10925674527134398,
          -0.02636674904966609,
          0.06150682407215039,
          0.006364331951457964,
          0.10366740501954644,
          -0.15334203516571623,
          0.09174604117360453,
          -0.032288263865568656,
          -0.10712229817125382,
          0.08025218040443236,
          -0.11986976990673437,
          -0.06551880064562128,
          -0.0832245152868575,
          0.11281850325586228,
          -0.15611133242925598,
          -0.10167931383534794,
          -0.14563018378822287,
          -0.13850362895315088,
          0.056761664099379355,
          -0.07183649110199973,
          0.10820526820537135,
          -0.01201993752976207,
          -0.03799782276736937,
          -0.035948569240864474,
          -0.047900610284724005,
          -0.05212069453781837,
          -0.020973688571313508,
          -0.026287734264889406,
          0.14418978521792108,
          0.08921609168735349,
          -0.0067235712780570845,
          -0.16168822928904208,
          0.15467598014163636,
          0.07916114259786892,
          -0.02762425306294293,
          -0.13958634794587002,
          -0.133962865606617,
          -0.08458316825411057,
          0.10457214495861503
        ],
        [
          -0.23671949531871342,
          0.03397680571116387,
          -0.0018658387005651442,
          0.10441068236016822,
          -0.0457281467665919,
          0.015688344290792328,
          0.003984773270608436,
          0.06025539098928744,
          -0.165704998546331,
          0.016483221509514676,
          0.0005938710369008818,
          -0.11710579897537146,
          0.12132461721709079,
          0.07324574791587479,
          0.002117779992129391,
          -0.03744198008744208,
          -0.11506618903678431,
          0.0375779864843958,
          0.0009705074329009076,
          0.00273644452707888,
          -0.24434327293218672,
          0.04927759946966994,
          -0.0014212376429398787,
          -0.061688780158463435,
          0.2593036323080852,
          0.02322374444636702,
          -0.0013132254938541862,
          0.13687007946014856,
          0.205353375946969,
          -0.043763952094428356,
          0.0016648290896510874,
          0.052393267501278304,
          0.20548342460418736,
          0.026664550271246812,
          -0.000693533595776747,
          -0.11121308870047733,
          -0.050618255324712425,
          -0.03451603335359507,
          0.0015765276300082384,
          -0.00488705601153385,
          -0.1658244784792893,
          -0.0011135723832475638,
          -0.0025571650724397874,
          0.05307768799954893,
          0.04650875503640443,
          0.020049063905895597,
          -0.0011066208949586079,
          -0.08589388597978413,
          0.16271324342560672,
          0.05350178499904405,
          0.00038931105849699315,
          -0.04854601057882022,
          0.18229262380783803,
          -0.05016642607072453,
          0.00014936006899141682,
          -0.10709699374510388,
          0.10787279613672118,
          0.06692707875563578,
          0.0005438577430249548,
          -0.08094069077232949,
          -0.2807864785346172,
          0.0022951740970326615,
          -0.000972358809085928,
          0.07263671659264775,
          -0.22457845893661452,
          -0.04172802555980394,
          -0.001988754436563467,
          -0.06145974151892908,
          -0.20120577746569276,
          0.03452476764403323,
          0.0013887040512007586,
          -0.11827214228413609,
          -0.24865040270820649,
          -0.3085725206388502,
          0.42108188971338245,
          0.006197633968563898,
          -0.15227945411509,
          0.29914217695565415,
          0.21010838161054451,
          -0.005882041612147525,
          0.14827311463414722,
          0.1577721985960682,
          -0.19615146224625682,
          -0.013879735929507671,
          0.09490260737578604,
          -0.05790201999219233,
          0.07583026587043806,
          0.08070273075250023,
          0.013802682245482978,
          -0.37660946098716025,
          -0.04821754682313103,
          0.03035321584386932,
          0.050100835805227485,
          -0.07159303359025611,
          -0.014637533081517641,
          -0.1521302352817671,
          0.21080118401105713,
          -0.38131928568329027,
          0.1957363163143768,
          -0.00393034027169582,
          0.16386145358937965,
          0.17981393006873925,
          0.2477002575510259,
          -0.00825626613145525,
          0.03884608536227901,
          0.23919332495569473,
          0.05116817036034373,
          -0.026788877492084463,
          -0.1106364631640217,
          -0.13625087279403353,
          0.08122279513056344,
          -0.04860189769116303,
          0.14144800268068045,
          -0.31216804388880814,
          -0.08005019488048423,
          0.04539323166092226,
          0.11977763272107458,
          0.09532100127241594,
          -0.32242611912892366,
          -0.0008766723171152574,
          -0.04301074495629928,
          0.4824145723807645,
          -0.18581795102367632,
          -0.11465506579666418,
          -0.07287993941362497,
          0.05762136572186308,
          -0.1592498518007165,
          0.07832803158710494,
          0.06438223987696014,
          0.04585034531761158,
          -0.12085601078672095,
          0.1565798424269552,
          0.1583541458312666,
          -0.18929804544728027,
          0.149099567822707,
          -0.043745060884348125,
          -0.09163220515685673,
          -0.48125469836923385,
          0.28063069906297655,
          -0.01954240921934207,
          0.1453382796716638,
          0.41651613876447446,
          0.1391308732495866,
          -0.14434869576793574,
          -0.25346243733582263,
          0.34071308615082296,
          -0.06604276491238367,
          0.029338289517008568,
          -0.21593507834834313,
          0.13066948341859974,
          0.3108703799104132,
          -0.13691518953557497,
          -0.3352718843328559,
          0.2077602218955341,
          -0.052833810346382334,
          0.1259539221181906,
          0.3391569910773292,
          0.08188905955300177,
          0.0013068083912950287,
          -0.04002409934296936,
          0.3389448088298745,
          0.12777599530261882,
          -0.24409309037249197,
          0.11727393330144731,
          0.3914770387624429,
          -0.22391177626957295,
          0.16803358768001883,
          0.086115621765696,
          0.31893355070144896,
          0.31648440668199845,
          -0.12092351340867902,
          0.1449559116022204,
          0.43800781537264477,
          -0.31873215032942964,
          0.14016442944261268,
          -0.02453095468716313,
          0.2501150490944588,
          0.20253876301583956,
          0.24383225297530084,
          -0.11605585600005494,
          -0.33539539513505584,
          -0.3317640541817164,
          0.13621053399762473,
          -0.06776715790048493,
          -0.1497928003104318,
          0.04046153286993235,
          0.29829202212450345,
          -0.11900708819013811,
          0.22726502448223201,
          0.037015113974308865,
          0.039549724439892145,
          -0.12036087147327672,
          -0.16842700110044392,
          0.15029863014104558,
          0.07608767869330191,
          0.07657383825976495,
          0.2355836554307179,
          0.25363931390484273,
          -0.207448440234221,
          0.04777666268790866,
          -0.30507967563621896,
          -0.06624959615703108,
          0.12840436308168063,
          0.07404000358405448,
          -0.3872677779851249,
          0.3269336105773628,
          0.21467861300137248,
          0.036117403534904884,
          -0.1594984057392805,
          -0.07999060428075687,
          -0.19399740973202764,
          -0.03422561612801023,
          -0.36246076287647944,
          0.08213770241448513,
          0.11259379416556821,
          0.032730117830427896,
          0.10966934805374877,
          0.22717048677703108
        ],
        [
          -0.18421481596860637,
          -0.03840995876940157,
          0.00789241777162481,
          -0.25091920836629833,
          0.05207012541752028,
          0.026599507630443938,
          -0.003924006524179507,
          -0.1774648565471288,
          -0.0777741963441749,
          -0.02589179555247064,
          -0.0006189478285427206,
          0.29625137465806134,
          -0.1121570991264064,
          0.05504875194577968,
          -0.008504416676003686,
          0.0713946508693827,
          -0.2698736233495825,
          -0.02990164643668806,
          -0.004938926069691667,
          -0.02656140079748693,
          -0.11521364445993391,
          -0.0019462592255073434,
          0.012234349918911307,
          0.1312442094640913,
          0.19773049153268576,
          -0.030594941426873343,
          0.0021607103796737357,
          -0.3214733353577196,
          0.12593877707879908,
          0.024692823803674976,
          -0.006448871922838086,
          -0.12447674452921008,
          -0.05021919528265552,
          -0.03933267150411461,
          0.004162642885759455,
          0.28965506795653145,
          -0.0779307726396835,
          -0.00987606604506964,
          -0.008614470934401543,
          0.017138431465102463,
          -0.33404501643256446,
          -0.03359263000420626,
          0.0036147000707276024,
          -0.1144856675772869,
          -0.014355165538230078,
          0.03967896084921868,
          0.0009337930189138665,
          0.23213462737588653,
          0.05216354963995233,
          -0.03254812033795641,
          2.4596545272169464e-05,
          0.1085856091338334,
          0.06253511035630725,
          0.016120215381591158,
          -0.0006102656434677265,
          0.27965851684926724,
          0.08524442346275612,
          0.040259618325561006,
          -0.0004781535535309964,
          0.23490385632039049,
          -0.1525888606776576,
          0.014008383847514927,
          0.007786548055504611,
          -0.14743397866372637,
          -0.2650324812707609,
          -0.014039463314978193,
          -0.0014798106897810723,
          0.1250738485944333,
          -0.13655455024678706,
          0.01533403497782788,
          -0.0123440141592525,
          0.323723267831064,
          -0.08306505688112632,
          -0.47150463706814366,
          -0.12275178558408653,
          -0.1246380793015772,
          0.2593299675205904,
          -0.48534006125370904,
          0.01591741849084288,
          0.041327935722304254,
          -0.0014914785223849425,
          0.09940356973313254,
          0.366281936793504,
          0.046410345399305934,
          -0.04931359817854643,
          -0.1366230663739607,
          0.5833709317902724,
          -0.06479493817887713,
          0.1739349930316886,
          -0.39707461409452993,
          0.10960315386872953,
          0.0045887444755197595,
          0.07151146259243507,
          -0.25365858831742905,
          -0.29988728799757625,
          0.3486506721554635,
          0.19370519467695094,
          0.4887549585368906,
          0.1512248171092201,
          -0.0974049118018923,
          0.009963327650725046,
          0.35749537284925037,
          -0.18677868466766684,
          0.017171516942177854,
          -0.6215777775281622,
          0.7143712053734171,
          0.09308589742876437,
          0.06165808838492054,
          -0.12552098546074691,
          -0.0520217888394753,
          -0.3285449024522645,
          -0.025555228577461397,
          0.23614532165496294,
          0.36664119723241284,
          -0.4150345698079492,
          -0.19396416526721513,
          -0.34475641077358643,
          0.6920996067554089,
          -0.004916948899584893,
          -0.11273074281416083,
          0.03477511008239052,
          0.2116087396324315,
          0.1181191662380313,
          0.30097912531331666,
          -0.2065793741259683,
          0.2572915404661339,
          -0.07432211811311917,
          -0.3050018018774605,
          0.03787546963954533,
          0.47432373593117266,
          -0.46844284855602497,
          -0.3741797828342219,
          -0.4520828069061823,
          -0.7582608309661601,
          -0.27645484976552437,
          0.24962571021316096,
          0.17918585369987858,
          -0.09250990797259669,
          -0.07811155709540266,
          0.15512683687526568,
          -0.004265664750240303,
          -0.3035941435819441,
          -0.21372359346183956,
          0.3010318523481496,
          -0.0860284058301894,
          0.08455717686888305,
          -0.134931679858346,
          -0.08320873154583645,
          0.18272713035422136,
          0.3481014664020969,
          -0.04324440105091444,
          0.2912895103299849,
          -0.015291668531248559,
          0.46500324241488034,
          0.12403601847732408,
          -0.2695583091069115,
          0.34074440481142054,
          0.22547410408342738,
          0.16966807667568412,
          0.050903429248953004,
          -0.09487554695463814,
          -0.4492081686465982,
          0.16486879534660098,
          -0.296459417404667,
          0.07587658316270987,
          -0.23301856216161013,
          -0.19017273299880144,
          -0.3452245611948167,
          -0.2872845742804578,
          0.12996625865309974,
          -0.4970955334871597,
          -0.383738282047434,
          0.09385541284475978,
          -0.06478806146841097,
          -0.2102431416229707,
          0.030114240150180903,
          -0.349467005387303,
          -0.15325949165444683,
          -0.13624073833878736,
          0.1468280998250256,
          -0.029248651395824696,
          0.037392448288953606,
          0.1418386408371896,
          0.1675942537268405,
          -0.1709067666790829,
          -0.5176740569849413,
          0.12162712445958274,
          0.18967788775530314,
          0.15229388677645264,
          0.24295996774874395,
          -0.41938453586839736,
          0.2224426538046434,
          0.12732517044201805,
          -0.013327510723733333,
          0.42375401985741,
          -0.13132858176057038,
          0.034700555656780006,
          0.4272936727238363,
          0.32061803555591695,
          4.913579487253737e-06,
          -0.08087709353722208,
          -0.08713187924003447,
          0.32166270685818926,
          -0.1313795681583295,
          -0.01759666072339347,
          -0.06430166159778557,
          -0.02285443431664599,
          -0.0823010168754736,
          -0.06592770454750643,
          -0.30991435568015796,
          -0.4341175997455224,
          0.21336343783938128,
          0.33696490327844314,
          -0.2646149327892699,
          0.6000755178169502,
          -0.07912625305549742,
          0.2471186699414039,
          -0.18415737530325532
        ],
        [
          0.10998442748211461,
          -0.04844542032587318,
          0.0006557748995000262,
          0.01833486477649231,
          0.11332566161689794,
          0.007939094740648656,
          0.002804000968074546,
          -0.004027549694816438,
          -0.11521668129178798,
          -0.02948899062989486,
          0.0004255244828158193,
          -0.02510107248237549,
          -0.12633104082314306,
          -0.009353406444414524,
          -0.000602902739646509,
          0.010258112014050073,
          0.13559075590840092,
          -0.04524964808700416,
          -0.0006316395034982123,
          0.0013406254532352005,
          0.04915273703298938,
          -0.03426679031539669,
          0.002501385950438023,
          0.007669273019180959,
          -0.17621246181773487,
          -0.0363601343946756,
          -0.0006510146532400244,
          0.027930203042329658,
          0.0006405261653164696,
          0.04617563042939673,
          -0.00038943576666908026,
          -0.007333820137861632,
          -0.19741903951765025,
          -0.04508228648136355,
          0.0006529640955597894,
          -0.006601721772234926,
          -0.23978766999028242,
          0.014915451645128574,
          -0.0011961485217438107,
          -0.00707382183318311,
          0.17727042178658825,
          -0.022859223190167238,
          -0.0014341729978018178,
          -0.013695892026876603,
          0.07372625091958303,
          0.014645196242919049,
          -0.0008469823844732883,
          -0.032893033186753656,
          -0.08066933739468711,
          -0.05803727850714727,
          0.00043236907394649584,
          0.014879198599921376,
          -0.23930761601642406,
          0.04389689506828306,
          -6.080303756702162e-05,
          -0.020011482948500588,
          -0.014109193690059156,
          -0.016106873205348458,
          0.0003724976048694213,
          -0.025119903094615422,
          0.2672816687647492,
          0.008924931123642161,
          0.0015357858174014174,
          -0.00243976162843603,
          0.10647763894840773,
          0.01667655213626923,
          -0.002492771701333733,
          -0.010802514896862256,
          0.012909101243707335,
          -0.01210616148167819,
          -0.002616467331090818,
          -0.03289722579762126,
          0.11311992099313362,
          0.18803724844815328,
          -0.014840140825223736,
          -0.03415846664362248,
          0.14678544346427705,
          -0.15305138136065644,
          -0.12588704580671,
          0.007410887360619972,
          0.1643651810725639,
          -0.02363413744470926,
          0.1593758478150612,
          0.0008852325647321952,
          -0.014241997365291194,
          0.06529099169749787,
          0.009235241461548756,
          0.06130094857744883,
          -0.1327082377499973,
          0.14807792453608296,
          -0.16021573200056607,
          0.032457908669359874,
          -0.15040761647145845,
          0.15306742038118437,
          -0.04181757021960685,
          -0.04195763824048227,
          -0.3234026546612484,
          0.18974937029423186,
          -0.016559017070555196,
          -0.035655890546176246,
          0.2290928249473669,
          -0.15247592427069329,
          -0.033434754460060875,
          -0.0028197856680209775,
          0.10526659835633934,
          -0.3181098492412614,
          -0.07856663124716295,
          -0.007293920836254874,
          0.2821900073212931,
          -0.03071445364947377,
          0.251479737282041,
          -0.05788884110324661,
          0.07820021252712527,
          0.139254310328294,
          0.3003671793901592,
          -0.016702316385277836,
          -0.2178837893109397,
          -0.2612764219999219,
          0.1306851882121709,
          -0.03752689966517631,
          -0.424940854912203,
          -0.2961610934427804,
          -0.08447928235653762,
          -0.019215663562667285,
          -0.2327354393724523,
          -0.18310752608319095,
          -0.06599537497325295,
          -0.019175954355245717,
          -0.3919974933263879,
          -0.06255574055975796,
          0.09794775832187386,
          0.03817112633218026,
          0.0042680179197720335,
          0.3225374019387777,
          -0.18201757772196278,
          0.03647078478754983,
          -0.1365125936210782,
          0.1777424337959365,
          -0.069050772819007,
          0.030457200567676136,
          0.19034969265752916,
          -0.4840458643221453,
          0.13561221755885533,
          -0.04947086688394326,
          0.48036966661645014,
          0.024716867238328107,
          0.04680302684193088,
          0.0029063661097842495,
          0.09995506222022965,
          -0.14006483974674602,
          -0.05462731180104547,
          -0.045057580102543085,
          0.30443335991555687,
          -0.19099530309194954,
          0.15035479481387543,
          0.040926294326996626,
          -0.11855226015017681,
          0.11391833909178649,
          0.03513312235662305,
          -0.024328841096552752,
          -0.016426291226914237,
          -0.019381572810794518,
          0.14295953918753057,
          0.023320543449976864,
          -0.39972765543544025,
          -0.010548709118623129,
          -0.014003440617612732,
          -0.024295118955206158,
          -0.29964110679656203,
          -0.0797879820030992,
          0.03472141180054986,
          0.02323750744330987,
          -0.48016198630559637,
          -0.05453107198799124,
          -0.11855031145353631,
          -0.015247526038189652,
          -0.13769750577145795,
          0.24639898380900943,
          -0.1634723711398545,
          -0.07071156120303988,
          0.0732932598170877,
          0.06807597869180969,
          -0.25900411543615637,
          -0.014684506771663304,
          0.10820654138688711,
          0.24800880947854262,
          -0.14129181081783868,
          -0.05976443730684764,
          -0.37742727056087894,
          -0.18505516982506912,
          0.09506330113532636,
          -0.050522503212012106,
          0.23920648936049332,
          0.08483680111314382,
          -0.2579408446748326,
          0.035435000146530705,
          -0.21803095012934356,
          -0.018810598988474262,
          0.08409878121526683,
          0.048757268709004646,
          0.5295385324943856,
          0.4318502934003637,
          -0.16752536313710426,
          0.03284510045998765,
          0.4371814986474454,
          -0.4134457200068825,
          -0.041043717072252205,
          0.010096012614181115,
          0.44417640951637144,
          0.028790616099032964,
          0.10296868913470252,
          0.03438737077487165,
          0.14607919282310228,
          0.36443232247512186,
          -0.2130304216529322,
          0.007677774441202235,
          -0.34710877231016546,
          0.17106294018491106
        ]
      ]
    }
  ]
}
